{
    "file": "paper_393.json",
    "monomer1_s": "C=C[Si](C)(C)C",
    "monomer2_s": "C=CC#N",
    "monomer1": "vinyltrimethylsilane",
    "monomer2": "acrylonitrile",
    "r_values": {
        "constant_1": 3.85,
        "constant_2": 0.08
    },
    "conf_intervals": {
        "constant_conf_1": null,
        "constant_conf_2": null
    },
    "temperature": 70.0,
    "temperature_unit": "\u00b0C",
    "solvent": null,
    "method": "bulk",
    "r-product": null,
    "source": "https://doi.org/10.1007/BF00552360",
    "calculation_method": "Finemann-Ross",
    "polymerization_type": "free radical",
    "monomer1_data": {
        "smiles": "C=C[Si](C)(C)C",
        "ip": 13.092631824455776,
        "ip_corrected": 8.246631824455775,
        "ea": 2.8248386772006113,
        "homo": -0.38385606747685164,
        "lumo": -0.22108399586946226,
        "charges": {
            "1": -0.07800803959333315,
            "2": -0.13320545714476292,
            "3": 0.4779354728764774,
            "4": -0.20426573786269192,
            "5": -0.20285943365988307,
            "6": -0.20285942039057925,
            "7": 0.030171880366185212,
            "8": 0.025421289293148384,
            "9": 0.029289729736420217,
            "10": 0.02586207202474629,
            "11": 0.026530701139392265,
            "12": 0.026530715743178473,
            "13": 0.02939753348463589,
            "14": 0.031389905483923744,
            "15": 0.028940700829771595,
            "16": 0.029397525014403347,
            "17": 0.028940679410514737,
            "18": 0.03138988324844744
        },
        "dipole": [
            -0.07906257279380532,
            0.005181516593672483,
            -0.03922148868406266
        ],
        "global_electrophilicity": 0.47182099418990536,
        "global_nucleophilicity": -8.246631824455775,
        "fukui_electrophilicity": {
            "1": 0.09600973524588123,
            "2": 0.06431636590242171,
            "3": 0.12631050461722865,
            "4": -0.02762706211685456,
            "5": -0.026576177708556636,
            "6": -0.02657622838492718,
            "7": 0.10735156707561183,
            "8": 0.11141801973439346,
            "9": 0.07852728495804492,
            "10": 0.06812351680211823,
            "11": 0.05773562759671387,
            "12": 0.05773553946322214,
            "13": 0.04452702463915245,
            "14": 0.06000449189222584,
            "15": 0.05209410112502605,
            "16": 0.04452699009843473,
            "17": 0.052094191624514445,
            "18": 0.06000450743534353
        },
        "fukui_nucleophilicity": {
            "1": 0.015913002257891766,
            "2": 0.040899074802745516,
            "3": 0.0876935698368021,
            "4": -0.0037419197226296608,
            "5": 0.0009223835641080924,
            "6": 0.0009223028124055732,
            "7": 0.11030855147044008,
            "8": 0.08064698265937922,
            "9": 0.09045664091815982,
            "10": 0.06569048568948073,
            "11": 0.06434705043543276,
            "12": 0.0643470589118583,
            "13": 0.06331037965330485,
            "14": 0.06687694704377711,
            "15": 0.06061009530136942,
            "16": 0.06331036346593791,
            "17": 0.06061008529193409,
            "18": 0.06687694580575788
        },
        "boltzmann_weights": [
            0.24996265322479466,
            0.250037326633969,
            0.2499624110296455,
            0.25003760911159084
        ],
        "best_conformer_elements": [
            6,
            6,
            14,
            6,
            6,
            6,
            1,
            1,
            1,
            1,
            1,
            1,
            1,
            1,
            1,
            1,
            1,
            1
        ],
        "best_conformer_coordinates": [
            [
                2.5735445365055183,
                -0.1936635528517282,
                -0.1285444450252177
            ],
            [
                1.5532245663906423,
                0.615001866258521,
                0.11075151776007731
            ],
            [
                -0.2711405083982801,
                0.10063552722870626,
                0.03418853884417911
            ],
            [
                -0.6020533806753413,
                -1.2950751066440906,
                1.294430078478309
            ],
            [
                -0.6942860218055102,
                -0.5190168466566475,
                -1.7215730406186214
            ],
            [
                -1.337376882626685,
                1.6237364209878995,
                0.45870966070698443
            ],
            [
                3.602418166726125,
                0.13075747155614525,
                -0.07652945499044962
            ],
            [
                2.4259752644354986,
                -1.229132383101853,
                -0.3904843084303048
            ],
            [
                1.774242997824981,
                1.6442521283568763,
                0.36884472847268923
            ],
            [
                -0.3628966123498183,
                -0.9799370283905997,
                2.3057079939852
            ],
            [
                -0.0001890725359390972,
                -2.1716469442572017,
                1.07516964848032
            ],
            [
                -1.644106331499228,
                -1.6007865542609756,
                1.2827817980376095
            ],
            [
                -1.7383538115313728,
                -0.807776775668856,
                -1.799095146998962
            ],
            [
                -0.09383848373126914,
                -1.3836786398531131,
                -1.9871227940342289
            ],
            [
                -0.5088596979878582,
                0.24822777818249636,
                -2.4673235010358208
            ],
            [
                -2.3962434101035934,
                1.3855821590395798,
                0.42981175302233765
            ],
            [
                -1.1659684581964653,
                2.434497565728396,
                -0.24300111457762424
            ],
            [
                -1.1140928604413203,
                1.9980229143464314,
                1.4532780879234883
            ]
        ],
        "best_conformer_energy": -18.48763790140493,
        "fukui_radical": {
            "1": 0.05596154914780725,
            "2": 0.0526080061545461,
            "3": 0.10700126887375899,
            "4": -0.012826693377294196,
            "5": -0.012826876032945536,
            "6": -0.015684881383398408,
            "7": 0.10883012441572262,
            "8": 0.09603250870433266,
            "9": 0.08449192122155567,
            "10": 0.05391871892977143,
            "11": 0.05635206833264608,
            "12": 0.06344057468789037,
            "13": 0.06344061017835972,
            "14": 0.05635214234302802,
            "15": 0.053918667644163476,
            "16": 0.06690715072921267,
            "17": 0.06104151776499291,
            "18": 0.06104162176488524
        }
    },
    "monomer2_data": {
        "smiles": "C=CC#N",
        "ip": 15.437176806318503,
        "ip_corrected": 10.591176806318503,
        "ea": 3.8289813808508004,
        "homo": -0.4277683293695803,
        "lumo": -0.28211163098961317,
        "charges": {
            "1": -0.05961169012740816,
            "2": -0.01732687045759991,
            "3": 0.1182224067521214,
            "4": -0.22501464611972768,
            "5": 0.060876740653373736,
            "6": 0.056910808147125444,
            "7": 0.06594325115211837
        },
        "dipole": [
            -1.3682395954382502,
            0.4193750676404717,
            0.3073979410978311
        ],
        "global_electrophilicity": 0.9870666976349574,
        "global_nucleophilicity": -10.591176806318503,
        "fukui_electrophilicity": {
            "1": 0.11689097730490014,
            "2": 0.09589168721827514,
            "3": 0.0833043050370818,
            "4": 0.27942089987505603,
            "5": 0.1382479191580376,
            "6": 0.1483932400282401,
            "7": 0.1378509713784164
        },
        "fukui_nucleophilicity": {
            "1": 0.046376077246505845,
            "2": 0.06110797532385699,
            "3": 0.06382105585034101,
            "4": 0.3348673323308884,
            "5": 0.1560141376419441,
            "6": 0.1714270905761467,
            "7": 0.16638633108003964
        },
        "boltzmann_weights": [
            1.0
        ],
        "best_conformer_elements": [
            6,
            6,
            6,
            7,
            1,
            1,
            1
        ],
        "best_conformer_coordinates": [
            [
                -0.9016384047148559,
                -0.45919578416436035,
                -0.030680752421494126
            ],
            [
                -0.03133887486045679,
                0.4750179204570864,
                0.33412550579689987
            ],
            [
                1.3413190298728732,
                0.20293977262825588,
                0.5154865184659979
            ],
            [
                2.457902722380965,
                -0.00894504881153441,
                0.6651431422029201
            ],
            [
                -1.946002725249464,
                -0.2338337288304437,
                -0.16452309959900452
            ],
            [
                -0.5958059974068218,
                -1.4775501660291765,
                -0.20646164096824965
            ],
            [
                -0.32443575002222486,
                1.5015670294584123,
                0.5140087192113937
            ]
        ],
        "best_conformer_energy": -10.79113366694523,
        "fukui_radical": {
            "1": 0.08164051438776673,
            "2": 0.07850509074248685,
            "3": 0.07355981073640835,
            "4": 0.30714514424221057,
            "5": 0.15989706723025732,
            "6": 0.14713580820257063,
            "7": 0.152116564483423
        }
    }
}