{
    "file": "paper_596.json",
    "monomer1_s": "C=C(C)CCl",
    "monomer2_s": "O=C1C=CC(=O)O1",
    "monomer1": "Methallyl Chloride",
    "monomer2": "Maleic Anhydride",
    "r_values": {
        "constant_1": 0.6,
        "constant_2": 0.18
    },
    "conf_intervals": {
        "constant_conf_1": 0.2,
        "constant_conf_2": 0.05
    },
    "temperature": 150.0,
    "temperature_unit": "\u00b0C",
    "solvent": null,
    "method": "Bulk",
    "r-product": 0.11,
    "source": "https://doi.org/10.1021/ja01088a001",
    "calculation_method": null,
    "polymerization_type": "Radiation-Initiated",
    "monomer1_data": {
        "smiles": "C=C(C)CCl",
        "ip": 14.006094057104805,
        "ip_corrected": 9.160094057104805,
        "ea": 3.0227711254642977,
        "homo": -0.40724976238981236,
        "lumo": -0.22473362365546212,
        "charges": {
            "1": -0.10028046913259217,
            "2": 0.01983512715063672,
            "3": -0.11359915732397485,
            "4": 0.02487152837379815,
            "5": -0.21069151117363732,
            "6": 0.04174736665407192,
            "7": 0.04738899561097616,
            "8": 0.04951956733478547,
            "9": 0.06264842943794878,
            "10": 0.04938490707652658,
            "11": 0.06311008813055097,
            "12": 0.06606512786090706
        },
        "dipole": [
            -0.19215370240006666,
            -0.028809556994155255,
            0.766133011671839
        ],
        "global_electrophilicity": 0.6126286990083356,
        "global_nucleophilicity": -9.160094057104805,
        "fukui_electrophilicity": {
            "1": 0.08226569018272656,
            "2": 0.10281100411029677,
            "3": -0.04784176885393665,
            "4": -0.013663556887730854,
            "5": 0.26014320570638294,
            "6": 0.10750101509783697,
            "7": 0.11708428393974409,
            "8": 0.07316100231152331,
            "9": 0.059356754713728026,
            "10": 0.06036844202660493,
            "11": 0.0933372925445794,
            "12": 0.10547663510825021
        },
        "fukui_nucleophilicity": {
            "1": 0.062318213749329054,
            "2": 0.060728617096759585,
            "3": -0.03066470254916473,
            "4": -0.04294271967248747,
            "5": 0.33033716916054007,
            "6": 0.08601402885025844,
            "7": 0.09291215503371165,
            "8": 0.10528966322455666,
            "9": 0.08737519645106899,
            "10": 0.06936709784191598,
            "11": 0.08612402781755812,
            "12": 0.09314125299632094
        },
        "boltzmann_weights": [
            0.46541451257977545,
            0.4654159226072043,
            0.06916956481302013
        ],
        "best_conformer_elements": [
            6,
            6,
            6,
            6,
            17,
            1,
            1,
            1,
            1,
            1,
            1,
            1
        ],
        "best_conformer_coordinates": [
            [
                -1.484125875366859,
                -0.49306901129797226,
                0.08699565550010006
            ],
            [
                -0.23166010502541087,
                -0.08432213438356449,
                -0.04592179110794269
            ],
            [
                0.9048618408540475,
                -1.0038489723445765,
                -0.3662650984809428
            ],
            [
                0.14131590882162312,
                1.3520350836788229,
                0.1379126851415014
            ],
            [
                1.023913957522732,
                1.557475222294934,
                1.6929873981046415
            ],
            [
                -2.2845710573762514,
                0.1868723335831845,
                0.32391753106977206
            ],
            [
                -1.7568482833768762,
                -1.526521155494339,
                -0.03906672835497424
            ],
            [
                0.5713422274804483,
                -2.0364241549601445,
                -0.4090344844926166
            ],
            [
                1.3454801416273456,
                -0.7356576607820632,
                -1.3262941238116621
            ],
            [
                1.680525030797876,
                -0.9127490813809407,
                0.3925222748154232
            ],
            [
                -0.7327016336518274,
                1.999066793735985,
                0.19224191700128895
            ],
            [
                0.8224678476931833,
                1.6971427373507464,
                -0.6399952353845846
            ]
        ],
        "best_conformer_energy": -16.65480519447507,
        "fukui_radical": {
            "1": 0.0722918597670773,
            "2": 0.08176976274689203,
            "3": -0.03925314778987185,
            "4": -0.028303046116624604,
            "5": 0.29524014890716704,
            "6": 0.09675752908828972,
            "7": 0.10499825253583231,
            "8": 0.06486774243619915,
            "9": 0.0892253711691495,
            "10": 0.07336594119201406,
            "11": 0.08973061113636058,
            "12": 0.09930897492790958
        }
    },
    "monomer2_data": {
        "smiles": "O=C1C=CC(=O)O1",
        "ip": 15.900878027101923,
        "ip_corrected": 11.054878027101923,
        "ea": 6.460014475622868,
        "homo": -0.46238439929177266,
        "lumo": -0.36195466582110164,
        "charges": {
            "1": -0.2941881850292992,
            "2": 0.36186259667080867,
            "3": -0.04882117032060509,
            "4": -0.048821663932855815,
            "5": 0.3618625986892957,
            "6": -0.29418799581870747,
            "7": -0.2361013463873719,
            "8": 0.0991976641904159,
            "9": 0.09919750193830755
        },
        "dipole": [
            0.02252629972930212,
            1.6095495729881135,
            0.03503157808557637
        ],
        "global_electrophilicity": 2.1250815188994485,
        "global_nucleophilicity": -11.054878027101923,
        "fukui_electrophilicity": {
            "1": 0.20684180079229175,
            "2": 0.05554706628341721,
            "3": 0.07772392122146196,
            "4": 0.07772348160390369,
            "5": 0.055547109381013204,
            "6": 0.2068417997294305,
            "7": 0.09352041805136502,
            "8": 0.11312719556494338,
            "9": 0.11312720737216109
        },
        "fukui_nucleophilicity": {
            "1": 0.24406057875471876,
            "2": 0.03203358320566174,
            "3": 0.048203335562302226,
            "4": 0.048204167711183986,
            "5": 0.03203341222674566,
            "6": 0.24406026138272296,
            "7": 0.11633670520252432,
            "8": 0.11753386857050649,
            "9": 0.11753408759019536
        },
        "boltzmann_weights": [
            1.0
        ],
        "best_conformer_elements": [
            8,
            6,
            6,
            6,
            6,
            8,
            8,
            1,
            1
        ],
        "best_conformer_coordinates": [
            [
                -2.204573649227907,
                -1.115321055707451,
                -0.002298100950483874
            ],
            [
                -1.1093351090393155,
                -0.6532542001429931,
                -0.00048067934597688074
            ],
            [
                -0.6821986468566222,
                0.7759545772718469,
                -0.008942359574604814
            ],
            [
                0.6467155929828198,
                0.8057975343361282,
                -0.0028399914941270982
            ],
            [
                1.137513916088871,
                -0.6027871884116063,
                0.00983683780653634
            ],
            [
                2.2523614973703174,
                -1.0152209131010461,
                0.018168288871179734
            ],
            [
                0.03174611737968137,
                -1.4153007027606417,
                0.0105424647339251
            ],
            [
                -1.3932605337205264,
                1.5795851881535365,
                -0.018225205507185604
            ],
            [
                1.3210308203144236,
                1.6405467550704305,
                -0.005761259831016097
            ]
        ],
        "best_conformer_energy": -21.756575519080812,
        "fukui_radical": {
            "1": 0.22544662819838956,
            "2": 0.04379257545312501,
            "3": 0.06296487536424719,
            "4": 0.06296497760586295,
            "5": 0.04379297948953842,
            "6": 0.22544579064573986,
            "7": 0.10492885010999314,
            "8": 0.11533111453334595,
            "9": 0.11533220870276614
        }
    }
}