{
    "file": "paper_239.json",
    "monomer1_s": "C=COCC",
    "monomer2_s": "C=CC#N",
    "monomer1": "Ethyl Vinyl Ether",
    "monomer2": "Acrylonitrile",
    "r_values": {
        "constant_1": 0.03,
        "constant_2": 0.7
    },
    "conf_intervals": {
        "constant_conf_1": 0.02,
        "constant_conf_2": 0.25
    },
    "temperature": 60.0,
    "temperature_unit": "\u00b0C",
    "solvent": "CN(C)C=O",
    "method": "solvent",
    "r-product": null,
    "source": "https://doi.org/10.1002/pol.1955.120168201",
    "calculation_method": "intersection method",
    "polymerization_type": "free radical",
    "logP": -0.2956000000000001,
    "monomer1_data": {
        "smiles": "C=COCC",
        "ip": 13.742557982828957,
        "ip_corrected": 8.896557982828957,
        "ea": 0.9145307157213795,
        "homo": -0.37788168745774087,
        "lumo": -0.18579484334450466,
        "charges": {
            "1": -0.14296442434366408,
            "2": 0.10039575060176434,
            "3": -0.2657204866474109,
            "4": 0.085050219408192,
            "5": -0.11314408943865062,
            "6": 0.0360913774898244,
            "7": 0.036745806898728826,
            "8": 0.04583349596928588,
            "9": 0.03051014972196421,
            "10": 0.030510147237762117,
            "11": 0.04547546579155813,
            "12": 0.05560828528326049,
            "13": 0.05560830202738663
        },
        "dipole": [
            -0.14708452336402394,
            0.2851272522003326,
            -0.3156545285757571
        ],
        "global_electrophilicity": 0.24021723363188993,
        "global_nucleophilicity": -8.896557982828957,
        "fukui_electrophilicity": {
            "1": 0.12382928094998108,
            "2": 0.16005006972427824,
            "3": 0.1094850413864134,
            "4": -0.02735885691279591,
            "5": -0.015752307523987416,
            "6": 0.1576736847419818,
            "7": 0.16033044824162745,
            "8": 0.15921352117469076,
            "9": 0.03646842389689134,
            "10": 0.03646843615659669,
            "11": 0.042102789405886375,
            "12": 0.028744737467927935,
            "13": 0.0287447312905155
        },
        "fukui_nucleophilicity": {
            "1": 0.09083727286960255,
            "2": 0.03297555012651593,
            "3": 0.17087366732340464,
            "4": -0.030949325739255372,
            "5": -0.022761721413045694,
            "6": 0.09069459808130399,
            "7": 0.1140700852353993,
            "8": 0.09880143508945469,
            "9": 0.11736964036487584,
            "10": 0.11736966576363302,
            "11": 0.06280462395076206,
            "12": 0.07895727411484961,
            "13": 0.07895723423275817
        },
        "boltzmann_weights": [
            0.8700823388237107,
            0.02305098322750558,
            0.10686667794878381
        ],
        "best_conformer_elements": [
            6,
            6,
            8,
            6,
            6,
            1,
            1,
            1,
            1,
            1,
            1,
            1,
            1
        ],
        "best_conformer_coordinates": [
            [
                -1.7232660298545417,
                0.36787452082662936,
                -0.6749469716509876
            ],
            [
                -1.0563339701004628,
                1.153269565928566,
                0.15629391349476537
            ],
            [
                0.01575036761457492,
                0.8781549805803425,
                0.933561287765558
            ],
            [
                0.5833137289534472,
                -0.4165765460133209,
                0.8784007574872081
            ],
            [
                1.4843591313205968,
                -0.610866791272982,
                -0.3376154730539256
            ],
            [
                -2.5747754447377615,
                0.7528332328261574,
                -1.2032317537051953
            ],
            [
                -1.4704852540873727,
                -0.6602894039677715,
                -0.8608844058801471
            ],
            [
                -1.348127016679388,
                2.1840948819787105,
                0.3127054864941212
            ],
            [
                -0.20677112297934153,
                -1.1770574122127018,
                0.9007675873352432
            ],
            [
                1.1734423346252936,
                -0.5006677448547321,
                1.7955335628061095
            ],
            [
                1.9280999227477071,
                -1.6023530623333713,
                -0.3108565910669121
            ],
            [
                2.277555001253421,
                0.1324540319878039,
                -0.3314923486783713
            ],
            [
                0.9172383466319962,
                -0.5008702587651461,
                -1.2582350460556686
            ]
        ],
        "best_conformer_energy": -16.673378294656487,
        "fukui_radical": {
            "1": 0.11307015019308145,
            "2": 0.10136533886103141,
            "3": 0.1488289613054298,
            "4": -0.025477901641937244,
            "5": -0.011462878117299104,
            "6": 0.14103753241875483,
            "7": 0.1298192096024525,
            "8": 0.1322376969126227,
            "9": 0.050080843399196634,
            "10": 0.08439773672102428,
            "11": 0.06192289505673873,
            "12": 0.04673857538139515,
            "13": 0.027441839907486453
        }
    },
    "monomer2_data": {
        "smiles": "C=CC#N",
        "ip": 15.437176806318503,
        "ip_corrected": 10.591176806318503,
        "ea": 3.8289813808508004,
        "homo": -0.4277683293695803,
        "lumo": -0.28211163098961317,
        "charges": {
            "1": -0.05961169012740816,
            "2": -0.01732687045759991,
            "3": 0.1182224067521214,
            "4": -0.22501464611972768,
            "5": 0.060876740653373736,
            "6": 0.056910808147125444,
            "7": 0.06594325115211837
        },
        "dipole": [
            -1.3682395954382502,
            0.4193750676404717,
            0.3073979410978311
        ],
        "global_electrophilicity": 0.9870666976349574,
        "global_nucleophilicity": -10.591176806318503,
        "fukui_electrophilicity": {
            "1": 0.11689097730490014,
            "2": 0.09589168721827514,
            "3": 0.0833043050370818,
            "4": 0.27942089987505603,
            "5": 0.1382479191580376,
            "6": 0.1483932400282401,
            "7": 0.1378509713784164
        },
        "fukui_nucleophilicity": {
            "1": 0.046376077246505845,
            "2": 0.06110797532385699,
            "3": 0.06382105585034101,
            "4": 0.3348673323308884,
            "5": 0.1560141376419441,
            "6": 0.1714270905761467,
            "7": 0.16638633108003964
        },
        "boltzmann_weights": [
            1.0
        ],
        "best_conformer_elements": [
            6,
            6,
            6,
            7,
            1,
            1,
            1
        ],
        "best_conformer_coordinates": [
            [
                -0.9016384047148559,
                -0.45919578416436035,
                -0.030680752421494126
            ],
            [
                -0.03133887486045679,
                0.4750179204570864,
                0.33412550579689987
            ],
            [
                1.3413190298728732,
                0.20293977262825588,
                0.5154865184659979
            ],
            [
                2.457902722380965,
                -0.00894504881153441,
                0.6651431422029201
            ],
            [
                -1.946002725249464,
                -0.2338337288304437,
                -0.16452309959900452
            ],
            [
                -0.5958059974068218,
                -1.4775501660291765,
                -0.20646164096824965
            ],
            [
                -0.32443575002222486,
                1.5015670294584123,
                0.5140087192113937
            ]
        ],
        "best_conformer_energy": -10.79113366694523,
        "fukui_radical": {
            "1": 0.08164051438776673,
            "2": 0.07850509074248685,
            "3": 0.07355981073640835,
            "4": 0.30714514424221057,
            "5": 0.15989706723025732,
            "6": 0.14713580820257063,
            "7": 0.152116564483423
        }
    }
}