{
    "file": "paper_606.json",
    "monomer1_s": "C=CC(=O)COC(C)=O",
    "monomer2_s": "C=Cc1ccccc1",
    "monomer1": "acetoxymethyl vinyl ketone",
    "monomer2": "styrene",
    "r_values": {
        "constant_1": 0.103,
        "constant_2": 0.368
    },
    "conf_intervals": {
        "constant_conf_1": 0.011,
        "constant_conf_2": 0.018
    },
    "temperature": 50.0,
    "temperature_unit": "\u00b0C",
    "solvent": "CCC(C)=O",
    "method": "solvent",
    "r-product": null,
    "source": "https://doi.org/10.1002/macp.1984.021250111",
    "calculation_method": "Kelen-Tudor",
    "polymerization_type": "free radical",
    "logP": 0.9854,
    "monomer1_data": {
        "smiles": "C=CC(=O)COC(C)=O",
        "ip": 14.10997469481522,
        "ip_corrected": 9.26397469481522,
        "ea": 4.909017100011378,
        "homo": -0.4099305543414355,
        "lumo": -0.3003486249897703,
        "charges": {
            "1": -0.052686005852527515,
            "2": -0.04562780913598091,
            "3": 0.23199926799729342,
            "4": -0.34212771930680114,
            "5": 0.04696528719503089,
            "6": -0.2614493547168,
            "7": 0.3626127642262667,
            "8": -0.1481790858089586,
            "9": -0.4079807833900475,
            "10": 0.0646725032714324,
            "11": 0.0817533454106924,
            "12": 0.05838199283183958,
            "13": 0.0800153039839781,
            "14": 0.08942354056549498,
            "15": 0.08112687041250814,
            "16": 0.07539701378822852,
            "17": 0.08570286852835818
        },
        "dipole": [
            0.7026486545043706,
            -0.7575937916737358,
            -0.6460148087225863
        ],
        "global_electrophilicity": 1.1818440505297385,
        "global_nucleophilicity": -9.26397469481522,
        "fukui_electrophilicity": {
            "1": 0.07470822270672099,
            "2": 0.03976556988466887,
            "3": 0.07730979095500182,
            "4": 0.17942255802271528,
            "5": -0.01910529577031088,
            "6": 0.041870285112646344,
            "7": 0.036111854453640124,
            "8": -0.019582705719723786,
            "9": 0.08023794812884166,
            "10": 0.10299454540243805,
            "11": 0.0867502008242463,
            "12": 0.0783899938100789,
            "13": 0.061320895419623045,
            "14": 0.0612569542375533,
            "15": 0.039094898581152074,
            "16": 0.03007783629165188,
            "17": 0.0493764476590716
        },
        "fukui_nucleophilicity": {
            "1": 0.027300607639012445,
            "2": 0.025924470266726174,
            "3": 0.035049436328300265,
            "4": 0.18834494090779208,
            "5": 0.0091684283898575,
            "6": 0.06919793486843628,
            "7": 0.010928921413184689,
            "8": -0.0042379409827345005,
            "9": 0.12364435203267898,
            "10": 0.09664948401769852,
            "11": 0.06360926861962624,
            "12": 0.06073653348278876,
            "13": 0.07430209355195946,
            "14": 0.06076683781386344,
            "15": 0.05028253225270919,
            "16": 0.04890474001174748,
            "17": 0.05942735939248714
        },
        "boltzmann_weights": [
            0.15726125193155782,
            0.15726124753025686,
            0.05443362339299842,
            0.05443287533842718,
            0.0014003190000987495,
            0.00610281971901782,
            0.15726125176587294,
            0.15726116729559111,
            0.15035573192995225,
            0.054606723792040825,
            0.049615399698943984,
            7.588605241819266e-06
        ],
        "best_conformer_elements": [
            6,
            6,
            6,
            8,
            6,
            8,
            6,
            6,
            8,
            1,
            1,
            1,
            1,
            1,
            1,
            1,
            1
        ],
        "best_conformer_coordinates": [
            [
                3.411560953864088,
                0.02639767101357489,
                -0.3630001571435963
            ],
            [
                2.337229155256408,
                -0.6822807240954283,
                -0.03823465781629064
            ],
            [
                1.0442344814288849,
                -0.022915289700587788,
                0.23281657475810796
            ],
            [
                0.8763347414645976,
                1.1701874136098929,
                0.23434690778661815
            ],
            [
                -0.09717216911768123,
                -0.9988510013274146,
                0.5200165451745009
            ],
            [
                -1.320295408181384,
                -0.3102203455492754,
                0.6888564191586586
            ],
            [
                -1.852967888344833,
                0.20859985208506365,
                -0.43313444193161066
            ],
            [
                -3.0381618160070185,
                1.0725419784992796,
                -0.11137449342158177
            ],
            [
                -1.4231959510048833,
                -0.018855155123195574,
                -1.5315432861138654
            ],
            [
                4.364819685062245,
                -0.42777381213595483,
                -0.5726301616206564
            ],
            [
                3.3478148952446216,
                1.1007583583321137,
                -0.4290803592423139
            ],
            [
                2.359839189972887,
                -1.7601375712153444,
                0.031566743846762696
            ],
            [
                0.09234111520274665,
                -1.5329833948414642,
                1.4537842711751465
            ],
            [
                -0.17170985093328955,
                -1.7105953048043643,
                -0.3118347832687935
            ],
            [
                -3.70219823262649,
                1.1232586618883298,
                -0.9687892703249875
            ],
            [
                -3.55625511737998,
                0.6896200712519907,
                0.7624172221263867
            ],
            [
                -2.6722177839015435,
                2.0732485868211628,
                0.11155570605708831
            ]
        ],
        "best_conformer_energy": -29.085118713023604,
        "fukui_radical": {
            "1": 0.05374050522945666,
            "2": 0.034691193486567615,
            "3": 0.05464694085654803,
            "4": 0.1625743575421041,
            "5": -0.009096581377933618,
            "6": 0.0578536031619403,
            "7": 0.020419778617901008,
            "8": -0.009773821584028258,
            "9": 0.0988037819381476,
            "10": 0.1021019827603127,
            "11": 0.07379242242337024,
            "12": 0.08268638533503807,
            "13": 0.07528611846418853,
            "14": 0.061399265073559126,
            "15": 0.04646355317123617,
            "16": 0.04993042694755792,
            "17": 0.04448008797638878
        }
    },
    "monomer2_data": {
        "smiles": "C=Cc1ccccc1",
        "ip": 13.323305315341791,
        "ip_corrected": 8.477305315341791,
        "ea": 3.959877946938991,
        "homo": -0.3831985290395731,
        "lumo": -0.2501966690470822,
        "charges": {
            "1": -0.08578934436600626,
            "2": -0.030259830597504936,
            "3": 0.01460321229207634,
            "4": -0.032430750206366904,
            "5": -0.029945437580900583,
            "6": -0.030379977266510892,
            "7": -0.029893803249294533,
            "8": -0.033985609164289644,
            "9": 0.038721208943534896,
            "10": 0.036165150785770366,
            "11": 0.033044651543264955,
            "12": 0.03404524115950842,
            "13": 0.028965873902585763,
            "14": 0.02897855112451052,
            "15": 0.028735857233840652,
            "16": 0.029425005445779806
        },
        "dipole": [
            -0.00599695759505601,
            0.00019607223034193996,
            -0.0018463290012354543
        ],
        "global_electrophilicity": 0.7692971421446727,
        "global_nucleophilicity": -8.477305315341791,
        "fukui_electrophilicity": {
            "1": 0.07209309972414436,
            "2": 0.04352510810351072,
            "3": 0.06230438364782903,
            "4": 0.03213425829454332,
            "5": 0.026312904098299825,
            "6": 0.06792045239213465,
            "7": 0.02876303434297292,
            "8": 0.03213381752054322,
            "9": 0.08376002497375698,
            "10": 0.09874578293688194,
            "11": 0.08145474392689236,
            "12": 0.06271242240018035,
            "13": 0.07540055911977092,
            "14": 0.08585900759002232,
            "15": 0.07693189708388407,
            "16": 0.06994850384463236
        },
        "fukui_nucleophilicity": {
            "1": 0.07260243947817689,
            "2": 0.04230113696056051,
            "3": 0.06268064465096645,
            "4": 0.03400845310298767,
            "5": 0.03110749772289005,
            "6": 0.07019025477516763,
            "7": 0.03211552237109847,
            "8": 0.03545308497970195,
            "9": 0.07943182497266889,
            "10": 0.09534951030583766,
            "11": 0.07725609403564751,
            "12": 0.06257820938745395,
            "13": 0.07457311950887512,
            "14": 0.0843599501650384,
            "15": 0.07603725882191792,
            "16": 0.06995499876126071
        },
        "boltzmann_weights": [
            0.500000013411314,
            0.499999986588686
        ],
        "best_conformer_elements": [
            6,
            6,
            6,
            6,
            6,
            6,
            6,
            6,
            1,
            1,
            1,
            1,
            1,
            1,
            1,
            1
        ],
        "best_conformer_coordinates": [
            [
                -2.7996504883392213,
                0.5067268078443541,
                -0.3307757375296494
            ],
            [
                -1.8569195165461714,
                -0.42690007797501867,
                -0.28622356006066363
            ],
            [
                -0.41676751008175084,
                -0.2137695987077826,
                -0.201669273122216
            ],
            [
                0.42662331397264364,
                -1.3257786864929022,
                -0.16462382115517377
            ],
            [
                1.7979836205106778,
                -1.1786700332337077,
                -0.08467855669649194
            ],
            [
                2.3586778805752897,
                0.08669579947474147,
                -0.03984625155398522
            ],
            [
                1.535500161801921,
                1.2006125291369882,
                -0.07571377159817176
            ],
            [
                0.16438284527030772,
                1.054224105562994,
                -0.15563770481452763
            ],
            [
                -2.5807350472122574,
                1.5604467593574072,
                -0.30764549962305027
            ],
            [
                -3.84233837136736,
                0.2458441308630186,
                -0.39306838601271116
            ],
            [
                -2.1533557273489103,
                -1.4689784286781729,
                -0.3136745326715254
            ],
            [
                -0.004100778556855408,
                -2.317010607449955,
                -0.1992554256323922
            ],
            [
                2.432537807928637,
                -2.052797839845991,
                -0.05718467471006832
            ],
            [
                3.4304258000072263,
                0.20491108070838962,
                0.022664187100062603
            ],
            [
                1.9676045890247913,
                2.190467602677497,
                -0.04101419015886248
            ],
            [
                -0.4598685796390594,
                1.9339764620498727,
                -0.18248094282351895
            ]
        ],
        "best_conformer_energy": -21.158608850502983,
        "fukui_radical": {
            "1": 0.07234813599322018,
            "2": 0.04291309873393513,
            "3": 0.06249235896699714,
            "4": 0.03379355109266154,
            "5": 0.03043928194186729,
            "6": 0.06905534188080434,
            "7": 0.028710059427083993,
            "8": 0.03307125813746206,
            "9": 0.08159578301382218,
            "10": 0.09704772989059883,
            "11": 0.07935561247948747,
            "12": 0.06995185022654472,
            "13": 0.0764846271348809,
            "14": 0.0851094403734144,
            "15": 0.07498679088705272,
            "16": 0.06264507982020588
        }
    }
}