{
    "file": "paper_100.json",
    "monomer1_s": "C=C(Cl)Cl",
    "monomer2_s": "O=C1C=CC(=O)N1",
    "monomer1": "vinylidene chloride",
    "monomer2": "maleimide",
    "r_values": {
        "constant_1": 0.71,
        "constant_2": 0.48
    },
    "conf_intervals": {
        "constant_conf_1": null,
        "constant_conf_2": null
    },
    "temperature": 75.0,
    "temperature_unit": "\u00b0C",
    "solvent": "O=C1CCCCC1",
    "method": "solvent",
    "r-product": null,
    "source": "https://doi.org/10.1002/pol.1964.120020112",
    "calculation_method": "fundamental equation of copolymerisation",
    "polymerization_type": "free radical",
    "logP": 1.5196,
    "monomer1_data": {
        "smiles": "C=C(Cl)Cl",
        "ip": 14.545826670036444,
        "ip_corrected": 9.699826670036444,
        "ea": 3.125435773848216,
        "homo": -0.4169969443366817,
        "lumo": -0.24983940943712082,
        "charges": {
            "1": -0.11675257770186528,
            "2": 0.17076445467177065,
            "3": -0.11765574089474207,
            "4": -0.11784955359398736,
            "5": 0.09075124404740334,
            "6": 0.09074217347140139
        },
        "dipole": [
            -0.5522055551960544,
            -0.056955529199193035,
            0.1105385502544702
        ],
        "global_electrophilicity": 0.6968744516621451,
        "global_nucleophilicity": -9.699826670036444,
        "fukui_electrophilicity": {
            "1": 0.11977765816987376,
            "2": 0.10055574869485487,
            "3": 0.23977157488083534,
            "4": 0.23975018173987045,
            "5": 0.1500758774170347,
            "6": 0.15006895909751944
        },
        "fukui_nucleophilicity": {
            "1": 0.09085708277069589,
            "2": 0.014334766795091713,
            "3": 0.33451930573195604,
            "4": 0.33459517393105725,
            "5": 0.11284510846996021,
            "6": 0.11284856230124969
        },
        "boltzmann_weights": [
            1.0
        ],
        "best_conformer_elements": [
            6,
            6,
            17,
            17,
            1,
            1
        ],
        "best_conformer_coordinates": [
            [
                -0.7827949170738707,
                -0.08180892723677569,
                0.055122835996198855
            ],
            [
                0.527311518924798,
                0.055011227185247376,
                -0.03711912001987348
            ],
            [
                1.6197686670599762,
                -1.2682315122157641,
                0.0791441924504079
            ],
            [
                1.2972979552970054,
                1.5731347807024703,
                -0.284564074072238
            ],
            [
                -1.2277110534340032,
                -1.0474466535922802,
                0.20998758999503517
            ],
            [
                -1.4338721654821402,
                0.7693410851570951,
                -0.022571419057756812
            ]
        ],
        "best_conformer_energy": -14.36970540646129,
        "fukui_radical": {
            "1": 0.1053162211630245,
            "2": 0.05744479891926864,
            "3": 0.2871521829636079,
            "4": 0.2871678237738007,
            "5": 0.13145879623421866,
            "6": 0.13146017694605439
        }
    },
    "monomer2_data": {
        "smiles": "O=C1C=CC(=O)N1",
        "ip": 15.047040638683567,
        "ip_corrected": 10.201040638683567,
        "ea": 5.934733461963486,
        "homo": -0.4330420164388482,
        "lumo": -0.3404140743808057,
        "charges": {
            "1": -0.344227572547082,
            "2": 0.29234472821028373,
            "3": -0.04836879482546047,
            "4": -0.048367471096118185,
            "5": 0.2923447008213634,
            "6": -0.34422765671109723,
            "7": -0.1808514475000751,
            "8": 0.0871025976870925,
            "9": 0.08710286961580571,
            "10": 0.2071480463452933
        },
        "dipole": [
            0.0008513337660791877,
            -0.5827704146684206,
            -0.012106581277840067
        ],
        "global_electrophilicity": 1.7484457664200344,
        "global_nucleophilicity": -10.201040638683567,
        "fukui_electrophilicity": {
            "1": 0.19609614100384903,
            "2": 0.0571062297706576,
            "3": 0.07578330618921764,
            "4": 0.07578449131510429,
            "5": 0.05710617371919954,
            "6": 0.19609620605101163,
            "7": 0.052217593085887665,
            "8": 0.10904890242799113,
            "9": 0.10904887637744289,
            "10": 0.0717120800596508
        },
        "fukui_nucleophilicity": {
            "1": 0.23323014169735873,
            "2": 0.03277079663658139,
            "3": 0.045753755210566,
            "4": 0.045751324091292934,
            "5": 0.032771079208819665,
            "6": 0.23323076463829995,
            "7": 0.08311965397089727,
            "8": 0.11340017150718076,
            "9": 0.11339991332155219,
            "10": 0.06657239971713677
        },
        "boltzmann_weights": [
            1.0
        ],
        "best_conformer_elements": [
            8,
            6,
            6,
            6,
            6,
            8,
            7,
            1,
            1,
            1
        ],
        "best_conformer_coordinates": [
            [
                2.268242574998144,
                0.8244435537985789,
                -0.13215784448732923
            ],
            [
                1.1361217632302247,
                0.42885966349328886,
                -0.0881557914003614
            ],
            [
                -0.13604782190499864,
                1.2093131464521703,
                -0.022716619665525902
            ],
            [
                -1.1607306330977936,
                0.3620784234165634,
                0.010722437304364531
            ],
            [
                -0.6352628068275382,
                -1.0357780604990128,
                -0.030349309881952988
            ],
            [
                -1.2371352037341161,
                -2.07390733036123,
                -0.01776495670394469
            ],
            [
                0.7399588109322721,
                -0.8966578025241171,
                -0.08825742217240741
            ],
            [
                -0.14412683926683348,
                2.2831123155657003,
                -0.008345641795077612
            ],
            [
                -2.2126701554403496,
                0.572779106163044,
                0.05915821209358255
            ],
            [
                1.3816503164027492,
                -1.6742430260885321,
                -0.1262781322845045
            ]
        ],
        "best_conformer_energy": -21.135610049961148,
        "fukui_radical": {
            "1": 0.2146629621020054,
            "2": 0.04493856452910641,
            "3": 0.06076848523358496,
            "4": 0.06076809472308561,
            "5": 0.04493852813295969,
            "6": 0.21466353727178195,
            "7": 0.06766866372633017,
            "8": 0.11122473725546439,
            "9": 0.11122413667264493,
            "10": 0.06914229035292405
        }
    }
}