{
    "file": "paper_198.json",
    "monomer1_s": "C=COC(C)=O",
    "monomer2_s": "C=CC(=O)C(C)(C)C",
    "monomer1": "Vinyl Acetate",
    "monomer2": "t-Butyl Vinyl Ketone",
    "r_values": {
        "constant_1": 0.15,
        "constant_2": 7.0
    },
    "conf_intervals": {
        "constant_conf_1": null,
        "constant_conf_2": null
    },
    "temperature": 60.0,
    "temperature_unit": "\u00b0C",
    "solvent": "c1ccccc1",
    "method": "solvent",
    "r-product": null,
    "source": "https://doi.org/10.1002/macp.1977.021891010",
    "calculation_method": null,
    "polymerization_type": "free radical",
    "logP": 1.6866,
    "monomer1_data": {
        "smiles": "C=COC(C)=O",
        "ip": 14.601504628221,
        "ip_corrected": 9.755504628221,
        "ea": 3.490615368816575,
        "homo": -0.4145390017965533,
        "lumo": -0.25140710840020714,
        "charges": {
            "1": -0.1113144265465606,
            "2": 0.10275648997074144,
            "3": -0.23854567980417674,
            "4": 0.36051791203275774,
            "5": -0.14792469300456296,
            "6": -0.3941835952860412,
            "7": 0.0672027324062841,
            "8": 0.061754928475895525,
            "9": 0.06259426290396605,
            "10": 0.0798657892235391,
            "11": 0.07986554111784669,
            "12": 0.07741073851030468
        },
        "dipole": [
            -0.05662756234607951,
            0.8569322894357296,
            0.3032221954910163
        ],
        "global_electrophilicity": 0.7938385299010362,
        "global_nucleophilicity": -9.755504628221,
        "fukui_electrophilicity": {
            "1": 0.08578275154992779,
            "2": 0.05012042592149622,
            "3": 0.08548542688035027,
            "4": 0.1077747470395175,
            "5": -0.03566661197540642,
            "6": 0.1945451708476108,
            "7": 0.10129460191247838,
            "8": 0.10886613014224744,
            "9": 0.08002416146027588,
            "10": 0.07769818359128527,
            "11": 0.07769768191324698,
            "12": 0.06637733071696028
        },
        "fukui_nucleophilicity": {
            "1": 0.08397544139564725,
            "2": 0.05141341223033291,
            "3": 0.1192110587495277,
            "4": 0.020656009635123818,
            "5": 0.0005916960941607929,
            "6": 0.19418607171709723,
            "7": 0.10376364413597791,
            "8": 0.11328100818473896,
            "9": 0.08001761147510311,
            "10": 0.08274267589853532,
            "11": 0.08274260610176629,
            "12": 0.06741876460304048
        },
        "boltzmann_weights": [
            0.8944295654127825,
            0.10557043458721739
        ],
        "best_conformer_elements": [
            6,
            6,
            8,
            6,
            6,
            8,
            1,
            1,
            1,
            1,
            1,
            1
        ],
        "best_conformer_coordinates": [
            [
                -2.437324228179656,
                0.3937548641510361,
                0.7661558261260201
            ],
            [
                -1.419191674043415,
                0.15504350740379952,
                -0.03816350317343079
            ],
            [
                -0.13699470142679498,
                0.054584682291651455,
                0.4494470065971148
            ],
            [
                0.8676324074492782,
                -0.1906823427582238,
                -0.417050161203271
            ],
            [
                2.1783763205131863,
                -0.2621161673275299,
                0.3157577022447546
            ],
            [
                0.7153681453467421,
                -0.3287492440260778,
                -1.5993730034685176
            ],
            [
                -3.434625797340854,
                0.47063688603689013,
                0.37747406080027257
            ],
            [
                -2.298308572482812,
                0.5171088664124686,
                1.8253979062734973
            ],
            [
                -1.5051742223637885,
                0.023233201377353147,
                -1.1094807066069712
            ],
            [
                2.9803502386050886,
                -0.4595729552317396,
                -0.3883925357283291
            ],
            [
                2.3566758152573186,
                0.6789522285520536,
                0.8306132330041143
            ],
            [
                2.133216268665729,
                -1.0521935268816693,
                1.0615558584970322
            ]
        ],
        "best_conformer_energy": -19.732766794333997,
        "fukui_radical": {
            "1": 0.08487933457318195,
            "2": 0.05076628160926413,
            "3": 0.10235031259099811,
            "4": 0.06421611335671049,
            "5": -0.01753875511643964,
            "6": 0.1943629934637996,
            "7": 0.1110728645776535,
            "8": 0.10253149006745386,
            "9": 0.08002125775720795,
            "10": 0.06689794903707227,
            "11": 0.080220216853419,
            "12": 0.0802199413401228
        }
    },
    "monomer2_data": {
        "smiles": "C=CC(=O)C(C)(C)C",
        "ip": 13.504174338591957,
        "ip_corrected": 8.658174338591957,
        "ea": 4.239986535181476,
        "homo": -0.38560050181296746,
        "lumo": -0.28186453509605053,
        "charges": {
            "1": -0.05774393761549883,
            "2": -0.051864179175074965,
            "3": 0.22999709412689695,
            "4": -0.3587387665108733,
            "5": 0.00678242228632997,
            "6": -0.10615707941210625,
            "7": -0.10615710760139174,
            "8": -0.1053076962098757,
            "9": 0.07521232775969712,
            "10": 0.05259862390490284,
            "11": 0.046032130930856924,
            "12": 0.03727593456723861,
            "13": 0.04630412381786433,
            "14": 0.03891113677653352,
            "15": 0.03727599708076291,
            "16": 0.038910984997582505,
            "17": 0.04630412248227743,
            "18": 0.03510485452228484,
            "19": 0.047629644135147454,
            "20": 0.04762936913644443
        },
        "dipole": [
            -0.2428368157980205,
            -0.0722074998290866,
            -1.1357473236378715
        ],
        "global_electrophilicity": 0.8748378178556947,
        "global_nucleophilicity": -8.658174338591957,
        "fukui_electrophilicity": {
            "1": 0.09117423595249104,
            "2": 0.05412658580192027,
            "3": 0.09684963505929126,
            "4": 0.20605099030036428,
            "5": 0.0074241808457272546,
            "6": -0.018862769934409634,
            "7": -0.018862828796640807,
            "8": -0.025603569856643443,
            "9": 0.10129673710523063,
            "10": 0.1225228104135436,
            "11": 0.10919825326240576,
            "12": 0.018360445819834193,
            "13": 0.05158424713729951,
            "14": 0.022697483427944767,
            "15": 0.018360642969398763,
            "16": 0.022697310789474772,
            "17": 0.05158418780797774,
            "18": 0.047600749451590894,
            "19": 0.02090023542882583,
            "20": 0.02090043701438643
        },
        "fukui_nucleophilicity": {
            "1": 0.028123405010809913,
            "2": 0.027879552538751032,
            "3": 0.04461527000831894,
            "4": 0.19261708573642292,
            "5": 0.04347447467724315,
            "6": -0.02328080761482379,
            "7": -0.02328090099508262,
            "8": -0.019269957650093955,
            "9": 0.058272156807607514,
            "10": 0.09836227168005701,
            "11": 0.06980591795060431,
            "12": 0.04776450668002082,
            "13": 0.08379213682531739,
            "14": 0.046481039749913036,
            "15": 0.04776450852872457,
            "16": 0.04648117039991235,
            "17": 0.08379225600943095,
            "18": 0.07018463598139435,
            "19": 0.03821052633551813,
            "20": 0.038210751344315036
        },
        "boltzmann_weights": [
            0.1996537456894094,
            0.199653740245149,
            0.19965486132194066,
            0.19965374201808322,
            0.19965485128452257,
            0.0005763535988966824,
            0.0005763535342032831,
            0.0005763523077951223
        ],
        "best_conformer_elements": [
            6,
            6,
            6,
            8,
            6,
            6,
            6,
            6,
            1,
            1,
            1,
            1,
            1,
            1,
            1,
            1,
            1,
            1,
            1,
            1
        ],
        "best_conformer_coordinates": [
            [
                3.111508382372711,
                -0.012342368521926049,
                0.1581399047357607
            ],
            [
                1.8205998982522644,
                0.053251685455291194,
                0.45891587832170094
            ],
            [
                0.7884025876359142,
                -0.10752264890009626,
                -0.5923781909704493
            ],
            [
                1.0887126511539196,
                -0.3020808538906585,
                -1.7485898508953615
            ],
            [
                -0.6702186229991473,
                -0.014521860022650546,
                -0.13814840654534877
            ],
            [
                -1.582218577223974,
                -0.2035467122865101,
                -1.351604001277462
            ],
            [
                -0.9522330021054738,
                -1.1185013549855678,
                0.8879652135219881
            ],
            [
                -0.9215175584480201,
                1.3670715840868357,
                0.4776927706310096
            ],
            [
                3.887481403220651,
                0.09990939864234717,
                0.8962858132074749
            ],
            [
                3.418919939001729,
                -0.18437171671350988,
                -0.8610760776377717
            ],
            [
                1.4931389867130516,
                0.22459222438120036,
                1.4724576185263973
            ],
            [
                -1.4032477240575925,
                -1.1726752061698944,
                -1.8104524044691643
            ],
            [
                -2.6264313025930504,
                -0.14164503303021392,
                -1.054758202263405
            ],
            [
                -1.3818096497313619,
                0.5621512321526787,
                -2.0968055765441163
            ],
            [
                -0.727953660462571,
                -2.0950839389764884,
                0.46398699720618664
            ],
            [
                -0.3610095659018496,
                -0.9923621190656786,
                1.791176175348751
            ],
            [
                -2.004175072091226,
                -1.0981396224651154,
                1.1653170492679108
            ],
            [
                -0.3299172742987495,
                1.5236571387323128,
                1.3758778128622515
            ],
            [
                -0.6754965178051766,
                2.1499406372003604,
                -0.23670346868138567
            ],
            [
                -1.9725352994648735,
                1.462219544960872,
                0.7427009456551379
            ]
        ],
        "best_conformer_energy": -25.134047067973256,
        "fukui_radical": {
            "1": 0.05965512325542418,
            "2": 0.04100216531754636,
            "3": 0.07073235906165173,
            "4": 0.199334734891943,
            "5": 0.025450234002706552,
            "6": -0.022437294424730365,
            "7": -0.021071341164295918,
            "8": -0.021071351931497978,
            "9": 0.11043819201445192,
            "10": 0.07977686678388067,
            "11": 0.0895015994077582,
            "12": 0.029555702341399172,
            "13": 0.058893534794590016,
            "14": 0.02955570759247529,
            "15": 0.03459009740312499,
            "16": 0.03306287249500783,
            "17": 0.06768894237713163,
            "18": 0.03306284834681158,
            "19": 0.03459008183256172,
            "20": 0.06768892560426566
        }
    }
}