{
    "file": "paper_477.json",
    "monomer1_s": "C=CC(=O)NC[C@H](O)[C@@H](O)[C@H](O)[C@H](O)CO",
    "monomer2_s": "C=C(C)C(=O)OC",
    "monomer1": "1-Acrylamido-1-deoxy-D-glucitol",
    "monomer2": "Methyl methacrylate",
    "r_values": {
        "constant_1": 0.206,
        "constant_2": 4.22
    },
    "conf_intervals": {
        "constant_conf_1": null,
        "constant_conf_2": null
    },
    "temperature": 50.0,
    "temperature_unit": "\u00b0C",
    "solvent": "CO",
    "method": "solvent",
    "r-product": null,
    "source": "https://doi.org/10.1002/pol.1961.1205012010",
    "calculation_method": "Fineman-Ross",
    "polymerization_type": "free radical",
    "logP": -0.3915,
    "monomer1_data": {
        "smiles": "C=CC(=O)NC[C@H](O)[C@@H](O)[C@H](O)[C@H](O)CO",
        "ip": 13.123362443660112,
        "ip_corrected": 8.277362443660111,
        "ea": 4.187179987306741,
        "homo": -0.3966938112334132,
        "lumo": -0.2747232301729935,
        "charges": {
            "1": -0.07631966958187515,
            "2": -0.05973612987233228,
            "3": 0.2725704087602902,
            "4": -0.47164533995855135,
            "5": -0.15863393749684107,
            "6": -0.007724466884091445,
            "7": 0.1035495383965337,
            "8": -0.45070350290661465,
            "9": 0.10092825218016141,
            "10": -0.4717336864036689,
            "11": 0.07789453090063192,
            "12": -0.4493583792509948,
            "13": 0.08246169189091038,
            "14": -0.46259874832561554,
            "15": 0.06368778907361838,
            "16": -0.4630546430205142,
            "17": 0.05354453491474889,
            "18": 0.06073728409658586,
            "19": 0.07388426182505362,
            "20": 0.19212831564547847,
            "21": 0.06902401853767441,
            "22": 0.07879421532036938,
            "23": 0.043639057436535,
            "24": 0.3146192756559571,
            "25": 0.01977907640410686,
            "26": 0.3239146136206402,
            "27": 0.05755614055806606,
            "28": 0.30788070447689103,
            "29": 0.04850254057306979,
            "30": 0.31840760615246755,
            "31": 0.05187858928835983,
            "32": 0.0316859760138432,
            "33": 0.3244400819790995
        },
        "dipole": [
            1.048784894856279,
            0.5123140548310514,
            0.4709517939350673
        ],
        "global_electrophilicity": 0.8118985519814444,
        "global_nucleophilicity": -8.277362443660111,
        "fukui_electrophilicity": {
            "1": 0.09212434005556926,
            "2": 0.06731082998580196,
            "3": 0.07696541158106754,
            "4": 0.16590671637582394,
            "5": 0.07050561822985252,
            "6": -0.022217675195201028,
            "7": -0.006025905201464801,
            "8": 0.00031713293662266606,
            "9": -0.0023788284854412284,
            "10": 0.012697320884279273,
            "11": -0.0030445567402155455,
            "12": 0.009711042101498923,
            "13": -0.005369604582505752,
            "14": 0.007640044474165109,
            "15": -0.007506438022757286,
            "16": 0.008537282870132834,
            "17": 0.10914265605264842,
            "18": 0.12125826127115788,
            "19": 0.10588697502149091,
            "20": 0.04744143198107628,
            "21": 0.048319880213867086,
            "22": 0.027815407317321128,
            "23": 0.038181047754128186,
            "24": 0.017834730741307314,
            "25": -0.02765186373275927,
            "26": 0.012967124787371498,
            "27": -0.011684191811058467,
            "28": 0.011710386410988316,
            "29": 0.022747419108659322,
            "30": -0.004217915795400262,
            "31": 0.024025595318387678,
            "32": 0.011091362173955493,
            "33": -0.020041038080360507
        },
        "fukui_nucleophilicity": {
            "1": 0.012445085835894307,
            "2": 0.007347485353421786,
            "3": 0.008122920676239653,
            "4": 0.06628480996697755,
            "5": 0.02803854905860592,
            "6": -0.013407083339994741,
            "7": -0.002100508114591476,
            "8": 0.0666075898710215,
            "9": 0.0011600993110537638,
            "10": 0.032422190706930976,
            "11": 0.0061529540292838,
            "12": 0.08057354329474103,
            "13": 0.00904214659877288,
            "14": 0.06154301009847368,
            "15": -0.01061728828818239,
            "16": 0.05502275993814926,
            "17": 0.02638207740856062,
            "18": 0.05025000055417988,
            "19": 0.03712100619733792,
            "20": 0.026767326046824386,
            "21": 0.043860451480999374,
            "22": 0.017554817095536385,
            "23": 0.04483881151122865,
            "24": 0.028630574235468276,
            "25": 0.022547602034564587,
            "26": 0.018929353515647118,
            "27": 0.036798175163561084,
            "28": 0.035406394790853335,
            "29": 0.05276833526842826,
            "30": 0.028228475423353383,
            "31": 0.06351877957226221,
            "32": 0.041516720428626065,
            "33": 0.016242834275797202
        },
        "boltzmann_weights": [
            0.3050710332105806,
            0.00015408786254904398,
            3.968043769087974e-05,
            0.23956432242792625,
            0.002328402892202766,
            0.002835678397422907,
            4.3078231684168524e-05,
            9.458941654703262e-07,
            0.0002130794370876895,
            0.0036818178189877227,
            0.0036420820468754216,
            0.0006326727010315671,
            0.033770952358203044,
            7.24947603427198e-08,
            1.8720072781045975e-06,
            5.233224884625318e-07,
            5.371157709113268e-06,
            6.3686444547499314e-09,
            1.623220241047175e-07,
            9.860829254546398e-07,
            3.3154004620624215e-06,
            0.23955535858577387,
            0.002328654917660783,
            1.4221562650912334e-08,
            7.41950432746666e-06,
            0.0006212740880271059,
            3.9664241569193616e-05,
            0.00029334797586411544,
            2.8388796416781944e-09,
            6.263161065992996e-05,
            3.8295726853989274e-05,
            0.00017862941212433236,
            0.004706721586199752,
            1.0989937754575451e-07,
            7.912220202355219e-06,
            0.0015579585042620016,
            3.96082119180964e-06,
            0.00024392609923485432,
            0.0012001011791353852,
            6.514551742222647e-05,
            3.255045235345018e-07,
            1.7337322500927903e-07,
            9.209480306768325e-07,
            0.0013858087822728492,
            4.966709177317862e-06,
            0.0011482383631253672,
            0.0016046469545194701,
            4.3878701498440903e-07,
            2.3343225485147698e-05,
            1.0292606884048489e-05,
            3.495482473294233e-05,
            6.95804225103419e-06,
            3.183778544390086e-05,
            4.060904480205754e-06,
            0.0002479127954386648,
            5.8875431039964885e-08,
            2.870094359179452e-05,
            4.034408441388091e-06,
            2.553058388957558e-07,
            1.674224916020502e-05,
            7.834258843414502e-09,
            3.60813428633134e-05,
            7.653842800202826e-09,
            2.2660189907408522e-07,
            0.0008957408362660914,
            1.3126320661515801e-06,
            9.359124317992518e-07,
            2.5632297122359947e-08,
            8.85571797189808e-10,
            0.0008918015086125986,
            1.4703771934305178e-05,
            1.522075636855653e-09,
            0.0023672404105684556,
            2.5419079040590357e-07,
            2.9101765310994503e-05,
            1.7159986308033724e-07,
            0.001387883208519826,
            0.00032023776577312397,
            2.2589026914132674e-08,
            6.142568518255291e-07,
            7.848061552710795e-07,
            5.327710429881377e-06,
            6.229793761786453e-08,
            0.0003202115006899114,
            7.745733622747846e-08,
            5.291462835827253e-09,
            2.1280962859113602e-07,
            1.2783899326597599e-08,
            2.9084359967180308e-06,
            2.3826783434325172e-08,
            1.0309415235785727e-08,
            1.3276710813703046e-05,
            1.8718584371316832e-05,
            4.3157245511260654e-06,
            1.1029750033192045e-07,
            4.104690653510871e-07,
            6.361700869129688e-08,
            7.760167359343122e-07,
            3.949966286636566e-07,
            3.5597845671300316e-07,
            7.405083131900178e-11,
            5.413055059711964e-06,
            2.539717135977373e-07,
            6.079525548072209e-06,
            2.6337980789753702e-05,
            4.84585681406708e-09,
            9.451890701563096e-07,
            1.7157018039301182e-09,
            2.993873266310082e-07,
            1.597929548216831e-06,
            8.726759495865344e-10,
            1.687170701098422e-07,
            8.957140801478828e-08,
            0.015992625835326683,
            3.873704966538331e-08,
            1.0033460153647869e-07,
            3.45886453265739e-07,
            1.1793485686339695e-06,
            2.8039822434904132e-11,
            7.768025067177684e-05,
            9.680599202027406e-12,
            2.3116546224442573e-07,
            8.644879001076294e-08,
            0.0006695916655577065,
            1.2303744486371655e-07,
            4.60226941630872e-09,
            2.688304978388933e-06,
            1.030150257342145e-09,
            6.007403508023784e-09,
            8.190431929291621e-07,
            0.00012597937113036916,
            1.138771787889507e-06,
            0.0760001162283697,
            1.1345770530530234e-10,
            0.0008515356747834577,
            5.744047291046456e-07,
            2.6425168469875848e-08,
            9.25795549018613e-10,
            0.000126101544169003,
            6.8550971098409676e-06,
            4.169148646160891e-05,
            2.5432431272720694e-08,
            6.575538691070274e-07,
            2.0682547421074268e-08,
            3.423089411929685e-07,
            9.611106414639618e-10,
            1.0928140837680081e-08,
            3.3589657933195363e-09,
            2.535989312762732e-07,
            1.2993863840054721e-10,
            1.2102632414894335e-12,
            5.345086895703831e-07,
            0.0005205630691077993,
            0.046425640375606404,
            1.7158825932953497e-08,
            0.004688748691949094,
            2.1770618580240772e-09,
            6.524241913939471e-08,
            5.959628538006232e-08,
            0.0005894559802113363,
            6.225248591601064e-10,
            6.155138583089006e-10,
            4.922344663394473e-07,
            3.3504324454444204e-05,
            6.599833073251379e-08,
            3.730946163154243e-09,
            1.4079158100081657e-08,
            8.684275901030441e-11,
            2.7852273928043656e-11,
            2.651265573626637e-10,
            8.696790572170027e-07,
            6.026439201536727e-10,
            3.3182588608534154e-09,
            2.8827114363336237e-07,
            5.73836136346204e-08,
            1.6579409907187004e-08,
            1.5722804123998952e-09,
            2.7169414925359056e-05,
            6.499610630447978e-11
        ],
        "best_conformer_elements": [
            6,
            6,
            6,
            8,
            7,
            6,
            6,
            8,
            6,
            8,
            6,
            8,
            6,
            8,
            6,
            8,
            1,
            1,
            1,
            1,
            1,
            1,
            1,
            1,
            1,
            1,
            1,
            1,
            1,
            1,
            1,
            1,
            1
        ],
        "best_conformer_coordinates": [
            [
                5.104840486172625,
                -0.4413930897971132,
                1.6157356366671556
            ],
            [
                4.564182408735124,
                -1.2603783493433258,
                0.7272972286107167
            ],
            [
                3.4542452993964203,
                -0.9155148061772256,
                -0.19384532769088725
            ],
            [
                3.339737261051676,
                -1.45576828729395,
                -1.2851182067171016
            ],
            [
                2.5973475527877588,
                0.03318753219214713,
                0.24037734050058107
            ],
            [
                1.4853210463600375,
                0.5094240663103442,
                -0.5579012095306543
            ],
            [
                0.42178144277974977,
                -0.5766423566264939,
                -0.7940453894043262
            ],
            [
                0.7049700772171913,
                -1.3323278024192706,
                -1.9483128893565786
            ],
            [
                -0.9849024571757589,
                0.015600309716729144,
                -1.0120425204327321
            ],
            [
                -1.8267588470596083,
                -1.0016633457973316,
                -1.5101086446368857
            ],
            [
                -1.5715817678635635,
                0.6091942409866908,
                0.2925310906356043
            ],
            [
                -1.2807607387643347,
                -0.19148977159728583,
                1.4084608719202676
            ],
            [
                -3.101851769265139,
                0.8008472132050878,
                0.21158965198273053
            ],
            [
                -3.7443660404792714,
                -0.4497241311291913,
                0.30794190084137957
            ],
            [
                -3.5716808785456813,
                1.5580099722653866,
                -1.035930964306904
            ],
            [
                -4.936425087324206,
                1.873274077996199,
                -0.9374385146361187
            ],
            [
                5.939500102960515,
                -0.7467379810444803,
                2.224048157040802
            ],
            [
                4.761653633465884,
                0.5702074464493022,
                1.7621733850471284
            ],
            [
                4.966458610779396,
                -2.250279904040016,
                0.5641770909645802
            ],
            [
                2.6428303639558575,
                0.3278649733725981,
                1.2009648340904837
            ],
            [
                1.0502990606082603,
                1.3646025653927796,
                -0.04464905727854075
            ],
            [
                1.8629929794529956,
                0.8287156008166254,
                -1.5354851708732762
            ],
            [
                0.38403620426683865,
                -1.2346153997368956,
                0.08956635118855322
            ],
            [
                1.6635711445319783,
                -1.5339585015192794,
                -1.9371742840942
            ],
            [
                -0.9115286441566156,
                0.8213119560038661,
                -1.7603224952725935
            ],
            [
                -1.2630689209409807,
                -1.5553847965416099,
                -2.07228216295039
            ],
            [
                -1.099358764739498,
                1.5814837973875722,
                0.4681776917456843
            ],
            [
                -1.998987988196738,
                -0.8420217707177593,
                1.4720861856520564
            ],
            [
                -3.422533545799924,
                1.357537547832467,
                1.1010714289020758
            ],
            [
                -3.4140304040486433,
                -0.9867375485517588,
                -0.43193491152308855
            ],
            [
                -3.03652950048868,
                2.5046244136213622,
                -1.1340266742967342
            ],
            [
                -3.3861812599191676,
                0.9413737329919359,
                -1.9264877585209406
            ],
            [
                -5.393221054462975,
                1.0773783905007595,
                -0.6342190844484861
            ]
        ],
        "best_conformer_energy": -55.231333792721756,
        "fukui_radical": {
            "1": 0.053822513932420865,
            "2": 0.03849859449502449,
            "3": 0.0444639919898545,
            "4": 0.1314821998721547,
            "5": 0.04891594865311502,
            "6": -0.017599568199929184,
            "7": -0.0026806793385915698,
            "8": 0.041944833873147236,
            "9": -0.0029081161814195067,
            "10": 0.015793867403546213,
            "11": -0.0018598603134393071,
            "12": 0.023006337703230323,
            "13": 0.0008262226424081281,
            "14": 0.029949409527991355,
            "15": -0.0056644200829255725,
            "16": 0.05438448198726126,
            "17": 0.08843973762940477,
            "18": 0.07152332882787837,
            "19": 0.07215210818419833,
            "20": 0.038821219330781975,
            "21": 0.04037138747179686,
            "22": 0.032004382477605356,
            "23": 0.021535844006177533,
            "24": 0.005931782070501018,
            "25": 0.021407927926116767,
            "26": 0.010665682246456726,
            "27": 0.017545834455886186,
            "28": 0.016806364475821872,
            "29": 0.02468298697993997,
            "30": 0.011303077340313605,
            "31": 0.023807662385886323,
            "32": 0.029686098356770975,
            "33": 0.020938817870539556
        }
    },
    "monomer2_data": {
        "smiles": "C=C(C)C(=O)OC",
        "ip": 14.236483972656346,
        "ip_corrected": 9.390483972656346,
        "ea": 3.965500029838621,
        "homo": -0.41127032387995544,
        "lumo": -0.26950129410851986,
        "charges": {
            "1": -0.08192644204948094,
            "2": -0.007758938742676788,
            "3": -0.11040535221003818,
            "4": 0.34920872447012063,
            "5": -0.4109728775483542,
            "6": -0.2641504660609933,
            "7": 0.035165391019299455,
            "8": 0.05595603293225091,
            "9": 0.06272990863841402,
            "10": 0.0654729267794723,
            "11": 0.06547300436630195,
            "12": 0.05055145378886996,
            "13": 0.06218368236208788,
            "14": 0.06218369754524128,
            "15": 0.06628925470948674
        },
        "dipole": [
            0.042189455222522244,
            -0.7608520055498939,
            0.06845067776298096
        ],
        "global_electrophilicity": 0.8813642895109609,
        "global_nucleophilicity": -9.390483972656346,
        "fukui_electrophilicity": {
            "1": 0.0916099776458229,
            "2": 0.08194480124254042,
            "3": -0.03870700638664119,
            "4": 0.08164153093062626,
            "5": 0.19459726093903607,
            "6": 0.07836988169535863,
            "7": -0.03498260375536273,
            "8": 0.11948701878867324,
            "9": 0.10428214255764144,
            "10": 0.06198656850236382,
            "11": 0.06198649192249827,
            "12": 0.06017707177149582,
            "13": 0.04047835404033179,
            "14": 0.04047833993174442,
            "15": 0.05665017017387712
        },
        "fukui_nucleophilicity": {
            "1": 0.05119712917593304,
            "2": 0.06180413311607634,
            "3": -0.01940489925170101,
            "4": 0.013324588985722141,
            "5": 0.15569776430206916,
            "6": 0.09388640424022587,
            "7": -0.026619602504503993,
            "8": 0.1033747366245307,
            "9": 0.08566644804667564,
            "10": 0.09644914037738059,
            "11": 0.09644892416456753,
            "12": 0.07537139198169276,
            "13": 0.07058385012774213,
            "14": 0.07058380855498125,
            "15": 0.07163618205861905
        },
        "fukui_radical": {
            "1": 0.07140355341087798,
            "2": 0.07187446717930837,
            "3": -0.029055952819171102,
            "4": 0.0474830599581742,
            "5": 0.17514751262055261,
            "6": 0.08612814296779225,
            "7": -0.030801103129933362,
            "8": 0.11143087770660196,
            "9": 0.09497429530215853,
            "10": 0.0792178544398722,
            "11": 0.0792177080435329,
            "12": 0.06777423187659429,
            "13": 0.05553110208403696,
            "14": 0.05553107424336284,
            "15": 0.06414317611624809
        },
        "best_conformer_coordinates": [
            [
                -1.0679874721335532,
                -1.591695393005097,
                0.1190505870012582
            ],
            [
                -0.9789696677262058,
                -0.2700634531963184,
                0.015569141935180716
            ],
            [
                -2.152414502903391,
                0.6374624311751305,
                -0.17280008390949914
            ],
            [
                0.33254570919277476,
                0.4296358416853463,
                0.08092895025997722
            ],
            [
                0.4667403029430531,
                1.6257720313950312,
                -0.007628838348907176
            ],
            [
                1.368254296471444,
                -0.40841920824982436,
                0.25032440426561303
            ],
            [
                2.6475724912740755,
                0.20137513824591807,
                0.3202395569867531
            ],
            [
                -2.019589027601903,
                -2.0945475365498094,
                0.07121808444667849
            ],
            [
                -0.1962306925063066,
                -2.2069421172817725,
                0.25399723219802745
            ],
            [
                -2.0338701146835967,
                1.2076321838811321,
                -1.092623302807032
            ],
            [
                -2.1989630647919824,
                1.3547927910841435,
                0.6448131655597281
            ],
            [
                -3.078828528124943,
                0.07221525271252598,
                -0.21295259783201617
            ],
            [
                2.690936133782629,
                0.8988648503855212,
                1.159567291618923
            ],
            [
                2.858178339796767,
                0.7497948862504704,
                -0.6004798925286432
            ],
            [
                3.3626258023029116,
                -0.6058776985323392,
                0.4565564987903857
            ]
        ],
        "best_conformer_elements": [
            6,
            6,
            6,
            6,
            8,
            8,
            6,
            1,
            1,
            1,
            1,
            1,
            1,
            1,
            1
        ],
        "best_conformer_energy": -22.894683429971266
    }
}