{
    "file": "paper_169.json",
    "monomer1_s": "C=Cc1ccccc1",
    "monomer2_s": "C=C(Cl)CCl",
    "monomer1": "Styrene",
    "monomer2": "1,2-Dichloro-2-propene",
    "r_values": {
        "constant_1": 5.0,
        "constant_2": 0.06
    },
    "conf_intervals": {
        "constant_conf_1": 0.75,
        "constant_conf_2": 0.009
    },
    "temperature": 70.0,
    "temperature_unit": "\u00b0C",
    "solvent": "c1ccccc1",
    "method": "bulk",
    "r-product": null,
    "source": "Journal of Polymer Science Vol. IV, pp. 215-218, 1949",
    "calculation_method": "Kelen-Tudor",
    "polymerization_type": "free radical",
    "logP": 1.6866,
    "monomer1_data": {
        "smiles": "C=Cc1ccccc1",
        "ip": 13.323305315341791,
        "ip_corrected": 8.477305315341791,
        "ea": 3.959877946938991,
        "homo": -0.3831985290395731,
        "lumo": -0.2501966690470822,
        "charges": {
            "1": -0.08578934436600626,
            "2": -0.030259830597504936,
            "3": 0.01460321229207634,
            "4": -0.032430750206366904,
            "5": -0.029945437580900583,
            "6": -0.030379977266510892,
            "7": -0.029893803249294533,
            "8": -0.033985609164289644,
            "9": 0.038721208943534896,
            "10": 0.036165150785770366,
            "11": 0.033044651543264955,
            "12": 0.03404524115950842,
            "13": 0.028965873902585763,
            "14": 0.02897855112451052,
            "15": 0.028735857233840652,
            "16": 0.029425005445779806
        },
        "dipole": [
            -0.00599695759505601,
            0.00019607223034193996,
            -0.0018463290012354543
        ],
        "global_electrophilicity": 0.7692971421446727,
        "global_nucleophilicity": -8.477305315341791,
        "fukui_electrophilicity": {
            "1": 0.07209309972414436,
            "2": 0.04352510810351072,
            "3": 0.06230438364782903,
            "4": 0.03213425829454332,
            "5": 0.026312904098299825,
            "6": 0.06792045239213465,
            "7": 0.02876303434297292,
            "8": 0.03213381752054322,
            "9": 0.08376002497375698,
            "10": 0.09874578293688194,
            "11": 0.08145474392689236,
            "12": 0.06271242240018035,
            "13": 0.07540055911977092,
            "14": 0.08585900759002232,
            "15": 0.07693189708388407,
            "16": 0.06994850384463236
        },
        "fukui_nucleophilicity": {
            "1": 0.07260243947817689,
            "2": 0.04230113696056051,
            "3": 0.06268064465096645,
            "4": 0.03400845310298767,
            "5": 0.03110749772289005,
            "6": 0.07019025477516763,
            "7": 0.03211552237109847,
            "8": 0.03545308497970195,
            "9": 0.07943182497266889,
            "10": 0.09534951030583766,
            "11": 0.07725609403564751,
            "12": 0.06257820938745395,
            "13": 0.07457311950887512,
            "14": 0.0843599501650384,
            "15": 0.07603725882191792,
            "16": 0.06995499876126071
        },
        "boltzmann_weights": [
            0.500000013411314,
            0.499999986588686
        ],
        "best_conformer_elements": [
            6,
            6,
            6,
            6,
            6,
            6,
            6,
            6,
            1,
            1,
            1,
            1,
            1,
            1,
            1,
            1
        ],
        "best_conformer_coordinates": [
            [
                -2.7996504883392213,
                0.5067268078443541,
                -0.3307757375296494
            ],
            [
                -1.8569195165461714,
                -0.42690007797501867,
                -0.28622356006066363
            ],
            [
                -0.41676751008175084,
                -0.2137695987077826,
                -0.201669273122216
            ],
            [
                0.42662331397264364,
                -1.3257786864929022,
                -0.16462382115517377
            ],
            [
                1.7979836205106778,
                -1.1786700332337077,
                -0.08467855669649194
            ],
            [
                2.3586778805752897,
                0.08669579947474147,
                -0.03984625155398522
            ],
            [
                1.535500161801921,
                1.2006125291369882,
                -0.07571377159817176
            ],
            [
                0.16438284527030772,
                1.054224105562994,
                -0.15563770481452763
            ],
            [
                -2.5807350472122574,
                1.5604467593574072,
                -0.30764549962305027
            ],
            [
                -3.84233837136736,
                0.2458441308630186,
                -0.39306838601271116
            ],
            [
                -2.1533557273489103,
                -1.4689784286781729,
                -0.3136745326715254
            ],
            [
                -0.004100778556855408,
                -2.317010607449955,
                -0.1992554256323922
            ],
            [
                2.432537807928637,
                -2.052797839845991,
                -0.05718467471006832
            ],
            [
                3.4304258000072263,
                0.20491108070838962,
                0.022664187100062603
            ],
            [
                1.9676045890247913,
                2.190467602677497,
                -0.04101419015886248
            ],
            [
                -0.4598685796390594,
                1.9339764620498727,
                -0.18248094282351895
            ]
        ],
        "best_conformer_energy": -21.158608850502983,
        "fukui_radical": {
            "1": 0.07234813599322018,
            "2": 0.04291309873393513,
            "3": 0.06249235896699714,
            "4": 0.03379355109266154,
            "5": 0.03043928194186729,
            "6": 0.06905534188080434,
            "7": 0.028710059427083993,
            "8": 0.03307125813746206,
            "9": 0.08159578301382218,
            "10": 0.09704772989059883,
            "11": 0.07935561247948747,
            "12": 0.06995185022654472,
            "13": 0.0764846271348809,
            "14": 0.0851094403734144,
            "15": 0.07498679088705272,
            "16": 0.06264507982020588
        }
    },
    "monomer2_data": {
        "smiles": "C=C(Cl)CCl",
        "ip": 14.146698455508051,
        "ip_corrected": 9.300698455508051,
        "ea": 3.735537352437101,
        "homo": -0.41408566990169743,
        "lumo": -0.25168417073480187,
        "charges": {
            "1": -0.10329332868931301,
            "2": 0.09796511742139391,
            "3": -0.15251049160696592,
            "4": 0.01690937861645027,
            "5": -0.1778008958726078,
            "6": 0.07837901081894051,
            "7": 0.07169426240056306,
            "8": 0.08052769342162326,
            "9": 0.0881292534899229
        },
        "dipole": [
            -0.3732864627708892,
            0.006693699649724486,
            0.8333148866018811
        ],
        "global_electrophilicity": 0.805385224635999,
        "global_nucleophilicity": -9.300698455508051,
        "fukui_electrophilicity": {
            "1": 0.088504673967648,
            "2": 0.08327684695252172,
            "3": 0.17446419946447397,
            "4": -0.02468147583236789,
            "5": 0.24565121457277736,
            "6": 0.11883090957488225,
            "7": 0.11785013347308276,
            "8": 0.09500975414611527,
            "9": 0.10109374368087272
        },
        "fukui_nucleophilicity": {
            "1": 0.05419981278074673,
            "2": 0.024531325399456835,
            "3": 0.30736835665304274,
            "4": -0.04583026309899823,
            "5": 0.3186088663738624,
            "6": 0.08264685564901043,
            "7": 0.08720754255314517,
            "8": 0.08999225731366635,
            "9": 0.08127524637608377
        },
        "boltzmann_weights": [
            0.2599003434970702,
            0.2599004186386789,
            0.48019923786425095
        ],
        "best_conformer_elements": [
            6,
            6,
            17,
            6,
            17,
            1,
            1,
            1,
            1
        ],
        "best_conformer_coordinates": [
            [
                1.4014248761811812,
                0.07199782622238189,
                -0.27564715670089507
            ],
            [
                0.20736685765585272,
                0.4282166366815613,
                0.16770940093012351
            ],
            [
                0.01946129937214769,
                1.7869985559256307,
                1.224133549533498
            ],
            [
                -1.0646927671110051,
                -0.2829552920630477,
                -0.14213671203586076
            ],
            [
                -1.54479552082011,
                -1.2921668351853564,
                1.2650723367426535
            ],
            [
                1.5149904736363322,
                -0.7779587587598453,
                -0.9247769156386831
            ],
            [
                2.2921902963567615,
                0.6107545850677213,
                -0.008393401933896436
            ],
            [
                -1.8843271601774068,
                0.41273381699527956,
                -0.3179929160058317
            ],
            [
                -0.9416183550937438,
                -0.9576205348843144,
                -0.9879681901828823
            ]
        ],
        "best_conformer_energy": -17.531998429103457,
        "fukui_radical": {
            "1": 0.0713535062220822,
            "2": 0.05391297043513249,
            "3": 0.24092052735845448,
            "4": -0.035263555184850554,
            "5": 0.28211086529961965,
            "6": 0.10253560578941585,
            "7": 0.10074095011550226,
            "8": 0.09118709872030889,
            "9": 0.09250203124433445
        }
    }
}