{
    "file": "paper_287.json",
    "monomer1_s": "C=CC#N",
    "monomer2_s": "C=C(C)C#N",
    "monomer1": "Acrylonitrile",
    "monomer2": "Methacrylonitrile",
    "r_values": {
        "constant_1": 0.43,
        "constant_2": 1.69
    },
    "conf_intervals": {
        "constant_conf_1": null,
        "constant_conf_2": null
    },
    "temperature": 70.0,
    "temperature_unit": "\u00b0C",
    "solvent": "CS(C)=O",
    "method": "solvent",
    "r-product": 0.73,
    "source": "https://doi.org/10.1002/pol.1966.110040409",
    "calculation_method": "NMR analysis",
    "polymerization_type": "free radical",
    "logP": -0.005299999999999971,
    "monomer1_data": {
        "smiles": "C=CC#N",
        "ip": 15.437176806318503,
        "ip_corrected": 10.591176806318503,
        "ea": 3.8289813808508004,
        "homo": -0.4277683293695803,
        "lumo": -0.28211163098961317,
        "charges": {
            "1": -0.05961169012740816,
            "2": -0.01732687045759991,
            "3": 0.1182224067521214,
            "4": -0.22501464611972768,
            "5": 0.060876740653373736,
            "6": 0.056910808147125444,
            "7": 0.06594325115211837
        },
        "dipole": [
            -1.3682395954382502,
            0.4193750676404717,
            0.3073979410978311
        ],
        "global_electrophilicity": 0.9870666976349574,
        "global_nucleophilicity": -10.591176806318503,
        "fukui_electrophilicity": {
            "1": 0.11689097730490014,
            "2": 0.09589168721827514,
            "3": 0.0833043050370818,
            "4": 0.27942089987505603,
            "5": 0.1382479191580376,
            "6": 0.1483932400282401,
            "7": 0.1378509713784164
        },
        "fukui_nucleophilicity": {
            "1": 0.046376077246505845,
            "2": 0.06110797532385699,
            "3": 0.06382105585034101,
            "4": 0.3348673323308884,
            "5": 0.1560141376419441,
            "6": 0.1714270905761467,
            "7": 0.16638633108003964
        },
        "boltzmann_weights": [
            1.0
        ],
        "best_conformer_elements": [
            6,
            6,
            6,
            7,
            1,
            1,
            1
        ],
        "best_conformer_coordinates": [
            [
                -0.9016384047148559,
                -0.45919578416436035,
                -0.030680752421494126
            ],
            [
                -0.03133887486045679,
                0.4750179204570864,
                0.33412550579689987
            ],
            [
                1.3413190298728732,
                0.20293977262825588,
                0.5154865184659979
            ],
            [
                2.457902722380965,
                -0.00894504881153441,
                0.6651431422029201
            ],
            [
                -1.946002725249464,
                -0.2338337288304437,
                -0.16452309959900452
            ],
            [
                -0.5958059974068218,
                -1.4775501660291765,
                -0.20646164096824965
            ],
            [
                -0.32443575002222486,
                1.5015670294584123,
                0.5140087192113937
            ]
        ],
        "best_conformer_energy": -10.79113366694523,
        "fukui_radical": {
            "1": 0.08164051438776673,
            "2": 0.07850509074248685,
            "3": 0.07355981073640835,
            "4": 0.30714514424221057,
            "5": 0.15989706723025732,
            "6": 0.14713580820257063,
            "7": 0.152116564483423
        }
    },
    "monomer2_data": {
        "smiles": "C=C(C)C#N",
        "ip": 14.814502696773244,
        "ip_corrected": 9.968502696773244,
        "ea": 3.711417131193119,
        "homo": -0.4232155436448872,
        "lumo": -0.27080463189506665,
        "charges": {
            "1": -0.0781133869377532,
            "2": 0.030759322340414244,
            "3": -0.10235125772553276,
            "4": 0.11294311225544726,
            "5": -0.22953893131429193,
            "6": 0.05080459369112169,
            "7": 0.05162378907179067,
            "8": 0.05634633696620614,
            "9": 0.056346336399623054,
            "10": 0.051180085252968785
        },
        "dipole": [
            0.3101213134911075,
            -1.4331383927190686,
            -0.09963856177120364
        ],
        "global_electrophilicity": 0.8785636554136996,
        "global_nucleophilicity": -9.968502696773244,
        "fukui_electrophilicity": {
            "1": 0.10670726367351506,
            "2": 0.11421884813379911,
            "3": -0.04090883499902255,
            "4": 0.07899246086086956,
            "5": 0.2639823356205677,
            "6": 0.13606274497650392,
            "7": 0.12391616167938599,
            "8": 0.07569857226299913,
            "9": 0.07569857095457252,
            "10": 0.06563187683680773
        },
        "fukui_nucleophilicity": {
            "1": 0.07224429219613314,
            "2": 0.08196569977174407,
            "3": -0.02222900698304421,
            "4": 0.03773436085719137,
            "5": 0.2673712629901044,
            "6": 0.11533835764354095,
            "7": 0.10576380798629015,
            "8": 0.12450099926812008,
            "9": 0.12450099319636779,
            "10": 0.09280923307514534
        },
        "boltzmann_weights": [
            1.0
        ],
        "best_conformer_elements": [
            6,
            6,
            6,
            6,
            7,
            1,
            1,
            1,
            1,
            1
        ],
        "best_conformer_coordinates": [
            [
                -1.171619693901176,
                -0.6041812357014078,
                0.5961598839712842
            ],
            [
                -0.19272649843286235,
                0.14418036875912624,
                0.0935767119872798
            ],
            [
                1.0625922417594345,
                -0.39292480656199963,
                -0.5233414200661388
            ],
            [
                -0.29939487488612093,
                1.5579231317561275,
                0.12078243137559891
            ],
            [
                -0.3734040485235229,
                2.70162738977156,
                0.13665765458051318
            ],
            [
                -1.113404385494851,
                -1.6797045263732977,
                0.5869144930338299
            ],
            [
                -2.0551674212056503,
                -0.16672903375197798,
                1.02927832360278
            ],
            [
                1.0608698409105863,
                -1.4797593503072928,
                -0.5024457397479186
            ],
            [
                1.934115958287865,
                -0.025707104440962976,
                0.018238600973430358
            ],
            [
                1.1481388920698292,
                -0.054724822566358466,
                -1.5558209344188905
            ]
        ],
        "best_conformer_energy": -13.962509548971134,
        "fukui_radical": {
            "1": 0.08947575704458437,
            "2": 0.09809228659744804,
            "3": -0.031568943711858616,
            "4": 0.05836329032256575,
            "5": 0.26567709988135996,
            "6": 0.12570047642706061,
            "7": 0.11483992362992454,
            "8": 0.07922050187228226,
            "9": 0.10009968749066507,
            "10": 0.1000999204467328
        }
    }
}