{
    "file": "paper_699.json",
    "monomer1_s": "C=COC(=O)C=Cc1ccccc1",
    "monomer2_s": "C=Cc1ccccc1",
    "monomer1": "vinyl cinnamate",
    "monomer2": "styrene",
    "r_values": {
        "constant_1": 0.25,
        "constant_2": 1.25
    },
    "conf_intervals": {
        "constant_conf_1": 0.1,
        "constant_conf_2": 0.1
    },
    "temperature": 70.0,
    "temperature_unit": "\u00b0C",
    "solvent": "c1ccccc1",
    "method": "solvent",
    "r-product": null,
    "source": "https://doi.org/10.1002/pol.1962.120571763",
    "calculation_method": "Alfrey-Price equation",
    "polymerization_type": "free radical",
    "logP": 1.6866,
    "monomer1_data": {
        "smiles": "C=COC(=O)C=Cc1ccccc1",
        "ip": 13.172571770469117,
        "ip_corrected": 8.326571770469117,
        "ea": 5.558919348947703,
        "homo": -0.40074136332340243,
        "lumo": -0.2943620769453545,
        "charges": {
            "1": -0.11303193653064586,
            "2": 0.10527537756481564,
            "3": -0.24159765262603,
            "4": 0.3501715873880877,
            "5": -0.41236435780955855,
            "6": -0.07313308369765273,
            "7": -0.010145523535811052,
            "8": 0.01738722409487578,
            "9": -0.027822802711428278,
            "10": -0.027034531974561488,
            "11": -0.024246425607770065,
            "12": -0.02684104699036359,
            "13": -0.028219594462959532,
            "14": 0.05848228900094935,
            "15": 0.06417319852617008,
            "16": 0.061370141536187674,
            "17": 0.06124433076410391,
            "18": 0.07006997835806408,
            "19": 0.041111067642445494,
            "20": 0.03741972021131996,
            "21": 0.03785213617239749,
            "22": 0.037942138622511085,
            "23": 0.041937766064843736
        },
        "dipole": [
            -0.6912853277158012,
            0.5431172326230667,
            -0.6945831392331254
        ],
        "global_electrophilicity": 1.34154403126941,
        "global_nucleophilicity": -8.326571770469117,
        "fukui_electrophilicity": {
            "1": 0.03417397021033047,
            "2": 0.002630324714458704,
            "3": 0.04480981539953244,
            "4": 0.04272251843363145,
            "5": 0.11323792496929513,
            "6": 0.041780960895337504,
            "7": 0.0552211901158276,
            "8": 0.026790844032281713,
            "9": 0.025309337476983045,
            "10": 0.018473608408041922,
            "11": 0.0453444952180811,
            "12": 0.019479266454742225,
            "13": 0.026726255492020616,
            "14": 0.05005865578390535,
            "15": 0.04051497194466894,
            "16": 0.027358782120474864,
            "17": 0.06360981339658606,
            "18": 0.06035187580977964,
            "19": 0.04069011584655361,
            "20": 0.054802951193392,
            "21": 0.06255344346651412,
            "22": 0.05616910856516875,
            "23": 0.04718977031703024
        },
        "fukui_nucleophilicity": {
            "1": 0.054502227706887806,
            "2": 0.03138849441425573,
            "3": 0.06506166943818276,
            "4": 0.0030388437112051636,
            "5": 0.06295924175946022,
            "6": 0.0486742484932505,
            "7": 0.022069906321611155,
            "8": 0.04350438338351126,
            "9": 0.02193593808162255,
            "10": 0.02211176088811495,
            "11": 0.04995389035232977,
            "12": 0.0228919170411864,
            "13": 0.024061546077490337,
            "14": 0.06794394404242834,
            "15": 0.05944220402777517,
            "16": 0.05214308300375744,
            "17": 0.04547720885853503,
            "18": 0.04611474042080284,
            "19": 0.03995634716959503,
            "20": 0.05292389815655155,
            "21": 0.061143457548646564,
            "22": 0.05486003434661736,
            "23": 0.04784101568222549
        },
        "boltzmann_weights": [
            0.18966628144427544,
            0.18966627941319,
            0.18966159051415257,
            0.1896662397206748,
            0.04015173680256677,
            0.04015179307151465,
            0.04015179888055633,
            0.04015154514421219,
            0.0183401096477416,
            0.01834422703227505,
            0.01834423009571586,
            0.018344088320829385,
            0.0033203711393596743,
            0.0033203132597948524,
            0.0002051518665501109,
            0.0002051519089430378,
            0.00020515533935479703,
            2.870740620235818e-05,
            2.8707461527197483e-05,
            2.8707491598039038e-05,
            1.7814038965100507e-05
        ],
        "best_conformer_elements": [
            6,
            6,
            8,
            6,
            8,
            6,
            6,
            6,
            6,
            6,
            6,
            6,
            6,
            1,
            1,
            1,
            1,
            1,
            1,
            1,
            1,
            1,
            1
        ],
        "best_conformer_coordinates": [
            [
                5.479963904403889,
                0.26591579127472936,
                0.2834163268988176
            ],
            [
                4.4040829950866245,
                -0.4962693855414727,
                0.351570663758912
            ],
            [
                3.150204366026202,
                0.02429462419708841,
                0.16436413173672224
            ],
            [
                2.085156039368938,
                -0.8126806242063177,
                0.2478245721013713
            ],
            [
                2.1802213245759687,
                -1.9935628136562848,
                0.4783915641066842
            ],
            [
                0.8414459010175747,
                -0.07505004840379735,
                0.02021981328477035
            ],
            [
                -0.33878902234046043,
                -0.7093208688857912,
                0.057229365036804675
            ],
            [
                -1.6533183463592096,
                -0.13656090189531592,
                -0.14404523713717396
            ],
            [
                -2.7710834492345433,
                -0.9731254402069736,
                -0.06415438065140824
            ],
            [
                -4.045360720296146,
                -0.47380667769019913,
                -0.2485594352586602
            ],
            [
                -4.230870963728309,
                0.872849478312647,
                -0.5169202003716658
            ],
            [
                -3.1329408507942715,
                1.7154069758286503,
                -0.5993959493857606
            ],
            [
                -1.8576305227869272,
                1.2195087391577975,
                -0.4155787349591402
            ],
            [
                6.456651412958348,
                -0.15318104472215655,
                0.4317715080624501
            ],
            [
                5.409478543006496,
                1.3194257622308132,
                0.07906147418719142
            ],
            [
                4.4248355822792025,
                -1.5601948366593221,
                0.5543880668991068
            ],
            [
                0.9528969966082548,
                0.9799693670556215,
                -0.17198395670519032
            ],
            [
                -0.31340431301269567,
                -1.7738542293760613,
                0.2608892751005907
            ],
            [
                -2.6290419663767794,
                -2.0235783679354835,
                0.14499677668080108
            ],
            [
                -4.897547497954034,
                -1.134112372515575,
                -0.18339778722787034
            ],
            [
                -5.226494067440626,
                1.2651104197116319,
                -0.6613612618807029
            ],
            [
                -3.2753117821119035,
                2.765533269179621,
                -0.8085217209560406
            ],
            [
                -1.013143562895642,
                1.8872832006214568,
                -0.4828034128087105
            ]
        ],
        "best_conformer_energy": -36.728834284242325,
        "fukui_radical": {
            "1": 0.04433998543048716,
            "2": 0.01700824791892644,
            "3": 0.05493945185503832,
            "4": 0.022880474603893863,
            "5": 0.08809712114531729,
            "6": 0.04522785898903403,
            "7": 0.03864759073460104,
            "8": 0.0351485493921559,
            "9": 0.0253932306905236,
            "10": 0.021185863099968852,
            "11": 0.04764929996486147,
            "12": 0.020292658616028914,
            "13": 0.02362260205806649,
            "14": 0.05899605560908706,
            "15": 0.04998464951808175,
            "16": 0.03974503231829379,
            "17": 0.05454434176536804,
            "18": 0.053233044839681325,
            "19": 0.04751598456554688,
            "20": 0.05551473806074343,
            "21": 0.06184859215562674,
            "22": 0.053863550429653455,
            "23": 0.04032107683436572
        }
    },
    "monomer2_data": {
        "smiles": "C=Cc1ccccc1",
        "ip": 13.323305315341791,
        "ip_corrected": 8.477305315341791,
        "ea": 3.959877946938991,
        "homo": -0.3831985290395731,
        "lumo": -0.2501966690470822,
        "charges": {
            "1": -0.08578934436600626,
            "2": -0.030259830597504936,
            "3": 0.01460321229207634,
            "4": -0.032430750206366904,
            "5": -0.029945437580900583,
            "6": -0.030379977266510892,
            "7": -0.029893803249294533,
            "8": -0.033985609164289644,
            "9": 0.038721208943534896,
            "10": 0.036165150785770366,
            "11": 0.033044651543264955,
            "12": 0.03404524115950842,
            "13": 0.028965873902585763,
            "14": 0.02897855112451052,
            "15": 0.028735857233840652,
            "16": 0.029425005445779806
        },
        "dipole": [
            -0.00599695759505601,
            0.00019607223034193996,
            -0.0018463290012354543
        ],
        "global_electrophilicity": 0.7692971421446727,
        "global_nucleophilicity": -8.477305315341791,
        "fukui_electrophilicity": {
            "1": 0.07209309972414436,
            "2": 0.04352510810351072,
            "3": 0.06230438364782903,
            "4": 0.03213425829454332,
            "5": 0.026312904098299825,
            "6": 0.06792045239213465,
            "7": 0.02876303434297292,
            "8": 0.03213381752054322,
            "9": 0.08376002497375698,
            "10": 0.09874578293688194,
            "11": 0.08145474392689236,
            "12": 0.06271242240018035,
            "13": 0.07540055911977092,
            "14": 0.08585900759002232,
            "15": 0.07693189708388407,
            "16": 0.06994850384463236
        },
        "fukui_nucleophilicity": {
            "1": 0.07260243947817689,
            "2": 0.04230113696056051,
            "3": 0.06268064465096645,
            "4": 0.03400845310298767,
            "5": 0.03110749772289005,
            "6": 0.07019025477516763,
            "7": 0.03211552237109847,
            "8": 0.03545308497970195,
            "9": 0.07943182497266889,
            "10": 0.09534951030583766,
            "11": 0.07725609403564751,
            "12": 0.06257820938745395,
            "13": 0.07457311950887512,
            "14": 0.0843599501650384,
            "15": 0.07603725882191792,
            "16": 0.06995499876126071
        },
        "boltzmann_weights": [
            0.500000013411314,
            0.499999986588686
        ],
        "best_conformer_elements": [
            6,
            6,
            6,
            6,
            6,
            6,
            6,
            6,
            1,
            1,
            1,
            1,
            1,
            1,
            1,
            1
        ],
        "best_conformer_coordinates": [
            [
                -2.7996504883392213,
                0.5067268078443541,
                -0.3307757375296494
            ],
            [
                -1.8569195165461714,
                -0.42690007797501867,
                -0.28622356006066363
            ],
            [
                -0.41676751008175084,
                -0.2137695987077826,
                -0.201669273122216
            ],
            [
                0.42662331397264364,
                -1.3257786864929022,
                -0.16462382115517377
            ],
            [
                1.7979836205106778,
                -1.1786700332337077,
                -0.08467855669649194
            ],
            [
                2.3586778805752897,
                0.08669579947474147,
                -0.03984625155398522
            ],
            [
                1.535500161801921,
                1.2006125291369882,
                -0.07571377159817176
            ],
            [
                0.16438284527030772,
                1.054224105562994,
                -0.15563770481452763
            ],
            [
                -2.5807350472122574,
                1.5604467593574072,
                -0.30764549962305027
            ],
            [
                -3.84233837136736,
                0.2458441308630186,
                -0.39306838601271116
            ],
            [
                -2.1533557273489103,
                -1.4689784286781729,
                -0.3136745326715254
            ],
            [
                -0.004100778556855408,
                -2.317010607449955,
                -0.1992554256323922
            ],
            [
                2.432537807928637,
                -2.052797839845991,
                -0.05718467471006832
            ],
            [
                3.4304258000072263,
                0.20491108070838962,
                0.022664187100062603
            ],
            [
                1.9676045890247913,
                2.190467602677497,
                -0.04101419015886248
            ],
            [
                -0.4598685796390594,
                1.9339764620498727,
                -0.18248094282351895
            ]
        ],
        "best_conformer_energy": -21.158608850502983,
        "fukui_radical": {
            "1": 0.07234813599322018,
            "2": 0.04291309873393513,
            "3": 0.06249235896699714,
            "4": 0.03379355109266154,
            "5": 0.03043928194186729,
            "6": 0.06905534188080434,
            "7": 0.028710059427083993,
            "8": 0.03307125813746206,
            "9": 0.08159578301382218,
            "10": 0.09704772989059883,
            "11": 0.07935561247948747,
            "12": 0.06995185022654472,
            "13": 0.0764846271348809,
            "14": 0.0851094403734144,
            "15": 0.07498679088705272,
            "16": 0.06264507982020588
        }
    }
}