{
    "file": "paper_748.json",
    "monomer1_s": "O=C1C=CC(=O)C1",
    "monomer2_s": "C=Cc1ccccc1",
    "monomer1": "4-Cyclopentene-1,3-dione",
    "monomer2": "Styrene",
    "r_values": {
        "constant_1": 1.5,
        "constant_2": 0.033
    },
    "conf_intervals": {
        "constant_conf_1": null,
        "constant_conf_2": null
    },
    "temperature": 50.0,
    "temperature_unit": "\u00b0C",
    "solvent": "c1ccccc1",
    "method": "solvent",
    "r-product": null,
    "source": "https://doi.org/10.1002/pol.1965.100030308",
    "calculation_method": "Alfrey-Price",
    "polymerization_type": "free radical",
    "logP": 1.6866,
    "monomer1_data": {
        "smiles": "O=C1C=CC(=O)C1",
        "ip": 14.523926576199926,
        "ip_corrected": 9.677926576199926,
        "ea": 5.946084390940229,
        "homo": -0.41687522224971457,
        "lumo": -0.3382946571731722,
        "charges": {
            "1": -0.32324983781786054,
            "2": 0.2430066872749141,
            "3": -0.03998481710371585,
            "4": -0.03998485877491974,
            "5": 0.2430065930610896,
            "6": -0.32325011852008484,
            "7": -0.12466069718465875,
            "8": 0.08141466663020466,
            "9": 0.08141578965284944,
            "10": 0.10114329732258313,
            "11": 0.10114329545959899
        },
        "dipole": [
            0.5949963713720462,
            0.06166731289673236,
            0.02829064450986498
        ],
        "global_electrophilicity": 1.692813849609727,
        "global_nucleophilicity": -9.677926576199926,
        "fukui_electrophilicity": {
            "1": 0.18796396766501688,
            "2": 0.059838679938965356,
            "3": 0.07495211184351726,
            "4": 0.07495217007918671,
            "5": 0.059838551977488524,
            "6": 0.18796352358702256,
            "7": -0.019133514434777302,
            "8": 0.10451494104825637,
            "9": 0.10451512661323255,
            "10": 0.08229722119923952,
            "11": 0.08229722048285733
        },
        "fukui_nucleophilicity": {
            "1": 0.21630849639716548,
            "2": 0.035729876635221036,
            "3": 0.04061324660971875,
            "4": 0.040613503017983166,
            "5": 0.035729779654480126,
            "6": 0.2163087613291529,
            "7": 0.038543149911789115,
            "8": 0.10524739840525393,
            "9": 0.10524655121097927,
            "10": 0.08282961930583362,
            "11": 0.08282961752241197
        },
        "boltzmann_weights": [
            1.0
        ],
        "best_conformer_elements": [
            8,
            6,
            6,
            6,
            6,
            8,
            6,
            1,
            1,
            1,
            1
        ],
        "best_conformer_coordinates": [
            [
                -0.6645774662613159,
                2.3230131265525826,
                0.17782659444090335
            ],
            [
                -0.2878848437898111,
                1.184807253510194,
                0.09233216824147905
            ],
            [
                1.1200744573657495,
                0.716959230710058,
                0.09731335457978531
            ],
            [
                1.1848258194426664,
                -0.6115980511934846,
                -0.014484006004250219
            ],
            [
                -0.17137380356454954,
                -1.2057999394072878,
                -0.10883620927511926
            ],
            [
                -0.4356910379717037,
                -2.373308602026921,
                -0.21736645711846264
            ],
            [
                -1.1538918698600464,
                -0.05274691400221408,
                -0.041466449798627916
            ],
            [
                1.9427702321587572,
                1.4057519592298635,
                0.18269103356453958
            ],
            [
                2.070854041235658,
                -1.222280208992427,
                -0.038456465979525484
            ],
            [
                -1.8305060398752653,
                -0.1572277828950191,
                0.8082706873019284
            ],
            [
                -1.774599488880131,
                -0.007570066193572383,
                -0.9378242393690986
            ]
        ],
        "best_conformer_energy": -20.82887135466302,
        "fukui_radical": {
            "1": 0.20213455085079599,
            "2": 0.04778237572574924,
            "3": 0.057782325242026665,
            "4": 0.057782198559421676,
            "5": 0.04778228793140023,
            "6": 0.2021345880109145,
            "7": 0.009707763304510737,
            "8": 0.1048840601747848,
            "9": 0.10488393078353295,
            "10": 0.08256296093936417,
            "11": 0.08256295847749112
        }
    },
    "monomer2_data": {
        "smiles": "C=Cc1ccccc1",
        "ip": 13.323305315341791,
        "ip_corrected": 8.477305315341791,
        "ea": 3.959877946938991,
        "homo": -0.3831985290395731,
        "lumo": -0.2501966690470822,
        "charges": {
            "1": -0.08578934436600626,
            "2": -0.030259830597504936,
            "3": 0.01460321229207634,
            "4": -0.032430750206366904,
            "5": -0.029945437580900583,
            "6": -0.030379977266510892,
            "7": -0.029893803249294533,
            "8": -0.033985609164289644,
            "9": 0.038721208943534896,
            "10": 0.036165150785770366,
            "11": 0.033044651543264955,
            "12": 0.03404524115950842,
            "13": 0.028965873902585763,
            "14": 0.02897855112451052,
            "15": 0.028735857233840652,
            "16": 0.029425005445779806
        },
        "dipole": [
            -0.00599695759505601,
            0.00019607223034193996,
            -0.0018463290012354543
        ],
        "global_electrophilicity": 0.7692971421446727,
        "global_nucleophilicity": -8.477305315341791,
        "fukui_electrophilicity": {
            "1": 0.07209309972414436,
            "2": 0.04352510810351072,
            "3": 0.06230438364782903,
            "4": 0.03213425829454332,
            "5": 0.026312904098299825,
            "6": 0.06792045239213465,
            "7": 0.02876303434297292,
            "8": 0.03213381752054322,
            "9": 0.08376002497375698,
            "10": 0.09874578293688194,
            "11": 0.08145474392689236,
            "12": 0.06271242240018035,
            "13": 0.07540055911977092,
            "14": 0.08585900759002232,
            "15": 0.07693189708388407,
            "16": 0.06994850384463236
        },
        "fukui_nucleophilicity": {
            "1": 0.07260243947817689,
            "2": 0.04230113696056051,
            "3": 0.06268064465096645,
            "4": 0.03400845310298767,
            "5": 0.03110749772289005,
            "6": 0.07019025477516763,
            "7": 0.03211552237109847,
            "8": 0.03545308497970195,
            "9": 0.07943182497266889,
            "10": 0.09534951030583766,
            "11": 0.07725609403564751,
            "12": 0.06257820938745395,
            "13": 0.07457311950887512,
            "14": 0.0843599501650384,
            "15": 0.07603725882191792,
            "16": 0.06995499876126071
        },
        "boltzmann_weights": [
            0.500000013411314,
            0.499999986588686
        ],
        "best_conformer_elements": [
            6,
            6,
            6,
            6,
            6,
            6,
            6,
            6,
            1,
            1,
            1,
            1,
            1,
            1,
            1,
            1
        ],
        "best_conformer_coordinates": [
            [
                -2.7996504883392213,
                0.5067268078443541,
                -0.3307757375296494
            ],
            [
                -1.8569195165461714,
                -0.42690007797501867,
                -0.28622356006066363
            ],
            [
                -0.41676751008175084,
                -0.2137695987077826,
                -0.201669273122216
            ],
            [
                0.42662331397264364,
                -1.3257786864929022,
                -0.16462382115517377
            ],
            [
                1.7979836205106778,
                -1.1786700332337077,
                -0.08467855669649194
            ],
            [
                2.3586778805752897,
                0.08669579947474147,
                -0.03984625155398522
            ],
            [
                1.535500161801921,
                1.2006125291369882,
                -0.07571377159817176
            ],
            [
                0.16438284527030772,
                1.054224105562994,
                -0.15563770481452763
            ],
            [
                -2.5807350472122574,
                1.5604467593574072,
                -0.30764549962305027
            ],
            [
                -3.84233837136736,
                0.2458441308630186,
                -0.39306838601271116
            ],
            [
                -2.1533557273489103,
                -1.4689784286781729,
                -0.3136745326715254
            ],
            [
                -0.004100778556855408,
                -2.317010607449955,
                -0.1992554256323922
            ],
            [
                2.432537807928637,
                -2.052797839845991,
                -0.05718467471006832
            ],
            [
                3.4304258000072263,
                0.20491108070838962,
                0.022664187100062603
            ],
            [
                1.9676045890247913,
                2.190467602677497,
                -0.04101419015886248
            ],
            [
                -0.4598685796390594,
                1.9339764620498727,
                -0.18248094282351895
            ]
        ],
        "best_conformer_energy": -21.158608850502983,
        "fukui_radical": {
            "1": 0.07234813599322018,
            "2": 0.04291309873393513,
            "3": 0.06249235896699714,
            "4": 0.03379355109266154,
            "5": 0.03043928194186729,
            "6": 0.06905534188080434,
            "7": 0.028710059427083993,
            "8": 0.03307125813746206,
            "9": 0.08159578301382218,
            "10": 0.09704772989059883,
            "11": 0.07935561247948747,
            "12": 0.06995185022654472,
            "13": 0.0764846271348809,
            "14": 0.0851094403734144,
            "15": 0.07498679088705272,
            "16": 0.06264507982020588
        }
    }
}