{
    "file": "paper_342.json",
    "monomer1_s": "C=CSc1ccccc1",
    "monomer2_s": "C=Cc1cccc2sc(S)nc12",
    "monomer1": "Phenyl Vinyl Sulfide",
    "monomer2": "Vinyl Mercaptobenzothiazole",
    "r_values": {
        "constant_1": 0.15,
        "constant_2": 0.95
    },
    "conf_intervals": {
        "constant_conf_1": null,
        "constant_conf_2": null
    },
    "temperature": 60.0,
    "temperature_unit": "\u00b0C",
    "solvent": "c1ccccc1",
    "method": "bulk",
    "r-product": 0.14,
    "source": "http://dx.doi.org/10.1080/00222337808069413",
    "calculation_method": "least-squares method",
    "polymerization_type": "free radical",
    "logP": 1.6866,
    "monomer1_data": {
        "smiles": "C=CSc1ccccc1",
        "ip": 12.776623253761462,
        "ip_corrected": 7.930623253761462,
        "ea": 3.989481035707413,
        "homo": -0.359476540266666,
        "lumo": -0.2467765447105593,
        "charges": {
            "1": -0.10157390952278089,
            "2": 0.014601061782957503,
            "3": -0.16205751937204976,
            "4": 0.05238265976715918,
            "5": -0.030859130413588953,
            "6": -0.027571293736828276,
            "7": -0.02776643415413306,
            "8": -0.027571681124537777,
            "9": -0.03086114985701926,
            "10": 0.04319847147412032,
            "11": 0.04979956931694242,
            "12": 0.03625778123500508,
            "13": 0.04726667929324631,
            "14": 0.039514633318284996,
            "15": 0.03846638090568133,
            "16": 0.03952368463116884,
            "17": 0.047250196456356565
        },
        "dipole": [
            -0.7259267742485495,
            -0.045048330723213785,
            -0.5924450810880845
        ],
        "global_electrophilicity": 0.7118775117162633,
        "global_nucleophilicity": -7.930623253761462,
        "fukui_electrophilicity": {
            "1": 0.03021963389059487,
            "2": 0.006389882065021946,
            "3": 0.20400236464220917,
            "4": 0.040921576787523034,
            "5": 0.03080077008821689,
            "6": 0.03136391505880488,
            "7": 0.06543932499490389,
            "8": 0.031374293510160835,
            "9": 0.030786261061603648,
            "10": 0.06652071298981739,
            "11": 0.05288834279856894,
            "12": 0.04207502166286638,
            "13": 0.06687598044524862,
            "14": 0.07488386260334823,
            "15": 0.08370010271816389,
            "16": 0.0748885483599262,
            "17": 0.06686940632300567
        },
        "fukui_nucleophilicity": {
            "1": 0.060876673957792365,
            "2": -0.026656354776192562,
            "3": 0.45645541525175065,
            "4": -0.03576193211599492,
            "5": 0.011859544136164843,
            "6": 0.02004333452762154,
            "7": 0.02148660705121007,
            "8": 0.020030431829475732,
            "9": 0.011862807364307115,
            "10": 0.08698177397253276,
            "11": 0.06946504655088569,
            "12": 0.0699657146736763,
            "13": 0.03119413104340392,
            "14": 0.060430608978133786,
            "15": 0.05016038607759818,
            "16": 0.06041240345819171,
            "17": 0.031193408369973606
        },
        "boltzmann_weights": [
            0.4999998978437345,
            0.5000001021562654
        ],
        "best_conformer_elements": [
            6,
            6,
            16,
            6,
            6,
            6,
            6,
            6,
            6,
            1,
            1,
            1,
            1,
            1,
            1,
            1,
            1
        ],
        "best_conformer_coordinates": [
            [
                -3.6684233535478166,
                0.6317141153077644,
                -0.050523026565762214
            ],
            [
                -2.3679630816991386,
                0.3976265610215167,
                -0.010455725216166027
            ],
            [
                -1.2848411811541367,
                1.1412082110411919,
                1.1630295370611443
            ],
            [
                0.2460833951659195,
                0.3803549833254241,
                0.6198573204612893
            ],
            [
                1.017062944536386,
                1.00734684817063,
                -0.3450232462116022
            ],
            [
                2.1883454965376217,
                0.40800600509613666,
                -0.7747730258411358
            ],
            [
                2.5852254106932686,
                -0.8058721079972447,
                -0.23858368880336883
            ],
            [
                1.8123034918569236,
                -1.4235024473178668,
                0.7307443204748066
            ],
            [
                0.6397527715094063,
                -0.8303309229127952,
                1.1655821701714408
            ],
            [
                -4.2951336720498325,
                0.15620343436184855,
                -0.7844630531730259
            ],
            [
                -4.144320070208052,
                1.3013085612125113,
                0.6441279941152985
            ],
            [
                -1.8673524050622872,
                -0.2692264353130145,
                -0.6956007695232855
            ],
            [
                0.6970855051806353,
                1.953930499989309,
                -0.7538279784114561
            ],
            [
                2.791551395292104,
                0.8912432838741229,
                -1.5289355029267462
            ],
            [
                3.499767251265355,
                -1.2707731845096208,
                -0.5757071360812971
            ],
            [
                2.122064679947264,
                -2.368812018882908,
                1.1509694528812822
            ],
            [
                0.028791421736427514,
                -1.3004253811751818,
                1.9213932549813841
            ]
        ],
        "best_conformer_energy": -24.39516979575971,
        "fukui_radical": {
            "1": 0.04554775784470258,
            "2": -0.01013345157250297,
            "3": 0.3302270743657334,
            "4": 0.002580246004421499,
            "5": 0.02133051678811081,
            "6": 0.025704236855680625,
            "7": 0.04346349454845727,
            "8": 0.025702971089146393,
            "9": 0.021325159721972985,
            "10": 0.0767508577241466,
            "11": 0.061176516976906875,
            "12": 0.05601987985672992,
            "13": 0.04903532512799577,
            "14": 0.06765736817748734,
            "15": 0.06693037812464961,
            "16": 0.0676503039147628,
            "17": 0.04903136462682896
        }
    },
    "monomer2_data": {
        "smiles": "C=Cc1cccc2sc(S)nc12",
        "ip": 12.703198685371914,
        "ip_corrected": 7.857198685371914,
        "ea": 5.253027239272822,
        "homo": -0.3850552935908037,
        "lumo": -0.27795100757953756,
        "charges": {
            "1": -0.08379141556200435,
            "2": -0.026597006258185438,
            "3": 0.008795000027855118,
            "4": -0.03836219511584125,
            "5": -0.03296437416054657,
            "6": -0.03919851847773209,
            "7": 0.02159417018523546,
            "8": -0.07621724642125724,
            "9": 0.15867296779061352,
            "10": -0.16973746054852654,
            "11": -0.25991842701757484,
            "12": 0.07322097789376726,
            "13": 0.04184763719074958,
            "14": 0.042568453895322635,
            "15": 0.05486621793003322,
            "16": 0.04541568356065273,
            "17": 0.04153081056907246,
            "18": 0.043600599508192894,
            "19": 0.19467412501016992
        },
        "dipole": [
            -0.7204679694974968,
            -0.14516125910040223,
            0.03598292456048614
        ],
        "global_electrophilicity": 1.1459036652326082,
        "global_nucleophilicity": -7.857198685371914,
        "fukui_electrophilicity": {
            "1": 0.04424019968765365,
            "2": 0.017658032452452732,
            "3": 0.04799824649611038,
            "4": 0.014962523311650981,
            "5": 0.031920504355024415,
            "6": 0.035115057847153436,
            "7": -0.004634390985714165,
            "8": 0.1945506750622288,
            "9": 0.017225943656926923,
            "10": 0.1671596107713371,
            "11": 0.06353640327339277,
            "12": 0.018411386550984926,
            "13": 0.05436970496276755,
            "14": 0.06512342392663766,
            "15": 0.042947205113420636,
            "16": 0.0496599868363372,
            "17": 0.06084624476657853,
            "18": 0.05635194004806285,
            "19": 0.0225573018670287
        },
        "fukui_nucleophilicity": {
            "1": 0.04396478051730204,
            "2": 0.02131099974939335,
            "3": 0.037019744556510886,
            "4": 0.0224383381891829,
            "5": 0.029143968495894235,
            "6": 0.03402122043096037,
            "7": -0.0009905229674785493,
            "8": 0.1935386817466858,
            "9": -0.03253760612200618,
            "10": 0.24572469229795937,
            "11": 0.053265772063241484,
            "12": 0.018884961097393335,
            "13": 0.05219469588336061,
            "14": 0.06247878770767785,
            "15": 0.04105846330842281,
            "16": 0.046736743010878545,
            "17": 0.0552877963424932,
            "18": 0.051622862806379385,
            "19": 0.024835620885737902
        },
        "boltzmann_weights": [
            0.8823709221233611,
            0.11762907787663889
        ],
        "best_conformer_elements": [
            6,
            6,
            6,
            6,
            6,
            6,
            6,
            16,
            6,
            16,
            7,
            6,
            1,
            1,
            1,
            1,
            1,
            1,
            1
        ],
        "best_conformer_coordinates": [
            [
                0.9504682311014432,
                3.149514870625998,
                -0.14848749147079288
            ],
            [
                0.15382621073536254,
                2.0936054079935147,
                -0.26751715189197084
            ],
            [
                0.49034543032554917,
                0.717629452203466,
                0.06288243188522678
            ],
            [
                1.721363515138037,
                0.3022632970224563,
                0.5615629043627678
            ],
            [
                1.9847008146369625,
                -1.0272920322651466,
                0.8589916584777735
            ],
            [
                1.0285722485170194,
                -2.0100776759961785,
                0.6723678328548024
            ],
            [
                -0.20200403127994634,
                -1.6214037602722235,
                0.17794682518127264
            ],
            [
                -1.5936825589707726,
                -2.6114421833117367,
                -0.16141706591631222
            ],
            [
                -2.426427762968729,
                -1.1282138520695029,
                -0.6836153900027777
            ],
            [
                -4.063831597200285,
                -1.1704270901379141,
                -1.255476620036677
            ],
            [
                -1.7447040854096203,
                -0.05343549929383201,
                -0.6080532369429991
            ],
            [
                -0.4866529182180836,
                -0.27328625526711275,
                -0.1298677164097555
            ],
            [
                1.960733779663716,
                3.083537582037673,
                0.21846915245994333
            ],
            [
                0.6118116434507599,
                4.1344784866826805,
                -0.41952414765289026
            ],
            [
                -0.8532785128246595,
                2.2163132884613375,
                -0.642085590321298
            ],
            [
                2.497577465039462,
                1.0332273589421543,
                0.7233521571277575
            ],
            [
                2.9548407077518433,
                -1.30311063910637,
                1.2440717852562735
            ],
            [
                1.2313055645765922,
                -3.0438823702061466,
                0.9029252695371478
            ],
            [
                -4.2149641493560726,
                -2.4879984019184738,
                -1.1065256170812776
            ]
        ],
        "best_conformer_energy": -32.231316640477175,
        "fukui_radical": {
            "1": 0.044487626224332284,
            "2": 0.01985153971254634,
            "3": 0.04282423389679767,
            "4": 0.017928565121428392,
            "5": 0.03118229250888787,
            "6": 0.0341706421210157,
            "7": -0.0019785360821566525,
            "8": 0.18598272219381873,
            "9": -0.00659598614871415,
            "10": 0.21163283000299732,
            "11": 0.06028824357684845,
            "12": 0.019195813968038287,
            "13": 0.05360191137482675,
            "14": 0.06411208873316954,
            "15": 0.04236478862660249,
            "16": 0.048050471587087695,
            "17": 0.058212361321870576,
            "18": 0.053964256709722234,
            "19": 0.02072413455089947
        }
    }
}