{
    "file": "paper_98.json",
    "monomer1_s": "C=C(Cl)Cl",
    "monomer2_s": "C=Cc1ccccc1",
    "monomer1": "Vinylidene chloride",
    "monomer2": "Styrene",
    "r_values": {
        "constant_1": 2.1,
        "constant_2": 0.145
    },
    "conf_intervals": {
        "constant_conf_1": 0.2,
        "constant_conf_2": 0.009
    },
    "temperature": 50.0,
    "temperature_unit": "\u00b0C",
    "solvent": null,
    "method": "bulk",
    "r-product": null,
    "source": "https://doi.org/10.1002/pol.1959.120411411",
    "calculation_method": "Mayo and Lewis",
    "polymerization_type": "free radical",
    "monomer1_data": {
        "smiles": "C=C(Cl)Cl",
        "ip": 14.545826670036444,
        "ip_corrected": 9.699826670036444,
        "ea": 3.125435773848216,
        "homo": -0.4169969443366817,
        "lumo": -0.24983940943712082,
        "charges": {
            "1": -0.11675257770186528,
            "2": 0.17076445467177065,
            "3": -0.11765574089474207,
            "4": -0.11784955359398736,
            "5": 0.09075124404740334,
            "6": 0.09074217347140139
        },
        "dipole": [
            -0.5522055551960544,
            -0.056955529199193035,
            0.1105385502544702
        ],
        "global_electrophilicity": 0.6968744516621451,
        "global_nucleophilicity": -9.699826670036444,
        "fukui_electrophilicity": {
            "1": 0.11977765816987376,
            "2": 0.10055574869485487,
            "3": 0.23977157488083534,
            "4": 0.23975018173987045,
            "5": 0.1500758774170347,
            "6": 0.15006895909751944
        },
        "fukui_nucleophilicity": {
            "1": 0.09085708277069589,
            "2": 0.014334766795091713,
            "3": 0.33451930573195604,
            "4": 0.33459517393105725,
            "5": 0.11284510846996021,
            "6": 0.11284856230124969
        },
        "boltzmann_weights": [
            1.0
        ],
        "best_conformer_elements": [
            6,
            6,
            17,
            17,
            1,
            1
        ],
        "best_conformer_coordinates": [
            [
                -0.7827949170738707,
                -0.08180892723677569,
                0.055122835996198855
            ],
            [
                0.527311518924798,
                0.055011227185247376,
                -0.03711912001987348
            ],
            [
                1.6197686670599762,
                -1.2682315122157641,
                0.0791441924504079
            ],
            [
                1.2972979552970054,
                1.5731347807024703,
                -0.284564074072238
            ],
            [
                -1.2277110534340032,
                -1.0474466535922802,
                0.20998758999503517
            ],
            [
                -1.4338721654821402,
                0.7693410851570951,
                -0.022571419057756812
            ]
        ],
        "best_conformer_energy": -14.36970540646129,
        "fukui_radical": {
            "1": 0.1053162211630245,
            "2": 0.05744479891926864,
            "3": 0.2871521829636079,
            "4": 0.2871678237738007,
            "5": 0.13145879623421866,
            "6": 0.13146017694605439
        }
    },
    "monomer2_data": {
        "smiles": "C=Cc1ccccc1",
        "ip": 13.323305315341791,
        "ip_corrected": 8.477305315341791,
        "ea": 3.959877946938991,
        "homo": -0.3831985290395731,
        "lumo": -0.2501966690470822,
        "charges": {
            "1": -0.08578934436600626,
            "2": -0.030259830597504936,
            "3": 0.01460321229207634,
            "4": -0.032430750206366904,
            "5": -0.029945437580900583,
            "6": -0.030379977266510892,
            "7": -0.029893803249294533,
            "8": -0.033985609164289644,
            "9": 0.038721208943534896,
            "10": 0.036165150785770366,
            "11": 0.033044651543264955,
            "12": 0.03404524115950842,
            "13": 0.028965873902585763,
            "14": 0.02897855112451052,
            "15": 0.028735857233840652,
            "16": 0.029425005445779806
        },
        "dipole": [
            -0.00599695759505601,
            0.00019607223034193996,
            -0.0018463290012354543
        ],
        "global_electrophilicity": 0.7692971421446727,
        "global_nucleophilicity": -8.477305315341791,
        "fukui_electrophilicity": {
            "1": 0.07209309972414436,
            "2": 0.04352510810351072,
            "3": 0.06230438364782903,
            "4": 0.03213425829454332,
            "5": 0.026312904098299825,
            "6": 0.06792045239213465,
            "7": 0.02876303434297292,
            "8": 0.03213381752054322,
            "9": 0.08376002497375698,
            "10": 0.09874578293688194,
            "11": 0.08145474392689236,
            "12": 0.06271242240018035,
            "13": 0.07540055911977092,
            "14": 0.08585900759002232,
            "15": 0.07693189708388407,
            "16": 0.06994850384463236
        },
        "fukui_nucleophilicity": {
            "1": 0.07260243947817689,
            "2": 0.04230113696056051,
            "3": 0.06268064465096645,
            "4": 0.03400845310298767,
            "5": 0.03110749772289005,
            "6": 0.07019025477516763,
            "7": 0.03211552237109847,
            "8": 0.03545308497970195,
            "9": 0.07943182497266889,
            "10": 0.09534951030583766,
            "11": 0.07725609403564751,
            "12": 0.06257820938745395,
            "13": 0.07457311950887512,
            "14": 0.0843599501650384,
            "15": 0.07603725882191792,
            "16": 0.06995499876126071
        },
        "boltzmann_weights": [
            0.500000013411314,
            0.499999986588686
        ],
        "best_conformer_elements": [
            6,
            6,
            6,
            6,
            6,
            6,
            6,
            6,
            1,
            1,
            1,
            1,
            1,
            1,
            1,
            1
        ],
        "best_conformer_coordinates": [
            [
                -2.7996504883392213,
                0.5067268078443541,
                -0.3307757375296494
            ],
            [
                -1.8569195165461714,
                -0.42690007797501867,
                -0.28622356006066363
            ],
            [
                -0.41676751008175084,
                -0.2137695987077826,
                -0.201669273122216
            ],
            [
                0.42662331397264364,
                -1.3257786864929022,
                -0.16462382115517377
            ],
            [
                1.7979836205106778,
                -1.1786700332337077,
                -0.08467855669649194
            ],
            [
                2.3586778805752897,
                0.08669579947474147,
                -0.03984625155398522
            ],
            [
                1.535500161801921,
                1.2006125291369882,
                -0.07571377159817176
            ],
            [
                0.16438284527030772,
                1.054224105562994,
                -0.15563770481452763
            ],
            [
                -2.5807350472122574,
                1.5604467593574072,
                -0.30764549962305027
            ],
            [
                -3.84233837136736,
                0.2458441308630186,
                -0.39306838601271116
            ],
            [
                -2.1533557273489103,
                -1.4689784286781729,
                -0.3136745326715254
            ],
            [
                -0.004100778556855408,
                -2.317010607449955,
                -0.1992554256323922
            ],
            [
                2.432537807928637,
                -2.052797839845991,
                -0.05718467471006832
            ],
            [
                3.4304258000072263,
                0.20491108070838962,
                0.022664187100062603
            ],
            [
                1.9676045890247913,
                2.190467602677497,
                -0.04101419015886248
            ],
            [
                -0.4598685796390594,
                1.9339764620498727,
                -0.18248094282351895
            ]
        ],
        "best_conformer_energy": -21.158608850502983,
        "fukui_radical": {
            "1": 0.07234813599322018,
            "2": 0.04291309873393513,
            "3": 0.06249235896699714,
            "4": 0.03379355109266154,
            "5": 0.03043928194186729,
            "6": 0.06905534188080434,
            "7": 0.028710059427083993,
            "8": 0.03307125813746206,
            "9": 0.08159578301382218,
            "10": 0.09704772989059883,
            "11": 0.07935561247948747,
            "12": 0.06995185022654472,
            "13": 0.0764846271348809,
            "14": 0.0851094403734144,
            "15": 0.07498679088705272,
            "16": 0.06264507982020588
        }
    }
}