{
    "file": "paper_199.json",
    "monomer1_s": "C=Cc1c(C)cc(C)cc1C",
    "monomer2_s": "C=CC#N",
    "monomer1": "Vinylmesitylene",
    "monomer2": "Acrylonitrile",
    "r_values": {
        "constant_1": 0.16,
        "constant_2": 0.98
    },
    "conf_intervals": {
        "constant_conf_1": 0.02,
        "constant_conf_2": 0.02
    },
    "temperature": 138.0,
    "temperature_unit": "\u00b0C",
    "solvent": "c1ccccc1",
    "method": "solvent",
    "r-product": null,
    "source": "Bull. Soc. Chim. Belg., 59, pp. 629-648, 1950",
    "calculation_method": "Alfrey-Price",
    "polymerization_type": "free radical",
    "logP": 1.6866,
    "monomer1_data": {
        "smiles": "C=Cc1c(C)cc(C)cc1C",
        "ip": 12.780301368449452,
        "ip_corrected": 7.934301368449452,
        "ea": 3.035782749533461,
        "homo": -0.37475467007580265,
        "lumo": -0.20764772427388997,
        "charges": {
            "1": -0.08862274727170809,
            "2": -0.020378512926282746,
            "3": -0.009490413261077454,
            "4": 0.008742494603750928,
            "5": -0.10568410775079842,
            "6": -0.055556948794521756,
            "7": 0.010769119413309186,
            "8": -0.10688162432475734,
            "9": -0.055558708245688856,
            "10": 0.00876748335807917,
            "11": -0.105694107708494,
            "12": 0.030667055351551932,
            "13": 0.03341222282942294,
            "14": 0.032472510032846694,
            "15": 0.04130524500881191,
            "16": 0.043443795213146785,
            "17": 0.0386095107221758,
            "18": 0.026327356467987853,
            "19": 0.04386653864401729,
            "20": 0.03988859407570742,
            "21": 0.03989039128692988,
            "22": 0.026330480531398616,
            "23": 0.04349905222874439,
            "24": 0.03860939413874848,
            "25": 0.04126592637669652
        },
        "dipole": [
            -0.0138484930913698,
            -0.0030628553097927056,
            -0.06895340456983111
        ],
        "global_electrophilicity": 0.4810961904691635,
        "global_nucleophilicity": -7.934301368449452,
        "fukui_electrophilicity": {
            "1": 0.04038148067230689,
            "2": 0.03243360702328793,
            "3": 0.0433991953972899,
            "4": 0.051734308813698705,
            "5": -0.024914696670266273,
            "6": 0.036877286043201306,
            "7": 0.061388571744118506,
            "8": -0.02648784318804545,
            "9": 0.03666415972495221,
            "10": 0.052061604645381815,
            "11": -0.0250016805746211,
            "12": 0.07566695133246565,
            "13": 0.05896159437810462,
            "14": 0.06960254565831855,
            "15": 0.03976734892524805,
            "16": 0.03765694927001985,
            "17": 0.04248632779285351,
            "18": 0.07217388387634044,
            "19": 0.04909316431147723,
            "20": 0.041834484055258254,
            "21": 0.041860004131795026,
            "22": 0.07212251907597345,
            "23": 0.037832535271286515,
            "24": 0.04253702911710154,
            "25": 0.03986866917269836
        },
        "fukui_nucleophilicity": {
            "1": 0.01896214720361776,
            "2": -0.004290741884608484,
            "3": 0.06381142011533021,
            "4": 0.038022139136612176,
            "5": -0.022509202203468998,
            "6": 0.029119971054427728,
            "7": 0.057568821747529975,
            "8": -0.02278580770768915,
            "9": 0.029030385718963977,
            "10": 0.03804407482568245,
            "11": -0.022463653263126576,
            "12": 0.05617910585382511,
            "13": 0.04414557873890901,
            "14": 0.07645590413092977,
            "15": 0.05246147521239659,
            "16": 0.05589152018614882,
            "17": 0.04342705901634062,
            "18": 0.0610195247256172,
            "19": 0.08132986576772144,
            "20": 0.05677454666592006,
            "21": 0.05673905428750235,
            "22": 0.06096128312387839,
            "23": 0.0562312455006285,
            "24": 0.04350016786690523,
            "25": 0.052374114198133766
        },
        "boltzmann_weights": [
            0.5000002441664372,
            0.4999997558335629
        ],
        "best_conformer_elements": [
            6,
            6,
            6,
            6,
            6,
            6,
            6,
            6,
            6,
            6,
            6,
            1,
            1,
            1,
            1,
            1,
            1,
            1,
            1,
            1,
            1,
            1,
            1,
            1,
            1
        ],
        "best_conformer_coordinates": [
            [
                -2.968002664846018,
                -0.41368854128971244,
                0.9830846999995914
            ],
            [
                -2.228788262046782,
                -0.3889549422570698,
                -0.11047840518916101
            ],
            [
                -0.7713514538989341,
                -0.14163439064045372,
                -0.11655225613530798
            ],
            [
                0.11744926203248188,
                -1.213274672847132,
                -0.025290223825008624
            ],
            [
                -0.406230685879575,
                -2.6138825663788277,
                0.09126130640659322
            ],
            [
                1.4815770518580027,
                -0.9669230553462965,
                -0.0453019499687731
            ],
            [
                1.9816911784622362,
                0.32220630614393425,
                -0.1562554613668712
            ],
            [
                3.459912875132972,
                0.5733763520100706,
                -0.15321541935646543
            ],
            [
                1.0839225712176899,
                1.375584291814873,
                -0.24974922639109887
            ],
            [
                -0.28563747395126826,
                1.1612049133753253,
                -0.23242936331075129
            ],
            [
                -1.2421460438983045,
                2.311571457321706,
                -0.3387593925480169
            ],
            [
                -4.029289822062146,
                -0.5969516717149513,
                0.9550699952790733
            ],
            [
                -2.5359957865806066,
                -0.2501564063350642,
                1.9573364698970388
            ],
            [
                -2.6808938501064565,
                -0.5560380896910537,
                -1.0824878567682739
            ],
            [
                -0.9935370300472514,
                -2.7257029396017853,
                1.001836526860927
            ],
            [
                0.41019124112860633,
                -3.3315293382088584,
                0.1122309492099147
            ],
            [
                -1.0576348463661744,
                -2.8488692507206594,
                -0.7499296516237882
            ],
            [
                2.1695739524950968,
                -1.7982803950258384,
                0.024566412326031618
            ],
            [
                3.9983464417755306,
                -0.27328692152312223,
                -0.5731214728516004
            ],
            [
                3.810577927632985,
                0.7224306924589624,
                0.8688360622960857
            ],
            [
                3.7031571619461903,
                1.4658074204156861,
                -0.7254634026605998
            ],
            [
                1.459408880847276,
                2.385599064968922,
                -0.3406553658335934
            ],
            [
                -1.8579924000178858,
                2.3781640585136112,
                0.5572603864556916
            ],
            [
                -0.7066440998166733,
                3.249341279995611,
                -0.46455598431087886
            ],
            [
                -1.9116641355944595,
                2.173887344562373,
                -1.1872373818819664
            ]
        ],
        "best_conformer_energy": -30.66538677617527,
        "fukui_radical": {
            "1": 0.029547598383398127,
            "2": 0.013996298550652993,
            "3": 0.05363531772699509,
            "4": 0.04486504425880585,
            "5": -0.023721942339316245,
            "6": 0.03297138648217156,
            "7": 0.05946537618525742,
            "8": -0.024564513744541022,
            "9": 0.03282973476460365,
            "10": 0.04501991862983051,
            "11": -0.023742808803797873,
            "12": 0.0658899783486584,
            "13": 0.05162047950739193,
            "14": 0.07342702648530329,
            "15": 0.04651944293238513,
            "16": 0.04293670377881813,
            "17": 0.04629500123793572,
            "18": 0.06661774946526851,
            "19": 0.049068157955960735,
            "20": 0.06560584854421328,
            "21": 0.049104321295740015,
            "22": 0.06655066325651741,
            "23": 0.0467680227942035,
            "24": 0.04299447550287709,
            "25": 0.046300718809256056
        }
    },
    "monomer2_data": {
        "smiles": "C=CC#N",
        "ip": 15.437176806318503,
        "ip_corrected": 10.591176806318503,
        "ea": 3.8289813808508004,
        "homo": -0.4277683293695803,
        "lumo": -0.28211163098961317,
        "charges": {
            "1": -0.05961169012740816,
            "2": -0.01732687045759991,
            "3": 0.1182224067521214,
            "4": -0.22501464611972768,
            "5": 0.060876740653373736,
            "6": 0.056910808147125444,
            "7": 0.06594325115211837
        },
        "dipole": [
            -1.3682395954382502,
            0.4193750676404717,
            0.3073979410978311
        ],
        "global_electrophilicity": 0.9870666976349574,
        "global_nucleophilicity": -10.591176806318503,
        "fukui_electrophilicity": {
            "1": 0.11689097730490014,
            "2": 0.09589168721827514,
            "3": 0.0833043050370818,
            "4": 0.27942089987505603,
            "5": 0.1382479191580376,
            "6": 0.1483932400282401,
            "7": 0.1378509713784164
        },
        "fukui_nucleophilicity": {
            "1": 0.046376077246505845,
            "2": 0.06110797532385699,
            "3": 0.06382105585034101,
            "4": 0.3348673323308884,
            "5": 0.1560141376419441,
            "6": 0.1714270905761467,
            "7": 0.16638633108003964
        },
        "boltzmann_weights": [
            1.0
        ],
        "best_conformer_elements": [
            6,
            6,
            6,
            7,
            1,
            1,
            1
        ],
        "best_conformer_coordinates": [
            [
                -0.9016384047148559,
                -0.45919578416436035,
                -0.030680752421494126
            ],
            [
                -0.03133887486045679,
                0.4750179204570864,
                0.33412550579689987
            ],
            [
                1.3413190298728732,
                0.20293977262825588,
                0.5154865184659979
            ],
            [
                2.457902722380965,
                -0.00894504881153441,
                0.6651431422029201
            ],
            [
                -1.946002725249464,
                -0.2338337288304437,
                -0.16452309959900452
            ],
            [
                -0.5958059974068218,
                -1.4775501660291765,
                -0.20646164096824965
            ],
            [
                -0.32443575002222486,
                1.5015670294584123,
                0.5140087192113937
            ]
        ],
        "best_conformer_energy": -10.79113366694523,
        "fukui_radical": {
            "1": 0.08164051438776673,
            "2": 0.07850509074248685,
            "3": 0.07355981073640835,
            "4": 0.30714514424221057,
            "5": 0.15989706723025732,
            "6": 0.14713580820257063,
            "7": 0.152116564483423
        }
    }
}