{
    "file": "paper_198.json",
    "monomer1_s": "C=C(C)C(=O)OC",
    "monomer2_s": "C=CC(=O)C(C)(C)C",
    "monomer1": "Methyl Methacrylate",
    "monomer2": "t-Butyl Vinyl Ketone",
    "r_values": {
        "constant_1": 0.8,
        "constant_2": 1.2
    },
    "conf_intervals": {
        "constant_conf_1": null,
        "constant_conf_2": null
    },
    "temperature": 60.0,
    "temperature_unit": "\u00b0C",
    "solvent": "c1ccccc1",
    "method": "solvent",
    "r-product": null,
    "source": "https://doi.org/10.1002/macp.1977.021891010",
    "calculation_method": null,
    "polymerization_type": "free radical",
    "logP": 1.6866,
    "monomer1_data": {
        "smiles": "C=C(C)C(=O)OC",
        "ip": 14.236483972656346,
        "ip_corrected": 9.390483972656346,
        "ea": 3.965500029838621,
        "homo": -0.41127032387995544,
        "lumo": -0.26950129410851986,
        "charges": {
            "1": -0.08192644204948094,
            "2": -0.007758938742676788,
            "3": -0.11040535221003818,
            "4": 0.34920872447012063,
            "5": -0.4109728775483542,
            "6": -0.2641504660609933,
            "7": 0.035165391019299455,
            "8": 0.05595603293225091,
            "9": 0.06272990863841402,
            "10": 0.0654729267794723,
            "11": 0.06547300436630195,
            "12": 0.05055145378886996,
            "13": 0.06218368236208788,
            "14": 0.06218369754524128,
            "15": 0.06628925470948674
        },
        "dipole": [
            0.042189455222522244,
            -0.7608520055498939,
            0.06845067776298096
        ],
        "global_electrophilicity": 0.8813642895109609,
        "global_nucleophilicity": -9.390483972656346,
        "fukui_electrophilicity": {
            "1": 0.0916099776458229,
            "2": 0.08194480124254042,
            "3": -0.03870700638664119,
            "4": 0.08164153093062626,
            "5": 0.19459726093903607,
            "6": 0.07836988169535863,
            "7": -0.03498260375536273,
            "8": 0.11948701878867324,
            "9": 0.10428214255764144,
            "10": 0.06198656850236382,
            "11": 0.06198649192249827,
            "12": 0.06017707177149582,
            "13": 0.04047835404033179,
            "14": 0.04047833993174442,
            "15": 0.05665017017387712
        },
        "fukui_nucleophilicity": {
            "1": 0.05119712917593304,
            "2": 0.06180413311607634,
            "3": -0.01940489925170101,
            "4": 0.013324588985722141,
            "5": 0.15569776430206916,
            "6": 0.09388640424022587,
            "7": -0.026619602504503993,
            "8": 0.1033747366245307,
            "9": 0.08566644804667564,
            "10": 0.09644914037738059,
            "11": 0.09644892416456753,
            "12": 0.07537139198169276,
            "13": 0.07058385012774213,
            "14": 0.07058380855498125,
            "15": 0.07163618205861905
        },
        "fukui_radical": {
            "1": 0.07140355341087798,
            "2": 0.07187446717930837,
            "3": -0.029055952819171102,
            "4": 0.0474830599581742,
            "5": 0.17514751262055261,
            "6": 0.08612814296779225,
            "7": -0.030801103129933362,
            "8": 0.11143087770660196,
            "9": 0.09497429530215853,
            "10": 0.0792178544398722,
            "11": 0.0792177080435329,
            "12": 0.06777423187659429,
            "13": 0.05553110208403696,
            "14": 0.05553107424336284,
            "15": 0.06414317611624809
        },
        "best_conformer_coordinates": [
            [
                -1.0679874721335532,
                -1.591695393005097,
                0.1190505870012582
            ],
            [
                -0.9789696677262058,
                -0.2700634531963184,
                0.015569141935180716
            ],
            [
                -2.152414502903391,
                0.6374624311751305,
                -0.17280008390949914
            ],
            [
                0.33254570919277476,
                0.4296358416853463,
                0.08092895025997722
            ],
            [
                0.4667403029430531,
                1.6257720313950312,
                -0.007628838348907176
            ],
            [
                1.368254296471444,
                -0.40841920824982436,
                0.25032440426561303
            ],
            [
                2.6475724912740755,
                0.20137513824591807,
                0.3202395569867531
            ],
            [
                -2.019589027601903,
                -2.0945475365498094,
                0.07121808444667849
            ],
            [
                -0.1962306925063066,
                -2.2069421172817725,
                0.25399723219802745
            ],
            [
                -2.0338701146835967,
                1.2076321838811321,
                -1.092623302807032
            ],
            [
                -2.1989630647919824,
                1.3547927910841435,
                0.6448131655597281
            ],
            [
                -3.078828528124943,
                0.07221525271252598,
                -0.21295259783201617
            ],
            [
                2.690936133782629,
                0.8988648503855212,
                1.159567291618923
            ],
            [
                2.858178339796767,
                0.7497948862504704,
                -0.6004798925286432
            ],
            [
                3.3626258023029116,
                -0.6058776985323392,
                0.4565564987903857
            ]
        ],
        "best_conformer_elements": [
            6,
            6,
            6,
            6,
            8,
            8,
            6,
            1,
            1,
            1,
            1,
            1,
            1,
            1,
            1
        ],
        "best_conformer_energy": -22.894683429971266
    },
    "monomer2_data": {
        "smiles": "C=CC(=O)C(C)(C)C",
        "ip": 13.504174338591957,
        "ip_corrected": 8.658174338591957,
        "ea": 4.239986535181476,
        "homo": -0.38560050181296746,
        "lumo": -0.28186453509605053,
        "charges": {
            "1": -0.05774393761549883,
            "2": -0.051864179175074965,
            "3": 0.22999709412689695,
            "4": -0.3587387665108733,
            "5": 0.00678242228632997,
            "6": -0.10615707941210625,
            "7": -0.10615710760139174,
            "8": -0.1053076962098757,
            "9": 0.07521232775969712,
            "10": 0.05259862390490284,
            "11": 0.046032130930856924,
            "12": 0.03727593456723861,
            "13": 0.04630412381786433,
            "14": 0.03891113677653352,
            "15": 0.03727599708076291,
            "16": 0.038910984997582505,
            "17": 0.04630412248227743,
            "18": 0.03510485452228484,
            "19": 0.047629644135147454,
            "20": 0.04762936913644443
        },
        "dipole": [
            -0.2428368157980205,
            -0.0722074998290866,
            -1.1357473236378715
        ],
        "global_electrophilicity": 0.8748378178556947,
        "global_nucleophilicity": -8.658174338591957,
        "fukui_electrophilicity": {
            "1": 0.09117423595249104,
            "2": 0.05412658580192027,
            "3": 0.09684963505929126,
            "4": 0.20605099030036428,
            "5": 0.0074241808457272546,
            "6": -0.018862769934409634,
            "7": -0.018862828796640807,
            "8": -0.025603569856643443,
            "9": 0.10129673710523063,
            "10": 0.1225228104135436,
            "11": 0.10919825326240576,
            "12": 0.018360445819834193,
            "13": 0.05158424713729951,
            "14": 0.022697483427944767,
            "15": 0.018360642969398763,
            "16": 0.022697310789474772,
            "17": 0.05158418780797774,
            "18": 0.047600749451590894,
            "19": 0.02090023542882583,
            "20": 0.02090043701438643
        },
        "fukui_nucleophilicity": {
            "1": 0.028123405010809913,
            "2": 0.027879552538751032,
            "3": 0.04461527000831894,
            "4": 0.19261708573642292,
            "5": 0.04347447467724315,
            "6": -0.02328080761482379,
            "7": -0.02328090099508262,
            "8": -0.019269957650093955,
            "9": 0.058272156807607514,
            "10": 0.09836227168005701,
            "11": 0.06980591795060431,
            "12": 0.04776450668002082,
            "13": 0.08379213682531739,
            "14": 0.046481039749913036,
            "15": 0.04776450852872457,
            "16": 0.04648117039991235,
            "17": 0.08379225600943095,
            "18": 0.07018463598139435,
            "19": 0.03821052633551813,
            "20": 0.038210751344315036
        },
        "boltzmann_weights": [
            0.1996537456894094,
            0.199653740245149,
            0.19965486132194066,
            0.19965374201808322,
            0.19965485128452257,
            0.0005763535988966824,
            0.0005763535342032831,
            0.0005763523077951223
        ],
        "best_conformer_elements": [
            6,
            6,
            6,
            8,
            6,
            6,
            6,
            6,
            1,
            1,
            1,
            1,
            1,
            1,
            1,
            1,
            1,
            1,
            1,
            1
        ],
        "best_conformer_coordinates": [
            [
                3.111508382372711,
                -0.012342368521926049,
                0.1581399047357607
            ],
            [
                1.8205998982522644,
                0.053251685455291194,
                0.45891587832170094
            ],
            [
                0.7884025876359142,
                -0.10752264890009626,
                -0.5923781909704493
            ],
            [
                1.0887126511539196,
                -0.3020808538906585,
                -1.7485898508953615
            ],
            [
                -0.6702186229991473,
                -0.014521860022650546,
                -0.13814840654534877
            ],
            [
                -1.582218577223974,
                -0.2035467122865101,
                -1.351604001277462
            ],
            [
                -0.9522330021054738,
                -1.1185013549855678,
                0.8879652135219881
            ],
            [
                -0.9215175584480201,
                1.3670715840868357,
                0.4776927706310096
            ],
            [
                3.887481403220651,
                0.09990939864234717,
                0.8962858132074749
            ],
            [
                3.418919939001729,
                -0.18437171671350988,
                -0.8610760776377717
            ],
            [
                1.4931389867130516,
                0.22459222438120036,
                1.4724576185263973
            ],
            [
                -1.4032477240575925,
                -1.1726752061698944,
                -1.8104524044691643
            ],
            [
                -2.6264313025930504,
                -0.14164503303021392,
                -1.054758202263405
            ],
            [
                -1.3818096497313619,
                0.5621512321526787,
                -2.0968055765441163
            ],
            [
                -0.727953660462571,
                -2.0950839389764884,
                0.46398699720618664
            ],
            [
                -0.3610095659018496,
                -0.9923621190656786,
                1.791176175348751
            ],
            [
                -2.004175072091226,
                -1.0981396224651154,
                1.1653170492679108
            ],
            [
                -0.3299172742987495,
                1.5236571387323128,
                1.3758778128622515
            ],
            [
                -0.6754965178051766,
                2.1499406372003604,
                -0.23670346868138567
            ],
            [
                -1.9725352994648735,
                1.462219544960872,
                0.7427009456551379
            ]
        ],
        "best_conformer_energy": -25.134047067973256,
        "fukui_radical": {
            "1": 0.05965512325542418,
            "2": 0.04100216531754636,
            "3": 0.07073235906165173,
            "4": 0.199334734891943,
            "5": 0.025450234002706552,
            "6": -0.022437294424730365,
            "7": -0.021071341164295918,
            "8": -0.021071351931497978,
            "9": 0.11043819201445192,
            "10": 0.07977686678388067,
            "11": 0.0895015994077582,
            "12": 0.029555702341399172,
            "13": 0.058893534794590016,
            "14": 0.02955570759247529,
            "15": 0.03459009740312499,
            "16": 0.03306287249500783,
            "17": 0.06768894237713163,
            "18": 0.03306284834681158,
            "19": 0.03459008183256172,
            "20": 0.06768892560426566
        }
    }
}