{
    "file": "paper_58.json",
    "monomer1_s": "C=C(C)Cl",
    "monomer2_s": "C=CCl",
    "monomer1": "Isopropenyl Chloride",
    "monomer2": "Vinyl Chloride",
    "r_values": {
        "constant_1": 5.21,
        "constant_2": 0.18
    },
    "conf_intervals": {
        "constant_conf_1": null,
        "constant_conf_2": null
    },
    "temperature": 60.0,
    "temperature_unit": "\u00b0C",
    "solvent": "c1ccccc1",
    "method": "solvent",
    "r-product": null,
    "source": "https://doi.org/10.1002/pol.1965.100030308",
    "calculation_method": "Fineman-Ross",
    "polymerization_type": "free radical",
    "logP": 1.6866,
    "monomer1_data": {
        "smiles": "C=C(C)Cl",
        "ip": 14.172465639193309,
        "ip_corrected": 9.326465639193309,
        "ea": 2.2020016296830955,
        "homo": -0.3979437153268055,
        "lumo": -0.2190998381994721,
        "charges": {
            "1": -0.11278627365782504,
            "2": 0.1047263664788702,
            "3": -0.11913106785649089,
            "4": -0.189728847523013,
            "5": 0.058303945087185775,
            "6": 0.061642316567374136,
            "7": 0.06888884181856772,
            "8": 0.06888883885338837,
            "9": 0.05919588023192709
        },
        "dipole": [
            -0.2911792277201624,
            -0.6107071951510727,
            0.023078309971884044
        ],
        "global_electrophilicity": 0.4663078302992994,
        "global_nucleophilicity": -9.326465639193309,
        "fukui_electrophilicity": {
            "1": 0.12019528519996314,
            "2": 0.145111377153051,
            "3": -0.05926026721168439,
            "4": 0.22420621542730834,
            "5": 0.15354175718449317,
            "6": 0.14480762914583536,
            "7": 0.09770830005357979,
            "8": 0.09770833427857586,
            "9": 0.07598136876887149
        },
        "fukui_nucleophilicity": {
            "1": 0.09402237188733256,
            "2": 0.04699352179561232,
            "3": -0.039047130810781955,
            "4": 0.37808096018647824,
            "5": 0.11963147074918112,
            "6": 0.10732532479060343,
            "7": 0.1065361012636486,
            "8": 0.10653618354180969,
            "9": 0.07992119660510622
        },
        "boltzmann_weights": [
            1.0
        ],
        "best_conformer_elements": [
            6,
            6,
            6,
            17,
            1,
            1,
            1,
            1,
            1
        ],
        "best_conformer_coordinates": [
            [
                1.3208539856558286,
                -0.4670232075487988,
                -0.015346980039728592
            ],
            [
                0.29440950662699367,
                0.3624998717035137,
                0.014540881180098098
            ],
            [
                -1.1468735091746407,
                -0.014220335808698557,
                -0.00283203444707223
            ],
            [
                0.5655139665422908,
                2.0789137420512014,
                0.0811546469570423
            ],
            [
                2.3393242429780567,
                -0.12349403580226609,
                -9.388658082811014e-05
            ],
            [
                1.1631520040280314,
                -1.5302012576271669,
                -0.0565883892274248
            ],
            [
                -1.6401706725534788,
                0.42797787083787775,
                -0.8672009950040248
            ],
            [
                -1.643672097978366,
                0.3602922952547071,
                0.8910060534149149
            ],
            [
                -1.2525374208329445,
                -1.0947449377685954,
                -0.04463930154474955
            ]
        ],
        "best_conformer_energy": -13.495882585701564,
        "fukui_radical": {
            "1": 0.1070921806687635,
            "2": 0.09604663384491824,
            "3": -0.04915386158453364,
            "4": 0.3011723112820974,
            "5": 0.1260736932926926,
            "6": 0.13657846844077015,
            "7": 0.10211987770283251,
            "8": 0.10211999884662007,
            "9": 0.07795069751037399
        }
    },
    "monomer2_data": {
        "smiles": "C=CCl",
        "ip": 14.754770645217608,
        "ip_corrected": 9.908770645217608,
        "ea": 2.307245382256785,
        "homo": -0.4076052769098549,
        "lumo": -0.2320222117939838,
        "charges": {
            "1": -0.09705224793662236,
            "2": 0.05699516530444872,
            "3": -0.16350975738566184,
            "4": 0.06542783772641927,
            "5": 0.07139312092857801,
            "6": 0.06674588136282644
        },
        "dipole": [
            -0.5175366509494663,
            0.2927077803368346,
            -0.01146851212032033
        ],
        "global_electrophilicity": 0.545461197082854,
        "global_nucleophilicity": -9.908770645217608,
        "fukui_electrophilicity": {
            "1": 0.13072544059183683,
            "2": 0.11626085539209755,
            "3": 0.2562663443385017,
            "4": 0.1681933622199825,
            "5": 0.16064111264756686,
            "6": 0.167912884810003
        },
        "fukui_nucleophilicity": {
            "1": 0.09824950220524913,
            "2": 0.03642702645821169,
            "3": 0.48965207548113454,
            "4": 0.13487827820759216,
            "5": 0.11560914029761075,
            "6": 0.12518397735498896
        },
        "boltzmann_weights": [
            1.0
        ],
        "best_conformer_elements": [
            6,
            6,
            17,
            1,
            1,
            1
        ],
        "best_conformer_coordinates": [
            [
                -0.7077915080208962,
                -0.10105725381266828,
                0.16548276426342198
            ],
            [
                0.5426831018189576,
                0.23086149201485703,
                -0.08360837120779033
            ],
            [
                1.6974486086233311,
                -0.8784698822936139,
                -0.7130796722216319
            ],
            [
                -1.0842782030936247,
                -1.0932283312462243,
                -0.011244722066341384
            ],
            [
                -1.3965039718446586,
                0.6252292555082153,
                0.5591504326247929
            ],
            [
                0.9484419778086636,
                1.2166647198294431,
                0.08329956860755285
            ]
        ],
        "best_conformer_energy": -10.32189947493295,
        "fukui_radical": {
            "1": 0.11448843783985634,
            "2": 0.07634633162550628,
            "3": 0.3729557814369195,
            "4": 0.13812455192456854,
            "5": 0.15153560714997333,
            "6": 0.14654929002558126
        }
    }
}