{
    "file": "paper_558.json",
    "monomer1_s": "C=CN1CCN(CC)C1=O",
    "monomer2_s": "C=CC(=O)OCC",
    "monomer1": "1-ethyl-3-vinylimidazolid-2-one",
    "monomer2": "ethyl acrylate",
    "r_values": {
        "constant_1": 0.094,
        "constant_2": 0.53
    },
    "conf_intervals": {
        "constant_conf_1": null,
        "constant_conf_2": null
    },
    "temperature": 60.0,
    "temperature_unit": "\u00b0C",
    "solvent": "c1ccccc1",
    "method": "solvent",
    "r-product": null,
    "source": "https://doi.org/10.1016/0032-3861(75)90045-7",
    "calculation_method": "Fineman and Ross",
    "polymerization_type": "free radical",
    "logP": 1.6866,
    "monomer1_data": {
        "smiles": "C=CN1CCN(CC)C1=O",
        "ip": 12.668243125333282,
        "ip_corrected": 7.822243125333282,
        "ea": 2.5184834408584145,
        "homo": -0.3629347158555646,
        "lumo": -0.20496085054804108,
        "charges": {
            "1": -0.1299712753801273,
            "2": 0.024002244938746267,
            "3": -0.09734298659371271,
            "4": -0.00017827221560627604,
            "5": 0.0016622336396113907,
            "6": -0.12875714869434274,
            "7": 0.0068625566030192445,
            "8": -0.11260318092338681,
            "9": 0.31710713222440534,
            "10": -0.46376202709326353,
            "11": 0.029573433872272528,
            "12": 0.039613173934116494,
            "13": 0.06559180716215442,
            "14": 0.05318958353046646,
            "15": 0.0531244257299112,
            "16": 0.044439569230820146,
            "17": 0.04862537284104473,
            "18": 0.036083222135927816,
            "19": 0.07522965450098223,
            "20": 0.038906039998472836,
            "21": 0.047829994922145694,
            "22": 0.05077444563634504
        },
        "dipole": [
            -0.3218979505269509,
            -1.2722796684159259,
            -1.384710052927211
        ],
        "global_electrophilicity": 0.371831710500923,
        "global_nucleophilicity": -7.822243125333282,
        "fukui_electrophilicity": {
            "1": 0.08064788502266917,
            "2": 0.06965258522471099,
            "3": 0.04543607062895544,
            "4": -0.02574170542740909,
            "5": -0.021664953449223652,
            "6": 0.06677311018250565,
            "7": -0.01815424834959576,
            "8": -0.011833673001211714,
            "9": 0.0839032336048357,
            "10": 0.14150516628446874,
            "11": 0.09848150501444694,
            "12": 0.10450089116828275,
            "13": 0.08026972068424976,
            "14": 0.04039046381030886,
            "15": 0.0402833660134921,
            "16": 0.050959417473546084,
            "17": 0.05111152728101402,
            "18": 0.04140476569785073,
            "19": 0.017752166760752634,
            "20": 0.02028118493247622,
            "21": 0.03366628535058216,
            "22": 0.010375235092287938
        },
        "fukui_nucleophilicity": {
            "1": 0.06947953312901406,
            "2": 0.020350928469096752,
            "3": 0.09847132397433073,
            "4": -0.026218726738915055,
            "5": -0.02486376496113131,
            "6": 0.10596173770656026,
            "7": -0.017498572681578013,
            "8": -0.006824277541347679,
            "9": -0.0011788521902096893,
            "10": 0.08174210461625364,
            "11": 0.07035412355434882,
            "12": 0.08534759068212162,
            "13": 0.06310409232000734,
            "14": 0.06721031703184226,
            "15": 0.06761262556617173,
            "16": 0.0744757994585086,
            "17": 0.07415038134857793,
            "18": 0.06251745786408683,
            "19": 0.03806386147160548,
            "20": 0.0266375780335687,
            "21": 0.04502829743458972,
            "22": 0.026076441452492598
        },
        "boltzmann_weights": [
            0.4924874900667514,
            0.4925401068997056,
            0.004990804245200486,
            0.0049908036195387894,
            0.0049907951688037445
        ],
        "best_conformer_elements": [
            6,
            6,
            7,
            6,
            6,
            7,
            6,
            6,
            6,
            8,
            1,
            1,
            1,
            1,
            1,
            1,
            1,
            1,
            1,
            1,
            1,
            1
        ],
        "best_conformer_coordinates": [
            [
                3.7133804524064837,
                0.3360676074679121,
                0.0814578758011251
            ],
            [
                2.5757828805393403,
                0.15812100505323817,
                0.7393159831880151
            ],
            [
                1.3366359728737225,
                -0.017832696777000476,
                0.1654286475011158
            ],
            [
                1.090368066902567,
                -0.042142550775506306,
                -1.2579729801407293
            ],
            [
                -0.42642462522193786,
                -0.27233094524358487,
                -1.3567314370079493
            ],
            [
                -0.8437345935756737,
                -0.3480602187705776,
                0.02122216161770197
            ],
            [
                -2.200232501316795,
                -0.6058456785428254,
                0.4222716920357776
            ],
            [
                -3.1253699717698695,
                0.5797990117925975,
                0.15909753450823788
            ],
            [
                0.1838774843077286,
                -0.2088318651470162,
                0.9024847988094705
            ],
            [
                0.10803977958221819,
                -0.2479319972414044,
                2.1086989494292263
            ],
            [
                3.7702363620888577,
                0.35905717735366216,
                -0.9923914122704997
            ],
            [
                4.6348962438156205,
                0.465802464262164,
                0.6164209653315968
            ],
            [
                2.525992010187831,
                0.13608416446714047,
                1.8189777131748592
            ],
            [
                1.6619636399777735,
                -0.848750445832297,
                -1.7299126374094826
            ],
            [
                1.3927232553536624,
                0.9071677690328194,
                -1.7131626880965785
            ],
            [
                -0.6698143211199973,
                -1.203936786954212,
                -1.8827717689726728
            ],
            [
                -0.928794888405442,
                0.5531204879996993,
                -1.8732929711645414
            ],
            [
                -2.162555005816427,
                -0.8168977474042554,
                1.4938125735952814
            ],
            [
                -2.5688781763957804,
                -1.4948061865276818,
                -0.1043659521716143
            ],
            [
                -2.7462128688886174,
                1.4661159632836585,
                0.6611901824885976
            ],
            [
                -4.118626610149137,
                0.3611875317474069,
                0.5408694732964324
            ],
            [
                -3.2032525800850946,
                0.7848439420480484,
                -0.9062602369755731
            ]
        ],
        "best_conformer_energy": -31.048935008999482,
        "fukui_radical": {
            "1": 0.07505846577347856,
            "2": 0.044997846096773805,
            "3": 0.07194625626754914,
            "4": -0.025980814550651196,
            "5": -0.023262351818604782,
            "6": 0.08635986212743135,
            "7": -0.01781995594384501,
            "8": -0.009313936017816937,
            "9": 0.04136412831749928,
            "10": 0.11161463069403973,
            "11": 0.08441187488376264,
            "12": 0.0949188980685578,
            "13": 0.0716810040119583,
            "14": 0.05400021006385577,
            "15": 0.053747408355274695,
            "16": 0.0626530280935287,
            "17": 0.06270122579880008,
            "18": 0.027941035892594168,
            "19": 0.05188553107128346,
            "20": 0.01825967236219343,
            "21": 0.03940761977022461,
            "22": 0.023428360682106065
        }
    },
    "monomer2_data": {
        "smiles": "C=CC(=O)OCC",
        "ip": 14.289428869927024,
        "ip_corrected": 9.443428869927024,
        "ea": 3.989314243093894,
        "homo": -0.4136935607614979,
        "lumo": -0.2749414566009418,
        "charges": {
            "1": -0.059624703397704974,
            "2": -0.058623154904436287,
            "3": 0.35468666456862596,
            "4": -0.41494178945466126,
            "5": -0.2671432741291775,
            "6": 0.08536030504422465,
            "7": -0.11558427313242317,
            "8": 0.06276980968360339,
            "9": 0.0787247191160857,
            "10": 0.0642875141798505,
            "11": 0.05064917338117079,
            "12": 0.0506491861718129,
            "13": 0.05239659054587904,
            "14": 0.058196622385702605,
            "15": 0.058196609941451635
        },
        "dipole": [
            -0.25870007369953946,
            0.12669957204456522,
            -0.7918644319369688
        ],
        "global_electrophilicity": 0.8947977760476853,
        "global_nucleophilicity": -9.443428869927024,
        "fukui_electrophilicity": {
            "1": 0.10009542211263803,
            "2": 0.06655104319959479,
            "3": 0.08282927568417359,
            "4": 0.18663776012333405,
            "5": 0.09136759342790912,
            "6": -0.02011546275509124,
            "7": -0.013829673711657636,
            "8": 0.1303886717095314,
            "9": 0.11251830432592068,
            "10": 0.11542900521441968,
            "11": 0.033664434819107934,
            "12": 0.033664452192880466,
            "13": 0.036947721938674974,
            "14": 0.02192572079772761,
            "15": 0.021925730920848284
        },
        "fukui_nucleophilicity": {
            "1": 0.028338377726703383,
            "2": 0.0326321929354091,
            "3": 0.021954979896529225,
            "4": 0.1595062160434697,
            "5": 0.08323197109543035,
            "6": -0.015649866774573,
            "7": -0.01378859280399769,
            "8": 0.10682696694552106,
            "9": 0.07992485833404661,
            "10": 0.0904038313338043,
            "11": 0.08968545668346808,
            "12": 0.08968539212391433,
            "13": 0.07311696618218784,
            "14": 0.08706568331218134,
            "15": 0.08706556696587174
        },
        "boltzmann_weights": [
            0.14053494107768,
            0.31722346204406754,
            0.3172234670131349,
            0.04288299389591622,
            0.09106085705366807,
            0.09107427891553337
        ],
        "best_conformer_elements": [
            6,
            6,
            6,
            8,
            8,
            6,
            6,
            1,
            1,
            1,
            1,
            1,
            1,
            1,
            1
        ],
        "best_conformer_coordinates": [
            [
                3.1095016434265,
                0.14193700921772198,
                0.977140036420231
            ],
            [
                1.9411416578641796,
                0.5653462061572349,
                0.5186058675381808
            ],
            [
                0.8027969926240958,
                -0.36417570594009074,
                0.34929415921076384
            ],
            [
                0.8184303826833628,
                -1.5445773610013769,
                0.598281020042041
            ],
            [
                -0.2712652207132258,
                0.27927585484492096,
                -0.12478365352433263
            ],
            [
                -1.4423752242818602,
                -0.5097519154968244,
                -0.3335437866291771
            ],
            [
                -2.540133862870357,
                0.390224921758877,
                -0.8681798099224179
            ],
            [
                3.951209339229216,
                0.7999599148250778,
                1.1083842284314973
            ],
            [
                3.2441758679825985,
                -0.8962653509487821,
                1.2345320450156794
            ],
            [
                1.7481268844089681,
                1.591488477326337,
                0.2451815287734333
            ],
            [
                -1.7308973942851278,
                -0.9711082627186884,
                0.6179888091328354
            ],
            [
                -1.2045500384746117,
                -1.3137780333708322,
                -1.039582158697532
            ],
            [
                -3.441424591182081,
                -0.19268468181462417,
                -1.0338725887261673
            ],
            [
                -2.754453157547958,
                1.1826799491836002,
                -0.15620697702496902
            ],
            [
                -2.2302832735719065,
                0.841428983269185,
                -1.806918621614624
            ]
        ],
        "best_conformer_energy": -22.891436850324865,
        "fukui_radical": {
            "1": 0.06421524543627627,
            "2": 0.04959291831523999,
            "3": 0.05239326603599706,
            "4": 0.1730758269812355,
            "5": 0.08729179220955963,
            "6": -0.017872070386472975,
            "7": -0.013810832383723944,
            "8": 0.11862022030315088,
            "9": 0.09622431017665833,
            "10": 0.1029266927032115,
            "11": 0.06165756021556787,
            "12": 0.06165750309498417,
            "13": 0.055037637672257396,
            "14": 0.05449501311890072,
            "15": 0.054494916507150784
        }
    }
}