{
    "file": "paper_56.json",
    "monomer1_s": "C=CC#N",
    "monomer2_s": "C1=CC2C=CC1C2",
    "monomer1": "Acrylonitrile",
    "monomer2": "Bicyclo[2.2.1]hepta-2,5-diene",
    "r_values": {
        "constant_1": 0.67,
        "constant_2": 0.08
    },
    "conf_intervals": {
        "constant_conf_1": null,
        "constant_conf_2": null
    },
    "temperature": 50.0,
    "temperature_unit": "\u00b0C",
    "solvent": "c1ccccc1",
    "method": "bulk",
    "r-product": null,
    "source": "https://doi.org/10.1002/pol.1963.100010522",
    "calculation_method": "Fineman-Ross",
    "polymerization_type": "free radical",
    "logP": 1.6866,
    "monomer1_data": {
        "smiles": "C=CC#N",
        "ip": 15.437176806318503,
        "ip_corrected": 10.591176806318503,
        "ea": 3.8289813808508004,
        "homo": -0.4277683293695803,
        "lumo": -0.28211163098961317,
        "charges": {
            "1": -0.05961169012740816,
            "2": -0.01732687045759991,
            "3": 0.1182224067521214,
            "4": -0.22501464611972768,
            "5": 0.060876740653373736,
            "6": 0.056910808147125444,
            "7": 0.06594325115211837
        },
        "dipole": [
            -1.3682395954382502,
            0.4193750676404717,
            0.3073979410978311
        ],
        "global_electrophilicity": 0.9870666976349574,
        "global_nucleophilicity": -10.591176806318503,
        "fukui_electrophilicity": {
            "1": 0.11689097730490014,
            "2": 0.09589168721827514,
            "3": 0.0833043050370818,
            "4": 0.27942089987505603,
            "5": 0.1382479191580376,
            "6": 0.1483932400282401,
            "7": 0.1378509713784164
        },
        "fukui_nucleophilicity": {
            "1": 0.046376077246505845,
            "2": 0.06110797532385699,
            "3": 0.06382105585034101,
            "4": 0.3348673323308884,
            "5": 0.1560141376419441,
            "6": 0.1714270905761467,
            "7": 0.16638633108003964
        },
        "boltzmann_weights": [
            1.0
        ],
        "best_conformer_elements": [
            6,
            6,
            6,
            7,
            1,
            1,
            1
        ],
        "best_conformer_coordinates": [
            [
                -0.9016384047148559,
                -0.45919578416436035,
                -0.030680752421494126
            ],
            [
                -0.03133887486045679,
                0.4750179204570864,
                0.33412550579689987
            ],
            [
                1.3413190298728732,
                0.20293977262825588,
                0.5154865184659979
            ],
            [
                2.457902722380965,
                -0.00894504881153441,
                0.6651431422029201
            ],
            [
                -1.946002725249464,
                -0.2338337288304437,
                -0.16452309959900452
            ],
            [
                -0.5958059974068218,
                -1.4775501660291765,
                -0.20646164096824965
            ],
            [
                -0.32443575002222486,
                1.5015670294584123,
                0.5140087192113937
            ]
        ],
        "best_conformer_energy": -10.79113366694523,
        "fukui_radical": {
            "1": 0.08164051438776673,
            "2": 0.07850509074248685,
            "3": 0.07355981073640835,
            "4": 0.30714514424221057,
            "5": 0.15989706723025732,
            "6": 0.14713580820257063,
            "7": 0.152116564483423
        }
    },
    "monomer2_data": {
        "smiles": "C1=CC2C=CC1C2",
        "ip": 13.61881747885569,
        "ip_corrected": 8.77281747885569,
        "ea": 2.7837561212194752,
        "homo": -0.38098925949443435,
        "lumo": -0.21985128300957002,
        "charges": {
            "1": -0.04026010356437777,
            "2": -0.040264916326658934,
            "3": -0.016341037789999097,
            "4": -0.040263465682232075,
            "5": -0.04026155424577678,
            "6": -0.016340979290986893,
            "7": -0.04906817900534825,
            "8": 0.03124813511577404,
            "9": 0.03124990284727335,
            "10": 0.02762066713958046,
            "11": 0.03124837368117876,
            "12": 0.031249664200393726,
            "13": 0.027620594214143795,
            "14": 0.03128144936700473,
            "15": 0.03128144934002227
        },
        "dipole": [
            0.00642687366476949,
            0.00032542746684334316,
            0.06532623448819255
        ],
        "global_electrophilicity": 0.5195148019430544,
        "global_nucleophilicity": -8.77281747885569,
        "fukui_electrophilicity": {
            "1": 0.0771281646363549,
            "2": 0.077124453737806,
            "3": -0.004624851705242343,
            "4": 0.07712490519522702,
            "5": 0.07712821437109822,
            "6": -0.004624845749252038,
            "7": -0.0011507588367585947,
            "8": 0.10400622250351542,
            "9": 0.10400692559824642,
            "10": 0.08060923096274922,
            "11": 0.1040064311650177,
            "12": 0.10400667529945136,
            "13": 0.08060914366295406,
            "14": 0.06232504823392896,
            "15": 0.062325040924907385
        },
        "fukui_nucleophilicity": {
            "1": 0.07215870894982133,
            "2": 0.07216270168147969,
            "3": 0.00298489548462931,
            "4": 0.07216203200355009,
            "5": 0.07215938464800861,
            "6": 0.0029848742577300094,
            "7": -0.004995383429157285,
            "8": 0.09441056486768201,
            "9": 0.09441073277980336,
            "10": 0.08407223646675155,
            "11": 0.09441035059530682,
            "12": 0.09441094230531606,
            "13": 0.084072321224555,
            "14": 0.08229783413880912,
            "15": 0.08229780402653025
        },
        "boltzmann_weights": [
            0.5000000589365965,
            0.4999999410634035
        ],
        "best_conformer_elements": [
            6,
            6,
            6,
            6,
            6,
            6,
            6,
            1,
            1,
            1,
            1,
            1,
            1,
            1,
            1
        ],
        "best_conformer_coordinates": [
            [
                -0.7819855583359971,
                0.606803383899879,
                -1.126364392119605
            ],
            [
                -0.6430098997902765,
                -0.7097906248106944,
                -1.1537502878253154
            ],
            [
                0.0014951766479168007,
                -1.1211136161157271,
                0.16210288059507166
            ],
            [
                1.399716181018943,
                -0.5209448806389427,
                0.1334894864745664
            ],
            [
                1.2607401474538342,
                0.795649072014961,
                0.16087617504535648
            ],
            [
                -0.2318081008153679,
                1.0891023641793516,
                0.20807774302440946
            ],
            [
                -0.676390134046914,
                -0.09401161291585604,
                1.0871579111164664
            ],
            [
                -1.1634758429806147,
                1.2631932275910622,
                -1.8850647848431512
            ],
            [
                -0.8824029089325678,
                -1.3995726995343563,
                -1.940452431206336
            ],
            [
                -0.06681050170325724,
                -2.1728701298080484,
                0.42479700090837286
            ],
            [
                2.297037886955154,
                -1.1056391912498915,
                0.06309708849276686
            ],
            [
                2.0159643100360727,
                1.5571266440225093,
                0.11848588107935364
            ],
            [
                -0.5169673175762627,
                2.0917307177621223,
                0.5135056811633587
            ],
            [
                -0.2533692653124687,
                -0.07024696522069834,
                2.0913299702900128
            ],
            [
                -1.7587341514511214,
                -0.20941568388385706,
                1.1427120883882012
            ]
        ],
        "best_conformer_energy": -19.001004877564544,
        "fukui_radical": {
            "1": 0.07464408680810256,
            "2": 0.07464381361860548,
            "3": -0.000820175882288901,
            "4": 0.07464407959460019,
            "5": 0.07464377932227778,
            "6": -0.0008201748127996122,
            "7": -0.0030735406026609693,
            "8": 0.09920860919033725,
            "9": 0.09920858715864578,
            "10": 0.08234046741441173,
            "11": 0.09920861012346413,
            "12": 0.09920859008323901,
            "13": 0.08234046734416917,
            "14": 0.0723113992710649,
            "15": 0.07231140136925489
        }
    }
}