{
    "file": "paper_606.json",
    "monomer1_s": "C=CC(=O)O",
    "monomer2_s": "C=Cc1ccccc1",
    "monomer1": "acrylic acid",
    "monomer2": "styrene",
    "r_values": {
        "constant_1": 0.9,
        "constant_2": 0.14
    },
    "conf_intervals": {
        "constant_conf_1": 0.06,
        "constant_conf_2": 0.03
    },
    "temperature": 50.0,
    "temperature_unit": "\u00b0C",
    "solvent": "C1CCOC1",
    "method": "solvent",
    "r-product": null,
    "source": "https://doi.org/10.1002/macp.1984.021250111",
    "calculation_method": "Kelen-Tudor",
    "polymerization_type": "free radical",
    "logP": 0.7968,
    "monomer1_data": {
        "smiles": "C=CC(=O)O",
        "ip": 15.113020924008806,
        "ip_corrected": 10.267020924008806,
        "ea": 4.067449324943119,
        "homo": -0.423676349262343,
        "lumo": -0.28303031940261253,
        "charges": {
            "1": -0.057759860240966944,
            "2": -0.05670716670833633,
            "3": 0.35956727582020165,
            "4": -0.40991137253167126,
            "5": -0.3783472531361546,
            "6": 0.06567161842359118,
            "7": 0.08050244265217343,
            "8": 0.06965647780753571,
            "9": 0.32732783791363257
        },
        "dipole": [
            -0.04692561358917844,
            0.47222757372533103,
            -0.45982084219565383
        ],
        "global_electrophilicity": 1.0188593100159398,
        "global_nucleophilicity": -10.267020924008806,
        "fukui_electrophilicity": {
            "1": 0.10295109663845603,
            "2": 0.06870441891976073,
            "3": 0.08572242261980412,
            "4": 0.19958986555369557,
            "5": 0.09976487667783479,
            "6": 0.13612744579777425,
            "7": 0.11688117902617103,
            "8": 0.12088745250956676,
            "9": 0.06937124225694113
        },
        "fukui_nucleophilicity": {
            "1": 0.0320237358752602,
            "2": 0.054111954586519996,
            "3": 0.04023440155960695,
            "4": 0.24914200230157785,
            "5": 0.11599353954394037,
            "6": 0.16121864313471373,
            "7": 0.12999041045952814,
            "8": 0.15282156455327878,
            "9": 0.06446374798556131
        },
        "boltzmann_weights": [
            0.7435539399837156,
            0.25644606001628434
        ],
        "best_conformer_elements": [
            6,
            6,
            6,
            8,
            8,
            1,
            1,
            1,
            1
        ],
        "best_conformer_coordinates": [
            [
                -1.5623676801973938,
                0.29290590352035134,
                -0.06783998123906997
            ],
            [
                -0.42320062504776274,
                -0.309856764879801,
                -0.3762066038775252
            ],
            [
                0.8475379962331825,
                0.08588707568942779,
                0.2618537493706181
            ],
            [
                0.9839549681989631,
                0.9520803120126843,
                1.0876761350566828
            ],
            [
                1.8776649769610338,
                -0.6473144888860758,
                -0.18996871539377805
            ],
            [
                -2.499575196875716,
                0.01984051949865141,
                -0.5211367222339455
            ],
            [
                -1.5739149978528302,
                1.0877603994227474,
                0.6604642559407744
            ],
            [
                -0.351070515858566,
                -1.1102755905408253,
                -1.096553693347713
            ],
            [
                2.700971074439094,
                -0.3710273711289295,
                0.24171157572394267
            ]
        ],
        "best_conformer_energy": -16.563933457556608,
        "fukui_radical": {
            "1": 0.06748739711448937,
            "2": 0.06140816843161243,
            "3": 0.06297844165606353,
            "4": 0.2243659023140592,
            "5": 0.10787916649975257,
            "6": 0.14867308463613077,
            "7": 0.1234358209024041,
            "8": 0.13685452857600608,
            "9": 0.06691748986949031
        }
    },
    "monomer2_data": {
        "smiles": "C=Cc1ccccc1",
        "ip": 13.323305315341791,
        "ip_corrected": 8.477305315341791,
        "ea": 3.959877946938991,
        "homo": -0.3831985290395731,
        "lumo": -0.2501966690470822,
        "charges": {
            "1": -0.08578934436600626,
            "2": -0.030259830597504936,
            "3": 0.01460321229207634,
            "4": -0.032430750206366904,
            "5": -0.029945437580900583,
            "6": -0.030379977266510892,
            "7": -0.029893803249294533,
            "8": -0.033985609164289644,
            "9": 0.038721208943534896,
            "10": 0.036165150785770366,
            "11": 0.033044651543264955,
            "12": 0.03404524115950842,
            "13": 0.028965873902585763,
            "14": 0.02897855112451052,
            "15": 0.028735857233840652,
            "16": 0.029425005445779806
        },
        "dipole": [
            -0.00599695759505601,
            0.00019607223034193996,
            -0.0018463290012354543
        ],
        "global_electrophilicity": 0.7692971421446727,
        "global_nucleophilicity": -8.477305315341791,
        "fukui_electrophilicity": {
            "1": 0.07209309972414436,
            "2": 0.04352510810351072,
            "3": 0.06230438364782903,
            "4": 0.03213425829454332,
            "5": 0.026312904098299825,
            "6": 0.06792045239213465,
            "7": 0.02876303434297292,
            "8": 0.03213381752054322,
            "9": 0.08376002497375698,
            "10": 0.09874578293688194,
            "11": 0.08145474392689236,
            "12": 0.06271242240018035,
            "13": 0.07540055911977092,
            "14": 0.08585900759002232,
            "15": 0.07693189708388407,
            "16": 0.06994850384463236
        },
        "fukui_nucleophilicity": {
            "1": 0.07260243947817689,
            "2": 0.04230113696056051,
            "3": 0.06268064465096645,
            "4": 0.03400845310298767,
            "5": 0.03110749772289005,
            "6": 0.07019025477516763,
            "7": 0.03211552237109847,
            "8": 0.03545308497970195,
            "9": 0.07943182497266889,
            "10": 0.09534951030583766,
            "11": 0.07725609403564751,
            "12": 0.06257820938745395,
            "13": 0.07457311950887512,
            "14": 0.0843599501650384,
            "15": 0.07603725882191792,
            "16": 0.06995499876126071
        },
        "boltzmann_weights": [
            0.500000013411314,
            0.499999986588686
        ],
        "best_conformer_elements": [
            6,
            6,
            6,
            6,
            6,
            6,
            6,
            6,
            1,
            1,
            1,
            1,
            1,
            1,
            1,
            1
        ],
        "best_conformer_coordinates": [
            [
                -2.7996504883392213,
                0.5067268078443541,
                -0.3307757375296494
            ],
            [
                -1.8569195165461714,
                -0.42690007797501867,
                -0.28622356006066363
            ],
            [
                -0.41676751008175084,
                -0.2137695987077826,
                -0.201669273122216
            ],
            [
                0.42662331397264364,
                -1.3257786864929022,
                -0.16462382115517377
            ],
            [
                1.7979836205106778,
                -1.1786700332337077,
                -0.08467855669649194
            ],
            [
                2.3586778805752897,
                0.08669579947474147,
                -0.03984625155398522
            ],
            [
                1.535500161801921,
                1.2006125291369882,
                -0.07571377159817176
            ],
            [
                0.16438284527030772,
                1.054224105562994,
                -0.15563770481452763
            ],
            [
                -2.5807350472122574,
                1.5604467593574072,
                -0.30764549962305027
            ],
            [
                -3.84233837136736,
                0.2458441308630186,
                -0.39306838601271116
            ],
            [
                -2.1533557273489103,
                -1.4689784286781729,
                -0.3136745326715254
            ],
            [
                -0.004100778556855408,
                -2.317010607449955,
                -0.1992554256323922
            ],
            [
                2.432537807928637,
                -2.052797839845991,
                -0.05718467471006832
            ],
            [
                3.4304258000072263,
                0.20491108070838962,
                0.022664187100062603
            ],
            [
                1.9676045890247913,
                2.190467602677497,
                -0.04101419015886248
            ],
            [
                -0.4598685796390594,
                1.9339764620498727,
                -0.18248094282351895
            ]
        ],
        "best_conformer_energy": -21.158608850502983,
        "fukui_radical": {
            "1": 0.07234813599322018,
            "2": 0.04291309873393513,
            "3": 0.06249235896699714,
            "4": 0.03379355109266154,
            "5": 0.03043928194186729,
            "6": 0.06905534188080434,
            "7": 0.028710059427083993,
            "8": 0.03307125813746206,
            "9": 0.08159578301382218,
            "10": 0.09704772989059883,
            "11": 0.07935561247948747,
            "12": 0.06995185022654472,
            "13": 0.0764846271348809,
            "14": 0.0851094403734144,
            "15": 0.07498679088705272,
            "16": 0.06264507982020588
        }
    }
}