{
    "file": "paper_522.json",
    "monomer1_s": "C=COC=C",
    "monomer2_s": "N#CC(C#N)=C(C#N)C#N",
    "monomer1": "Divinyl Ether",
    "monomer2": "Tetracyanoethylene",
    "r_values": {
        "constant_1": 0.2,
        "constant_2": 0.11
    },
    "conf_intervals": {
        "constant_conf_1": null,
        "constant_conf_2": null
    },
    "temperature": 50.0,
    "temperature_unit": "\u00b0C",
    "solvent": "CN(C)C=O",
    "method": "solvent",
    "r-product": null,
    "source": "https://doi.org/10.1002/pol.1967.150050512",
    "logP": -0.2956000000000001,
    "monomer2_data": {
        "smiles": "N#CC(C#N)=C(C#N)C#N",
        "ip": 15.60478310083922,
        "ip_corrected": 10.75878310083922,
        "ea": 7.719052707484225,
        "homo": -0.47369052601970546,
        "lumo": -0.392750267005379,
        "charges": {
            "1": -0.1581093180894048,
            "2": 0.1266224453691493,
            "3": 0.06300199217972532,
            "4": 0.12661686612317183,
            "5": -0.1581140308341494,
            "6": 0.06300016505796735,
            "7": 0.12661539883295814,
            "8": -0.15813710671668899,
            "9": 0.12662195748319002,
            "10": -0.15811836940591736
        },
        "dipole": [
            0.0004724961261714842,
            5.902227870436037e-05,
            4.5248425795518396e-05
        ],
        "global_electrophilicity": 2.9456204155432224,
        "global_nucleophilicity": -10.75878310083922,
        "fukui_electrophilicity": {
            "1": 0.17674731296811727,
            "2": 0.02632509099992067,
            "3": 0.09384681483314637,
            "4": 0.02632545865084185,
            "5": 0.17674774646197441,
            "6": 0.09384777701709301,
            "7": 0.026329348251599466,
            "8": 0.17674664100870777,
            "9": 0.026336083031954838,
            "10": 0.1767477267766462
        },
        "fukui_nucleophilicity": {
            "1": 0.1973247646972655,
            "2": 0.028068003654566437,
            "3": 0.049174544565890155,
            "4": 0.028075623031980995,
            "5": 0.1973380137893713,
            "6": 0.0491749949675883,
            "7": 0.028077601249163836,
            "8": 0.1973499046011415,
            "9": 0.028079219603587585,
            "10": 0.1973373298396028
        },
        "boltzmann_weights": [
            0.5000004284555951,
            0.4999995715444049
        ],
        "best_conformer_energy": -24.323234201132216,
        "best_conformer_coordinates": [
            [
                -2.184095311793826,
                -0.5548570322854863,
                -1.9496349679400344
            ],
            [
                -1.5053046945733672,
                -0.33593600047733696,
                -1.05496563658983
            ],
            [
                -0.6753853563345971,
                -0.06471629785699581,
                0.06097260136996264
            ],
            [
                -1.3301868255225493,
                0.06423777251511677,
                1.3108770586437268
            ],
            [
                -1.868544420074322,
                0.1665292984335838,
                2.315279107065783
            ],
            [
                0.6755412987795107,
                0.06474339645495063,
                -0.060909100742419744
            ],
            [
                1.3302092993620716,
                -0.06423164614692688,
                -1.3108541710804544
            ],
            [
                1.8680309164754603,
                -0.16662793536500695,
                -2.315541775914534
            ],
            [
                1.5056813054087634,
                0.3359660804395138,
                1.054894768013243
            ],
            [
                2.1840537882727995,
                0.5548923642885966,
                1.949882111882804
            ]
        ],
        "best_conformer_elements": [
            7,
            6,
            6,
            6,
            7,
            6,
            6,
            7,
            6,
            7
        ]
    }
}