{
    "file": "paper_574.json",
    "monomer1_s": "C=C(C)C(=O)OCC(C)O",
    "monomer2_s": "C=CC(=O)OCC",
    "monomer1": "2-Hydroxypropyl Methacrylate",
    "monomer2": "Ethyl Acrylate",
    "r_values": {
        "constant_1": 12.56,
        "constant_2": 0.24
    },
    "conf_intervals": {
        "constant_conf_1": 0.1,
        "constant_conf_2": 0.1
    },
    "temperature": 60.0,
    "temperature_unit": "\u00b0C",
    "solvent": "CCCCCCC",
    "method": "bulk",
    "r-product": null,
    "source": "https://doi.org/10.1002/pol.1977.170150711",
    "calculation_method": "intersection method",
    "polymerization_type": "free radical",
    "logP": 2.976700000000002,
    "monomer1_data": {
        "smiles": "C=C(C)C(=O)OCC(C)O",
        "ip": 13.665966713934381,
        "ip_corrected": 8.819966713934381,
        "ea": 4.313246279533323,
        "homo": -0.403905937407791,
        "lumo": -0.2800082768635454,
        "charges": {
            "1": -0.08017699798394844,
            "2": -0.007222641538903007,
            "3": -0.11088609833504667,
            "4": 0.35439373538693725,
            "5": -0.4263354443473683,
            "6": -0.2667330130442885,
            "7": 0.05891755976811635,
            "8": 0.12068643887431202,
            "9": -0.11972191737550755,
            "10": -0.45544274473568785,
            "11": 0.064902568031886,
            "12": 0.05939991236327363,
            "13": 0.06702492299705737,
            "14": 0.06636398978889742,
            "15": 0.052493157391743865,
            "16": 0.061869287871146525,
            "17": 0.062118025931238004,
            "18": 0.018842396083401252,
            "19": 0.06611013264041,
            "20": 0.04080371627139181,
            "21": 0.053699251080849865,
            "22": 0.3188937628801018
        },
        "dipole": [
            -1.3328115033349865,
            -0.13832752122612335,
            -0.3755867034033896
        ],
        "global_electrophilicity": 0.9178866683870099,
        "global_nucleophilicity": -8.819966713934381,
        "fukui_electrophilicity": {
            "1": 0.09002251425533063,
            "2": 0.0772360181864614,
            "3": -0.037469368044169726,
            "4": 0.08595378318312691,
            "5": 0.18664981301166678,
            "6": 0.07595169803162755,
            "7": -0.024130493633328372,
            "8": -0.002167547010808471,
            "9": -0.011477560933857614,
            "10": 0.02261584732642602,
            "11": 0.10135846730267559,
            "12": 0.11638037889466557,
            "13": 0.06001048691046146,
            "14": 0.06026886637971739,
            "15": 0.05860077284241552,
            "16": 0.032357294451867136,
            "17": 0.048550498633411515,
            "18": 0.005030561036211745,
            "19": 0.025934463095001206,
            "20": 0.016846446446659342,
            "21": 0.01945945460568521,
            "22": -0.007982394971237095
        },
        "fukui_nucleophilicity": {
            "1": 0.03831347352883399,
            "2": 0.03909262615517711,
            "3": -0.01594680616526581,
            "4": 0.0036678075634760665,
            "5": 0.05991576078469879,
            "6": 0.046163541272579656,
            "7": -0.0027592907910154382,
            "8": -0.0024074108863749166,
            "9": -0.020983436145759454,
            "10": 0.1307297680109592,
            "11": 0.052616164443252164,
            "12": 0.06700271599316121,
            "13": 0.06885279338485767,
            "14": 0.06477989343643804,
            "15": 0.04993351117223648,
            "16": 0.04784998323419383,
            "17": 0.06327463148730453,
            "18": 0.10186542173061719,
            "19": 0.0578363154852445,
            "20": 0.04601515873450137,
            "21": 0.06414862198553986,
            "22": 0.0400387555853291
        },
        "fukui_radical": {
            "1": 0.0641679938920823,
            "2": 0.05816432217081926,
            "3": -0.026708087104717768,
            "4": 0.04481079537330149,
            "5": 0.12328278689818278,
            "6": 0.0610576196521036,
            "7": -0.013444892212171905,
            "8": -0.002287478948591694,
            "9": -0.016230498539808534,
            "10": 0.07667280766869261,
            "11": 0.07698731587296387,
            "12": 0.09169154744391339,
            "13": 0.06443164014765956,
            "14": 0.06252437990807772,
            "15": 0.054267142007326,
            "16": 0.04010363884303048,
            "17": 0.055912565060358015,
            "18": 0.05344799138341447,
            "19": 0.04188538929012285,
            "20": 0.031430802590580356,
            "21": 0.041804038295612536,
            "22": 0.016028180307046003
        },
        "best_conformer_coordinates": [
            [
                -2.6601409171511885,
                1.157322806752517,
                -0.8683445075838243
            ],
            [
                -1.4400083373249828,
                1.6677541609910995,
                -0.7371327902306235
            ],
            [
                -1.1323741144630173,
                3.130278859844667,
                -0.7815660279408648
            ],
            [
                -0.2536420730833856,
                0.7965607249526976,
                -0.5295275508584988
            ],
            [
                0.874730333697452,
                1.2239304976106733,
                -0.4174667407960564
            ],
            [
                -0.5569430251379466,
                -0.5029350429096617,
                -0.4815462121331267
            ],
            [
                0.5148558803182266,
                -1.4350451062954492,
                -0.33344876020228464
            ],
            [
                1.2009013555002177,
                -1.3708308773358082,
                1.0491489228682036
            ],
            [
                1.56710395112158,
                -2.7691516815647357,
                1.5368159307029081
            ],
            [
                2.382582577742029,
                -0.6156707704248109,
                1.0060812065174547
            ],
            [
                -2.836019733458551,
                0.09692041147221156,
                -0.8303114667561623
            ],
            [
                -3.517978346181161,
                1.7914091497706368,
                -1.0173767529798416
            ],
            [
                -0.42143819279652034,
                3.3341854365390797,
                -1.5804719786287265
            ],
            [
                -0.6631748923140405,
                3.438299281435289,
                0.15138762744759363
            ],
            [
                -2.0351483697414605,
                3.711767583046848,
                -0.9421555077269583
            ],
            [
                1.2661003035383012,
                -1.2575172057636725,
                -1.111170763918885
            ],
            [
                0.04524284891653733,
                -2.406838175732169,
                -0.489708872382748
            ],
            [
                0.4830415422139073,
                -0.916264480280936,
                1.755871072381546
            ],
            [
                2.115976167642003,
                -2.6833839507346613,
                2.4699218571651387
            ],
            [
                0.6746034892942183,
                -3.3666663239875025,
                1.6976035984140978
            ],
            [
                2.2071098022816606,
                -3.255791080004105,
                0.8058974849092727
            ],
            [
                2.184619744094456,
                0.2316657773260805,
                0.5713934759694793
            ]
        ],
        "best_conformer_elements": [
            6,
            6,
            6,
            6,
            8,
            8,
            6,
            6,
            6,
            8,
            1,
            1,
            1,
            1,
            1,
            1,
            1,
            1,
            1,
            1,
            1,
            1
        ],
        "best_conformer_energy": -33.290540968475696
    },
    "monomer2_data": {
        "smiles": "C=CC(=O)OCC",
        "ip": 14.289428869927024,
        "ip_corrected": 9.443428869927024,
        "ea": 3.989314243093894,
        "homo": -0.4136935607614979,
        "lumo": -0.2749414566009418,
        "charges": {
            "1": -0.059624703397704974,
            "2": -0.058623154904436287,
            "3": 0.35468666456862596,
            "4": -0.41494178945466126,
            "5": -0.2671432741291775,
            "6": 0.08536030504422465,
            "7": -0.11558427313242317,
            "8": 0.06276980968360339,
            "9": 0.0787247191160857,
            "10": 0.0642875141798505,
            "11": 0.05064917338117079,
            "12": 0.0506491861718129,
            "13": 0.05239659054587904,
            "14": 0.058196622385702605,
            "15": 0.058196609941451635
        },
        "dipole": [
            -0.25870007369953946,
            0.12669957204456522,
            -0.7918644319369688
        ],
        "global_electrophilicity": 0.8947977760476853,
        "global_nucleophilicity": -9.443428869927024,
        "fukui_electrophilicity": {
            "1": 0.10009542211263803,
            "2": 0.06655104319959479,
            "3": 0.08282927568417359,
            "4": 0.18663776012333405,
            "5": 0.09136759342790912,
            "6": -0.02011546275509124,
            "7": -0.013829673711657636,
            "8": 0.1303886717095314,
            "9": 0.11251830432592068,
            "10": 0.11542900521441968,
            "11": 0.033664434819107934,
            "12": 0.033664452192880466,
            "13": 0.036947721938674974,
            "14": 0.02192572079772761,
            "15": 0.021925730920848284
        },
        "fukui_nucleophilicity": {
            "1": 0.028338377726703383,
            "2": 0.0326321929354091,
            "3": 0.021954979896529225,
            "4": 0.1595062160434697,
            "5": 0.08323197109543035,
            "6": -0.015649866774573,
            "7": -0.01378859280399769,
            "8": 0.10682696694552106,
            "9": 0.07992485833404661,
            "10": 0.0904038313338043,
            "11": 0.08968545668346808,
            "12": 0.08968539212391433,
            "13": 0.07311696618218784,
            "14": 0.08706568331218134,
            "15": 0.08706556696587174
        },
        "boltzmann_weights": [
            0.14053494107768,
            0.31722346204406754,
            0.3172234670131349,
            0.04288299389591622,
            0.09106085705366807,
            0.09107427891553337
        ],
        "best_conformer_elements": [
            6,
            6,
            6,
            8,
            8,
            6,
            6,
            1,
            1,
            1,
            1,
            1,
            1,
            1,
            1
        ],
        "best_conformer_coordinates": [
            [
                3.1095016434265,
                0.14193700921772198,
                0.977140036420231
            ],
            [
                1.9411416578641796,
                0.5653462061572349,
                0.5186058675381808
            ],
            [
                0.8027969926240958,
                -0.36417570594009074,
                0.34929415921076384
            ],
            [
                0.8184303826833628,
                -1.5445773610013769,
                0.598281020042041
            ],
            [
                -0.2712652207132258,
                0.27927585484492096,
                -0.12478365352433263
            ],
            [
                -1.4423752242818602,
                -0.5097519154968244,
                -0.3335437866291771
            ],
            [
                -2.540133862870357,
                0.390224921758877,
                -0.8681798099224179
            ],
            [
                3.951209339229216,
                0.7999599148250778,
                1.1083842284314973
            ],
            [
                3.2441758679825985,
                -0.8962653509487821,
                1.2345320450156794
            ],
            [
                1.7481268844089681,
                1.591488477326337,
                0.2451815287734333
            ],
            [
                -1.7308973942851278,
                -0.9711082627186884,
                0.6179888091328354
            ],
            [
                -1.2045500384746117,
                -1.3137780333708322,
                -1.039582158697532
            ],
            [
                -3.441424591182081,
                -0.19268468181462417,
                -1.0338725887261673
            ],
            [
                -2.754453157547958,
                1.1826799491836002,
                -0.15620697702496902
            ],
            [
                -2.2302832735719065,
                0.841428983269185,
                -1.806918621614624
            ]
        ],
        "best_conformer_energy": -22.891436850324865,
        "fukui_radical": {
            "1": 0.06421524543627627,
            "2": 0.04959291831523999,
            "3": 0.05239326603599706,
            "4": 0.1730758269812355,
            "5": 0.08729179220955963,
            "6": -0.017872070386472975,
            "7": -0.013810832383723944,
            "8": 0.11862022030315088,
            "9": 0.09622431017665833,
            "10": 0.1029266927032115,
            "11": 0.06165756021556787,
            "12": 0.06165750309498417,
            "13": 0.055037637672257396,
            "14": 0.05449501311890072,
            "15": 0.054494916507150784
        }
    }
}