{
    "file": "paper_599.json",
    "monomer1_s": "C=CCOC(=O)C(=C)C",
    "monomer2_s": "C=Cc1ccccc1",
    "monomer1": "allyl methacrylate",
    "monomer2": "styrene",
    "r_values": {
        "constant_1": 0.021,
        "constant_2": 66.0
    },
    "conf_intervals": {
        "constant_conf_1": 0.001,
        "constant_conf_2": 4.0
    },
    "temperature": 80.0,
    "temperature_unit": "\u00b0C",
    "solvent": "Cc1ccccc1",
    "method": "solvent",
    "r-product": null,
    "source": "10.1016/0014-3057(93)90008-5",
    "calculation_method": "NMR spectroscopy",
    "polymerization_type": "free radical",
    "logP": 1.99502,
    "monomer1_data": {
        "smiles": "C=CCOC(=O)C(=C)C",
        "ip": 13.773137075792265,
        "ip_corrected": 8.927137075792265,
        "ea": 4.2604828385447515,
        "homo": -0.41017489010419134,
        "lumo": -0.26824635648289524,
        "charges": {
            "1": -0.0892193647250447,
            "2": -0.03265717699052694,
            "3": 0.07592458639555677,
            "4": -0.26793626136346327,
            "5": 0.35237293784830315,
            "6": -0.41495449822727115,
            "7": -0.007994276419587332,
            "8": -0.08181039542920744,
            "9": -0.11001319279638161,
            "10": 0.045845384792547024,
            "11": 0.0507463988780896,
            "12": 0.05421075147648364,
            "13": 0.05915645753569027,
            "14": 0.06825668331738605,
            "15": 0.055303110897363256,
            "16": 0.062211457408551114,
            "17": 0.06813345030154801,
            "18": 0.06214254792584413,
            "19": 0.050281399174119557
        },
        "dipole": [
            0.07784024731442983,
            0.21531197895716384,
            -0.7153367413091742
        ],
        "global_electrophilicity": 0.9143428986781614,
        "global_nucleophilicity": -8.927137075792265,
        "fukui_electrophilicity": {
            "1": 0.041943186139726044,
            "2": 0.032521950704811335,
            "3": -0.020580127018528904,
            "4": 0.06266256526477221,
            "5": 0.05816840246233784,
            "6": 0.148127814604322,
            "7": 0.06391247590318436,
            "8": 0.06939724318576738,
            "9": -0.031116716885760315,
            "10": 0.059433905466471204,
            "11": 0.06437850259065064,
            "12": 0.03703891941133944,
            "13": 0.050323927210755834,
            "14": 0.04027766218657309,
            "15": 0.0958672135441336,
            "16": 0.07784085082017547,
            "17": 0.047839864020478434,
            "18": 0.05211701214346612,
            "19": 0.0498453482453233
        },
        "fukui_nucleophilicity": {
            "1": 0.04974990052659045,
            "2": 0.041015643446016374,
            "3": -0.011970795308429552,
            "4": 0.055203621837628114,
            "5": 0.0111207464753047,
            "6": 0.11656211999847343,
            "7": 0.049412882211756964,
            "8": 0.03995748856813339,
            "9": -0.017978142738569708,
            "10": 0.06992158098840454,
            "11": 0.07576871525297812,
            "12": 0.052592421047758194,
            "13": 0.05554663493276767,
            "14": 0.05693788025316532,
            "15": 0.08120505467678232,
            "16": 0.06170710297420048,
            "17": 0.07159319122355066,
            "18": 0.08030964527993921,
            "19": 0.061344308353500965
        },
        "boltzmann_weights": [
            0.07092425650468785,
            0.07092425384000194,
            0.07956533948672785,
            0.15919610934377582,
            0.15919608632074597,
            0.07092417392749245,
            0.07092417254057641,
            0.15919477373740779,
            0.15915083429858398
        ],
        "best_conformer_elements": [
            6,
            6,
            6,
            8,
            6,
            8,
            6,
            6,
            6,
            1,
            1,
            1,
            1,
            1,
            1,
            1,
            1,
            1,
            1
        ],
        "best_conformer_coordinates": [
            [
                -3.482444836022871,
                -1.1899493660127605,
                0.8715509255496109
            ],
            [
                -2.292258236053431,
                -1.0235784387519362,
                0.32865083221597635
            ],
            [
                -1.7731634286019988,
                0.2896947241966689,
                -0.17132744604223904
            ],
            [
                -0.5063934065477641,
                0.6013280398127977,
                0.4113323499953477
            ],
            [
                0.5846405816159517,
                0.15873802696957937,
                -0.22888568839949935
            ],
            [
                0.5463930051636432,
                -0.447314862164231,
                -1.272417703323794
            ],
            [
                1.8461585504890183,
                0.5088552210758991,
                0.4808773940267821
            ],
            [
                1.8331138281727757,
                1.0119172994297063,
                1.710309635055523
            ],
            [
                3.0913977419132994,
                0.2216622652681872,
                -0.29557015293460875
            ],
            [
                -4.169941358915046,
                -0.3690855603426409,
                0.9939091565547485
            ],
            [
                -3.8239359306854306,
                -2.1544959969547945,
                1.2049690269342364
            ],
            [
                -1.607085624590577,
                -1.8519417832038625,
                0.21037460052278023
            ],
            [
                -1.6534743161463172,
                0.24560200311316804,
                -1.262264098445876
            ],
            [
                -2.4385955198644957,
                1.111223610258741,
                0.10171200671721756
            ],
            [
                0.9122833252569087,
                1.195565135105734,
                2.2349705170344194
            ],
            [
                2.747537823451445,
                1.2530000636158267,
                2.2264951227173735
            ],
            [
                3.1204767096833304,
                0.8408257575510858,
                -1.191075961829332
            ],
            [
                3.9765559148073164,
                0.41428296125843345,
                0.3034317177313093
            ],
            [
                3.0887351610034166,
                -0.8163290949323452,
                -0.6230211230836377
            ]
        ],
        "best_conformer_energy": -28.16613923958712,
        "fukui_radical": {
            "1": 0.04584606298485568,
            "2": 0.03676851433352277,
            "3": -0.016276157854997343,
            "4": 0.05893416707294863,
            "5": 0.03464422721546259,
            "6": 0.13234279164164728,
            "7": 0.05666295360878195,
            "8": 0.054676881315194485,
            "9": -0.024547604811220466,
            "10": 0.06467807077810529,
            "11": 0.07007362440145218,
            "12": 0.04481626056372231,
            "13": 0.048610221976145195,
            "14": 0.05293559690314921,
            "15": 0.06977391412615361,
            "16": 0.08853654515361531,
            "17": 0.06620916475528729,
            "18": 0.055594604703178875,
            "19": 0.05972016112613875
        }
    },
    "monomer2_data": {
        "smiles": "C=Cc1ccccc1",
        "ip": 13.323305315341791,
        "ip_corrected": 8.477305315341791,
        "ea": 3.959877946938991,
        "homo": -0.3831985290395731,
        "lumo": -0.2501966690470822,
        "charges": {
            "1": -0.08578934436600626,
            "2": -0.030259830597504936,
            "3": 0.01460321229207634,
            "4": -0.032430750206366904,
            "5": -0.029945437580900583,
            "6": -0.030379977266510892,
            "7": -0.029893803249294533,
            "8": -0.033985609164289644,
            "9": 0.038721208943534896,
            "10": 0.036165150785770366,
            "11": 0.033044651543264955,
            "12": 0.03404524115950842,
            "13": 0.028965873902585763,
            "14": 0.02897855112451052,
            "15": 0.028735857233840652,
            "16": 0.029425005445779806
        },
        "dipole": [
            -0.00599695759505601,
            0.00019607223034193996,
            -0.0018463290012354543
        ],
        "global_electrophilicity": 0.7692971421446727,
        "global_nucleophilicity": -8.477305315341791,
        "fukui_electrophilicity": {
            "1": 0.07209309972414436,
            "2": 0.04352510810351072,
            "3": 0.06230438364782903,
            "4": 0.03213425829454332,
            "5": 0.026312904098299825,
            "6": 0.06792045239213465,
            "7": 0.02876303434297292,
            "8": 0.03213381752054322,
            "9": 0.08376002497375698,
            "10": 0.09874578293688194,
            "11": 0.08145474392689236,
            "12": 0.06271242240018035,
            "13": 0.07540055911977092,
            "14": 0.08585900759002232,
            "15": 0.07693189708388407,
            "16": 0.06994850384463236
        },
        "fukui_nucleophilicity": {
            "1": 0.07260243947817689,
            "2": 0.04230113696056051,
            "3": 0.06268064465096645,
            "4": 0.03400845310298767,
            "5": 0.03110749772289005,
            "6": 0.07019025477516763,
            "7": 0.03211552237109847,
            "8": 0.03545308497970195,
            "9": 0.07943182497266889,
            "10": 0.09534951030583766,
            "11": 0.07725609403564751,
            "12": 0.06257820938745395,
            "13": 0.07457311950887512,
            "14": 0.0843599501650384,
            "15": 0.07603725882191792,
            "16": 0.06995499876126071
        },
        "boltzmann_weights": [
            0.500000013411314,
            0.499999986588686
        ],
        "best_conformer_elements": [
            6,
            6,
            6,
            6,
            6,
            6,
            6,
            6,
            1,
            1,
            1,
            1,
            1,
            1,
            1,
            1
        ],
        "best_conformer_coordinates": [
            [
                -2.7996504883392213,
                0.5067268078443541,
                -0.3307757375296494
            ],
            [
                -1.8569195165461714,
                -0.42690007797501867,
                -0.28622356006066363
            ],
            [
                -0.41676751008175084,
                -0.2137695987077826,
                -0.201669273122216
            ],
            [
                0.42662331397264364,
                -1.3257786864929022,
                -0.16462382115517377
            ],
            [
                1.7979836205106778,
                -1.1786700332337077,
                -0.08467855669649194
            ],
            [
                2.3586778805752897,
                0.08669579947474147,
                -0.03984625155398522
            ],
            [
                1.535500161801921,
                1.2006125291369882,
                -0.07571377159817176
            ],
            [
                0.16438284527030772,
                1.054224105562994,
                -0.15563770481452763
            ],
            [
                -2.5807350472122574,
                1.5604467593574072,
                -0.30764549962305027
            ],
            [
                -3.84233837136736,
                0.2458441308630186,
                -0.39306838601271116
            ],
            [
                -2.1533557273489103,
                -1.4689784286781729,
                -0.3136745326715254
            ],
            [
                -0.004100778556855408,
                -2.317010607449955,
                -0.1992554256323922
            ],
            [
                2.432537807928637,
                -2.052797839845991,
                -0.05718467471006832
            ],
            [
                3.4304258000072263,
                0.20491108070838962,
                0.022664187100062603
            ],
            [
                1.9676045890247913,
                2.190467602677497,
                -0.04101419015886248
            ],
            [
                -0.4598685796390594,
                1.9339764620498727,
                -0.18248094282351895
            ]
        ],
        "best_conformer_energy": -21.158608850502983,
        "fukui_radical": {
            "1": 0.07234813599322018,
            "2": 0.04291309873393513,
            "3": 0.06249235896699714,
            "4": 0.03379355109266154,
            "5": 0.03043928194186729,
            "6": 0.06905534188080434,
            "7": 0.028710059427083993,
            "8": 0.03307125813746206,
            "9": 0.08159578301382218,
            "10": 0.09704772989059883,
            "11": 0.07935561247948747,
            "12": 0.06995185022654472,
            "13": 0.0764846271348809,
            "14": 0.0851094403734144,
            "15": 0.07498679088705272,
            "16": 0.06264507982020588
        }
    }
}