{
    "file": "paper_58.json",
    "monomer1_s": "C=C(C)Cl",
    "monomer2_s": "O=C1C=CC(=O)O1",
    "monomer1": "Isopropenyl Chloride",
    "monomer2": "Maleic Anhydride",
    "r_values": {
        "constant_1": 0.06,
        "constant_2": 0.06
    },
    "conf_intervals": {
        "constant_conf_1": null,
        "constant_conf_2": null
    },
    "temperature": 60.0,
    "temperature_unit": "\u00b0C",
    "solvent": "c1ccccc1",
    "method": "solvent",
    "r-product": 0.0004,
    "source": "https://doi.org/10.1002/pol.1965.100030308",
    "calculation_method": "Fineman-Ross",
    "polymerization_type": "free radical",
    "logP": 1.6866,
    "monomer1_data": {
        "smiles": "C=C(C)Cl",
        "ip": 14.172465639193309,
        "ip_corrected": 9.326465639193309,
        "ea": 2.2020016296830955,
        "homo": -0.3979437153268055,
        "lumo": -0.2190998381994721,
        "charges": {
            "1": -0.11278627365782504,
            "2": 0.1047263664788702,
            "3": -0.11913106785649089,
            "4": -0.189728847523013,
            "5": 0.058303945087185775,
            "6": 0.061642316567374136,
            "7": 0.06888884181856772,
            "8": 0.06888883885338837,
            "9": 0.05919588023192709
        },
        "dipole": [
            -0.2911792277201624,
            -0.6107071951510727,
            0.023078309971884044
        ],
        "global_electrophilicity": 0.4663078302992994,
        "global_nucleophilicity": -9.326465639193309,
        "fukui_electrophilicity": {
            "1": 0.12019528519996314,
            "2": 0.145111377153051,
            "3": -0.05926026721168439,
            "4": 0.22420621542730834,
            "5": 0.15354175718449317,
            "6": 0.14480762914583536,
            "7": 0.09770830005357979,
            "8": 0.09770833427857586,
            "9": 0.07598136876887149
        },
        "fukui_nucleophilicity": {
            "1": 0.09402237188733256,
            "2": 0.04699352179561232,
            "3": -0.039047130810781955,
            "4": 0.37808096018647824,
            "5": 0.11963147074918112,
            "6": 0.10732532479060343,
            "7": 0.1065361012636486,
            "8": 0.10653618354180969,
            "9": 0.07992119660510622
        },
        "boltzmann_weights": [
            1.0
        ],
        "best_conformer_elements": [
            6,
            6,
            6,
            17,
            1,
            1,
            1,
            1,
            1
        ],
        "best_conformer_coordinates": [
            [
                1.3208539856558286,
                -0.4670232075487988,
                -0.015346980039728592
            ],
            [
                0.29440950662699367,
                0.3624998717035137,
                0.014540881180098098
            ],
            [
                -1.1468735091746407,
                -0.014220335808698557,
                -0.00283203444707223
            ],
            [
                0.5655139665422908,
                2.0789137420512014,
                0.0811546469570423
            ],
            [
                2.3393242429780567,
                -0.12349403580226609,
                -9.388658082811014e-05
            ],
            [
                1.1631520040280314,
                -1.5302012576271669,
                -0.0565883892274248
            ],
            [
                -1.6401706725534788,
                0.42797787083787775,
                -0.8672009950040248
            ],
            [
                -1.643672097978366,
                0.3602922952547071,
                0.8910060534149149
            ],
            [
                -1.2525374208329445,
                -1.0947449377685954,
                -0.04463930154474955
            ]
        ],
        "best_conformer_energy": -13.495882585701564,
        "fukui_radical": {
            "1": 0.1070921806687635,
            "2": 0.09604663384491824,
            "3": -0.04915386158453364,
            "4": 0.3011723112820974,
            "5": 0.1260736932926926,
            "6": 0.13657846844077015,
            "7": 0.10211987770283251,
            "8": 0.10211999884662007,
            "9": 0.07795069751037399
        }
    },
    "monomer2_data": {
        "smiles": "O=C1C=CC(=O)O1",
        "ip": 15.900878027101923,
        "ip_corrected": 11.054878027101923,
        "ea": 6.460014475622868,
        "homo": -0.46238439929177266,
        "lumo": -0.36195466582110164,
        "charges": {
            "1": -0.2941881850292992,
            "2": 0.36186259667080867,
            "3": -0.04882117032060509,
            "4": -0.048821663932855815,
            "5": 0.3618625986892957,
            "6": -0.29418799581870747,
            "7": -0.2361013463873719,
            "8": 0.0991976641904159,
            "9": 0.09919750193830755
        },
        "dipole": [
            0.02252629972930212,
            1.6095495729881135,
            0.03503157808557637
        ],
        "global_electrophilicity": 2.1250815188994485,
        "global_nucleophilicity": -11.054878027101923,
        "fukui_electrophilicity": {
            "1": 0.20684180079229175,
            "2": 0.05554706628341721,
            "3": 0.07772392122146196,
            "4": 0.07772348160390369,
            "5": 0.055547109381013204,
            "6": 0.2068417997294305,
            "7": 0.09352041805136502,
            "8": 0.11312719556494338,
            "9": 0.11312720737216109
        },
        "fukui_nucleophilicity": {
            "1": 0.24406057875471876,
            "2": 0.03203358320566174,
            "3": 0.048203335562302226,
            "4": 0.048204167711183986,
            "5": 0.03203341222674566,
            "6": 0.24406026138272296,
            "7": 0.11633670520252432,
            "8": 0.11753386857050649,
            "9": 0.11753408759019536
        },
        "boltzmann_weights": [
            1.0
        ],
        "best_conformer_elements": [
            8,
            6,
            6,
            6,
            6,
            8,
            8,
            1,
            1
        ],
        "best_conformer_coordinates": [
            [
                -2.204573649227907,
                -1.115321055707451,
                -0.002298100950483874
            ],
            [
                -1.1093351090393155,
                -0.6532542001429931,
                -0.00048067934597688074
            ],
            [
                -0.6821986468566222,
                0.7759545772718469,
                -0.008942359574604814
            ],
            [
                0.6467155929828198,
                0.8057975343361282,
                -0.0028399914941270982
            ],
            [
                1.137513916088871,
                -0.6027871884116063,
                0.00983683780653634
            ],
            [
                2.2523614973703174,
                -1.0152209131010461,
                0.018168288871179734
            ],
            [
                0.03174611737968137,
                -1.4153007027606417,
                0.0105424647339251
            ],
            [
                -1.3932605337205264,
                1.5795851881535365,
                -0.018225205507185604
            ],
            [
                1.3210308203144236,
                1.6405467550704305,
                -0.005761259831016097
            ]
        ],
        "best_conformer_energy": -21.756575519080812,
        "fukui_radical": {
            "1": 0.22544662819838956,
            "2": 0.04379257545312501,
            "3": 0.06296487536424719,
            "4": 0.06296497760586295,
            "5": 0.04379297948953842,
            "6": 0.22544579064573986,
            "7": 0.10492885010999314,
            "8": 0.11533111453334595,
            "9": 0.11533220870276614
        }
    }
}