{
    "file": "paper_26.json",
    "monomer1_s": "C=C(C)C(=O)Oc1ccc2ccccc2c1",
    "monomer2_s": "C=C(C)C(=O)OC",
    "monomer1": "2-Naphthyl Methacrylate",
    "monomer2": "Methyl Methacrylate",
    "r_values": {
        "constant_1": 2.46,
        "constant_2": 0.25
    },
    "conf_intervals": {
        "constant_conf_1": 0.25,
        "constant_conf_2": 0.06
    },
    "temperature": 60.0,
    "temperature_unit": "\u00b0C",
    "solvent": "ClC(Cl)(Cl)Cl",
    "method": "solvent",
    "r-product": 0.61,
    "source": "https://doi.org/10.1016/0014-3057(79)90102-0",
    "calculation_method": "Kelen-Tudos",
    "polymerization_type": "free radical",
    "logP": 2.5529,
    "monomer1_data": {
        "smiles": "C=C(C)C(=O)Oc1ccc2ccccc2c1",
        "ip": 12.734780217044122,
        "ip_corrected": 7.888780217044122,
        "ea": 5.273380191010561,
        "homo": -0.38316573339770216,
        "lumo": -0.27479946442201564,
        "charges": {
            "1": -0.08063217683025534,
            "2": -0.007869883685375015,
            "3": -0.11026982738534566,
            "4": 0.3539810026848481,
            "5": -0.4046464510186708,
            "6": -0.25869983870729407,
            "7": 0.14474677480926035,
            "8": -0.041153688089435286,
            "9": -0.03372618870327591,
            "10": 0.01114049909000571,
            "11": -0.03250935470159453,
            "12": -0.029227545966591245,
            "13": -0.028204624341464382,
            "14": -0.03380814698992458,
            "15": 0.015362852770900423,
            "16": -0.05447955515064308,
            "17": 0.055466352011986,
            "18": 0.06209327669473927,
            "19": 0.0507624379132776,
            "20": 0.06270763747452585,
            "21": 0.06787960034604049,
            "22": 0.05701829137587245,
            "23": 0.044476619324309984,
            "24": 0.035636945927055796,
            "25": 0.03380256636955461,
            "26": 0.03402004936606748,
            "27": 0.035549182267996575,
            "28": 0.05058319314341413
        },
        "dipole": [
            -0.01770273075136822,
            0.31653250962125623,
            -0.7030446646868829
        ],
        "global_electrophilicity": 1.1586050153321643,
        "global_nucleophilicity": -7.888780217044122,
        "fukui_electrophilicity": {
            "1": 0.04110832728609701,
            "2": 0.03652783398957007,
            "3": -0.020327971886310497,
            "4": 0.03592262454082118,
            "5": 0.09478106941150899,
            "6": 0.03724639779438155,
            "7": 0.01812050383379027,
            "8": 0.011634966011925596,
            "9": 0.03233447747952805,
            "10": 0.014625886319394224,
            "11": 0.031834893874394414,
            "12": 0.028252965006463585,
            "13": 0.0225339455635691,
            "14": 0.03310535042749551,
            "15": 0.013325863192001394,
            "16": 0.035768804115652295,
            "17": 0.06256485878010698,
            "18": 0.04462153859372761,
            "19": 0.034751226656765985,
            "20": 0.032394705760000905,
            "21": 0.030846257835556924,
            "22": 0.03433539199615384,
            "23": 0.04865480594475133,
            "24": 0.04900473675126594,
            "25": 0.0536841219523053,
            "26": 0.051937342376094334,
            "27": 0.0464298278187024,
            "28": 0.043979248574270616
        },
        "fukui_nucleophilicity": {
            "1": 0.023078753160279568,
            "2": 0.026058964252888353,
            "3": -0.013091670102650832,
            "4": 0.005549713794368527,
            "5": 0.06455831735528111,
            "6": 0.04102766770380689,
            "7": 0.027268721708029603,
            "8": 0.01585629065726988,
            "9": 0.03659988253215556,
            "10": 0.016042568950034072,
            "11": 0.038619364899015164,
            "12": 0.033627695104871944,
            "13": 0.02450722826874549,
            "14": 0.040573097688478284,
            "15": 0.01558942284351729,
            "16": 0.040225877657598524,
            "17": 0.05022037813996837,
            "18": 0.031702220733302935,
            "19": 0.03621767073195997,
            "20": 0.04069369412958905,
            "21": 0.038339818552524677,
            "22": 0.04354034741912873,
            "23": 0.05169476059776781,
            "24": 0.05416161358079445,
            "25": 0.058851782280030025,
            "26": 0.05661819059473891,
            "27": 0.05252135558765358,
            "28": 0.04934627117889328
        },
        "boltzmann_weights": [
            0.08486726125602241,
            0.08486658739649922,
            0.1531340611456519,
            0.15313400972997868,
            0.2619990661869632,
            0.26199901428488465
        ],
        "best_conformer_elements": [
            6,
            6,
            6,
            6,
            8,
            8,
            6,
            6,
            6,
            6,
            6,
            6,
            6,
            6,
            6,
            6,
            1,
            1,
            1,
            1,
            1,
            1,
            1,
            1,
            1,
            1,
            1,
            1
        ],
        "best_conformer_coordinates": [
            [
                3.987335958173517,
                -1.1001965441104442,
                1.2127663796318562
            ],
            [
                3.8338037816254453,
                -0.17343943886287697,
                0.2729949868582078
            ],
            [
                4.960105725372876,
                0.5999993008423287,
                -0.33421445869628635
            ],
            [
                2.4936058968665287,
                0.15989551224350648,
                -0.2836223973216175
            ],
            [
                2.321427920918735,
                0.8701721515911311,
                -1.2417438624341386
            ],
            [
                1.500363499791348,
                -0.4113100967720086,
                0.42439501868855417
            ],
            [
                0.17681578426171113,
                -0.2661139029762619,
                0.028537453971330944
            ],
            [
                -0.2166222085675429,
                -0.44603920476500086,
                -1.3097689856596457
            ],
            [
                -1.537152254493938,
                -0.34349454028768195,
                -1.6428807258923628
            ],
            [
                -2.5186646551333522,
                -0.06809985607599622,
                -0.6685013558908383
            ],
            [
                -3.8874892984615874,
                0.04164411727770826,
                -0.9900115931875436
            ],
            [
                -4.813630104668622,
                0.3054933473886847,
                -0.020131004570955784
            ],
            [
                -4.413840484598695,
                0.47133569022023014,
                1.3154819041344685
            ],
            [
                -3.0952833589196262,
                0.3706961165126832,
                1.6600922511265945
            ],
            [
                -2.1147304034883,
                0.0998198340965946,
                0.6824340217061752
            ],
            [
                -0.7480414195362872,
                -0.003262337789495252,
                1.0051936366066676
            ],
            [
                3.149953867729081,
                -1.6397587301285943,
                1.6190410427686261
            ],
            [
                4.961204571331639,
                -1.3458790179827849,
                1.602380456650698
            ],
            [
                4.839394981980123,
                1.6605358484149986,
                -0.11806500088456308
            ],
            [
                5.917198818117312,
                0.26076046177499407,
                0.05081630164809881
            ],
            [
                4.94035234696628,
                0.48913913301098716,
                -1.4168329051985091
            ],
            [
                0.5289683043070195,
                -0.6593797253094477,
                -2.058903753650741
            ],
            [
                -1.847009037663348,
                -0.4780488280649901,
                -2.668967732548316
            ],
            [
                -4.189955458505326,
                -0.08653492138512905,
                -2.0195032311186325
            ],
            [
                -5.8603171190936445,
                0.38877714650924966,
                -0.2734062779844006
            ],
            [
                -5.1594448222620946,
                0.679864468240949,
                2.0687119590348053
            ],
            [
                -2.783078733802833,
                0.49836115945165904,
                2.6865934483627196
            ],
            [
                -0.425272087661459,
                0.12506286222550228,
                2.027434078292682
            ]
        ],
        "best_conformer_energy": -44.20936249988186,
        "fukui_radical": {
            "1": 0.03209361233929304,
            "2": 0.03129240819488453,
            "3": -0.016710380172514333,
            "4": 0.02073559144504894,
            "5": 0.07966549365831035,
            "6": 0.03913585800092492,
            "7": 0.022694816257464376,
            "8": 0.013746123435882562,
            "9": 0.03446793644820287,
            "10": 0.015334515213666335,
            "11": 0.03522791865076253,
            "12": 0.03094088493757181,
            "13": 0.02352047236852293,
            "14": 0.03683928213285376,
            "15": 0.01445792396278154,
            "16": 0.037997518967332826,
            "17": 0.03816103002040489,
            "18": 0.056392225117197034,
            "19": 0.03654753342059829,
            "20": 0.03548622593115549,
            "21": 0.03459173498989879,
            "22": 0.03893842544608922,
            "23": 0.050174560579289665,
            "24": 0.05158268891175221,
            "25": 0.05626818555336885,
            "26": 0.05427757169595194,
            "27": 0.04947538104680107,
            "28": 0.046664461446502783
        }
    },
    "monomer2_data": {
        "smiles": "C=C(C)C(=O)OC",
        "ip": 14.236483972656346,
        "ip_corrected": 9.390483972656346,
        "ea": 3.965500029838621,
        "homo": -0.41127032387995544,
        "lumo": -0.26950129410851986,
        "charges": {
            "1": -0.08192644204948094,
            "2": -0.007758938742676788,
            "3": -0.11040535221003818,
            "4": 0.34920872447012063,
            "5": -0.4109728775483542,
            "6": -0.2641504660609933,
            "7": 0.035165391019299455,
            "8": 0.05595603293225091,
            "9": 0.06272990863841402,
            "10": 0.0654729267794723,
            "11": 0.06547300436630195,
            "12": 0.05055145378886996,
            "13": 0.06218368236208788,
            "14": 0.06218369754524128,
            "15": 0.06628925470948674
        },
        "dipole": [
            0.042189455222522244,
            -0.7608520055498939,
            0.06845067776298096
        ],
        "global_electrophilicity": 0.8813642895109609,
        "global_nucleophilicity": -9.390483972656346,
        "fukui_electrophilicity": {
            "1": 0.0916099776458229,
            "2": 0.08194480124254042,
            "3": -0.03870700638664119,
            "4": 0.08164153093062626,
            "5": 0.19459726093903607,
            "6": 0.07836988169535863,
            "7": -0.03498260375536273,
            "8": 0.11948701878867324,
            "9": 0.10428214255764144,
            "10": 0.06198656850236382,
            "11": 0.06198649192249827,
            "12": 0.06017707177149582,
            "13": 0.04047835404033179,
            "14": 0.04047833993174442,
            "15": 0.05665017017387712
        },
        "fukui_nucleophilicity": {
            "1": 0.05119712917593304,
            "2": 0.06180413311607634,
            "3": -0.01940489925170101,
            "4": 0.013324588985722141,
            "5": 0.15569776430206916,
            "6": 0.09388640424022587,
            "7": -0.026619602504503993,
            "8": 0.1033747366245307,
            "9": 0.08566644804667564,
            "10": 0.09644914037738059,
            "11": 0.09644892416456753,
            "12": 0.07537139198169276,
            "13": 0.07058385012774213,
            "14": 0.07058380855498125,
            "15": 0.07163618205861905
        },
        "fukui_radical": {
            "1": 0.07140355341087798,
            "2": 0.07187446717930837,
            "3": -0.029055952819171102,
            "4": 0.0474830599581742,
            "5": 0.17514751262055261,
            "6": 0.08612814296779225,
            "7": -0.030801103129933362,
            "8": 0.11143087770660196,
            "9": 0.09497429530215853,
            "10": 0.0792178544398722,
            "11": 0.0792177080435329,
            "12": 0.06777423187659429,
            "13": 0.05553110208403696,
            "14": 0.05553107424336284,
            "15": 0.06414317611624809
        },
        "best_conformer_coordinates": [
            [
                -1.0679874721335532,
                -1.591695393005097,
                0.1190505870012582
            ],
            [
                -0.9789696677262058,
                -0.2700634531963184,
                0.015569141935180716
            ],
            [
                -2.152414502903391,
                0.6374624311751305,
                -0.17280008390949914
            ],
            [
                0.33254570919277476,
                0.4296358416853463,
                0.08092895025997722
            ],
            [
                0.4667403029430531,
                1.6257720313950312,
                -0.007628838348907176
            ],
            [
                1.368254296471444,
                -0.40841920824982436,
                0.25032440426561303
            ],
            [
                2.6475724912740755,
                0.20137513824591807,
                0.3202395569867531
            ],
            [
                -2.019589027601903,
                -2.0945475365498094,
                0.07121808444667849
            ],
            [
                -0.1962306925063066,
                -2.2069421172817725,
                0.25399723219802745
            ],
            [
                -2.0338701146835967,
                1.2076321838811321,
                -1.092623302807032
            ],
            [
                -2.1989630647919824,
                1.3547927910841435,
                0.6448131655597281
            ],
            [
                -3.078828528124943,
                0.07221525271252598,
                -0.21295259783201617
            ],
            [
                2.690936133782629,
                0.8988648503855212,
                1.159567291618923
            ],
            [
                2.858178339796767,
                0.7497948862504704,
                -0.6004798925286432
            ],
            [
                3.3626258023029116,
                -0.6058776985323392,
                0.4565564987903857
            ]
        ],
        "best_conformer_elements": [
            6,
            6,
            6,
            6,
            8,
            8,
            6,
            1,
            1,
            1,
            1,
            1,
            1,
            1,
            1
        ],
        "best_conformer_energy": -22.894683429971266
    }
}