{
    "file": "paper_331.json",
    "monomer1_s": "C=CSCCCC",
    "monomer2_s": "C=Cc1ccccc1",
    "monomer1": "n-butyl vinyl sulfide",
    "monomer2": "styrene",
    "r_values": {
        "constant_1": 4.0,
        "constant_2": 0.2
    },
    "conf_intervals": {
        "constant_conf_1": null,
        "constant_conf_2": null
    },
    "temperature": 60.0,
    "temperature_unit": "\u00b0C",
    "solvent": null,
    "method": "bulk",
    "r-product": null,
    "source": "http://dx.doi.org/10.1080/00222337008060964",
    "calculation_method": "Fineman-Ross",
    "polymerization_type": "free radical",
    "monomer1_data": {
        "smiles": "C=CSCCCC",
        "ip": 12.717947555940698,
        "ip_corrected": 7.871947555940698,
        "ea": 2.6468864933266887,
        "homo": -0.3554864916165991,
        "lumo": -0.2121121133755934,
        "charges": {
            "1": -0.1026988530282672,
            "2": 0.011243017165785033,
            "3": -0.16627170871241215,
            "4": -0.00323034041212418,
            "5": -0.05862245514134491,
            "6": -0.05276775652438322,
            "7": -0.10388143081896536,
            "8": 0.04903644778137073,
            "9": 0.04258097563792717,
            "10": 0.036784795796968875,
            "11": 0.041469022662250436,
            "12": 0.04146902398154162,
            "13": 0.0447677486266025,
            "14": 0.044767742186652235,
            "15": 0.03128181671058502,
            "16": 0.03128181778700012,
            "17": 0.03773080053479219,
            "18": 0.037730795293794174,
            "19": 0.037328540472214435
        },
        "dipole": [
            -0.20168791943560996,
            0.8199295107842249,
            0.2721158747033976
        ],
        "global_electrophilicity": 0.39942472236106435,
        "global_nucleophilicity": -7.871947555940698,
        "fukui_electrophilicity": {
            "1": 0.05660652495327784,
            "2": 0.010655634989291923,
            "3": 0.41411990218062966,
            "4": -0.022475963060124338,
            "5": -0.013298783912546963,
            "6": -0.006672199043470904,
            "7": -0.011208961776900589,
            "8": 0.08069721090285703,
            "9": 0.10222769313422977,
            "10": 0.10741726245949942,
            "11": 0.07166319242563295,
            "12": 0.07166316172037523,
            "13": 0.02491608604769491,
            "14": 0.024916107824118714,
            "15": 0.01806141657239272,
            "16": 0.018061414043659088,
            "17": 0.013487182094450365,
            "18": 0.013487193065354217,
            "19": 0.025675925379565655
        },
        "fukui_nucleophilicity": {
            "1": 0.058281140030648076,
            "2": -0.027200603079202648,
            "3": 0.43911411365351316,
            "4": -0.05543676149312675,
            "5": -0.016247278041485846,
            "6": -0.005884773058691638,
            "7": -0.013500228220122229,
            "8": 0.06628343145626549,
            "9": 0.08444643739496266,
            "10": 0.06798833974872408,
            "11": 0.06254438764147943,
            "12": 0.06254435734943174,
            "13": 0.029112212250902936,
            "14": 0.029112213577173057,
            "15": 0.0457663964004355,
            "16": 0.04576638630787615,
            "17": 0.04527193356885999,
            "18": 0.045271978622812646,
            "19": 0.036766315890193364
        },
        "boltzmann_weights": [
            0.019989438082040706,
            0.021858594611539946,
            0.021858595956870713,
            0.1517532436696858,
            0.15175325215827065,
            0.009119501805633461,
            0.18271024138857117,
            0.1827102477877235,
            0.008360275073795949,
            0.008360275586080802,
            0.07984838389046821,
            0.07824854336459387,
            0.07824855223365566,
            0.0025904269431829417,
            0.002590427447886783
        ],
        "best_conformer_elements": [
            6,
            6,
            16,
            6,
            6,
            6,
            6,
            1,
            1,
            1,
            1,
            1,
            1,
            1,
            1,
            1,
            1,
            1,
            1
        ],
        "best_conformer_coordinates": [
            [
                4.413182220149395,
                -0.08455224363905522,
                -0.1269868723685683
            ],
            [
                3.162045628986563,
                0.34484783364326943,
                -0.14042008300509431
            ],
            [
                1.7674840206549984,
                -0.698120108014157,
                0.08162116262899279
            ],
            [
                0.4288090842171437,
                0.5475204996861711,
                -0.055218641941384844
            ],
            [
                -0.9243861062258888,
                -0.12395173692602224,
                0.10718687671892392
            ],
            [
                -2.0661490011633887,
                0.8850353927485254,
                -0.0011981147288364854
            ],
            [
                -3.423500642466847,
                0.21275192566538365,
                0.16151277251777807
            ],
            [
                5.235413599411671,
                0.5947828510530516,
                -0.2679336890516341
            ],
            [
                4.652054011413771,
                -1.1222444037815986,
                0.024446054951188876
            ],
            [
                2.905969275566723,
                1.3825737590172187,
                -0.291123162656106
            ],
            [
                0.5897155879388272,
                1.292924582926807,
                0.7252659065885909
            ],
            [
                0.5144820070063532,
                1.0186177683143884,
                -1.0357296172827424
            ],
            [
                -1.0382084541024836,
                -0.891364231563803,
                -0.6614501036829311
            ],
            [
                -0.9638410419012509,
                -0.6202293810066719,
                1.0792116172616333
            ],
            [
                -1.9452218365892378,
                1.6517978529555486,
                0.7676832721069557
            ],
            [
                -2.0196276065482675,
                1.380526035568021,
                -0.9738498638736738
            ],
            [
                -4.223897243802457,
                0.944374606796219,
                0.08174628312109392
            ],
            [
                -3.5693478520873345,
                -0.5421020055570948,
                -0.60776315961523
            ],
            [
                -3.4949756398747156,
                -0.270948861258561,
                1.1329993623110135
            ]
        ],
        "best_conformer_energy": -22.17437545219884,
        "fukui_radical": {
            "1": 0.05744240162600825,
            "2": -0.008272020308594752,
            "3": 0.42661735795714006,
            "4": -0.03895601683318615,
            "5": -0.014773046520116628,
            "6": -0.006278552804413834,
            "7": -0.012354574563956965,
            "8": 0.09333711466579554,
            "9": 0.0734918478043558,
            "10": 0.0877024411853799,
            "11": 0.06710354406259958,
            "12": 0.06710356544625944,
            "13": 0.027014060284090258,
            "14": 0.02701395618331915,
            "15": 0.031913784130909804,
            "16": 0.03191384284520064,
            "17": 0.031221197392798956,
            "18": 0.0293795397876061,
            "19": 0.029379557659133325
        }
    },
    "monomer2_data": {
        "smiles": "C=Cc1ccccc1",
        "ip": 13.323305315341791,
        "ip_corrected": 8.477305315341791,
        "ea": 3.959877946938991,
        "homo": -0.3831985290395731,
        "lumo": -0.2501966690470822,
        "charges": {
            "1": -0.08578934436600626,
            "2": -0.030259830597504936,
            "3": 0.01460321229207634,
            "4": -0.032430750206366904,
            "5": -0.029945437580900583,
            "6": -0.030379977266510892,
            "7": -0.029893803249294533,
            "8": -0.033985609164289644,
            "9": 0.038721208943534896,
            "10": 0.036165150785770366,
            "11": 0.033044651543264955,
            "12": 0.03404524115950842,
            "13": 0.028965873902585763,
            "14": 0.02897855112451052,
            "15": 0.028735857233840652,
            "16": 0.029425005445779806
        },
        "dipole": [
            -0.00599695759505601,
            0.00019607223034193996,
            -0.0018463290012354543
        ],
        "global_electrophilicity": 0.7692971421446727,
        "global_nucleophilicity": -8.477305315341791,
        "fukui_electrophilicity": {
            "1": 0.07209309972414436,
            "2": 0.04352510810351072,
            "3": 0.06230438364782903,
            "4": 0.03213425829454332,
            "5": 0.026312904098299825,
            "6": 0.06792045239213465,
            "7": 0.02876303434297292,
            "8": 0.03213381752054322,
            "9": 0.08376002497375698,
            "10": 0.09874578293688194,
            "11": 0.08145474392689236,
            "12": 0.06271242240018035,
            "13": 0.07540055911977092,
            "14": 0.08585900759002232,
            "15": 0.07693189708388407,
            "16": 0.06994850384463236
        },
        "fukui_nucleophilicity": {
            "1": 0.07260243947817689,
            "2": 0.04230113696056051,
            "3": 0.06268064465096645,
            "4": 0.03400845310298767,
            "5": 0.03110749772289005,
            "6": 0.07019025477516763,
            "7": 0.03211552237109847,
            "8": 0.03545308497970195,
            "9": 0.07943182497266889,
            "10": 0.09534951030583766,
            "11": 0.07725609403564751,
            "12": 0.06257820938745395,
            "13": 0.07457311950887512,
            "14": 0.0843599501650384,
            "15": 0.07603725882191792,
            "16": 0.06995499876126071
        },
        "boltzmann_weights": [
            0.500000013411314,
            0.499999986588686
        ],
        "best_conformer_elements": [
            6,
            6,
            6,
            6,
            6,
            6,
            6,
            6,
            1,
            1,
            1,
            1,
            1,
            1,
            1,
            1
        ],
        "best_conformer_coordinates": [
            [
                -2.7996504883392213,
                0.5067268078443541,
                -0.3307757375296494
            ],
            [
                -1.8569195165461714,
                -0.42690007797501867,
                -0.28622356006066363
            ],
            [
                -0.41676751008175084,
                -0.2137695987077826,
                -0.201669273122216
            ],
            [
                0.42662331397264364,
                -1.3257786864929022,
                -0.16462382115517377
            ],
            [
                1.7979836205106778,
                -1.1786700332337077,
                -0.08467855669649194
            ],
            [
                2.3586778805752897,
                0.08669579947474147,
                -0.03984625155398522
            ],
            [
                1.535500161801921,
                1.2006125291369882,
                -0.07571377159817176
            ],
            [
                0.16438284527030772,
                1.054224105562994,
                -0.15563770481452763
            ],
            [
                -2.5807350472122574,
                1.5604467593574072,
                -0.30764549962305027
            ],
            [
                -3.84233837136736,
                0.2458441308630186,
                -0.39306838601271116
            ],
            [
                -2.1533557273489103,
                -1.4689784286781729,
                -0.3136745326715254
            ],
            [
                -0.004100778556855408,
                -2.317010607449955,
                -0.1992554256323922
            ],
            [
                2.432537807928637,
                -2.052797839845991,
                -0.05718467471006832
            ],
            [
                3.4304258000072263,
                0.20491108070838962,
                0.022664187100062603
            ],
            [
                1.9676045890247913,
                2.190467602677497,
                -0.04101419015886248
            ],
            [
                -0.4598685796390594,
                1.9339764620498727,
                -0.18248094282351895
            ]
        ],
        "best_conformer_energy": -21.158608850502983,
        "fukui_radical": {
            "1": 0.07234813599322018,
            "2": 0.04291309873393513,
            "3": 0.06249235896699714,
            "4": 0.03379355109266154,
            "5": 0.03043928194186729,
            "6": 0.06905534188080434,
            "7": 0.028710059427083993,
            "8": 0.03307125813746206,
            "9": 0.08159578301382218,
            "10": 0.09704772989059883,
            "11": 0.07935561247948747,
            "12": 0.06995185022654472,
            "13": 0.0764846271348809,
            "14": 0.0851094403734144,
            "15": 0.07498679088705272,
            "16": 0.06264507982020588
        }
    }
}