{
    "file": "paper_665.json",
    "monomer1_s": "CI",
    "monomer2_s": "C=CC(=C)Cl",
    "monomer1": "Ic",
    "monomer2": "chloroprene",
    "r_values": {
        "constant_1": 0.2,
        "constant_2": 1.0
    },
    "conf_intervals": {
        "constant_conf_1": -0.02,
        "constant_conf_2": 0.18
    },
    "temperature": 40.0,
    "temperature_unit": "\u00b0C",
    "solvent": null,
    "method": "bulk",
    "r-product": null,
    "source": "http://dx.doi.org/10.1080/00222338408056545",
    "calculation_method": null,
    "polymerization_type": "free radical",
    "monomer1_data": {
        "smiles": "CI",
        "ip": 15.023238917070922,
        "ip_corrected": 10.177238917070921,
        "ea": 2.56543208255576,
        "homo": -0.40831813473326467,
        "lumo": -0.23140357383911228,
        "charges": {
            "1": -0.047195407022244625,
            "2": -0.13861927308475086,
            "3": 0.061938226702176,
            "4": 0.06193822670389078,
            "5": 0.06193822670092043
        },
        "dipole": [
            -1.4503056163659698,
            0.04393203110705186,
            0.039534956970844
        ],
        "global_electrophilicity": 0.625686102946104,
        "global_nucleophilicity": -10.177238917070921,
        "fukui_electrophilicity": {
            "1": 0.029571242623634746,
            "2": 0.47143344101622064,
            "3": 0.16633177212009093,
            "4": 0.1663317721189581,
            "5": 0.1663317721210819
        },
        "fukui_nucleophilicity": {
            "1": -0.033727243932339425,
            "2": 0.5740548846056625,
            "3": 0.15322411978276718,
            "4": 0.15322411984831674,
            "5": 0.15322411969557936
        },
        "boltzmann_weights": [
            1.0
        ],
        "best_conformer_energy": -7.473371901736834,
        "best_conformer_coordinates": [
            [
                -0.22549424189329786,
                0.006830574153720805,
                0.006146915918367881
            ],
            [
                1.915819206260909,
                -0.05803316763984906,
                -0.052224736286769866
            ],
            [
                -0.6051729972947425,
                -0.6875207904392941,
                -0.7325662727005673
            ],
            [
                -0.539591589456502,
                1.017531419062763,
                -0.22145714422898702
            ],
            [
                -0.5455603776163682,
                -0.2788080351373403,
                1.0001012425897284
            ]
        ],
        "best_conformer_elements": [
            6,
            53,
            1,
            1,
            1
        ]
    },
    "monomer2_data": {
        "smiles": "C=CC(=C)Cl",
        "ip": 13.912408282160012,
        "ip_corrected": 9.066408282160012,
        "ea": 3.9710429315707456,
        "homo": -0.39626514958538434,
        "lumo": -0.26557902717082016,
        "charges": {
            "1": -0.07438776013220635,
            "2": -0.03212034905069766,
            "3": 0.10215844001805363,
            "4": -0.1034291539258672,
            "5": -0.17969910731492378,
            "6": 0.06273731596767398,
            "7": 0.048729911182136924,
            "8": 0.052113097042218434,
            "9": 0.0600067769109944,
            "10": 0.06389082930263892
        },
        "dipole": [
            -0.10050235814984622,
            -0.5712409778217898,
            -0.259726663472682
        ],
        "global_electrophilicity": 0.8436953906808413,
        "global_nucleophilicity": -9.066408282160012,
        "fukui_electrophilicity": {
            "1": 0.0897861744249222,
            "2": 0.05514529126184635,
            "3": 0.059553495320784175,
            "4": 0.0902560487555004,
            "5": 0.15358040278833457,
            "6": 0.10452630693115612,
            "7": 0.12091090257398726,
            "8": 0.10018011524489501,
            "9": 0.11178259625539205,
            "10": 0.11427866644321953
        },
        "fukui_nucleophilicity": {
            "1": 0.059894137755342164,
            "2": 0.035220632675045715,
            "3": 0.035326875366149146,
            "4": 0.08569968055558638,
            "5": 0.3184666762327075,
            "6": 0.06985035434772,
            "7": 0.09860263805843308,
            "8": 0.08454360962064277,
            "9": 0.10945932212424184,
            "10": 0.10293607326412366
        },
        "boltzmann_weights": [
            0.9060648005971693,
            0.09393519940283064
        ]
    }
}