{
    "file": "paper_171.json",
    "monomer1_s": "C=Cc1ccccc1",
    "monomer2_s": "FC(F)=C(F)Cl",
    "monomer1": "Styrene",
    "monomer2": "Chlorotrifluoroethylene",
    "r_values": {
        "constant_1": 0.001,
        "constant_2": 7.0
    },
    "conf_intervals": {
        "constant_conf_1": null,
        "constant_conf_2": null
    },
    "temperature": 60.3,
    "temperature_unit": "\u00b0C",
    "solvent": "c1ccccc1",
    "method": "solvent",
    "r-product": null,
    "source": "Journal of Polymer Science, Vol. XI, No. 5, Pages 455-470",
    "calculation_method": null,
    "polymerization_type": "free radical",
    "logP": 1.6866,
    "monomer1_data": {
        "smiles": "C=Cc1ccccc1",
        "ip": 13.323305315341791,
        "ip_corrected": 8.477305315341791,
        "ea": 3.959877946938991,
        "homo": -0.3831985290395731,
        "lumo": -0.2501966690470822,
        "charges": {
            "1": -0.08578934436600626,
            "2": -0.030259830597504936,
            "3": 0.01460321229207634,
            "4": -0.032430750206366904,
            "5": -0.029945437580900583,
            "6": -0.030379977266510892,
            "7": -0.029893803249294533,
            "8": -0.033985609164289644,
            "9": 0.038721208943534896,
            "10": 0.036165150785770366,
            "11": 0.033044651543264955,
            "12": 0.03404524115950842,
            "13": 0.028965873902585763,
            "14": 0.02897855112451052,
            "15": 0.028735857233840652,
            "16": 0.029425005445779806
        },
        "dipole": [
            -0.00599695759505601,
            0.00019607223034193996,
            -0.0018463290012354543
        ],
        "global_electrophilicity": 0.7692971421446727,
        "global_nucleophilicity": -8.477305315341791,
        "fukui_electrophilicity": {
            "1": 0.07209309972414436,
            "2": 0.04352510810351072,
            "3": 0.06230438364782903,
            "4": 0.03213425829454332,
            "5": 0.026312904098299825,
            "6": 0.06792045239213465,
            "7": 0.02876303434297292,
            "8": 0.03213381752054322,
            "9": 0.08376002497375698,
            "10": 0.09874578293688194,
            "11": 0.08145474392689236,
            "12": 0.06271242240018035,
            "13": 0.07540055911977092,
            "14": 0.08585900759002232,
            "15": 0.07693189708388407,
            "16": 0.06994850384463236
        },
        "fukui_nucleophilicity": {
            "1": 0.07260243947817689,
            "2": 0.04230113696056051,
            "3": 0.06268064465096645,
            "4": 0.03400845310298767,
            "5": 0.03110749772289005,
            "6": 0.07019025477516763,
            "7": 0.03211552237109847,
            "8": 0.03545308497970195,
            "9": 0.07943182497266889,
            "10": 0.09534951030583766,
            "11": 0.07725609403564751,
            "12": 0.06257820938745395,
            "13": 0.07457311950887512,
            "14": 0.0843599501650384,
            "15": 0.07603725882191792,
            "16": 0.06995499876126071
        },
        "boltzmann_weights": [
            0.500000013411314,
            0.499999986588686
        ],
        "best_conformer_elements": [
            6,
            6,
            6,
            6,
            6,
            6,
            6,
            6,
            1,
            1,
            1,
            1,
            1,
            1,
            1,
            1
        ],
        "best_conformer_coordinates": [
            [
                -2.7996504883392213,
                0.5067268078443541,
                -0.3307757375296494
            ],
            [
                -1.8569195165461714,
                -0.42690007797501867,
                -0.28622356006066363
            ],
            [
                -0.41676751008175084,
                -0.2137695987077826,
                -0.201669273122216
            ],
            [
                0.42662331397264364,
                -1.3257786864929022,
                -0.16462382115517377
            ],
            [
                1.7979836205106778,
                -1.1786700332337077,
                -0.08467855669649194
            ],
            [
                2.3586778805752897,
                0.08669579947474147,
                -0.03984625155398522
            ],
            [
                1.535500161801921,
                1.2006125291369882,
                -0.07571377159817176
            ],
            [
                0.16438284527030772,
                1.054224105562994,
                -0.15563770481452763
            ],
            [
                -2.5807350472122574,
                1.5604467593574072,
                -0.30764549962305027
            ],
            [
                -3.84233837136736,
                0.2458441308630186,
                -0.39306838601271116
            ],
            [
                -2.1533557273489103,
                -1.4689784286781729,
                -0.3136745326715254
            ],
            [
                -0.004100778556855408,
                -2.317010607449955,
                -0.1992554256323922
            ],
            [
                2.432537807928637,
                -2.052797839845991,
                -0.05718467471006832
            ],
            [
                3.4304258000072263,
                0.20491108070838962,
                0.022664187100062603
            ],
            [
                1.9676045890247913,
                2.190467602677497,
                -0.04101419015886248
            ],
            [
                -0.4598685796390594,
                1.9339764620498727,
                -0.18248094282351895
            ]
        ],
        "best_conformer_energy": -21.158608850502983,
        "fukui_radical": {
            "1": 0.07234813599322018,
            "2": 0.04291309873393513,
            "3": 0.06249235896699714,
            "4": 0.03379355109266154,
            "5": 0.03043928194186729,
            "6": 0.06905534188080434,
            "7": 0.028710059427083993,
            "8": 0.03307125813746206,
            "9": 0.08159578301382218,
            "10": 0.09704772989059883,
            "11": 0.07935561247948747,
            "12": 0.06995185022654472,
            "13": 0.0764846271348809,
            "14": 0.0851094403734144,
            "15": 0.07498679088705272,
            "16": 0.06264507982020588
        }
    },
    "monomer2_data": {
        "smiles": "FC(F)=C(F)Cl",
        "ip": 15.599068603177273,
        "ip_corrected": 10.753068603177272,
        "ea": 3.608103056734076,
        "homo": -0.44568397057387826,
        "lumo": -0.28046767794724836,
        "charges": {
            "1": -0.15259700820914765,
            "2": 0.2998010622021333,
            "3": -0.14526783064729323,
            "4": 0.20087175350060857,
            "5": -0.15078631123597977,
            "6": -0.05202166561030061
        },
        "dipole": [
            0.2582008067370291,
            -0.26255352829448175,
            -0.3319499863615961
        ],
        "global_electrophilicity": 0.9438198634516547,
        "global_nucleophilicity": -10.753068603177272,
        "fukui_electrophilicity": {
            "1": 0.1429636042117933,
            "2": 0.16294854755019728,
            "3": 0.14761128162970757,
            "4": 0.1337563178933498,
            "5": 0.13926457609915585,
            "6": 0.27345567261583004
        },
        "fukui_nucleophilicity": {
            "1": 0.1549364319699113,
            "2": 0.08128938975364403,
            "3": 0.17001370125517332,
            "4": 0.05539712191892007,
            "5": 0.1466072802307921,
            "6": 0.39175607487153574
        },
        "boltzmann_weights": [
            0.4999999868850011,
            0.500000013114999
        ],
        "best_conformer_elements": [
            9,
            6,
            9,
            6,
            9,
            17
        ],
        "best_conformer_coordinates": [
            [
                -1.3255316714499064,
                0.9903273603734637,
                0.7937995223082572
            ],
            [
                -0.6503006728885646,
                -0.0005766957025757314,
                0.23818750163204686
            ],
            [
                -1.3777009597128116,
                -1.1004900868915557,
                0.16281323545132415
            ],
            [
                0.6057178121187986,
                0.0859483758198477,
                -0.19530065248005757
            ],
            [
                1.282356235723365,
                1.23014741989433,
                -0.08754974686481089
            ],
            [
                1.4654592509173476,
                -1.205356378785278,
                -0.9119498653385258
            ]
        ],
        "best_conformer_energy": -22.979701660558263,
        "fukui_radical": {
            "1": 0.1588130469002297,
            "2": 0.12212198213387329,
            "3": 0.14894358772794442,
            "4": 0.09457251883282082,
            "5": 0.14293666547754025,
            "6": 0.3326121989275996
        }
    }
}