{
    "file": "paper_841.json",
    "monomer1_s": "C=Cc1ccsc1",
    "monomer2_s": "C=CC(=O)OCCCC",
    "monomer1": "3-vinyl thiophene",
    "monomer2": "butyl acrylate",
    "r_values": {
        "constant_1": 0.499,
        "constant_2": 0.386
    },
    "conf_intervals": {
        "constant_conf_1": 0.13,
        "constant_conf_2": 0.14
    },
    "temperature": 65.0,
    "temperature_unit": "\u00b0C",
    "solvent": "C1CCOC1",
    "method": "solvent",
    "r-product": 0.193,
    "source": "https://doi.org/10.1007/BF00295721",
    "calculation_method": "nonlinear least squares error-in-variables",
    "polymerization_type": "free radical",
    "logP": 0.7968,
    "monomer1_data": {
        "smiles": "C=Cc1ccsc1",
        "ip": 13.12564483024181,
        "ip_corrected": 8.27964483024181,
        "ea": 4.105316715050972,
        "homo": -0.3792257589505558,
        "lumo": -0.25387824804375914,
        "charges": {
            "1": -0.0866615044114571,
            "2": -0.027593431131505725,
            "3": 0.0012157703969459255,
            "4": -0.04650089987928113,
            "5": -0.02109274758105084,
            "6": -0.026340361920205585,
            "7": -0.026207849659269436,
            "8": 0.036333366047903236,
            "9": 0.04065744845447091,
            "10": 0.031617523131584474,
            "11": 0.0401901147058459,
            "12": 0.04255152881827578,
            "13": 0.0418310430277326
        },
        "dipole": [
            -0.22585418743246893,
            0.22582668011450874,
            0.011044400141696524
        ],
        "global_electrophilicity": 0.7876091154279604,
        "global_nucleophilicity": -8.27964483024181,
        "fukui_electrophilicity": {
            "1": 0.05966761018934756,
            "2": 0.03486406130439887,
            "3": 0.046448762808885685,
            "4": 0.014190292346120667,
            "5": 0.010229963413177112,
            "6": 0.3115587020057874,
            "7": 0.040445117046887136,
            "8": 0.08817873155357298,
            "9": 0.07310020947759555,
            "10": 0.07139413364921891,
            "11": 0.07195973848065888,
            "12": 0.08402867240698134,
            "13": 0.09393400532401379
        },
        "fukui_nucleophilicity": {
            "1": 0.06782307641998116,
            "2": 0.036540129542324926,
            "3": 0.06444660465294429,
            "4": 0.016731557922418754,
            "5": -0.0049281990900518075,
            "6": 0.3696510597760313,
            "7": -0.007300252346315511,
            "8": 0.09095342083436708,
            "9": 0.07551932458131805,
            "10": 0.07367582540678744,
            "11": 0.06548297178026719,
            "12": 0.07522866210061296,
            "13": 0.07617581841932372
        },
        "boltzmann_weights": [
            0.618940421001393,
            0.381059578998607
        ],
        "best_conformer_elements": [
            6,
            6,
            6,
            6,
            6,
            16,
            6,
            1,
            1,
            1,
            1,
            1,
            1
        ],
        "best_conformer_coordinates": [
            [
                -2.140623549286247,
                -0.8081297633054411,
                0.023344448449071045
            ],
            [
                -1.4017612622736344,
                0.2811605275166793,
                0.1982955846650213
            ],
            [
                0.04082778059369188,
                0.35148136499060656,
                0.07545190306247734
            ],
            [
                0.9119571511796575,
                -0.728774589797758,
                -0.2522845763936348
            ],
            [
                2.213187454739643,
                -0.3632217253310832,
                -0.2948593831538797
            ],
            [
                2.433017057377202,
                1.3076467865889438,
                0.06135039425445341
            ],
            [
                0.7436653695284857,
                1.5092547963115375,
                0.26933612138054075
            ],
            [
                -3.2110897454759724,
                -0.7828342119361502,
                0.13199722113080453
            ],
            [
                -1.7119825540024318,
                -1.7615732128270232,
                -0.2331988622635034
            ],
            [
                -1.8793559103884463,
                1.2183146841821615,
                0.4558678929283581
            ],
            [
                0.5752781085108444,
                -1.7304348593413428,
                -0.4461235653208449
            ],
            [
                3.069842647725336,
                -0.9691335567011681,
                -0.5140780307615997
            ],
            [
                0.35703746235543254,
                2.4762437596500346,
                0.5249008467310059
            ]
        ],
        "best_conformer_energy": -19.09840011989085,
        "fukui_radical": {
            "1": 0.06374532926613419,
            "2": 0.03570211897094167,
            "3": 0.05544763797618353,
            "4": 0.015460989527343143,
            "5": 0.0026509030600403855,
            "6": 0.34060492498136485,
            "7": 0.016572419617217955,
            "8": 0.08956606874675596,
            "9": 0.0743097550586452,
            "10": 0.07253496999034524,
            "11": 0.06872133803082968,
            "12": 0.07962863835360941,
            "13": 0.08505490642392566
        }
    },
    "monomer2_data": {
        "smiles": "C=CC(=O)OCCCC",
        "ip": 13.787313557775578,
        "ip_corrected": 8.941313557775578,
        "ea": 3.9925591146808466,
        "homo": -0.4127272628246189,
        "lumo": -0.2743804319193664,
        "charges": {
            "1": -0.05974349118711409,
            "2": -0.05857873771035605,
            "3": 0.35520528143914426,
            "4": -0.4141800042273293,
            "5": -0.2677821935008226,
            "6": 0.08217908677405981,
            "7": -0.06734727761554657,
            "8": -0.05644562635654057,
            "9": -0.10525102602139863,
            "10": 0.06270521067099835,
            "11": 0.07867825313713442,
            "12": 0.06410267240460353,
            "13": 0.04848740094028653,
            "14": 0.04848743310769251,
            "15": 0.05096610824048667,
            "16": 0.05096612459751028,
            "17": 0.03529697108331478,
            "18": 0.03529696382048248,
            "19": 0.038628309862929734,
            "20": 0.03970023110752155,
            "21": 0.03862830943294505
        },
        "dipole": [
            -0.3977269369628635,
            0.6387143298338241,
            0.4234044801003376
        ],
        "global_electrophilicity": 0.8348050574660377,
        "global_nucleophilicity": -8.941313557775578,
        "fukui_electrophilicity": {
            "1": 0.0998331675014838,
            "2": 0.06639142085720429,
            "3": 0.08304167106843008,
            "4": 0.18608603208860336,
            "5": 0.09026133669714703,
            "6": -0.020887769395365408,
            "7": -0.0038805864344462065,
            "8": -0.003314689050342802,
            "9": -0.007577159599243002,
            "10": 0.1297702490522501,
            "11": 0.11201724163635822,
            "12": 0.11499826693126959,
            "13": 0.03218980289627936,
            "14": 0.03218976986059464,
            "15": 0.016150659069800344,
            "16": 0.016150635033566334,
            "17": 0.009932771807928637,
            "18": 0.009932781393251548,
            "19": 0.0092986782292814,
            "20": 0.01811703918691682,
            "21": 0.009298681169044552
        },
        "fukui_nucleophilicity": {
            "1": 0.019989111836371594,
            "2": 0.023390025134843263,
            "3": 0.020069065648740836,
            "4": 0.13462886920133071,
            "5": 0.05454926336170063,
            "6": -0.01729573736947146,
            "7": -0.007943857228474668,
            "8": -0.006123508937575524,
            "9": -0.01827633808765726,
            "10": 0.08365419418848738,
            "11": 0.05982951178934659,
            "12": 0.0691381578290839,
            "13": 0.04132517030486409,
            "14": 0.041325101710033556,
            "15": 0.06554119744764274,
            "16": 0.06554120834489653,
            "17": 0.08524610827117389,
            "18": 0.08524612271423221,
            "19": 0.07088258746409554,
            "20": 0.05840116034085999,
            "21": 0.07088258603675981
        },
        "boltzmann_weights": [
            0.03693414337813413,
            0.09732528929105856,
            0.0973252901912,
            0.10103584125115438,
            0.10103584585083969,
            0.011237201320747651,
            0.11958486180602856,
            0.021552593262464673,
            0.029078313671439062,
            0.03770295505864699,
            0.061676136571156864,
            0.06167613687308087,
            0.09732050619542909,
            0.05216903835550857,
            0.006534385856919049,
            0.017939430874259123,
            0.017939383762294096,
            0.016395978608603128,
            0.015536667821035723
        ],
        "best_conformer_elements": [
            6,
            6,
            6,
            8,
            8,
            6,
            6,
            6,
            6,
            1,
            1,
            1,
            1,
            1,
            1,
            1,
            1,
            1,
            1,
            1,
            1
        ],
        "best_conformer_coordinates": [
            [
                -4.68802750952303,
                -0.1757135495014157,
                -0.0065636537547053364
            ],
            [
                -3.46737648864886,
                0.30297384411461076,
                -0.1948238600037417
            ],
            [
                -2.270153538815978,
                -0.5086367153067518,
                0.11636850078287467
            ],
            [
                -2.2800534403851627,
                -1.6336395456018178,
                0.5518122460045366
            ],
            [
                -1.149482184005872,
                0.17406486451161904,
                -0.1506078440749024
            ],
            [
                0.07977383252920166,
                -0.5015554988315519,
                0.10787346745153568
            ],
            [
                1.230254761990056,
                0.4253893145002353,
                -0.25368213139809326
            ],
            [
                2.5827301612246107,
                -0.2356460454505742,
                -0.0011391625859454258
            ],
            [
                3.735213960302028,
                0.6929061320698365,
                -0.3633220032950433
            ],
            [
                -4.822963926763464,
                -1.1730917894984993,
                0.3797907458627033
            ],
            [
                -5.572995506966148,
                0.39650782696682974,
                -0.2258679474708702
            ],
            [
                -3.2710936633388368,
                1.2925996622799187,
                -0.578328081113711
            ],
            [
                0.11415105385960153,
                -0.7837634315707142,
                1.1667605377277634
            ],
            [
                0.11012047857778468,
                -1.4231391066997496,
                -0.4852772062990602
            ],
            [
                1.1466061344096163,
                1.3383019227397421,
                0.3387388646498761
            ],
            [
                1.1425988982196345,
                0.7017564434998245,
                -1.3059685869570938
            ],
            [
                2.6530760237692594,
                -1.1513247740449695,
                -0.5919949806873273
            ],
            [
                2.6570816294933093,
                -0.5150897420081879,
                1.0519086683042862
            ],
            [
                3.688480623481881,
                0.9670467813616556,
                -1.4147276197443912
            ],
            [
                3.692492483263593,
                1.603508984475122,
                0.22977847470195623
            ],
            [
                4.689566217326666,
                0.20654442199489476,
                -0.17741688179181334
            ]
        ],
        "best_conformer_energy": -29.220250213124256,
        "fukui_radical": {
            "1": 0.05991240514062936,
            "2": 0.04489339632307359,
            "3": 0.05155488023524302,
            "4": 0.1603578334746327,
            "5": 0.07240663428209021,
            "6": -0.01909197967812877,
            "7": -0.005911760827825026,
            "8": -0.00471912196699123,
            "9": -0.01292662955879259,
            "10": 0.08592196186162118,
            "11": 0.10671245965632287,
            "12": 0.09206875859381078,
            "13": 0.03675745306599808,
            "14": 0.03675814108352727,
            "15": 0.04084604976879057,
            "16": 0.040846298503678775,
            "17": 0.04758780078708909,
            "18": 0.04758772473328786,
            "19": 0.040089659578387185,
            "20": 0.04008972152348979,
            "21": 0.03825831342072217
        }
    }
}