{
    "file": "paper_241.json",
    "monomer1_s": "C=COC=C",
    "monomer2_s": "O=C1C=CC(=O)N1c1ccccc1",
    "monomer1": "Divinyl Ether",
    "monomer2": "N-Phenylmaleimide",
    "r_values": {
        "constant_1": 0.024,
        "constant_2": 0.938
    },
    "conf_intervals": {
        "constant_conf_1": null,
        "constant_conf_2": null
    },
    "temperature": 50.0,
    "temperature_unit": "\u00b0C",
    "solvent": "CN(C)C=O",
    "method": "solvent",
    "r-product": null,
    "source": "Journal of Polymer Science: Part A, Vol. 3, pp. 501-511 (1965)",
    "calculation_method": "least-squares fit",
    "polymerization_type": "free radical",
    "logP": -0.2956000000000001,
    "monomer1_data": {
        "smiles": "C=COC=C",
        "ip": 13.500688357000127,
        "ip_corrected": 8.654688357000127,
        "ea": 2.740455112051442,
        "homo": -0.3756804237432533,
        "lumo": -0.21935600953337048,
        "charges": {
            "1": -0.125890100640625,
            "2": 0.10204773523429228,
            "3": -0.21625885378351128,
            "4": 0.10204883000641848,
            "5": -0.125896936106141,
            "6": 0.04853035020585385,
            "7": 0.05831058858402492,
            "8": 0.025142209389533054,
            "9": 0.025133175676965002,
            "10": 0.05829942111934788,
            "11": 0.04853358031383258
        },
        "dipole": [
            -0.06385886243552585,
            -0.42561221014355,
            -0.21215122416856655
        ],
        "global_electrophilicity": 0.498261506068605,
        "global_nucleophilicity": -8.654688357000127,
        "fukui_electrophilicity": {
            "1": 0.08732339465575509,
            "2": 0.06531464855829093,
            "3": 0.0746442849888535,
            "4": 0.06531423648940615,
            "5": 0.08731896331850739,
            "6": 0.11135137373672971,
            "7": 0.10368463243977966,
            "8": 0.09501191861744428,
            "9": 0.0950033836987029,
            "10": 0.10368290829606808,
            "11": 0.11135025520045821
        },
        "fukui_nucleophilicity": {
            "1": 0.09338147767493278,
            "2": 0.03171855300279636,
            "3": 0.16116388913399865,
            "4": 0.031718213098692716,
            "5": 0.09338570695482688,
            "6": 0.10894560883528658,
            "7": 0.09734585570091302,
            "8": 0.0880258200796406,
            "9": 0.08801882336088883,
            "10": 0.0973486656530379,
            "11": 0.10894738650637699
        },
        "boltzmann_weights": [
            0.4111672765444372,
            0.2944244278416082,
            0.29440829561395465
        ]
    },
    "monomer2_data": {
        "smiles": "O=C1C=CC(=O)N1C1CCCCC1",
        "ip": 13.577683859491115,
        "ip_corrected": 8.731683859491115,
        "ea": 5.837791906705405,
        "homo": -0.4150320688291327,
        "lumo": -0.33121204792194003,
        "charges": {
            "1": -0.3574656042586242,
            "2": 0.2812756261160977,
            "3": -0.05268355104109626,
            "4": -0.05294621255990479,
            "5": 0.28384745150282037,
            "6": -0.35846029070932606,
            "7": -0.11271197552282261,
            "8": 0.04675031405163444,
            "9": -0.06346951300843229,
            "10": -0.0572720407048654,
            "11": -0.060282070780824086,
            "12": -0.057271915099912335,
            "13": -0.06346807378418214,
            "14": 0.0819840421618484,
            "15": 0.08198660895095924,
            "16": 0.06442690754593619,
            "17": 0.03162488265341429,
            "18": 0.0568665279828529,
            "19": 0.03653215652644022,
            "20": 0.03569793954645098,
            "21": 0.0406341897538824,
            "22": 0.033687173683679746,
            "23": 0.03569859453926426,
            "24": 0.03653199240053322,
            "25": 0.03162536570994437,
            "26": 0.05686147434422608
        },
        "dipole": [
            0.17864034975261328,
            -0.029047688977613208,
            0.14119592099018932
        ],
        "global_electrophilicity": 1.5269266927844904,
        "global_nucleophilicity": -8.731683859491115,
        "fukui_electrophilicity": {
            "1": 0.1829010231851091,
            "2": 0.05458485378252448,
            "3": 0.07288250058772636,
            "4": 0.07286779843713664,
            "5": 0.0554057586645898,
            "6": 0.18384783756224599,
            "7": 0.054013770220806445,
            "8": -0.015740989658846752,
            "9": -0.004342458623758122,
            "10": -0.005483130465085154,
            "11": -0.008575913880547133,
            "12": -0.005483147061271038,
            "13": -0.00434222294154845,
            "14": 0.10185795333100713,
            "15": 0.10184816062169258,
            "16": 0.024854470881630113,
            "17": 0.009176916149210422,
            "18": 0.0031846427198002347,
            "19": 0.024512811240725112,
            "20": 0.014730387647719917,
            "21": 0.010169654710263931,
            "22": 0.025524687747045284,
            "23": 0.014730123191244341,
            "24": 0.0245128337492893,
            "25": 0.009175865204209387,
            "26": 0.0031858129970726914
        },
        "fukui_nucleophilicity": {
            "1": 0.0870503602955569,
            "2": 0.009958965458719327,
            "3": 0.02247554080150882,
            "4": 0.02104783380582497,
            "5": 0.010833409366592495,
            "6": 0.0897909711804194,
            "7": 0.03999464608062753,
            "8": 0.004816775715811843,
            "9": -0.0035821271299178864,
            "10": -0.003496408031750664,
            "11": -0.0016449827576882486,
            "12": -0.003496672892786823,
            "13": -0.003582131764130872,
            "14": 0.057513586043157455,
            "15": 0.054580511578652846,
            "16": 0.04858592950394619,
            "17": 0.06207630116415731,
            "18": 0.041366992914779986,
            "19": 0.0841307478089215,
            "20": 0.050103723696383315,
            "21": 0.04455431221170861,
            "22": 0.049248942272191364,
            "23": 0.0501018745840328,
            "24": 0.08413200602860062,
            "25": 0.062073778751590564,
            "26": 0.0413651133130967
        },
        "boltzmann_weights": [
            0.4991289242028035,
            0.4991289139183944,
            0.0008155695945344823,
            0.00025827308113519394,
            0.0002582730666843481,
            5.396368895663911e-05,
            5.396368615088267e-05,
            6.0423755884875675e-05,
            6.042375581257571e-05,
            6.042375445570117e-05,
            6.0423753046534215e-05,
            6.042374214061081e-05
        ],
        "best_conformer_energy": -39.13037673547556,
        "best_conformer_coordinates": [
            [
                2.3262800728371094,
                -0.06259186622442738,
                -2.202063850252462
            ],
            [
                2.476706337119479,
                -0.1703458040056336,
                -1.012864063916667
            ],
            [
                3.7444012008519385,
                -0.3581574793459583,
                -0.24661106099314847
            ],
            [
                3.4489648721828003,
                -0.428915291424661,
                1.0465586785679855
            ],
            [
                1.9686345098856965,
                -0.2918515422200372,
                1.2086384226339781
            ],
            [
                1.3321176134984072,
                -0.30703979218419875,
                2.230640606640408
            ],
            [
                1.465473496050724,
                -0.14153656128352893,
                -0.0690789260495028
            ],
            [
                0.06177707408075176,
                0.0274439620485058,
                -0.41670801864352053
            ],
            [
                -0.5056762190044175,
                1.30187317926747,
                0.20823252228029526
            ],
            [
                -1.961973607122216,
                1.4788360839435586,
                -0.21071115554773648
            ],
            [
                -2.7878518701662975,
                0.26677194382437164,
                0.20885163563195724
            ],
            [
                -2.213199133554538,
                -1.0064248670464202,
                -0.4042970971958705
            ],
            [
                -0.7574741524193551,
                -1.189055678501301,
                0.01420179828170634
            ],
            [
                4.700502480323581,
                -0.4170488918118113,
                -0.7321635770299463
            ],
            [
                4.102294569939891,
                -0.5605103592747922,
                1.8887051965838266
            ],
            [
                0.04369878146420499,
                0.11443185431114607,
                -1.5099659957805984
            ],
            [
                0.08736051880853653,
                2.1624895004625997,
                -0.10998739465677265
            ],
            [
                -0.4417407934783979,
                1.2238670723867837,
                1.2947928999700433
            ],
            [
                -2.3665137511197067,
                2.383439874251687,
                0.2466052612702663
            ],
            [
                -2.0155131514520845,
                1.5982414395349913,
                -1.2953954332166084
            ],
            [
                -2.7755804189682687,
                0.18074929464861259,
                1.2972905565584365
            ],
            [
                -3.824661700038209,
                0.3961872344522014,
                -0.10706859452859728
            ],
            [
                -2.2726084364008523,
                -0.9450806982567069,
                -1.4935038626069457
            ],
            [
                -2.7966444218502433,
                -1.8716632889609375,
                -0.08483955809353758
            ],
            [
                -0.3426342664027575,
                -2.0912817305559837,
                -0.44133376666941887
            ],
            [
                -0.6961396103576936,
                -1.292827572160273,
                1.0987558084659352
            ]
        ],
        "best_conformer_elements": [
            8,
            6,
            6,
            6,
            6,
            8,
            7,
            6,
            6,
            6,
            6,
            6,
            6,
            1,
            1,
            1,
            1,
            1,
            1,
            1,
            1,
            1,
            1,
            1,
            1,
            1
        ]
    }
}