{
    "file": "paper_452.json",
    "monomer1_s": "C=Cc1ccccc1",
    "monomer2_s": "O=C1C=CC(=O)N1CCO",
    "monomer1": "styrene",
    "monomer2": "N-2-hydroxyethyl maleimide",
    "r_values": {
        "constant_1": 0.04,
        "constant_2": 0.01
    },
    "conf_intervals": {
        "constant_conf_1": 0.02,
        "constant_conf_2": 0.01
    },
    "temperature": 60.0,
    "temperature_unit": "\u00b0C",
    "solvent": "CO",
    "method": "solvent",
    "r-product": 0.0004,
    "source": "https://doi.org/10.1002/pol.1969.160260292",
    "calculation_method": null,
    "polymerization_type": "free radical",
    "logP": -0.3915,
    "monomer1_data": {
        "smiles": "C=Cc1ccccc1",
        "ip": 13.323305315341791,
        "ip_corrected": 8.477305315341791,
        "ea": 3.959877946938991,
        "homo": -0.3831985290395731,
        "lumo": -0.2501966690470822,
        "charges": {
            "1": -0.08578934436600626,
            "2": -0.030259830597504936,
            "3": 0.01460321229207634,
            "4": -0.032430750206366904,
            "5": -0.029945437580900583,
            "6": -0.030379977266510892,
            "7": -0.029893803249294533,
            "8": -0.033985609164289644,
            "9": 0.038721208943534896,
            "10": 0.036165150785770366,
            "11": 0.033044651543264955,
            "12": 0.03404524115950842,
            "13": 0.028965873902585763,
            "14": 0.02897855112451052,
            "15": 0.028735857233840652,
            "16": 0.029425005445779806
        },
        "dipole": [
            -0.00599695759505601,
            0.00019607223034193996,
            -0.0018463290012354543
        ],
        "global_electrophilicity": 0.7692971421446727,
        "global_nucleophilicity": -8.477305315341791,
        "fukui_electrophilicity": {
            "1": 0.07209309972414436,
            "2": 0.04352510810351072,
            "3": 0.06230438364782903,
            "4": 0.03213425829454332,
            "5": 0.026312904098299825,
            "6": 0.06792045239213465,
            "7": 0.02876303434297292,
            "8": 0.03213381752054322,
            "9": 0.08376002497375698,
            "10": 0.09874578293688194,
            "11": 0.08145474392689236,
            "12": 0.06271242240018035,
            "13": 0.07540055911977092,
            "14": 0.08585900759002232,
            "15": 0.07693189708388407,
            "16": 0.06994850384463236
        },
        "fukui_nucleophilicity": {
            "1": 0.07260243947817689,
            "2": 0.04230113696056051,
            "3": 0.06268064465096645,
            "4": 0.03400845310298767,
            "5": 0.03110749772289005,
            "6": 0.07019025477516763,
            "7": 0.03211552237109847,
            "8": 0.03545308497970195,
            "9": 0.07943182497266889,
            "10": 0.09534951030583766,
            "11": 0.07725609403564751,
            "12": 0.06257820938745395,
            "13": 0.07457311950887512,
            "14": 0.0843599501650384,
            "15": 0.07603725882191792,
            "16": 0.06995499876126071
        },
        "boltzmann_weights": [
            0.500000013411314,
            0.499999986588686
        ],
        "best_conformer_elements": [
            6,
            6,
            6,
            6,
            6,
            6,
            6,
            6,
            1,
            1,
            1,
            1,
            1,
            1,
            1,
            1
        ],
        "best_conformer_coordinates": [
            [
                -2.7996504883392213,
                0.5067268078443541,
                -0.3307757375296494
            ],
            [
                -1.8569195165461714,
                -0.42690007797501867,
                -0.28622356006066363
            ],
            [
                -0.41676751008175084,
                -0.2137695987077826,
                -0.201669273122216
            ],
            [
                0.42662331397264364,
                -1.3257786864929022,
                -0.16462382115517377
            ],
            [
                1.7979836205106778,
                -1.1786700332337077,
                -0.08467855669649194
            ],
            [
                2.3586778805752897,
                0.08669579947474147,
                -0.03984625155398522
            ],
            [
                1.535500161801921,
                1.2006125291369882,
                -0.07571377159817176
            ],
            [
                0.16438284527030772,
                1.054224105562994,
                -0.15563770481452763
            ],
            [
                -2.5807350472122574,
                1.5604467593574072,
                -0.30764549962305027
            ],
            [
                -3.84233837136736,
                0.2458441308630186,
                -0.39306838601271116
            ],
            [
                -2.1533557273489103,
                -1.4689784286781729,
                -0.3136745326715254
            ],
            [
                -0.004100778556855408,
                -2.317010607449955,
                -0.1992554256323922
            ],
            [
                2.432537807928637,
                -2.052797839845991,
                -0.05718467471006832
            ],
            [
                3.4304258000072263,
                0.20491108070838962,
                0.022664187100062603
            ],
            [
                1.9676045890247913,
                2.190467602677497,
                -0.04101419015886248
            ],
            [
                -0.4598685796390594,
                1.9339764620498727,
                -0.18248094282351895
            ]
        ],
        "best_conformer_energy": -21.158608850502983,
        "fukui_radical": {
            "1": 0.07234813599322018,
            "2": 0.04291309873393513,
            "3": 0.06249235896699714,
            "4": 0.03379355109266154,
            "5": 0.03043928194186729,
            "6": 0.06905534188080434,
            "7": 0.028710059427083993,
            "8": 0.03307125813746206,
            "9": 0.08159578301382218,
            "10": 0.09704772989059883,
            "11": 0.07935561247948747,
            "12": 0.06995185022654472,
            "13": 0.0764846271348809,
            "14": 0.0851094403734144,
            "15": 0.07498679088705272,
            "16": 0.06264507982020588
        }
    },
    "monomer2_data": {
        "smiles": "O=C1C=CC(=O)N1CCO",
        "ip": 14.247440080014062,
        "ip_corrected": 9.401440080014062,
        "ea": 6.206846605643874,
        "homo": -0.415491246185558,
        "lumo": -0.3463858262381968,
        "charges": {
            "1": -0.34473041182016584,
            "2": 0.2818270832383236,
            "3": -0.04992456950127731,
            "4": -0.0506967764569864,
            "5": 0.2852729450431899,
            "6": -0.3650736622484421,
            "7": -0.10756489438439631,
            "8": -0.011942892612727102,
            "9": 0.08065488583796761,
            "10": -0.44646922915468923,
            "11": 0.08823313530458335,
            "12": 0.08800191313175514,
            "13": 0.0728431634266896,
            "14": 0.07882027573058158,
            "15": 0.058810486596463714,
            "16": 0.024001220501609452,
            "17": 0.31793732736753094
        },
        "dipole": [
            1.21120075361651,
            -0.17936092261049,
            -0.28795528809528265
        ],
        "global_electrophilicity": 1.800657113705197,
        "global_nucleophilicity": -9.401440080014062,
        "fukui_electrophilicity": {
            "1": 0.18633512718970502,
            "2": 0.05386079479071368,
            "3": 0.07337492415752107,
            "4": 0.0722866878704018,
            "5": 0.05605021079232009,
            "6": 0.18118369154950437,
            "7": 0.05762659501557221,
            "8": -0.02565919713269224,
            "9": -0.01274199683577236,
            "10": 0.025300629186556733,
            "11": 0.10320245771122948,
            "12": 0.10303264393668535,
            "13": 0.043120222387411186,
            "14": 0.03269465448855252,
            "15": 0.04294592319990395,
            "16": 0.012604568383154524,
            "17": -0.005217936690757874
        },
        "fukui_nucleophilicity": {
            "1": 0.12692453686217975,
            "2": 0.015448264033685044,
            "3": 0.0299110855453541,
            "4": 0.026493190032494708,
            "5": 0.013063397021098266,
            "6": 0.09879038683602104,
            "7": 0.05049950414430737,
            "8": -0.0053058204144408525,
            "9": -0.015413503397688391,
            "10": 0.16645109457886254,
            "11": 0.072061890106313,
            "12": 0.06977145508084508,
            "13": 0.061424033598618935,
            "14": 0.06428504345437248,
            "15": 0.07669307740637044,
            "16": 0.10128049283374004,
            "17": 0.04762187227786485
        },
        "boltzmann_weights": [
            0.24806253204456474,
            0.24806255940883654,
            0.2480625744243251,
            0.24806257056661296,
            0.0009017088715482377,
            0.0009017088835454901,
            0.000540399275000893,
            0.0054059465255659285
        ],
        "best_conformer_elements": [
            8,
            6,
            6,
            6,
            6,
            8,
            7,
            6,
            6,
            8,
            1,
            1,
            1,
            1,
            1,
            1,
            1
        ],
        "best_conformer_coordinates": [
            [
                -0.043061703456437755,
                -1.9478013712526894,
                -0.6234599601516977
            ],
            [
                0.6821744703281608,
                -1.0244135119746565,
                -0.3442642371847487
            ],
            [
                2.1468981782517154,
                -1.0542755974355484,
                -0.06027782946431911
            ],
            [
                2.54897180196493,
                0.1788936512443247,
                0.23014032862472925
            ],
            [
                1.3735711913674078,
                1.0950222283939415,
                0.14629477878646185
            ],
            [
                1.3209040380236252,
                2.2799064579890675,
                0.3374478888502245
            ],
            [
                0.2979086512681041,
                0.2926442439120136,
                -0.21043980364486098
            ],
            [
                -1.0409958326752626,
                0.8152571035298788,
                -0.40972661689685147
            ],
            [
                -2.0855920581528506,
                0.13397393324671444,
                0.48976678461544265
            ],
            [
                -2.6508257176636207,
                -1.0045060195501243,
                -0.08933336276227752
            ],
            [
                2.713836948858296,
                -1.965491549895135,
                -0.09825468282851497
            ],
            [
                3.5298202033492982,
                0.5321307660196186,
                0.4875889182134909
            ],
            [
                -1.334399259208019,
                0.6775902021470431,
                -1.4553761780451449
            ],
            [
                -0.98043594849562,
                1.882752816210296,
                -0.18793467652188975
            ],
            [
                -2.916114386920052,
                0.8241573515906537,
                0.6567713300975181
            ],
            [
                -1.625397057781303,
                -0.09735985136317409,
                1.4634283365643834
            ],
            [
                -1.937263508474918,
                -1.6184808475203483,
                -0.3323710182518927
            ]
        ],
        "best_conformer_energy": -31.53352172404203,
        "fukui_radical": {
            "1": 0.13998049763375298,
            "2": 0.0345491550056783,
            "3": 0.049393151193513674,
            "4": 0.051635021724752886,
            "5": 0.034648324509230985,
            "6": 0.15658555362473034,
            "7": 0.05408631270805611,
            "8": -0.01547628296060053,
            "9": -0.014081141120051453,
            "10": 0.09587194555308454,
            "11": 0.08638890677914964,
            "12": 0.08762459190832701,
            "13": 0.05234750659399784,
            "14": 0.04846493328212052,
            "15": 0.05983711637929527,
            "16": 0.05694446506170461,
            "17": 0.02119994212324877
        }
    }
}