{
    "file": "paper_441.json",
    "monomer1_s": "C=Cn1ccnc1",
    "monomer2_s": "C=CN1CCCC1=O",
    "monomer1": "1-vinylimidazole",
    "monomer2": "1-vinylpyrrolidone",
    "r_values": {
        "constant_1": 0.95,
        "constant_2": 0.17
    },
    "conf_intervals": {
        "constant_conf_1": 0.01,
        "constant_conf_2": 0.01
    },
    "temperature": 60.0,
    "temperature_unit": "\u00b0C",
    "solvent": null,
    "method": "bulk",
    "r-product": null,
    "source": "https://doi.org/10.1002/pol.1978.130160503",
    "calculation_method": "Fineman-Ross",
    "polymerization_type": "free radical",
    "monomer1_data": {
        "smiles": "C=Cn1ccnc1",
        "ip": 13.689575225112119,
        "ip_corrected": 8.843575225112119,
        "ea": 3.672194698283488,
        "homo": -0.3789611450419425,
        "lumo": -0.24992469018571933,
        "charges": {
            "1": -0.10347418963644534,
            "2": 0.018909003327811827,
            "3": 0.005166742197728946,
            "4": -0.024368301375122886,
            "5": 0.019115179756704473,
            "6": -0.2583586179693102,
            "7": 0.08144565258197188,
            "8": 0.051705668147696726,
            "9": 0.05290575920038403,
            "10": 0.048313438343373774,
            "11": 0.036316112977915385,
            "12": 0.036269330284580445,
            "13": 0.03605422216270608
        },
        "dipole": [
            -1.308299010919453,
            -0.3322624232831819,
            0.1019474426529746
        ],
        "global_electrophilicity": 0.7340413309681765,
        "global_nucleophilicity": -8.843575225112119,
        "fukui_electrophilicity": {
            "1": 0.08541781416179103,
            "2": 0.06198566792498184,
            "3": 0.05567165743921973,
            "4": 0.041450266026001686,
            "5": 0.03137626907209507,
            "6": 0.11499942167095645,
            "7": 0.047356709689103146,
            "8": 0.11218891832957986,
            "9": 0.0980367490245954,
            "10": 0.09566379838959789,
            "11": 0.0752778842797975,
            "12": 0.09021537671698374,
            "13": 0.09035946727528252
        },
        "fukui_nucleophilicity": {
            "1": 0.060213493633555035,
            "2": 0.022116860308759548,
            "3": 0.08257716279603222,
            "4": 0.035351040719732635,
            "5": 0.052821772931320926,
            "6": 0.19359227654758096,
            "7": 0.02774958548855827,
            "8": 0.08995013676744593,
            "9": 0.06828949501401635,
            "10": 0.07227895527741263,
            "11": 0.09068343961000234,
            "12": 0.10635810107500938,
            "13": 0.0980176798305961
        },
        "boltzmann_weights": [
            0.5869264026038289,
            0.4130735973961712
        ],
        "best_conformer_elements": [
            6,
            6,
            7,
            6,
            6,
            7,
            6,
            1,
            1,
            1,
            1,
            1,
            1
        ],
        "best_conformer_coordinates": [
            [
                2.235082497527779,
                0.3058010212491251,
                -0.08658357341847349
            ],
            [
                1.2521479613618955,
                -0.5653019320799608,
                0.08463819892175348
            ],
            [
                -0.10245064490294534,
                -0.2736201713274079,
                0.050892242198939036
            ],
            [
                -0.7219018559711413,
                0.9340844013472447,
                -0.15872357822180577
            ],
            [
                -2.0598447382359453,
                0.6888640255437054,
                -0.09565766639070675
            ],
            [
                -2.284591208135527,
                -0.6330988113449388,
                0.14643652650048386
            ],
            [
                -1.1089350951007377,
                -1.177724608537051,
                0.22840877304471308
            ],
            [
                2.062336257217662,
                1.3505854052400712,
                -0.27300916589775104
            ],
            [
                3.2598463378833986,
                -0.012734852233751036,
                -0.04336328112139565
            ],
            [
                1.4520344867024106,
                -1.612497833831679,
                0.2711194756227104
            ],
            [
                -0.18079253581909363,
                1.8401170048263173,
                -0.33006954322193943
            ],
            [
                -2.8761700259539493,
                1.3734820703061066,
                -0.20796755996665645
            ],
            [
                -0.9267614471573411,
                -2.2179557138660164,
                0.4138791625336521
            ]
        ],
        "best_conformer_energy": -19.584111432328662,
        "fukui_radical": {
            "1": 0.07281474052714396,
            "2": 0.042060712011989146,
            "3": 0.0691200667943463,
            "4": 0.03839723417213952,
            "5": 0.042095028466143825,
            "6": 0.15429972394602723,
            "7": 0.03754937575485078,
            "8": 0.08316701025887942,
            "9": 0.10107470308171468,
            "10": 0.08397374972015559,
            "11": 0.08297735745864296,
            "12": 0.09828405205576056,
            "13": 0.09418624575219998
        }
    },
    "monomer2_data": {
        "smiles": "C=CN1CCCC1=O",
        "ip": 13.37823492640183,
        "ip_corrected": 8.53223492640183,
        "ea": 3.110490528713574,
        "homo": -0.3789173403999514,
        "lumo": -0.23113056633898044,
        "charges": {
            "1": -0.1211077192016036,
            "2": 0.022136294251985086,
            "3": -0.06910573709137108,
            "4": -0.0027676116833827286,
            "5": -0.06509690367358469,
            "6": -0.0910107644195765,
            "7": 0.27161945079505045,
            "8": -0.4175889401795349,
            "9": 0.043933493954723554,
            "10": 0.03613009463987398,
            "11": 0.06721815522561857,
            "12": 0.04720038729052176,
            "13": 0.054155234434116635,
            "14": 0.04832987133732095,
            "15": 0.048575903425175586,
            "16": 0.06457369537303193,
            "17": 0.06280509552163123
        },
        "dipole": [
            -0.6005621140091192,
            1.1773082192286208,
            -1.014835901013765
        ],
        "global_electrophilicity": 0.5623858941528388,
        "global_nucleophilicity": -8.53223492640183,
        "fukui_electrophilicity": {
            "1": 0.07967459628825524,
            "2": 0.05568424198036035,
            "3": 0.057412751954590835,
            "4": -0.026974417232942,
            "5": -0.013366967924093448,
            "6": -0.017133699634112196,
            "7": 0.10331742730875593,
            "8": 0.17546881644801143,
            "9": 0.1027128203909006,
            "10": 0.09599163109041359,
            "11": 0.07315344622416288,
            "12": 0.044631764775846995,
            "13": 0.042029225447296745,
            "14": 0.03893015663967909,
            "15": 0.05281637168810928,
            "16": 0.06567325131554697,
            "17": 0.06997858323921419
        },
        "fukui_nucleophilicity": {
            "1": 0.07799880851613611,
            "2": 0.025638882515713057,
            "3": 0.11463610510736116,
            "4": -0.02751235725652449,
            "5": -0.010643515034231832,
            "6": -0.006035069381128619,
            "7": 0.012914812089909411,
            "8": 0.1488798292303059,
            "9": 0.09658495171038332,
            "10": 0.08084914564587323,
            "11": 0.06895802933258562,
            "12": 0.09029944860201633,
            "13": 0.07229698616061173,
            "14": 0.06182167595218704,
            "15": 0.059260189934605086,
            "16": 0.0666896227075475,
            "17": 0.06736245417149782
        },
        "boltzmann_weights": [
            0.9806987540794585,
            0.019301245920541447
        ],
        "best_conformer_elements": [
            6,
            6,
            7,
            6,
            6,
            6,
            6,
            8,
            1,
            1,
            1,
            1,
            1,
            1,
            1,
            1,
            1
        ],
        "best_conformer_coordinates": [
            [
                2.687883675849802,
                -0.3091231031751782,
                -0.4581222692059385
            ],
            [
                1.7469003080223642,
                0.5935398312771931,
                -0.22158226185358604
            ],
            [
                0.40627031968457294,
                0.3277863031989164,
                -0.015148111652269534
            ],
            [
                -0.17036383038051575,
                -0.9984681264882777,
                -0.07052705140275553
            ],
            [
                -1.6795754782162244,
                -0.7391960973383871,
                -0.12462843314799198
            ],
            [
                -1.834480744874304,
                0.622867799631091,
                0.546371164595653
            ],
            [
                -0.4912791513874744,
                1.298264477009125,
                0.32939861205884857
            ],
            [
                -0.23676855195303803,
                2.472541872049356,
                0.45210183635978757
            ],
            [
                3.7056316728338343,
                -0.00313571129953937,
                -0.6117104207694547
            ],
            [
                2.4901456742032435,
                -1.365281404007504,
                -0.5065624573833275
            ],
            [
                1.9630053859678005,
                1.6516146896530073,
                -0.16458790408329801
            ],
            [
                0.19167278807825605,
                -1.5335021091456422,
                -0.9513127874911355
            ],
            [
                0.11091177851464268,
                -1.567575897883727,
                0.8242125685376372
            ],
            [
                -2.0093070211358524,
                -0.6823138612351546,
                -1.1625782486734006
            ],
            [
                -2.2458107479439713,
                -1.52358964634623,
                0.3732057211857435
            ],
            [
                -2.643082661796475,
                1.225605620291323,
                0.13824847602559506
            ],
            [
                -1.9917534154666525,
                0.5299653585179732,
                1.6232215668998904
            ]
        ],
        "best_conformer_energy": -24.43062637077295,
        "fukui_radical": {
            "1": 0.07883645919113791,
            "2": 0.04066147317653313,
            "3": 0.08602391891892724,
            "4": -0.027242996567131035,
            "5": -0.01200582889757431,
            "6": -0.011584216763966697,
            "7": 0.058116436568951435,
            "8": 0.1621757264448256,
            "9": 0.09964858840245029,
            "10": 0.088420172719999,
            "11": 0.07105520602086494,
            "12": 0.057162869570404305,
            "13": 0.06746515739263172,
            "14": 0.05037589502118549,
            "15": 0.056038656330691404,
            "16": 0.06618155315839346,
            "17": 0.06867092931409083
        }
    }
}