{
    "file": "paper_336.json",
    "monomer1_s": "C=CN1C(=O)CCC1=O",
    "monomer2_s": "C=COCCCC",
    "monomer1": "N-Vinylsuccinimide",
    "monomer2": "n-Butyl Vinyl Ether",
    "r_values": {
        "constant_1": 15.0,
        "constant_2": 0.0
    },
    "conf_intervals": {
        "constant_conf_1": null,
        "constant_conf_2": null
    },
    "temperature": 60.0,
    "temperature_unit": "\u00b0C",
    "solvent": null,
    "method": "bulk",
    "r-product": null,
    "source": "https://doi.org/10.1002/pol.1959.1203713211",
    "calculation_method": "Mayo-Lewis",
    "polymerization_type": "free radical",
    "monomer1_data": {
        "smiles": "C=CN1C(=O)CCC1=O",
        "ip": 14.085034605861548,
        "ip_corrected": 9.239034605861548,
        "ea": 4.241597199793775,
        "homo": -0.40915054335189827,
        "lumo": -0.2706261087512416,
        "charges": {
            "1": -0.10040737813449879,
            "2": 0.026213214026525114,
            "3": -0.07838834144580181,
            "4": 0.28077441544934384,
            "5": -0.3725156681680097,
            "6": -0.0975025994730267,
            "7": -0.09663002186435636,
            "8": 0.2795409867487211,
            "9": -0.3747637560147708,
            "10": 0.05713831900486954,
            "11": 0.0829489247948391,
            "12": 0.07133849888045812,
            "13": 0.08027238031433828,
            "14": 0.08027814322845114,
            "15": 0.08084855472157416,
            "16": 0.08085432793134555
        },
        "dipole": [
            -0.8130730353494892,
            0.20807028009973294,
            -0.0515681870418248
        ],
        "global_electrophilicity": 0.9467839249589216,
        "global_nucleophilicity": -9.239034605861548,
        "fukui_electrophilicity": {
            "1": 0.04161596009471963,
            "2": 0.009491088214645782,
            "3": 0.04912741573922019,
            "4": 0.0762319065997066,
            "5": 0.15958859890509586,
            "6": -0.018994921172371393,
            "7": -0.019227431947441906,
            "8": 0.07764584280644207,
            "9": 0.1642520440082314,
            "10": 0.07540424497325075,
            "11": 0.046061595781960445,
            "12": 0.05166339438890094,
            "13": 0.07134977135779066,
            "14": 0.07135818073211572,
            "15": 0.07221061442939308,
            "16": 0.07222169508832416
        },
        "fukui_nucleophilicity": {
            "1": 0.05901664129481965,
            "2": 0.03024324430867248,
            "3": 0.07550609110740064,
            "4": 0.018375451373035756,
            "5": 0.15508216753338344,
            "6": 0.003029176395742808,
            "7": -0.003598322712245597,
            "8": 0.014241978541787048,
            "9": 0.13773737380078804,
            "10": 0.09115286778694245,
            "11": 0.07152680363320281,
            "12": 0.08157995780806584,
            "13": 0.06751277100751443,
            "14": 0.06749975012251316,
            "15": 0.06555518098369754,
            "16": 0.06553886768493318
        },
        "boltzmann_weights": [
            0.503560693626375,
            0.49643930637362493
        ],
        "best_conformer_energy": -27.48219089667593,
        "best_conformer_coordinates": [
            [
                2.5771555272157673,
                -0.8128533021798343,
                -0.6661768002130736
            ],
            [
                1.7719099050230567,
                -0.4184056815095945,
                0.30368067432841755
            ],
            [
                0.4155545947434113,
                -0.08100939402127412,
                0.1644830499856117
            ],
            [
                -0.3288983122462685,
                -0.09710083683551736,
                -1.005652985487855
            ],
            [
                0.07580230082834125,
                -0.4059173145328808,
                -2.0932911202094235
            ],
            [
                -1.7392406460689969,
                0.34369001477820005,
                -0.664182199702427
            ],
            [
                -1.7295781721437375,
                0.6160161188159698,
                0.8322353665571595
            ],
            [
                -0.31577518963175194,
                0.3199482497923203,
                1.2780225757301102
            ],
            [
                0.1318502559586841,
                0.4050473256864926,
                2.3891754826984393
            ],
            [
                3.603114208892018,
                -1.046975310581115,
                -0.4465945023732985
            ],
            [
                2.25086804906612,
                -0.9133971086934138,
                -1.6848298576784937
            ],
            [
                2.0934631936597685,
                -0.31481946375787456,
                1.3319726025714507
            ],
            [
                -2.433219010383233,
                -0.4465732913701724,
                -0.952056892784374
            ],
            [
                -1.9854660750027362,
                1.2238677087320282,
                -1.2588601985402952
            ],
            [
                -1.9704589862503767,
                1.6496794414535298,
                1.0826316061946706
            ],
            [
                -2.417081643660095,
                -0.02119713460988584,
                1.3894432042154135
            ]
        ],
        "best_conformer_elements": [
            6,
            6,
            7,
            6,
            8,
            6,
            6,
            6,
            8,
            1,
            1,
            1,
            1,
            1,
            1,
            1
        ],
        "fukui_radical": {
            "1": 0.050316300694767765,
            "2": 0.019867166261657923,
            "3": 0.062316753423311305,
            "4": 0.04730367898637204,
            "5": 0.15733538321924145,
            "6": -0.007982872388313585,
            "7": -0.011412877329841975,
            "8": 0.04594391067411398,
            "9": 0.15099470890451167,
            "10": 0.08327855638009742,
            "11": 0.05879419970758329,
            "12": 0.06662167609848439,
            "13": 0.06943127118265355,
            "14": 0.06942896542731565,
            "15": 0.06888289770654585,
            "16": 0.06888028138663059
        }
    },
    "monomer2_data": {
        "smiles": "C=COCCCC",
        "ip": 13.321296012876681,
        "ip_corrected": 8.475296012876681,
        "ea": 0.9271283985591042,
        "homo": -0.37705885612800394,
        "lumo": -0.18523174448229315,
        "charges": {
            "1": -0.14309048884718858,
            "2": 0.10042612191660699,
            "3": -0.2638849143876077,
            "4": 0.08105896307071425,
            "5": -0.06394900955016602,
            "6": -0.054154372758108,
            "7": -0.10421439826041154,
            "8": 0.03638842502073124,
            "9": 0.03597196265656092,
            "10": 0.04516454242082128,
            "11": 0.028368338671145518,
            "12": 0.02990226495314848,
            "13": 0.03731353208857581,
            "14": 0.05079308050467899,
            "15": 0.04636335713712461,
            "16": 0.031060194368429838,
            "17": 0.033783392712505335,
            "18": 0.03644198264217165,
            "19": 0.03625702564025839
        },
        "dipole": [
            -0.13003919056780808,
            0.39312409030682527,
            -0.029681618303320362
        ],
        "global_electrophilicity": 0.20938279260828602,
        "global_nucleophilicity": -8.475296012876681,
        "fukui_electrophilicity": {
            "1": 0.1236314592168565,
            "2": 0.16009699193108962,
            "3": 0.1092719735076394,
            "4": -0.028011649385424928,
            "5": -0.0073228158339396915,
            "6": -0.0044070991934776135,
            "7": -0.009263077673889314,
            "8": 0.15926315574498306,
            "9": 0.15715672014864876,
            "10": 0.15823584887541228,
            "11": 0.034453051850976496,
            "12": 0.03446956013879859,
            "13": 0.03656866800008472,
            "14": 0.023152716151658568,
            "15": -0.004033467614852494,
            "16": 0.009826685040501517,
            "17": 0.01550956946076297,
            "18": 0.019555756027091784,
            "19": 0.011845953607073474
        },
        "fukui_nucleophilicity": {
            "1": 0.07436648107387225,
            "2": 0.028949668343310087,
            "3": 0.12462172514324604,
            "4": -0.027834341103366404,
            "5": -0.013417120340364047,
            "6": -0.0032225783228410285,
            "7": -0.017216592869607167,
            "8": 0.09303916485267667,
            "9": 0.07499758169473492,
            "10": 0.07844607082166499,
            "11": 0.07975879495388041,
            "12": 0.063400486960111,
            "13": 0.05872420604760879,
            "14": 0.044772029657820185,
            "15": 0.07438658996498296,
            "16": 0.06538510197823216,
            "17": 0.08026987737862115,
            "18": 0.05720727412376313,
            "19": 0.06336557964172815
        },
        "boltzmann_weights": [
            0.2702726002339585,
            0.2710303687149395,
            0.316559454286451,
            0.00640367223052999,
            0.007625863309096264,
            0.00762586507977898,
            0.002999282394313903,
            0.03355888754614622,
            0.04531331149060003,
            0.002053654245193063,
            0.01811902685954147,
            0.018438013609450986
        ],
        "best_conformer_elements": [
            6,
            6,
            8,
            6,
            6,
            6,
            6,
            1,
            1,
            1,
            1,
            1,
            1,
            1,
            1,
            1,
            1,
            1,
            1
        ],
        "best_conformer_coordinates": [
            [
                3.4448453024476215,
                -0.07885757749153874,
                0.34186114281766206
            ],
            [
                2.50419446801215,
                0.5068295487584626,
                1.066651157840042
            ],
            [
                1.1711371872558183,
                0.29117339076302123,
                1.059135300831018
            ],
            [
                0.6687733332968167,
                -0.6830307296941995,
                0.16524631060586795
            ],
            [
                -0.8475866851399071,
                -0.7386763118563798,
                0.3143713450167491
            ],
            [
                -1.5149960376623668,
                0.5528244557544575,
                -0.1528955451833848
            ],
            [
                -3.0261247635249844,
                0.5047402105867178,
                0.03143164535765621
            ],
            [
                4.472004854159196,
                0.2071187614868202,
                0.46614661082716513
            ],
            [
                3.2434436666663022,
                -0.8450051518548073,
                -0.38449173203864545
            ],
            [
                2.740195394535584,
                1.275115896840965,
                1.7916437429209195
            ],
            [
                0.9406245690228522,
                -0.41700041930515547,
                -0.8658557432973988
            ],
            [
                1.1109158486476725,
                -1.661773468101241,
                0.399334123967885
            ],
            [
                -1.2236390057882418,
                -1.5835831187838865,
                -0.26588330613684624
            ],
            [
                -1.0861125054404182,
                -0.9107828428660877,
                1.3652690107934418
            ],
            [
                -1.10100960540064,
                1.3864588325894744,
                0.4160182232716308
            ],
            [
                -1.2816073382216187,
                0.7176270199745118,
                -1.207537597648884
            ],
            [
                -3.2783293565472666,
                0.3612357081547106,
                1.0796608446365998
            ],
            [
                -3.4550595678792146,
                -0.3166382996666597,
                -0.539013772349112
            ],
            [
                -3.48166975843939,
                1.432224089419118,
                -0.3070096915902247
            ]
        ],
        "best_conformer_energy": -23.002304329615864,
        "fukui_radical": {
            "1": 0.09899890932365069,
            "2": 0.09452342768619212,
            "3": 0.11694680490271961,
            "4": -0.027923001961763127,
            "5": -0.010370030687785654,
            "6": -0.0038148011384335524,
            "7": -0.01323984617855234,
            "8": 0.12615109354068782,
            "9": 0.11607730263653149,
            "10": 0.1183411563957173,
            "11": 0.04893485254635131,
            "12": 0.0571057067992433,
            "13": 0.04764648306313119,
            "14": 0.033962509322891604,
            "15": 0.03517647867997653,
            "16": 0.03760598052968244,
            "17": 0.037605893342661664,
            "18": 0.0478895516044258,
            "19": 0.03838152959271483
        }
    }
}