{
    "file": "paper_16.json",
    "monomer1_s": "C=C(CC)C(=O)O",
    "monomer2_s": "C=C(C)C(=O)O",
    "monomer1": "2-Ethylacrylic acid",
    "monomer2": "Methacrylic acid",
    "r_values": {
        "constant_1": 1.91,
        "constant_2": 0.09
    },
    "conf_intervals": {
        "constant_conf_1": null,
        "constant_conf_2": null
    },
    "temperature": 60.0,
    "temperature_unit": "\u00b0C",
    "solvent": "CN(C)C=O",
    "method": "solvent",
    "r-product": null,
    "source": "https://doi.org/10.1002/pol.1990.080281215",
    "calculation_method": "nonlinear least squares technique",
    "polymerization_type": "free radical",
    "logP": -0.2956000000000001,
    "monomer1_data": {
        "smiles": "C=C(CC)C(=O)O",
        "ip": 14.247834849784942,
        "ip_corrected": 9.401834849784942,
        "ea": 4.048937686691106,
        "homo": -0.41591743205378645,
        "lumo": -0.2752527613428504,
        "charges": {
            "1": -0.07656227152913198,
            "2": -0.008355787889480423,
            "3": -0.05803110621066261,
            "4": -0.10067282509834544,
            "5": 0.3553861497104147,
            "6": -0.4136372830269667,
            "7": -0.38170809326831695,
            "8": 0.05678746751871744,
            "9": 0.06763766389083044,
            "10": 0.061035911239833096,
            "11": 0.043471966353659054,
            "12": 0.035924180159984054,
            "13": 0.04276789968000861,
            "14": 0.04762454193641836,
            "15": 0.3283315865330429
        },
        "dipole": [
            -0.2268792066327556,
            0.69102552120616,
            0.007127219272529427
        ],
        "global_electrophilicity": 0.9074769215296187,
        "global_nucleophilicity": -9.401834849784942,
        "fukui_electrophilicity": {
            "1": 0.09382311736519766,
            "2": 0.08349010241216488,
            "3": -0.021789573280406184,
            "4": -0.017484420844438908,
            "5": 0.08289667750336394,
            "6": 0.2024566073848152,
            "7": 0.08261290191949655,
            "8": 0.12278162868859445,
            "9": 0.10628478060983226,
            "10": 0.049971975201776486,
            "11": 0.05515510021744436,
            "12": 0.02635123613005893,
            "13": 0.05266669012060849,
            "14": 0.015477788413917365,
            "15": 0.06530538815757597
        },
        "fukui_nucleophilicity": {
            "1": 0.02558258089083283,
            "2": 0.04296276138908113,
            "3": -0.0026057707028091306,
            "4": -0.016818266706072615,
            "5": 0.021472662204010173,
            "6": 0.1622256287965832,
            "7": 0.07599574786553176,
            "8": 0.10063602505836236,
            "9": 0.09484077658984762,
            "10": 0.08224499262853813,
            "11": 0.09816618012326386,
            "12": 0.07950558251450374,
            "13": 0.10177354104185524,
            "14": 0.08385852197928462,
            "15": 0.05015903632717761
        },
        "boltzmann_weights": [
            0.22835451971178308,
            0.22837787296063675,
            0.11461117937130334,
            0.21432724594457767,
            0.21432918201169918
        ],
        "best_conformer_elements": [
            6,
            6,
            6,
            6,
            6,
            8,
            8,
            1,
            1,
            1,
            1,
            1,
            1,
            1,
            1
        ],
        "best_conformer_coordinates": [
            [
                0.710413057603574,
                1.2934505442518476,
                -1.0950631159062167
            ],
            [
                0.3880392272619887,
                0.4825601975262216,
                -0.0922085919765288
            ],
            [
                -0.9658329537118644,
                0.45040692516016695,
                0.5543992246721227
            ],
            [
                -1.7738460593671967,
                -0.7495004846822018,
                0.05691778836312327
            ],
            [
                1.3728345170712617,
                -0.4825242056465333,
                0.4570745282192981
            ],
            [
                1.1917978220872525,
                -1.166933051248542,
                1.4337168167347576
            ],
            [
                2.5232420394120543,
                -0.533795679286936,
                -0.23461970189145545
            ],
            [
                0.0010840678753049088,
                2.0005304261575136,
                -1.4919466064096785
            ],
            [
                1.6880164681442953,
                1.2770220589078107,
                -1.5440420950015226
            ],
            [
                -1.5002778689023433,
                1.3744956521342222,
                0.3307479491662855
            ],
            [
                -0.8384264407501902,
                0.3649171647421872,
                1.6348740040615926
            ],
            [
                -1.266217620340486,
                -1.6749538612356478,
                0.3156728861487397
            ],
            [
                -1.89392360583259,
                -0.7062277761688645,
                -1.0235717730567389
            ],
            [
                -2.7584753225646175,
                -0.7550286192163436,
                0.5175015683010679
            ],
            [
                3.121572672013573,
                -1.1744193019783864,
                0.18054711328333475
            ]
        ],
        "best_conformer_energy": -22.898825577847234,
        "fukui_radical": {
            "1": 0.059702980282941395,
            "2": 0.06322610241121543,
            "3": -0.01219761506244122,
            "4": -0.017151584519934093,
            "5": 0.052184780608115156,
            "6": 0.1823422324793507,
            "7": 0.07930442326109843,
            "8": 0.1117086761299402,
            "9": 0.10056244940835948,
            "10": 0.076660555239227,
            "11": 0.06610817414605996,
            "12": 0.04966812703817304,
            "13": 0.05292866190174615,
            "14": 0.07721975799288197,
            "15": 0.057732278683202076
        }
    },
    "monomer2_data": {
        "smiles": "C=C(C)C(=O)O",
        "ip": 14.557682246810447,
        "ip_corrected": 9.711682246810447,
        "ea": 4.004062496588917,
        "homo": -0.41778278313142936,
        "lumo": -0.2749266616788741,
        "charges": {
            "1": -0.07871362959229097,
            "2": -0.004761890054797921,
            "3": -0.11191541812555254,
            "4": 0.35349913135182187,
            "5": -0.41270490691080813,
            "6": -0.38156612931272826,
            "7": 0.05657688235850899,
            "8": 0.06791481882027398,
            "9": 0.06583713719745438,
            "10": 0.05133482025125581,
            "11": 0.06583720548265033,
            "12": 0.32866197853421286
        },
        "dipole": [
            -0.20547456624602475,
            0.6811286414239859,
            -0.09727921748272907
        ],
        "global_electrophilicity": 0.9318173962470228,
        "global_nucleophilicity": -9.711682246810447,
        "fukui_electrophilicity": {
            "1": 0.0935156691111948,
            "2": 0.08440794825953787,
            "3": -0.04034123534305835,
            "4": 0.08390374590686717,
            "5": 0.20509395998602703,
            "6": 0.0844326409434733,
            "7": 0.12400854214058155,
            "8": 0.1076735407752478,
            "9": 0.06409191280271537,
            "10": 0.06276256417506247,
            "11": 0.06409188256979909,
            "12": 0.06635882867255477
        },
        "fukui_nucleophilicity": {
            "1": 0.056099703279498175,
            "2": 0.07022646362219762,
            "3": -0.018960867380870758,
            "4": 0.021625946252767925,
            "5": 0.19382921214549897,
            "6": 0.08668195935983714,
            "7": 0.11918183343275016,
            "8": 0.10282221742275324,
            "9": 0.11338992032861575,
            "10": 0.08623960657151068,
            "11": 0.11338984791251401,
            "12": 0.05547415709134046
        },
        "boltzmann_weights": [
            0.3861739900089664,
            0.6138260099910335
        ],
        "best_conformer_elements": [
            6,
            6,
            6,
            6,
            8,
            8,
            1,
            1,
            1,
            1,
            1,
            1
        ],
        "best_conformer_coordinates": [
            [
                -0.44948051312854803,
                1.441076312595962,
                -0.23080068712237523
            ],
            [
                -0.22023751223587776,
                0.1472916796702346,
                -0.029730817104113266
            ],
            [
                -1.2908774762908357,
                -0.8895255072480963,
                0.08721070180383599
            ],
            [
                1.1630328136691623,
                -0.3765333155232355,
                0.09714239909778716
            ],
            [
                1.438704547095284,
                -1.536350350837824,
                0.27986310483121773
            ],
            [
                2.1137833001097386,
                0.5664858942594289,
                -0.010029972542151851
            ],
            [
                -1.4518557302282644,
                1.8243475270756504,
                -0.32328818073041204
            ],
            [
                0.35524297037268177,
                2.1506937995418602,
                -0.3083025232461203
            ],
            [
                -2.2757436713806096,
                -0.4435738618299096,
                -0.014011661041301504
            ],
            [
                -1.1545746135692607,
                -1.649010082394822,
                -0.6807776363692132
            ],
            [
                -1.215579515089806,
                -1.3907222667606738,
                1.0507113181437298
            ],
            [
                2.987585395384527,
                0.15582016615967428,
                0.08201394898737989
            ]
        ],
        "best_conformer_energy": -19.73470761176464,
        "fukui_radical": {
            "1": 0.07481391946720131,
            "2": 0.07732509375509179,
            "3": -0.02965483012831581,
            "4": 0.0527609263752182,
            "5": 0.19946029736360732,
            "6": 0.085553179167593,
            "7": 0.12158827713671636,
            "8": 0.10525017087894031,
            "9": 0.07450116878946533,
            "10": 0.08874295774719514,
            "11": 0.08874309061957461,
            "12": 0.06091574884668516
        }
    }
}