{
    "file": "paper_672.json",
    "monomer1_s": "C=CC(=O)N(C)C",
    "monomer2_s": "C=CC(=O)NC(C)(C)CC(=O)[O-].[Na+]",
    "monomer1": "N,N-Dimethylacrylamide",
    "monomer2": "Sodium 3-acrylamido-3-methylbutanoate",
    "r_values": {
        "constant_1": 1.18,
        "constant_2": 0.99
    },
    "conf_intervals": {
        "constant_conf_1": 0.05,
        "constant_conf_2": 0.05
    },
    "temperature": 30.0,
    "temperature_unit": "\u00b0C",
    "solvent": "O",
    "method": "solvent",
    "r-product": null,
    "source": "https://doi.org/10.1021/ma00156a021",
    "calculation_method": "Kelen-Tudos",
    "polymerization_type": "free radical",
    "logP": -0.8247,
    "monomer1_data": {
        "smiles": "C=CC(=O)N(C)C",
        "ip": 13.512580340525421,
        "ip_corrected": 8.666580340525421,
        "ea": 3.539741363474088,
        "homo": -0.38353675309134244,
        "lumo": -0.253719344107965,
        "charges": {
            "1": -0.06289715688460595,
            "2": -0.06076734132305557,
            "3": 0.26169571673607095,
            "4": -0.45059573289784993,
            "5": -0.09402837196303793,
            "6": -0.04845629848489792,
            "7": -0.04701376286086236,
            "8": 0.04739321343747846,
            "9": 0.07536912602254377,
            "10": 0.040434586013414354,
            "11": 0.04461781981050096,
            "12": 0.08947982071335565,
            "13": 0.044555794163141524,
            "14": 0.049760254120428705,
            "15": 0.060572987027541096,
            "16": 0.04987934636982454
        },
        "dipole": [
            -0.9295802346284427,
            0.3479155285349271,
            1.3133994543830554
        ],
        "global_electrophilicity": 0.6790234920947247,
        "global_nucleophilicity": -8.666580340525421,
        "fukui_electrophilicity": {
            "1": 0.09760254962915396,
            "2": 0.06726860664019137,
            "3": 0.06955518593004723,
            "4": 0.15583690044492338,
            "5": 0.08279831064960225,
            "6": -0.03626764308936682,
            "7": -0.03794308126634146,
            "8": 0.12603879575584095,
            "9": 0.10945962511570745,
            "10": 0.10891663036340377,
            "11": 0.05416659065431945,
            "12": 0.022286211713139714,
            "13": 0.054056504591747906,
            "14": 0.03569983814148079,
            "15": 0.05479063202001637,
            "16": 0.03573434270612685
        },
        "fukui_nucleophilicity": {
            "1": 0.031227504216849666,
            "2": 0.01564714673210535,
            "3": 0.01697739200142212,
            "4": 0.1789919106650476,
            "5": 0.14159156209870818,
            "6": -0.03908491791075276,
            "7": -0.04533938968612198,
            "8": 0.08783678758236063,
            "9": 0.06142461632950981,
            "10": 0.06835399884787252,
            "11": 0.10017376151680842,
            "12": 0.047621900662884284,
            "13": 0.10088919797113556,
            "14": 0.08485588910794253,
            "15": 0.06459377280046597,
            "16": 0.08423886706374674
        },
        "boltzmann_weights": [
            0.23873982195066598,
            0.23876833338558762,
            0.1741654866584034,
            0.17416354870532563,
            0.1741628093000173
        ],
        "best_conformer_elements": [
            6,
            6,
            6,
            8,
            7,
            6,
            6,
            1,
            1,
            1,
            1,
            1,
            1,
            1,
            1,
            1
        ],
        "best_conformer_coordinates": [
            [
                2.7733035169659495,
                -0.23165037617011822,
                -0.39997917394841476
            ],
            [
                1.4709964940986167,
                -0.4080834448987141,
                -0.5559201656615163
            ],
            [
                0.549613422129078,
                -0.3413091855888934,
                0.6109236734500437
            ],
            [
                0.9147877759827515,
                -0.6439967617895647,
                1.7344462961379896
            ],
            [
                -0.7225013068758908,
                0.057923985624538675,
                0.3522478325451069
            ],
            [
                -1.7018303196595603,
                0.025073998116934518,
                1.4128829054190928
            ],
            [
                -1.1868030556246592,
                0.5199757425284149,
                -0.9334175732741868
            ],
            [
                3.4701100835804226,
                -0.3103382932738438,
                -1.217481803128948
            ],
            [
                3.176742828660348,
                0.00225728403964474,
                0.5714152800522917
            ],
            [
                1.0472579731359188,
                -0.6609736906953624,
                -1.516755280323574
            ],
            [
                -1.2173396683984479,
                -0.37248105572362405,
                2.302643374024695
            ],
            [
                -2.5402537457509835,
                -0.6179079336454066,
                1.1350237345282617
            ],
            [
                -2.075934739439352,
                1.0295875201929243,
                1.6251159697084938
            ],
            [
                -0.41158873083851893,
                1.0877517753810884,
                -1.4461587617795788
            ],
            [
                -2.042930002357393,
                1.176651837175995,
                -0.7800880414149964
            ],
            [
                -1.5036305256082914,
                -0.3124814065657716,
                -1.5712740662962654
            ]
        ],
        "best_conformer_energy": -22.25702957129107,
        "fukui_radical": {
            "1": 0.06249398313287906,
            "2": 0.042848341619389635,
            "3": 0.04435440454855584,
            "4": 0.17161545140042544,
            "5": 0.10820001674085244,
            "6": -0.037514348799186414,
            "7": -0.040383626302813086,
            "8": 0.10794177568128094,
            "9": 0.08782111456112125,
            "10": 0.09188718465778384,
            "11": 0.03443581965850913,
            "12": 0.07603807268998958,
            "13": 0.07446840150720618,
            "14": 0.043010271679426795,
            "15": 0.06360158230817027,
            "16": 0.06918155491641324
        }
    },
    "monomer2_data": {
        "smiles": "C=CC(=O)NC(C)(C)CC(=O)[O-].[Na+]",
        "ip": 12.82498304165441,
        "ip_corrected": 7.978983041654409,
        "ea": 4.322644698593063,
        "homo": -0.36650501695422516,
        "lumo": -0.2693621113378234,
        "charges": {
            "1": -0.06640796094614097,
            "2": -0.05620701430135649,
            "3": 0.28481014722708753,
            "4": -0.4808321024157378,
            "5": -0.18200174504159483,
            "6": 0.0925366442084229,
            "7": -0.12063249631305108,
            "8": -0.11818358411255299,
            "9": -0.09904668538549874,
            "10": 0.359278829862298,
            "11": -0.5513249059632885,
            "12": -0.5764007898251178,
            "13": 0.7375479846184919,
            "14": 0.06330048646750357,
            "15": 0.06633132305734027,
            "16": 0.051431658044247666,
            "17": 0.1823495285685818,
            "18": 0.0549924715461816,
            "19": 0.050523574953927466,
            "20": 0.03979931279642812,
            "21": 0.07483149425430377,
            "22": 0.05015668268161187,
            "23": 0.04939330951549775,
            "24": 0.05391203595740855,
            "25": 0.039841800545003914
        },
        "dipole": [
            1.4025701569567732,
            -0.6030551109854764,
            -0.5494830322949457
        ],
        "global_electrophilicity": 0.8172220211412633,
        "global_nucleophilicity": -7.978983041654409,
        "fukui_electrophilicity": {
            "1": 0.07124070587285698,
            "2": 0.05282292327845634,
            "3": 0.048444801390699344,
            "4": 0.09528650464814503,
            "5": 0.06092447248411598,
            "6": -0.006205361544397506,
            "7": -0.018575401750818274,
            "8": -0.022204269562740034,
            "9": -0.013784388227330288,
            "10": -0.010588868799737416,
            "11": 0.03950280143312579,
            "12": 0.0030223641282887126,
            "13": 0.148634328597267,
            "14": 0.10254256898136893,
            "15": 0.08086181346532631,
            "16": 0.09360934250733188,
            "17": 0.04890335785730704,
            "18": 0.03343735203212237,
            "19": 0.021983471093266076,
            "20": 0.019956171969888595,
            "21": 0.00733247847840679,
            "22": 0.04041753831460698,
            "23": 0.018626551708297127,
            "24": 0.04836332104388063,
            "25": 0.035445420600265516
        },
        "fukui_nucleophilicity": {
            "1": 0.01729721364433541,
            "2": 0.0053418166743900986,
            "3": 0.002298646358616707,
            "4": 0.07293559042901426,
            "5": 0.03132179851316086,
            "6": 0.006702723913698916,
            "7": -0.007228451962984231,
            "8": -0.02052118161426318,
            "9": 0.02171566746228701,
            "10": 0.016298549266532958,
            "11": 0.14358522639005195,
            "12": 0.12306973418566808,
            "13": 0.05087947295384909,
            "14": 0.055824535754163726,
            "15": 0.03254577918649783,
            "16": 0.04128829250670853,
            "17": 0.03530745375234273,
            "18": 0.03997343975464422,
            "19": 0.050763718023642865,
            "20": 0.036090739070859246,
            "21": 0.02924960971485599,
            "22": 0.04665369970830459,
            "23": 0.04227877128855621,
            "24": 0.06256840871974145,
            "25": 0.06375874630530615
        },
        "fukui_radical": {
            "1": 0.044268959758596196,
            "2": 0.02908236997642322,
            "3": 0.025371723874658025,
            "4": 0.08411104753857965,
            "5": 0.04612313549863842,
            "6": 0.00024868118465070504,
            "7": -0.012901926856901252,
            "8": -0.021362725588501608,
            "9": 0.00396563961747836,
            "10": 0.0028548402333977707,
            "11": 0.09154401391158887,
            "12": 0.0630460491569784,
            "13": 0.09975690077555804,
            "14": 0.07918355236776634,
            "15": 0.05670379632591207,
            "16": 0.06744881750702021,
            "17": 0.042105405804824886,
            "18": 0.0367053958933833,
            "19": 0.03637359455845447,
            "20": 0.02802345552037392,
            "21": 0.01829104409663139,
            "22": 0.043535619011455785,
            "23": 0.03045266149842667,
            "24": 0.05546586488181104,
            "25": 0.049602083452785835
        },
        "best_conformer_coordinates": [
            [
                3.5640883374748467,
                0.6457952575710005,
                1.3814321637513312
            ],
            [
                2.7480139101695142,
                0.45487652721043514,
                0.3574931418563993
            ],
            [
                1.3921683494136592,
                -0.12427536448998333,
                0.5409033437278796
            ],
            [
                0.9966889051842107,
                -0.4722944417234002,
                1.6494809363648846
            ],
            [
                0.7221717009279996,
                -0.30328575577707423,
                -0.6125779645123884
            ],
            [
                -0.7184736332094998,
                -0.5030038234821103,
                -0.7823060731558527
            ],
            [
                -0.9221177658007802,
                -0.9650058611138436,
                -2.22893113325331
            ],
            [
                -1.2427142545546686,
                -1.569986763794731,
                0.17384577162075585
            ],
            [
                -1.437920413709564,
                0.8415433785090968,
                -0.5578102344465823
            ],
            [
                -0.986728418528424,
                1.4277246537011485,
                0.7846079560737109
            ],
            [
                -1.6483271035362927,
                1.1544196131682838,
                1.800093926444534
            ],
            [
                0.08282916641690276,
                2.072367237888716,
                0.8042947218447245
            ],
            [
                0.18735904578312754,
                1.093373846112347,
                2.640882609443943
            ],
            [
                4.545254689613264,
                1.0722447847189418,
                1.2649296736549611
            ],
            [
                3.2615555991565492,
                0.3575310598061876,
                2.3758538924552344
            ],
            [
                3.0375477215765274,
                0.7259466673547108,
                -0.648221006658403
            ],
            [
                1.1430388407204504,
                0.14333962363359226,
                -1.415428797674142
            ],
            [
                -1.9817894416548771,
                -1.0904367397216794,
                -2.4326157739842755
            ],
            [
                -0.4207200725383252,
                -1.9164995392798143,
                -2.3930614407757345
            ],
            [
                -0.52533022397683,
                -0.2342522012806095,
                -2.9315307784582236
            ],
            [
                -1.3154250377048298,
                -1.1726363183377995,
                1.1822375651740105
            ],
            [
                -2.2312982863620956,
                -1.8893986353525796,
                -0.14660971759251631
            ],
            [
                -0.5763902049415921,
                -2.4292452822506285,
                0.17901798009736847
            ],
            [
                -2.513940736659954,
                0.6839345085713914,
                -0.5363079078319123
            ],
            [
                -1.173954928464423,
                1.5437221860999468,
                -1.34900951614927
            ]
        ],
        "best_conformer_elements": [
            6,
            6,
            6,
            8,
            7,
            6,
            6,
            6,
            6,
            6,
            8,
            8,
            11,
            1,
            1,
            1,
            1,
            1,
            1,
            1,
            1,
            1,
            1,
            1,
            1
        ],
        "best_conformer_energy": -38.68503284497098
    }
}