{
    "file": "paper_199.json",
    "monomer1_s": "C=Cc1c(C)cc(C)cc1C",
    "monomer2_s": "C=C(C)C(=O)OC",
    "monomer1": "Vinylmesitylene",
    "monomer2": "Methyl methacrylate",
    "r_values": {
        "constant_1": 0.08,
        "constant_2": 1.4
    },
    "conf_intervals": {
        "constant_conf_1": null,
        "constant_conf_2": null
    },
    "temperature": 85.0,
    "temperature_unit": "\u00b0C",
    "solvent": "c1ccccc1",
    "method": "solvent",
    "r-product": null,
    "source": "Bull. Soc. Chim. Belg., 59, pp. 629-648, 1950",
    "calculation_method": "Alfrey-Price",
    "polymerization_type": "free radical",
    "logP": 1.6866,
    "monomer1_data": {
        "smiles": "C=Cc1c(C)cc(C)cc1C",
        "ip": 12.780301368449452,
        "ip_corrected": 7.934301368449452,
        "ea": 3.035782749533461,
        "homo": -0.37475467007580265,
        "lumo": -0.20764772427388997,
        "charges": {
            "1": -0.08862274727170809,
            "2": -0.020378512926282746,
            "3": -0.009490413261077454,
            "4": 0.008742494603750928,
            "5": -0.10568410775079842,
            "6": -0.055556948794521756,
            "7": 0.010769119413309186,
            "8": -0.10688162432475734,
            "9": -0.055558708245688856,
            "10": 0.00876748335807917,
            "11": -0.105694107708494,
            "12": 0.030667055351551932,
            "13": 0.03341222282942294,
            "14": 0.032472510032846694,
            "15": 0.04130524500881191,
            "16": 0.043443795213146785,
            "17": 0.0386095107221758,
            "18": 0.026327356467987853,
            "19": 0.04386653864401729,
            "20": 0.03988859407570742,
            "21": 0.03989039128692988,
            "22": 0.026330480531398616,
            "23": 0.04349905222874439,
            "24": 0.03860939413874848,
            "25": 0.04126592637669652
        },
        "dipole": [
            -0.0138484930913698,
            -0.0030628553097927056,
            -0.06895340456983111
        ],
        "global_electrophilicity": 0.4810961904691635,
        "global_nucleophilicity": -7.934301368449452,
        "fukui_electrophilicity": {
            "1": 0.04038148067230689,
            "2": 0.03243360702328793,
            "3": 0.0433991953972899,
            "4": 0.051734308813698705,
            "5": -0.024914696670266273,
            "6": 0.036877286043201306,
            "7": 0.061388571744118506,
            "8": -0.02648784318804545,
            "9": 0.03666415972495221,
            "10": 0.052061604645381815,
            "11": -0.0250016805746211,
            "12": 0.07566695133246565,
            "13": 0.05896159437810462,
            "14": 0.06960254565831855,
            "15": 0.03976734892524805,
            "16": 0.03765694927001985,
            "17": 0.04248632779285351,
            "18": 0.07217388387634044,
            "19": 0.04909316431147723,
            "20": 0.041834484055258254,
            "21": 0.041860004131795026,
            "22": 0.07212251907597345,
            "23": 0.037832535271286515,
            "24": 0.04253702911710154,
            "25": 0.03986866917269836
        },
        "fukui_nucleophilicity": {
            "1": 0.01896214720361776,
            "2": -0.004290741884608484,
            "3": 0.06381142011533021,
            "4": 0.038022139136612176,
            "5": -0.022509202203468998,
            "6": 0.029119971054427728,
            "7": 0.057568821747529975,
            "8": -0.02278580770768915,
            "9": 0.029030385718963977,
            "10": 0.03804407482568245,
            "11": -0.022463653263126576,
            "12": 0.05617910585382511,
            "13": 0.04414557873890901,
            "14": 0.07645590413092977,
            "15": 0.05246147521239659,
            "16": 0.05589152018614882,
            "17": 0.04342705901634062,
            "18": 0.0610195247256172,
            "19": 0.08132986576772144,
            "20": 0.05677454666592006,
            "21": 0.05673905428750235,
            "22": 0.06096128312387839,
            "23": 0.0562312455006285,
            "24": 0.04350016786690523,
            "25": 0.052374114198133766
        },
        "boltzmann_weights": [
            0.5000002441664372,
            0.4999997558335629
        ],
        "best_conformer_elements": [
            6,
            6,
            6,
            6,
            6,
            6,
            6,
            6,
            6,
            6,
            6,
            1,
            1,
            1,
            1,
            1,
            1,
            1,
            1,
            1,
            1,
            1,
            1,
            1,
            1
        ],
        "best_conformer_coordinates": [
            [
                -2.968002664846018,
                -0.41368854128971244,
                0.9830846999995914
            ],
            [
                -2.228788262046782,
                -0.3889549422570698,
                -0.11047840518916101
            ],
            [
                -0.7713514538989341,
                -0.14163439064045372,
                -0.11655225613530798
            ],
            [
                0.11744926203248188,
                -1.213274672847132,
                -0.025290223825008624
            ],
            [
                -0.406230685879575,
                -2.6138825663788277,
                0.09126130640659322
            ],
            [
                1.4815770518580027,
                -0.9669230553462965,
                -0.0453019499687731
            ],
            [
                1.9816911784622362,
                0.32220630614393425,
                -0.1562554613668712
            ],
            [
                3.459912875132972,
                0.5733763520100706,
                -0.15321541935646543
            ],
            [
                1.0839225712176899,
                1.375584291814873,
                -0.24974922639109887
            ],
            [
                -0.28563747395126826,
                1.1612049133753253,
                -0.23242936331075129
            ],
            [
                -1.2421460438983045,
                2.311571457321706,
                -0.3387593925480169
            ],
            [
                -4.029289822062146,
                -0.5969516717149513,
                0.9550699952790733
            ],
            [
                -2.5359957865806066,
                -0.2501564063350642,
                1.9573364698970388
            ],
            [
                -2.6808938501064565,
                -0.5560380896910537,
                -1.0824878567682739
            ],
            [
                -0.9935370300472514,
                -2.7257029396017853,
                1.001836526860927
            ],
            [
                0.41019124112860633,
                -3.3315293382088584,
                0.1122309492099147
            ],
            [
                -1.0576348463661744,
                -2.8488692507206594,
                -0.7499296516237882
            ],
            [
                2.1695739524950968,
                -1.7982803950258384,
                0.024566412326031618
            ],
            [
                3.9983464417755306,
                -0.27328692152312223,
                -0.5731214728516004
            ],
            [
                3.810577927632985,
                0.7224306924589624,
                0.8688360622960857
            ],
            [
                3.7031571619461903,
                1.4658074204156861,
                -0.7254634026605998
            ],
            [
                1.459408880847276,
                2.385599064968922,
                -0.3406553658335934
            ],
            [
                -1.8579924000178858,
                2.3781640585136112,
                0.5572603864556916
            ],
            [
                -0.7066440998166733,
                3.249341279995611,
                -0.46455598431087886
            ],
            [
                -1.9116641355944595,
                2.173887344562373,
                -1.1872373818819664
            ]
        ],
        "best_conformer_energy": -30.66538677617527,
        "fukui_radical": {
            "1": 0.029547598383398127,
            "2": 0.013996298550652993,
            "3": 0.05363531772699509,
            "4": 0.04486504425880585,
            "5": -0.023721942339316245,
            "6": 0.03297138648217156,
            "7": 0.05946537618525742,
            "8": -0.024564513744541022,
            "9": 0.03282973476460365,
            "10": 0.04501991862983051,
            "11": -0.023742808803797873,
            "12": 0.0658899783486584,
            "13": 0.05162047950739193,
            "14": 0.07342702648530329,
            "15": 0.04651944293238513,
            "16": 0.04293670377881813,
            "17": 0.04629500123793572,
            "18": 0.06661774946526851,
            "19": 0.049068157955960735,
            "20": 0.06560584854421328,
            "21": 0.049104321295740015,
            "22": 0.06655066325651741,
            "23": 0.0467680227942035,
            "24": 0.04299447550287709,
            "25": 0.046300718809256056
        }
    },
    "monomer2_data": {
        "smiles": "C=C(C)C(=O)OC",
        "ip": 14.236483972656346,
        "ip_corrected": 9.390483972656346,
        "ea": 3.965500029838621,
        "homo": -0.41127032387995544,
        "lumo": -0.26950129410851986,
        "charges": {
            "1": -0.08192644204948094,
            "2": -0.007758938742676788,
            "3": -0.11040535221003818,
            "4": 0.34920872447012063,
            "5": -0.4109728775483542,
            "6": -0.2641504660609933,
            "7": 0.035165391019299455,
            "8": 0.05595603293225091,
            "9": 0.06272990863841402,
            "10": 0.0654729267794723,
            "11": 0.06547300436630195,
            "12": 0.05055145378886996,
            "13": 0.06218368236208788,
            "14": 0.06218369754524128,
            "15": 0.06628925470948674
        },
        "dipole": [
            0.042189455222522244,
            -0.7608520055498939,
            0.06845067776298096
        ],
        "global_electrophilicity": 0.8813642895109609,
        "global_nucleophilicity": -9.390483972656346,
        "fukui_electrophilicity": {
            "1": 0.0916099776458229,
            "2": 0.08194480124254042,
            "3": -0.03870700638664119,
            "4": 0.08164153093062626,
            "5": 0.19459726093903607,
            "6": 0.07836988169535863,
            "7": -0.03498260375536273,
            "8": 0.11948701878867324,
            "9": 0.10428214255764144,
            "10": 0.06198656850236382,
            "11": 0.06198649192249827,
            "12": 0.06017707177149582,
            "13": 0.04047835404033179,
            "14": 0.04047833993174442,
            "15": 0.05665017017387712
        },
        "fukui_nucleophilicity": {
            "1": 0.05119712917593304,
            "2": 0.06180413311607634,
            "3": -0.01940489925170101,
            "4": 0.013324588985722141,
            "5": 0.15569776430206916,
            "6": 0.09388640424022587,
            "7": -0.026619602504503993,
            "8": 0.1033747366245307,
            "9": 0.08566644804667564,
            "10": 0.09644914037738059,
            "11": 0.09644892416456753,
            "12": 0.07537139198169276,
            "13": 0.07058385012774213,
            "14": 0.07058380855498125,
            "15": 0.07163618205861905
        },
        "fukui_radical": {
            "1": 0.07140355341087798,
            "2": 0.07187446717930837,
            "3": -0.029055952819171102,
            "4": 0.0474830599581742,
            "5": 0.17514751262055261,
            "6": 0.08612814296779225,
            "7": -0.030801103129933362,
            "8": 0.11143087770660196,
            "9": 0.09497429530215853,
            "10": 0.0792178544398722,
            "11": 0.0792177080435329,
            "12": 0.06777423187659429,
            "13": 0.05553110208403696,
            "14": 0.05553107424336284,
            "15": 0.06414317611624809
        },
        "best_conformer_coordinates": [
            [
                -1.0679874721335532,
                -1.591695393005097,
                0.1190505870012582
            ],
            [
                -0.9789696677262058,
                -0.2700634531963184,
                0.015569141935180716
            ],
            [
                -2.152414502903391,
                0.6374624311751305,
                -0.17280008390949914
            ],
            [
                0.33254570919277476,
                0.4296358416853463,
                0.08092895025997722
            ],
            [
                0.4667403029430531,
                1.6257720313950312,
                -0.007628838348907176
            ],
            [
                1.368254296471444,
                -0.40841920824982436,
                0.25032440426561303
            ],
            [
                2.6475724912740755,
                0.20137513824591807,
                0.3202395569867531
            ],
            [
                -2.019589027601903,
                -2.0945475365498094,
                0.07121808444667849
            ],
            [
                -0.1962306925063066,
                -2.2069421172817725,
                0.25399723219802745
            ],
            [
                -2.0338701146835967,
                1.2076321838811321,
                -1.092623302807032
            ],
            [
                -2.1989630647919824,
                1.3547927910841435,
                0.6448131655597281
            ],
            [
                -3.078828528124943,
                0.07221525271252598,
                -0.21295259783201617
            ],
            [
                2.690936133782629,
                0.8988648503855212,
                1.159567291618923
            ],
            [
                2.858178339796767,
                0.7497948862504704,
                -0.6004798925286432
            ],
            [
                3.3626258023029116,
                -0.6058776985323392,
                0.4565564987903857
            ]
        ],
        "best_conformer_elements": [
            6,
            6,
            6,
            6,
            8,
            8,
            6,
            1,
            1,
            1,
            1,
            1,
            1,
            1,
            1
        ],
        "best_conformer_energy": -22.894683429971266
    }
}