{
    "file": "paper_227.json",
    "monomer1_s": "C=C(C)C(=O)OC",
    "monomer2_s": "C=C(CO)C(=O)OCC",
    "monomer1": "Methyl methacrylate",
    "monomer2": "Ethyl alpha-hydroxymethylacrylate",
    "r_values": {
        "constant_1": 1.264,
        "constant_2": 1.285
    },
    "conf_intervals": {
        "constant_conf_1": 0.21,
        "constant_conf_2": 0.2
    },
    "temperature": 50.0,
    "temperature_unit": "\u00b0C",
    "solvent": "C1CCOC1",
    "method": "solvent",
    "r-product": null,
    "source": "https://doi.org/10.1002/pol.1992.140301213",
    "calculation_method": "nonlinear least-square analysis",
    "polymerization_type": "free radical",
    "logP": 0.7968,
    "monomer1_data": {
        "smiles": "C=C(C)C(=O)OC",
        "ip": 14.236483972656346,
        "ip_corrected": 9.390483972656346,
        "ea": 3.965500029838621,
        "homo": -0.41127032387995544,
        "lumo": -0.26950129410851986,
        "charges": {
            "1": -0.08192644204948094,
            "2": -0.007758938742676788,
            "3": -0.11040535221003818,
            "4": 0.34920872447012063,
            "5": -0.4109728775483542,
            "6": -0.2641504660609933,
            "7": 0.035165391019299455,
            "8": 0.05595603293225091,
            "9": 0.06272990863841402,
            "10": 0.0654729267794723,
            "11": 0.06547300436630195,
            "12": 0.05055145378886996,
            "13": 0.06218368236208788,
            "14": 0.06218369754524128,
            "15": 0.06628925470948674
        },
        "dipole": [
            0.042189455222522244,
            -0.7608520055498939,
            0.06845067776298096
        ],
        "global_electrophilicity": 0.8813642895109609,
        "global_nucleophilicity": -9.390483972656346,
        "fukui_electrophilicity": {
            "1": 0.0916099776458229,
            "2": 0.08194480124254042,
            "3": -0.03870700638664119,
            "4": 0.08164153093062626,
            "5": 0.19459726093903607,
            "6": 0.07836988169535863,
            "7": -0.03498260375536273,
            "8": 0.11948701878867324,
            "9": 0.10428214255764144,
            "10": 0.06198656850236382,
            "11": 0.06198649192249827,
            "12": 0.06017707177149582,
            "13": 0.04047835404033179,
            "14": 0.04047833993174442,
            "15": 0.05665017017387712
        },
        "fukui_nucleophilicity": {
            "1": 0.05119712917593304,
            "2": 0.06180413311607634,
            "3": -0.01940489925170101,
            "4": 0.013324588985722141,
            "5": 0.15569776430206916,
            "6": 0.09388640424022587,
            "7": -0.026619602504503993,
            "8": 0.1033747366245307,
            "9": 0.08566644804667564,
            "10": 0.09644914037738059,
            "11": 0.09644892416456753,
            "12": 0.07537139198169276,
            "13": 0.07058385012774213,
            "14": 0.07058380855498125,
            "15": 0.07163618205861905
        },
        "fukui_radical": {
            "1": 0.07140355341087798,
            "2": 0.07187446717930837,
            "3": -0.029055952819171102,
            "4": 0.0474830599581742,
            "5": 0.17514751262055261,
            "6": 0.08612814296779225,
            "7": -0.030801103129933362,
            "8": 0.11143087770660196,
            "9": 0.09497429530215853,
            "10": 0.0792178544398722,
            "11": 0.0792177080435329,
            "12": 0.06777423187659429,
            "13": 0.05553110208403696,
            "14": 0.05553107424336284,
            "15": 0.06414317611624809
        },
        "best_conformer_coordinates": [
            [
                -1.0679874721335532,
                -1.591695393005097,
                0.1190505870012582
            ],
            [
                -0.9789696677262058,
                -0.2700634531963184,
                0.015569141935180716
            ],
            [
                -2.152414502903391,
                0.6374624311751305,
                -0.17280008390949914
            ],
            [
                0.33254570919277476,
                0.4296358416853463,
                0.08092895025997722
            ],
            [
                0.4667403029430531,
                1.6257720313950312,
                -0.007628838348907176
            ],
            [
                1.368254296471444,
                -0.40841920824982436,
                0.25032440426561303
            ],
            [
                2.6475724912740755,
                0.20137513824591807,
                0.3202395569867531
            ],
            [
                -2.019589027601903,
                -2.0945475365498094,
                0.07121808444667849
            ],
            [
                -0.1962306925063066,
                -2.2069421172817725,
                0.25399723219802745
            ],
            [
                -2.0338701146835967,
                1.2076321838811321,
                -1.092623302807032
            ],
            [
                -2.1989630647919824,
                1.3547927910841435,
                0.6448131655597281
            ],
            [
                -3.078828528124943,
                0.07221525271252598,
                -0.21295259783201617
            ],
            [
                2.690936133782629,
                0.8988648503855212,
                1.159567291618923
            ],
            [
                2.858178339796767,
                0.7497948862504704,
                -0.6004798925286432
            ],
            [
                3.3626258023029116,
                -0.6058776985323392,
                0.4565564987903857
            ]
        ],
        "best_conformer_elements": [
            6,
            6,
            6,
            6,
            8,
            8,
            6,
            1,
            1,
            1,
            1,
            1,
            1,
            1,
            1
        ],
        "best_conformer_energy": -22.894683429971266
    },
    "monomer2_data": {
        "smiles": "C=C(CO)C(=O)OCC",
        "ip": 13.870371441882318,
        "ip_corrected": 9.024371441882318,
        "ea": 4.161480707026006,
        "homo": -0.4106045249779257,
        "lumo": -0.27546246078132225,
        "charges": {
            "1": -0.07629521398229358,
            "2": -0.03139674810003526,
            "3": 0.0786697242009134,
            "4": -0.4290481011732789,
            "5": 0.34787960929871875,
            "6": -0.4207989298321438,
            "7": -0.2610387378766647,
            "8": 0.08440530367871076,
            "9": -0.11638727239561392,
            "10": 0.06965041278092088,
            "11": 0.06567317264724773,
            "12": 0.04938555037765854,
            "13": 0.07060460143203748,
            "14": 0.29057778015839447,
            "15": 0.05364467225552746,
            "16": 0.052369934237271445,
            "17": 0.05946452410134596,
            "18": 0.05420901960712023,
            "19": 0.05843069858416537
        },
        "dipole": [
            -0.6820956109378319,
            0.9722865656657214,
            -0.5125946291214696
        ],
        "global_electrophilicity": 0.8954824985302525,
        "global_nucleophilicity": -9.024371441882318,
        "fukui_electrophilicity": {
            "1": 0.0926201680645507,
            "2": 0.07920909113214884,
            "3": -0.022336406823197222,
            "4": 0.03228750046100376,
            "5": 0.08045930853554134,
            "6": 0.1905695338142081,
            "7": 0.07670142417317971,
            "8": -0.019278609253382997,
            "9": -0.01368377791377147,
            "10": 0.11713590670108223,
            "11": 0.10416908529417773,
            "12": 0.05397299869267844,
            "13": 0.06307971740881316,
            "14": 0.021854221012147457,
            "15": 0.03304786242777401,
            "16": 0.03345291305309288,
            "17": 0.019772474180767795,
            "18": 0.03729296885438376,
            "19": 0.019673620184798395
        },
        "fukui_nucleophilicity": {
            "1": 0.026147214476697198,
            "2": 0.03729949564970508,
            "3": -0.012068098647640163,
            "4": 0.12104807684737551,
            "5": 0.007866817667387616,
            "6": 0.11138385419414926,
            "7": 0.06192941685682801,
            "8": -0.012756672077154987,
            "9": -0.012833751351916223,
            "10": 0.0655596177520244,
            "11": 0.06823108350428528,
            "12": 0.10259119093107544,
            "13": 0.07062214153606461,
            "14": 0.05037526476885856,
            "15": 0.06785034103655779,
            "16": 0.0692609422161846,
            "17": 0.06426019008845257,
            "18": 0.05545989830745967,
            "19": 0.0577729762527127
        },
        "boltzmann_weights": [
            0.02048342868642634,
            0.04323657303632978,
            0.04323657287299145,
            0.23613720400682908,
            0.02563170126588,
            0.4245553332838713,
            0.0038126271620821327,
            0.0038126272935765644,
            0.09858650596963679,
            0.004837034900755924,
            0.0016699176579844403,
            0.004839952798229914,
            0.0039002466235662646,
            0.042024874170468414,
            0.04323540027137158
        ],
        "best_conformer_elements": [
            6,
            6,
            6,
            8,
            6,
            8,
            8,
            6,
            6,
            1,
            1,
            1,
            1,
            1,
            1,
            1,
            1,
            1,
            1
        ],
        "best_conformer_coordinates": [
            [
                -1.625495342546455,
                -0.5797619033699343,
                -1.3813228435547036
            ],
            [
                -1.3704418691059537,
                0.041376801967157734,
                -0.23510504759163245
            ],
            [
                -2.3858322057200207,
                0.8805176417166747,
                0.5012837618425319
            ],
            [
                -3.542737557609212,
                1.1653016310456634,
                -0.23807405803854903
            ],
            [
                -0.03555404120119636,
                -0.011395651895878248,
                0.4197920454227249
            ],
            [
                0.28389702753646867,
                0.6921660467792993,
                1.3480071013938575
            ],
            [
                0.7650667113719224,
                -0.931640512755872,
                -0.12657146717065978
            ],
            [
                2.079032106783099,
                -1.0512468338758059,
                0.42051058403267016
            ],
            [
                3.026388506375588,
                -0.018744595140425455,
                -0.17380226612599567
            ],
            [
                -2.604007351058938,
                -0.5311038514357924,
                -1.830539666844279
            ],
            [
                -0.8747987731864129,
                -1.1596830561097402,
                -1.8872416203111968
            ],
            [
                -1.8922146141532874,
                1.7993846771939608,
                0.8490196412610149
            ],
            [
                -2.7235536917348315,
                0.3354364598533129,
                1.388516601502899
            ],
            [
                -3.2927678301607983,
                1.6670758630492817,
                -1.0220461939693566
            ],
            [
                2.396105623941772,
                -2.066462147397503,
                0.17328640887830038
            ],
            [
                2.02267990172275,
                -0.9303756866535754,
                1.507330480297309
            ],
            [
                4.028163616820228,
                -0.17828913053989542,
                0.2143565905279079
            ],
            [
                3.0463697740109765,
                -0.1050137155065662,
                -1.2576169428171866
            ],
            [
                2.6997000026226203,
                0.9824579577836792,
                0.09606069285638401
            ]
        ],
        "best_conformer_energy": -30.118619474213183,
        "fukui_radical": {
            "1": 0.057672724219728355,
            "2": 0.05824462622872667,
            "3": -0.016483908134417385,
            "4": 0.07854637165296241,
            "5": 0.04617464726832507,
            "6": 0.15342689908602436,
            "7": 0.06766933188752902,
            "8": -0.018081771619763223,
            "9": -0.014158101078266608,
            "10": 0.09276972594120815,
            "11": 0.0883607320148675,
            "12": 0.07686310479162825,
            "13": 0.06618531005584685,
            "14": 0.03640593473711479,
            "15": 0.06583538831174526,
            "16": 0.04059116377370413,
            "17": 0.04901217630028119,
            "18": 0.03746577940437884,
            "19": 0.0334998651583917
        }
    }
}