{
    "file": "paper_415.json",
    "monomer1_s": "C=COC(C)=O",
    "monomer2_s": "C=CN1CCCC1=O",
    "monomer1": "Vinyl Acetate",
    "monomer2": "N-Vinyl Pyrrolidone",
    "r_values": {
        "constant_1": 0.237,
        "constant_2": 2.28
    },
    "conf_intervals": {
        "constant_conf_1": 0.037,
        "constant_conf_2": 0.19
    },
    "temperature": 75.0,
    "temperature_unit": "\u00b0C",
    "solvent": "c1ccccc1",
    "method": "solvent",
    "r-product": null,
    "source": "https://doi.org/10.1002/pol.1961.1205412310",
    "calculation_method": "Fineman-Ross",
    "polymerization_type": "free radical",
    "logP": 1.6866,
    "monomer1_data": {
        "smiles": "C=COC(C)=O",
        "ip": 14.601504628221,
        "ip_corrected": 9.755504628221,
        "ea": 3.490615368816575,
        "homo": -0.4145390017965533,
        "lumo": -0.25140710840020714,
        "charges": {
            "1": -0.1113144265465606,
            "2": 0.10275648997074144,
            "3": -0.23854567980417674,
            "4": 0.36051791203275774,
            "5": -0.14792469300456296,
            "6": -0.3941835952860412,
            "7": 0.0672027324062841,
            "8": 0.061754928475895525,
            "9": 0.06259426290396605,
            "10": 0.0798657892235391,
            "11": 0.07986554111784669,
            "12": 0.07741073851030468
        },
        "dipole": [
            -0.05662756234607951,
            0.8569322894357296,
            0.3032221954910163
        ],
        "global_electrophilicity": 0.7938385299010362,
        "global_nucleophilicity": -9.755504628221,
        "fukui_electrophilicity": {
            "1": 0.08578275154992779,
            "2": 0.05012042592149622,
            "3": 0.08548542688035027,
            "4": 0.1077747470395175,
            "5": -0.03566661197540642,
            "6": 0.1945451708476108,
            "7": 0.10129460191247838,
            "8": 0.10886613014224744,
            "9": 0.08002416146027588,
            "10": 0.07769818359128527,
            "11": 0.07769768191324698,
            "12": 0.06637733071696028
        },
        "fukui_nucleophilicity": {
            "1": 0.08397544139564725,
            "2": 0.05141341223033291,
            "3": 0.1192110587495277,
            "4": 0.020656009635123818,
            "5": 0.0005916960941607929,
            "6": 0.19418607171709723,
            "7": 0.10376364413597791,
            "8": 0.11328100818473896,
            "9": 0.08001761147510311,
            "10": 0.08274267589853532,
            "11": 0.08274260610176629,
            "12": 0.06741876460304048
        },
        "boltzmann_weights": [
            0.8944295654127825,
            0.10557043458721739
        ],
        "best_conformer_elements": [
            6,
            6,
            8,
            6,
            6,
            8,
            1,
            1,
            1,
            1,
            1,
            1
        ],
        "best_conformer_coordinates": [
            [
                -2.437324228179656,
                0.3937548641510361,
                0.7661558261260201
            ],
            [
                -1.419191674043415,
                0.15504350740379952,
                -0.03816350317343079
            ],
            [
                -0.13699470142679498,
                0.054584682291651455,
                0.4494470065971148
            ],
            [
                0.8676324074492782,
                -0.1906823427582238,
                -0.417050161203271
            ],
            [
                2.1783763205131863,
                -0.2621161673275299,
                0.3157577022447546
            ],
            [
                0.7153681453467421,
                -0.3287492440260778,
                -1.5993730034685176
            ],
            [
                -3.434625797340854,
                0.47063688603689013,
                0.37747406080027257
            ],
            [
                -2.298308572482812,
                0.5171088664124686,
                1.8253979062734973
            ],
            [
                -1.5051742223637885,
                0.023233201377353147,
                -1.1094807066069712
            ],
            [
                2.9803502386050886,
                -0.4595729552317396,
                -0.3883925357283291
            ],
            [
                2.3566758152573186,
                0.6789522285520536,
                0.8306132330041143
            ],
            [
                2.133216268665729,
                -1.0521935268816693,
                1.0615558584970322
            ]
        ],
        "best_conformer_energy": -19.732766794333997,
        "fukui_radical": {
            "1": 0.08487933457318195,
            "2": 0.05076628160926413,
            "3": 0.10235031259099811,
            "4": 0.06421611335671049,
            "5": -0.01753875511643964,
            "6": 0.1943629934637996,
            "7": 0.1110728645776535,
            "8": 0.10253149006745386,
            "9": 0.08002125775720795,
            "10": 0.06689794903707227,
            "11": 0.080220216853419,
            "12": 0.0802199413401228
        }
    },
    "monomer2_data": {
        "smiles": "C=CN1CCCC1=O",
        "ip": 13.37823492640183,
        "ip_corrected": 8.53223492640183,
        "ea": 3.110490528713574,
        "homo": -0.3789173403999514,
        "lumo": -0.23113056633898044,
        "charges": {
            "1": -0.1211077192016036,
            "2": 0.022136294251985086,
            "3": -0.06910573709137108,
            "4": -0.0027676116833827286,
            "5": -0.06509690367358469,
            "6": -0.0910107644195765,
            "7": 0.27161945079505045,
            "8": -0.4175889401795349,
            "9": 0.043933493954723554,
            "10": 0.03613009463987398,
            "11": 0.06721815522561857,
            "12": 0.04720038729052176,
            "13": 0.054155234434116635,
            "14": 0.04832987133732095,
            "15": 0.048575903425175586,
            "16": 0.06457369537303193,
            "17": 0.06280509552163123
        },
        "dipole": [
            -0.6005621140091192,
            1.1773082192286208,
            -1.014835901013765
        ],
        "global_electrophilicity": 0.5623858941528388,
        "global_nucleophilicity": -8.53223492640183,
        "fukui_electrophilicity": {
            "1": 0.07967459628825524,
            "2": 0.05568424198036035,
            "3": 0.057412751954590835,
            "4": -0.026974417232942,
            "5": -0.013366967924093448,
            "6": -0.017133699634112196,
            "7": 0.10331742730875593,
            "8": 0.17546881644801143,
            "9": 0.1027128203909006,
            "10": 0.09599163109041359,
            "11": 0.07315344622416288,
            "12": 0.044631764775846995,
            "13": 0.042029225447296745,
            "14": 0.03893015663967909,
            "15": 0.05281637168810928,
            "16": 0.06567325131554697,
            "17": 0.06997858323921419
        },
        "fukui_nucleophilicity": {
            "1": 0.07799880851613611,
            "2": 0.025638882515713057,
            "3": 0.11463610510736116,
            "4": -0.02751235725652449,
            "5": -0.010643515034231832,
            "6": -0.006035069381128619,
            "7": 0.012914812089909411,
            "8": 0.1488798292303059,
            "9": 0.09658495171038332,
            "10": 0.08084914564587323,
            "11": 0.06895802933258562,
            "12": 0.09029944860201633,
            "13": 0.07229698616061173,
            "14": 0.06182167595218704,
            "15": 0.059260189934605086,
            "16": 0.0666896227075475,
            "17": 0.06736245417149782
        },
        "boltzmann_weights": [
            0.9806987540794585,
            0.019301245920541447
        ],
        "best_conformer_elements": [
            6,
            6,
            7,
            6,
            6,
            6,
            6,
            8,
            1,
            1,
            1,
            1,
            1,
            1,
            1,
            1,
            1
        ],
        "best_conformer_coordinates": [
            [
                2.687883675849802,
                -0.3091231031751782,
                -0.4581222692059385
            ],
            [
                1.7469003080223642,
                0.5935398312771931,
                -0.22158226185358604
            ],
            [
                0.40627031968457294,
                0.3277863031989164,
                -0.015148111652269534
            ],
            [
                -0.17036383038051575,
                -0.9984681264882777,
                -0.07052705140275553
            ],
            [
                -1.6795754782162244,
                -0.7391960973383871,
                -0.12462843314799198
            ],
            [
                -1.834480744874304,
                0.622867799631091,
                0.546371164595653
            ],
            [
                -0.4912791513874744,
                1.298264477009125,
                0.32939861205884857
            ],
            [
                -0.23676855195303803,
                2.472541872049356,
                0.45210183635978757
            ],
            [
                3.7056316728338343,
                -0.00313571129953937,
                -0.6117104207694547
            ],
            [
                2.4901456742032435,
                -1.365281404007504,
                -0.5065624573833275
            ],
            [
                1.9630053859678005,
                1.6516146896530073,
                -0.16458790408329801
            ],
            [
                0.19167278807825605,
                -1.5335021091456422,
                -0.9513127874911355
            ],
            [
                0.11091177851464268,
                -1.567575897883727,
                0.8242125685376372
            ],
            [
                -2.0093070211358524,
                -0.6823138612351546,
                -1.1625782486734006
            ],
            [
                -2.2458107479439713,
                -1.52358964634623,
                0.3732057211857435
            ],
            [
                -2.643082661796475,
                1.225605620291323,
                0.13824847602559506
            ],
            [
                -1.9917534154666525,
                0.5299653585179732,
                1.6232215668998904
            ]
        ],
        "best_conformer_energy": -24.43062637077295,
        "fukui_radical": {
            "1": 0.07883645919113791,
            "2": 0.04066147317653313,
            "3": 0.08602391891892724,
            "4": -0.027242996567131035,
            "5": -0.01200582889757431,
            "6": -0.011584216763966697,
            "7": 0.058116436568951435,
            "8": 0.1621757264448256,
            "9": 0.09964858840245029,
            "10": 0.088420172719999,
            "11": 0.07105520602086494,
            "12": 0.057162869570404305,
            "13": 0.06746515739263172,
            "14": 0.05037589502118549,
            "15": 0.056038656330691404,
            "16": 0.06618155315839346,
            "17": 0.06867092931409083
        }
    }
}