{
    "file": "paper_374.json",
    "monomer1_s": "C=Cc1ccccc1",
    "monomer2_s": "C=C(C)c1ccccc1",
    "monomer1": "Styrene",
    "monomer2": "alpha-Methylstyrene",
    "r_values": {
        "constant_1": 0.13,
        "constant_2": 0.52
    },
    "conf_intervals": {
        "constant_conf_1": null,
        "constant_conf_2": null
    },
    "temperature": 60.0,
    "temperature_unit": "\u00b0C",
    "solvent": null,
    "method": "bulk",
    "r-product": null,
    "source": "http://dx.doi.org/10.1080/00222337708061265",
    "calculation_method": null,
    "polymerization_type": "radical",
    "monomer1_data": {
        "smiles": "C=Cc1ccccc1",
        "ip": 13.323305315341791,
        "ip_corrected": 8.477305315341791,
        "ea": 3.959877946938991,
        "homo": -0.3831985290395731,
        "lumo": -0.2501966690470822,
        "charges": {
            "1": -0.08578934436600626,
            "2": -0.030259830597504936,
            "3": 0.01460321229207634,
            "4": -0.032430750206366904,
            "5": -0.029945437580900583,
            "6": -0.030379977266510892,
            "7": -0.029893803249294533,
            "8": -0.033985609164289644,
            "9": 0.038721208943534896,
            "10": 0.036165150785770366,
            "11": 0.033044651543264955,
            "12": 0.03404524115950842,
            "13": 0.028965873902585763,
            "14": 0.02897855112451052,
            "15": 0.028735857233840652,
            "16": 0.029425005445779806
        },
        "dipole": [
            -0.00599695759505601,
            0.00019607223034193996,
            -0.0018463290012354543
        ],
        "global_electrophilicity": 0.7692971421446727,
        "global_nucleophilicity": -8.477305315341791,
        "fukui_electrophilicity": {
            "1": 0.07209309972414436,
            "2": 0.04352510810351072,
            "3": 0.06230438364782903,
            "4": 0.03213425829454332,
            "5": 0.026312904098299825,
            "6": 0.06792045239213465,
            "7": 0.02876303434297292,
            "8": 0.03213381752054322,
            "9": 0.08376002497375698,
            "10": 0.09874578293688194,
            "11": 0.08145474392689236,
            "12": 0.06271242240018035,
            "13": 0.07540055911977092,
            "14": 0.08585900759002232,
            "15": 0.07693189708388407,
            "16": 0.06994850384463236
        },
        "fukui_nucleophilicity": {
            "1": 0.07260243947817689,
            "2": 0.04230113696056051,
            "3": 0.06268064465096645,
            "4": 0.03400845310298767,
            "5": 0.03110749772289005,
            "6": 0.07019025477516763,
            "7": 0.03211552237109847,
            "8": 0.03545308497970195,
            "9": 0.07943182497266889,
            "10": 0.09534951030583766,
            "11": 0.07725609403564751,
            "12": 0.06257820938745395,
            "13": 0.07457311950887512,
            "14": 0.0843599501650384,
            "15": 0.07603725882191792,
            "16": 0.06995499876126071
        },
        "boltzmann_weights": [
            0.500000013411314,
            0.499999986588686
        ],
        "best_conformer_elements": [
            6,
            6,
            6,
            6,
            6,
            6,
            6,
            6,
            1,
            1,
            1,
            1,
            1,
            1,
            1,
            1
        ],
        "best_conformer_coordinates": [
            [
                -2.7996504883392213,
                0.5067268078443541,
                -0.3307757375296494
            ],
            [
                -1.8569195165461714,
                -0.42690007797501867,
                -0.28622356006066363
            ],
            [
                -0.41676751008175084,
                -0.2137695987077826,
                -0.201669273122216
            ],
            [
                0.42662331397264364,
                -1.3257786864929022,
                -0.16462382115517377
            ],
            [
                1.7979836205106778,
                -1.1786700332337077,
                -0.08467855669649194
            ],
            [
                2.3586778805752897,
                0.08669579947474147,
                -0.03984625155398522
            ],
            [
                1.535500161801921,
                1.2006125291369882,
                -0.07571377159817176
            ],
            [
                0.16438284527030772,
                1.054224105562994,
                -0.15563770481452763
            ],
            [
                -2.5807350472122574,
                1.5604467593574072,
                -0.30764549962305027
            ],
            [
                -3.84233837136736,
                0.2458441308630186,
                -0.39306838601271116
            ],
            [
                -2.1533557273489103,
                -1.4689784286781729,
                -0.3136745326715254
            ],
            [
                -0.004100778556855408,
                -2.317010607449955,
                -0.1992554256323922
            ],
            [
                2.432537807928637,
                -2.052797839845991,
                -0.05718467471006832
            ],
            [
                3.4304258000072263,
                0.20491108070838962,
                0.022664187100062603
            ],
            [
                1.9676045890247913,
                2.190467602677497,
                -0.04101419015886248
            ],
            [
                -0.4598685796390594,
                1.9339764620498727,
                -0.18248094282351895
            ]
        ],
        "best_conformer_energy": -21.158608850502983,
        "fukui_radical": {
            "1": 0.07234813599322018,
            "2": 0.04291309873393513,
            "3": 0.06249235896699714,
            "4": 0.03379355109266154,
            "5": 0.03043928194186729,
            "6": 0.06905534188080434,
            "7": 0.028710059427083993,
            "8": 0.03307125813746206,
            "9": 0.08159578301382218,
            "10": 0.09704772989059883,
            "11": 0.07935561247948747,
            "12": 0.06995185022654472,
            "13": 0.0764846271348809,
            "14": 0.0851094403734144,
            "15": 0.07498679088705272,
            "16": 0.06264507982020588
        }
    },
    "monomer2_data": {
        "smiles": "C=C(C)c1ccccc1",
        "ip": 13.107442353195923,
        "ip_corrected": 8.261442353195923,
        "ea": 3.698993022999845,
        "homo": -0.37963687489699954,
        "lumo": -0.23777627874026566,
        "charges": {
            "1": -0.10175723919921995,
            "2": 0.01560050216829588,
            "3": -0.10620814436844309,
            "4": 0.010454204600487335,
            "5": -0.03437096175291846,
            "6": -0.03001599896417298,
            "7": -0.03171347690893683,
            "8": -0.030890467822952836,
            "9": -0.03434540852638561,
            "10": 0.033619893948254785,
            "11": 0.03250831047162301,
            "12": 0.042418241467867546,
            "13": 0.04574364215937066,
            "14": 0.042770557663421464,
            "15": 0.03196174711426856,
            "16": 0.02807694312026287,
            "17": 0.02755370828658627,
            "18": 0.027320585959745895,
            "19": 0.03127336058283864
        },
        "dipole": [
            -0.0375494963842548,
            -0.11055679619814296,
            0.14146430731914364
        ],
        "global_electrophilicity": 0.6724698851225435,
        "global_nucleophilicity": -8.261442353195923,
        "fukui_electrophilicity": {
            "1": 0.06010719729659608,
            "2": 0.055504580165297066,
            "3": -0.028633845644842545,
            "4": 0.06454248032732719,
            "5": 0.027660414789160342,
            "6": 0.028727275365911645,
            "7": 0.06810559792149659,
            "8": 0.027355792449049503,
            "9": 0.03195010266842434,
            "10": 0.07147068913321622,
            "11": 0.08959542965869441,
            "12": 0.04789485649456332,
            "13": 0.0485674000205728,
            "14": 0.04168002480745926,
            "15": 0.06153410043248281,
            "16": 0.07507195047542009,
            "17": 0.0850532315393204,
            "18": 0.07558287067487982,
            "19": 0.06822985142495455
        },
        "fukui_nucleophilicity": {
            "1": 0.06989214291798117,
            "2": 0.05284474474169337,
            "3": -0.026419547238906854,
            "4": 0.04651517860682486,
            "5": 0.0287707319738535,
            "6": 0.027397137611996122,
            "7": 0.05967827631654535,
            "8": 0.029219283880697083,
            "9": 0.027778110251081248,
            "10": 0.07641028212351789,
            "11": 0.08910934316435606,
            "12": 0.05902930044011365,
            "13": 0.07355654519884937,
            "14": 0.05835121402551056,
            "15": 0.054030464191456594,
            "16": 0.06937492976780271,
            "17": 0.07599855887359364,
            "18": 0.06974756747775043,
            "19": 0.05871573573166726
        },
        "boltzmann_weights": [
            0.24999962542717946,
            0.2500003803824784,
            0.25000037381368084,
            0.2499996203766614
        ],
        "best_conformer_elements": [
            6,
            6,
            6,
            6,
            6,
            6,
            6,
            6,
            6,
            1,
            1,
            1,
            1,
            1,
            1,
            1,
            1,
            1,
            1
        ],
        "best_conformer_coordinates": [
            [
                2.299801404337901,
                -0.7576732967464186,
                -0.6465751680796793
            ],
            [
                1.482009809160599,
                0.1162830120903705,
                -0.0694040530143027
            ],
            [
                2.0024922469962942,
                1.36458260034742,
                0.5828817086643862
            ],
            [
                0.023201819468321262,
                -0.087160622080311,
                -0.052051895876846194
            ],
            [
                -0.5122942644362443,
                -1.3654077297673886,
                0.09976409459439256
            ],
            [
                -1.879722723555235,
                -1.5644487840187102,
                0.11807089371897429
            ],
            [
                -2.7422848615939883,
                -0.4894725504384515,
                -0.016231306356501583
            ],
            [
                -2.224424210849074,
                0.785870080764543,
                -0.1634247244217226
            ],
            [
                -0.8565299547477129,
                0.9866430839844774,
                -0.1752808085244645
            ],
            [
                1.9367798116382675,
                -1.6365256527605996,
                -1.150842335101944
            ],
            [
                3.3669151765800076,
                -0.6115547925943036,
                -0.6550058996203975
            ],
            [
                1.8234228301842967,
                2.2303534891652186,
                -0.05441643073982004
            ],
            [
                1.5018732140001432,
                1.536758462473281,
                1.5340939975124117
            ],
            [
                3.0733724814721426,
                1.2875072087944517,
                0.752991473918194
            ],
            [
                0.15325472291674058,
                -2.2067615624014962,
                0.2244199501754277
            ],
            [
                -2.275308596962904,
                -2.562372586829552,
                0.24179980072520407
            ],
            [
                -3.811141153529498,
                -0.6443416432832451,
                -0.002514047237372369
            ],
            [
                -2.890478137201579,
                1.630379819359113,
                -0.26824654919869584
            ],
            [
                -0.4709396138783975,
                1.9873414692335238,
                -0.3000286905537096
            ]
        ],
        "best_conformer_energy": -24.327863847923172,
        "fukui_radical": {
            "1": 0.06499906881921155,
            "2": 0.054175914466040365,
            "3": -0.02752574458621318,
            "4": 0.05552848740511885,
            "5": 0.028215320631314007,
            "6": 0.02806238886258225,
            "7": 0.06389282985948257,
            "8": 0.02828621177541743,
            "9": 0.02986286116618718,
            "10": 0.0739407336356833,
            "11": 0.08935181739426153,
            "12": 0.061061626660235555,
            "13": 0.050015662838558614,
            "14": 0.05346141501606144,
            "15": 0.05778206360466133,
            "16": 0.07222380827364448,
            "17": 0.08052666249814745,
            "18": 0.07266577642944246,
            "19": 0.06347309527809902
        }
    }
}