{
    "file": "paper_795.json",
    "monomer1_s": "C=COC(C)=S",
    "monomer2_s": "C=CN1C(=O)c2ccccc2C1=O",
    "monomer1": "Vinyl thioacetate",
    "monomer2": "N-Vinylphthalimide",
    "r_values": {
        "constant_1": 3.2,
        "constant_2": 0.23
    },
    "conf_intervals": {
        "constant_conf_1": null,
        "constant_conf_2": null
    },
    "temperature": 60.0,
    "temperature_unit": "\u00b0C",
    "solvent": "c1ccccc1",
    "method": "bulk",
    "r-product": null,
    "source": "https://doi.org/10.1007/BF00549745",
    "calculation_method": "Fineman-Ross",
    "polymerization_type": "free radical",
    "logP": 1.6866,
    "monomer1_data": {
        "smiles": "C=COC(C)=S",
        "ip": 13.189559191774201,
        "ip_corrected": 8.343559191774201,
        "ea": 4.948419359250563,
        "homo": -0.3586479001568748,
        "lumo": -0.291034356478865,
        "charges": {
            "1": -0.10777829835274366,
            "2": 0.09643606249383019,
            "3": -0.18453886967495775,
            "4": 0.21402817091669976,
            "5": -0.1250666160154445,
            "6": -0.28951975631797167,
            "7": 0.06392194110868715,
            "8": 0.0761701654161769,
            "9": 0.04324184404910147,
            "10": 0.06663274595333525,
            "11": 0.06663295763483218,
            "12": 0.07983965278845187
        },
        "dipole": [
            0.30818274421277375,
            1.964505424542159,
            0.34905975924966837
        ],
        "global_electrophilicity": 1.0819885831030425,
        "global_nucleophilicity": -8.343559191774201,
        "fukui_electrophilicity": {
            "1": 0.0645180088187868,
            "2": 0.02478425783878216,
            "3": 0.06837314907017955,
            "4": 0.06341291457541762,
            "5": -0.04493301712055943,
            "6": 0.39605686374785254,
            "7": 0.08620855447477804,
            "8": 0.07447541707577986,
            "9": 0.06533872320073908,
            "10": 0.07276331959236855,
            "11": 0.07275624516095404,
            "12": 0.05624556356493299
        },
        "fukui_nucleophilicity": {
            "1": 0.04736851790590589,
            "2": 0.011295755890854728,
            "3": 0.0694462746355829,
            "4": -0.03337365877425241,
            "5": -0.024785883089683824,
            "6": 0.5813864044267669,
            "7": 0.0700340249876858,
            "8": 0.054916529668971106,
            "9": 0.04982956294710022,
            "10": 0.06739759562827273,
            "11": 0.06739474758678901,
            "12": 0.03909012818600259
        },
        "boltzmann_weights": [
            0.00047559039718791886,
            0.00047559037412281223,
            0.9990488192286894
        ],
        "best_conformer_elements": [
            6,
            6,
            8,
            6,
            6,
            16,
            1,
            1,
            1,
            1,
            1,
            1
        ],
        "best_conformer_coordinates": [
            [
                2.4103776052022523,
                0.09153737193024972,
                -0.020293173261165053
            ],
            [
                1.1001135459606644,
                0.20697514237470327,
                -0.17178470420826722
            ],
            [
                0.31676633743147375,
                -0.9087641039565115,
                -0.21227452438052297
            ],
            [
                -1.0062361553612447,
                -0.8869853974061708,
                -0.36173614624487993
            ],
            [
                -1.7485032883508245,
                0.403091377877676,
                -0.5005392907781643
            ],
            [
                -1.7700626436414453,
                -2.3266852240567655,
                -0.38578844174596727
            ],
            [
                2.8748144737268624,
                -0.8734904335317746,
                0.07238264611675452
            ],
            [
                3.038753844157038,
                0.9607143719085393,
                0.013328438726128239
            ],
            [
                0.6083664841210921,
                1.165218969119988,
                -0.2672245741211173
            ],
            [
                -1.608130120562404,
                1.0303307251188736,
                0.381288315970676
            ],
            [
                -2.8061610387533045,
                0.18334201120395469,
                -0.6100280242224208
            ],
            [
                -1.4100990333466343,
                0.9547152000007968,
                -1.3791480769151536
            ]
        ],
        "best_conformer_energy": -18.887763922829116,
        "fukui_radical": {
            "1": 0.05594356650295268,
            "2": 0.0180396330322833,
            "3": 0.06890968240828932,
            "4": 0.01501969374672052,
            "5": -0.0348592566929298,
            "6": 0.4887213526669017,
            "7": 0.06469587066278652,
            "8": 0.07812148917201389,
            "9": 0.05758464235832362,
            "10": 0.07008023366900328,
            "11": 0.04766781342178241,
            "12": 0.07007527905186647
        }
    },
    "monomer2_data": {
        "smiles": "C=CN1C(=O)c2ccccc2C1=O",
        "ip": 13.686892297806066,
        "ip_corrected": 8.840892297806066,
        "ea": 5.973765139495381,
        "homo": -0.40250132799098565,
        "lumo": -0.3178000292787869,
        "charges": {
            "1": -0.10257710923590513,
            "2": 0.02828021558335897,
            "3": -0.08927299469481173,
            "4": 0.278087205621542,
            "5": -0.36025875734379853,
            "6": -0.022174757965494285,
            "7": -0.012145981841323913,
            "8": -0.019291782262638793,
            "9": -0.019606674971654955,
            "10": -0.01208361319030396,
            "11": -0.022206800223825138,
            "12": 0.2766725373168188,
            "13": -0.36287180584787165,
            "14": 0.05452251155933863,
            "15": 0.07919535744924659,
            "16": 0.06829868443295066,
            "17": 0.0647150234079971,
            "18": 0.05419969619396157,
            "19": 0.054191421542960756,
            "20": 0.06432762446943655
        },
        "dipole": [
            1.1989609341940792,
            -0.24335290859852074,
            -0.002085841190238933
        ],
        "global_electrophilicity": 1.6104708418295768,
        "global_nucleophilicity": -8.840892297806066,
        "fukui_electrophilicity": {
            "1": 0.022105245400024953,
            "2": -0.010823074022049212,
            "3": 0.037911912535813164,
            "4": 0.044466512533553604,
            "5": 0.1388602710853265,
            "6": 0.04518519436215174,
            "7": 0.019638595433515253,
            "8": 0.03874310967472927,
            "9": 0.03790485716704259,
            "10": 0.02026454421163095,
            "11": 0.045668460916459805,
            "12": 0.045820446347103166,
            "13": 0.14341342982331834,
            "14": 0.052348377527586615,
            "15": 0.024373831047714983,
            "16": 0.031221807048480113,
            "17": 0.05986050036245199,
            "18": 0.0713791642228072,
            "19": 0.07128441311579174,
            "20": 0.06037240120654389
        },
        "fukui_nucleophilicity": {
            "1": 0.06028891201944406,
            "2": 0.032533593650381276,
            "3": 0.07197034962507406,
            "4": 0.012275082457515796,
            "5": 0.10898547525388674,
            "6": 0.028817540014775336,
            "7": 0.019358836081844993,
            "8": 0.029788794898636062,
            "9": 0.030360842560124057,
            "10": 0.019743297881110553,
            "11": 0.02750822411952704,
            "12": 0.007695237783336473,
            "13": 0.09726925752560112,
            "14": 0.08508407135429968,
            "15": 0.06689012944320756,
            "16": 0.0724203630634369,
            "17": 0.049509101238321224,
            "18": 0.06235724401924057,
            "19": 0.06488932014187127,
            "20": 0.05225432686837121
        },
        "boltzmann_weights": [
            0.49998201563394945,
            0.5000179843660505
        ],
        "best_conformer_elements": [
            6,
            6,
            7,
            6,
            8,
            6,
            6,
            6,
            6,
            6,
            6,
            6,
            8,
            1,
            1,
            1,
            1,
            1,
            1,
            1
        ],
        "best_conformer_coordinates": [
            [
                3.7804408085482484,
                0.042715425589841455,
                0.44755522528405184
            ],
            [
                2.8195440127316416,
                -0.5748785155821255,
                -0.21732013507952797
            ],
            [
                1.4490197031878362,
                -0.3065559839599058,
                -0.1199943809972215
            ],
            [
                0.5274674192485335,
                -1.0368501311103677,
                -0.8831972686136599
            ],
            [
                0.817522435973722,
                -1.916027357794682,
                -1.6520734367437575
            ],
            [
                -0.802948106186441,
                -0.49468063284507485,
                -0.5324066001278982
            ],
            [
                -2.0611535531626517,
                -0.839649415527037,
                -0.9810721261457865
            ],
            [
                -3.144956928527725,
                -0.1395769752093606,
                -0.46019009657815924
            ],
            [
                -2.96570013491328,
                0.8678359684603614,
                0.47564033696239966
            ],
            [
                -1.6959127840411956,
                1.2145837157078712,
                0.9271654520258306
            ],
            [
                -0.6223865306274213,
                0.5198249817426931,
                0.4100172013806197
            ],
            [
                0.8293179864070528,
                0.6520402313436648,
                0.6858303218661211
            ],
            [
                1.379045468822067,
                1.4139066203594945,
                1.437928040964945
            ],
            [
                4.805361530451824,
                -0.24386061247213411,
                0.29659816346774376
            ],
            [
                3.5833475398095294,
                0.8343065007098519,
                1.1466984860949225
            ],
            [
                3.0117221165969723,
                -1.373045691816862,
                -0.9229734275907516
            ],
            [
                -2.191828391170412,
                -1.6246390568210731,
                -1.7093190551613946
            ],
            [
                -4.143044179699127,
                -0.3852606068539142,
                -0.7906529863335916
            ],
            [
                -3.826867915000965,
                1.3928153921219164,
                0.8610581257396328
            ],
            [
                -1.5479904931564703,
                1.9969961492486898,
                1.654915246090181
            ]
        ],
        "best_conformer_energy": -36.03188118675861,
        "fukui_radical": {
            "1": 0.041203911540131005,
            "2": 0.010852694703655831,
            "3": 0.05495329158087217,
            "4": 0.026766388476242797,
            "5": 0.12032492045516255,
            "6": 0.036582034327381344,
            "7": 0.02002139156060943,
            "8": 0.03411804624818779,
            "9": 0.03427665564469518,
            "10": 0.019500089826408027,
            "11": 0.03699615023180101,
            "12": 0.02836542558156145,
            "13": 0.1239501704049944,
            "14": 0.06870775319009702,
            "15": 0.045624559122398364,
            "16": 0.05182948036662193,
            "17": 0.05628723478453412,
            "18": 0.0681054365750608,
            "19": 0.06688432911717938,
            "20": 0.05465003626240453
        }
    }
}