{
    "file": "paper_226.json",
    "monomer1_s": "C=Cc1ccccc1",
    "monomer2_s": "C=C(C)C(=O)OC(C)C",
    "monomer1": "styrene",
    "monomer2": "isopropyl methacrylate",
    "r_values": {
        "constant_1": 0.47,
        "constant_2": 0.74
    },
    "conf_intervals": {
        "constant_conf_1": 0.06,
        "constant_conf_2": 0.05
    },
    "temperature": 60.0,
    "temperature_unit": "\u00b0C",
    "solvent": "c1ccccc1",
    "method": "solvent",
    "r-product": null,
    "source": "https://doi.org/10.1002/pol.1968.160060607",
    "calculation_method": "Fineman-Ross",
    "polymerization_type": "free radical",
    "logP": 1.6866,
    "monomer1_data": {
        "smiles": "C=Cc1ccccc1",
        "ip": 13.323305315341791,
        "ip_corrected": 8.477305315341791,
        "ea": 3.959877946938991,
        "homo": -0.3831985290395731,
        "lumo": -0.2501966690470822,
        "charges": {
            "1": -0.08578934436600626,
            "2": -0.030259830597504936,
            "3": 0.01460321229207634,
            "4": -0.032430750206366904,
            "5": -0.029945437580900583,
            "6": -0.030379977266510892,
            "7": -0.029893803249294533,
            "8": -0.033985609164289644,
            "9": 0.038721208943534896,
            "10": 0.036165150785770366,
            "11": 0.033044651543264955,
            "12": 0.03404524115950842,
            "13": 0.028965873902585763,
            "14": 0.02897855112451052,
            "15": 0.028735857233840652,
            "16": 0.029425005445779806
        },
        "dipole": [
            -0.00599695759505601,
            0.00019607223034193996,
            -0.0018463290012354543
        ],
        "global_electrophilicity": 0.7692971421446727,
        "global_nucleophilicity": -8.477305315341791,
        "fukui_electrophilicity": {
            "1": 0.07209309972414436,
            "2": 0.04352510810351072,
            "3": 0.06230438364782903,
            "4": 0.03213425829454332,
            "5": 0.026312904098299825,
            "6": 0.06792045239213465,
            "7": 0.02876303434297292,
            "8": 0.03213381752054322,
            "9": 0.08376002497375698,
            "10": 0.09874578293688194,
            "11": 0.08145474392689236,
            "12": 0.06271242240018035,
            "13": 0.07540055911977092,
            "14": 0.08585900759002232,
            "15": 0.07693189708388407,
            "16": 0.06994850384463236
        },
        "fukui_nucleophilicity": {
            "1": 0.07260243947817689,
            "2": 0.04230113696056051,
            "3": 0.06268064465096645,
            "4": 0.03400845310298767,
            "5": 0.03110749772289005,
            "6": 0.07019025477516763,
            "7": 0.03211552237109847,
            "8": 0.03545308497970195,
            "9": 0.07943182497266889,
            "10": 0.09534951030583766,
            "11": 0.07725609403564751,
            "12": 0.06257820938745395,
            "13": 0.07457311950887512,
            "14": 0.0843599501650384,
            "15": 0.07603725882191792,
            "16": 0.06995499876126071
        },
        "boltzmann_weights": [
            0.500000013411314,
            0.499999986588686
        ],
        "best_conformer_elements": [
            6,
            6,
            6,
            6,
            6,
            6,
            6,
            6,
            1,
            1,
            1,
            1,
            1,
            1,
            1,
            1
        ],
        "best_conformer_coordinates": [
            [
                -2.7996504883392213,
                0.5067268078443541,
                -0.3307757375296494
            ],
            [
                -1.8569195165461714,
                -0.42690007797501867,
                -0.28622356006066363
            ],
            [
                -0.41676751008175084,
                -0.2137695987077826,
                -0.201669273122216
            ],
            [
                0.42662331397264364,
                -1.3257786864929022,
                -0.16462382115517377
            ],
            [
                1.7979836205106778,
                -1.1786700332337077,
                -0.08467855669649194
            ],
            [
                2.3586778805752897,
                0.08669579947474147,
                -0.03984625155398522
            ],
            [
                1.535500161801921,
                1.2006125291369882,
                -0.07571377159817176
            ],
            [
                0.16438284527030772,
                1.054224105562994,
                -0.15563770481452763
            ],
            [
                -2.5807350472122574,
                1.5604467593574072,
                -0.30764549962305027
            ],
            [
                -3.84233837136736,
                0.2458441308630186,
                -0.39306838601271116
            ],
            [
                -2.1533557273489103,
                -1.4689784286781729,
                -0.3136745326715254
            ],
            [
                -0.004100778556855408,
                -2.317010607449955,
                -0.1992554256323922
            ],
            [
                2.432537807928637,
                -2.052797839845991,
                -0.05718467471006832
            ],
            [
                3.4304258000072263,
                0.20491108070838962,
                0.022664187100062603
            ],
            [
                1.9676045890247913,
                2.190467602677497,
                -0.04101419015886248
            ],
            [
                -0.4598685796390594,
                1.9339764620498727,
                -0.18248094282351895
            ]
        ],
        "best_conformer_energy": -21.158608850502983,
        "fukui_radical": {
            "1": 0.07234813599322018,
            "2": 0.04291309873393513,
            "3": 0.06249235896699714,
            "4": 0.03379355109266154,
            "5": 0.03043928194186729,
            "6": 0.06905534188080434,
            "7": 0.028710059427083993,
            "8": 0.03307125813746206,
            "9": 0.08159578301382218,
            "10": 0.09704772989059883,
            "11": 0.07935561247948747,
            "12": 0.06995185022654472,
            "13": 0.0764846271348809,
            "14": 0.0851094403734144,
            "15": 0.07498679088705272,
            "16": 0.06264507982020588
        }
    },
    "monomer2_data": {
        "smiles": "C=C(C)C(=O)OC(C)C",
        "ip": 13.835076625851743,
        "ip_corrected": 8.989076625851743,
        "ea": 3.892699018333244,
        "homo": -0.40566747888057336,
        "lumo": -0.2649295567466246,
        "charges": {
            "1": -0.0825222476509116,
            "2": -0.00826531319215354,
            "3": -0.10943092357532767,
            "4": 0.3517519059267135,
            "5": -0.42096698930638565,
            "6": -0.2729810933320387,
            "7": 0.12110688725485669,
            "8": -0.11698061320880415,
            "9": -0.11464614593373162,
            "10": 0.05344271305161239,
            "11": 0.06186756015339328,
            "12": 0.06424977614026654,
            "13": 0.048965964958339464,
            "14": 0.06445711776968814,
            "15": 0.04907450293086713,
            "16": 0.050082378651420824,
            "17": 0.05577175920002366,
            "18": 0.052140311939585196,
            "19": 0.04762839381956521,
            "20": 0.0560034028171266,
            "21": 0.04925065158589183
        },
        "dipole": [
            0.06907976795449468,
            -0.6004943018696018,
            0.6097118186557376
        ],
        "global_electrophilicity": 0.8118491968516358,
        "global_nucleophilicity": -8.989076625851743,
        "fukui_electrophilicity": {
            "1": 0.09096020951351352,
            "2": 0.0813852662337011,
            "3": -0.03806016397936733,
            "4": 0.08252728658556502,
            "5": 0.19004014257289004,
            "6": 0.07283830113707729,
            "7": -0.009684620670210697,
            "8": -0.013881860469339508,
            "9": -0.015017761624432802,
            "10": 0.11784767140479385,
            "11": 0.10326944484278316,
            "12": 0.06125292113116363,
            "13": 0.05909662957913554,
            "14": 0.061194903899472436,
            "15": 0.020548725951206347,
            "16": 0.03611388875646532,
            "17": 0.019978327005473556,
            "18": 0.015049692555890802,
            "19": 0.04012486713211882,
            "20": 0.00303809956765852,
            "21": 0.021378028874449943
        },
        "fukui_nucleophilicity": {
            "1": 0.041016743321034596,
            "2": 0.049981266196607185,
            "3": -0.018848562148537543,
            "4": 0.01214993320900326,
            "5": 0.13139198313218747,
            "6": 0.06522894165635529,
            "7": 0.003929633511089908,
            "8": -0.013494356296342602,
            "9": -0.008437599808007262,
            "10": 0.08545153412665871,
            "11": 0.0642232521107503,
            "12": 0.07591358947684294,
            "13": 0.06259976781700372,
            "14": 0.07493827937424911,
            "15": 0.06353252800855999,
            "16": 0.057907368058962135,
            "17": 0.06487070132616682,
            "18": 0.05380319339347188,
            "19": 0.051112608919937214,
            "20": 0.036137332144913194,
            "21": 0.046591862469122086
        },
        "fukui_radical": {
            "1": 0.06598847641727407,
            "2": 0.06568326621515413,
            "3": -0.028454363063952437,
            "4": 0.04733860989728414,
            "5": 0.16071606285253875,
            "6": 0.06903362139671629,
            "7": -0.0028774935795603945,
            "8": -0.013688108382841055,
            "9": -0.011727680716220032,
            "10": 0.10164960276572627,
            "11": 0.08374634847676674,
            "12": 0.06858325530400329,
            "13": 0.06084819869806963,
            "14": 0.06806659163686077,
            "15": 0.042040626979883165,
            "16": 0.04701062840771373,
            "17": 0.04242451416582019,
            "18": 0.03442644297468134,
            "19": 0.04561873802602801,
            "20": 0.019587715856285857,
            "21": 0.03398494567178602
        },
        "best_conformer_coordinates": [
            [
                -2.29018616166134,
                -1.0052117961897367,
                0.626612169604221
            ],
            [
                -2.006347513290901,
                -0.043737621990878335,
                -0.24487046816316602
            ],
            [
                -3.03628824625564,
                0.7300547989704235,
                -1.0038822227935063
            ],
            [
                -0.5998057982159599,
                0.3507356411703943,
                -0.540965372719672
            ],
            [
                -0.3016043492479775,
                1.2207978852811394,
                -1.324602424665442
            ],
            [
                0.29350200699900486,
                -0.3664465008297452,
                0.14646701415339256
            ],
            [
                1.6823172426981794,
                -0.06971615764983903,
                -0.06696346470567356
            ],
            [
                2.4624187872890118,
                -1.3361619093552783,
                0.25488748541986833
            ],
            [
                2.099902204936043,
                1.104346958404161,
                0.8125921541008944
            ],
            [
                -3.308162046112805,
                -1.2872089903517487,
                0.8388298313785406
            ],
            [
                -1.5159849873114695,
                -1.536675374906919,
                1.1509878581058706
            ],
            [
                -2.936845986157764,
                1.7915167735377804,
                -0.7831451623947481
            ],
            [
                -4.038583144836886,
                0.39849833144375246,
                -0.7488559305343031
            ],
            [
                -2.8739149663581665,
                0.609167325210863,
                -2.0735948008366902
            ],
            [
                1.8091549499632555,
                0.20415249966392907,
                -1.1228513966099218
            ],
            [
                3.5205659622538183,
                -1.1731216498984205,
                0.07247441248905685
            ],
            [
                2.3179699459538248,
                -1.6045362337259232,
                1.2982981772289177
            ],
            [
                2.1183963830302,
                -2.158732514155226,
                -0.366691551382734
            ],
            [
                3.1549251953003954,
                1.317634976447589,
                0.6665768169688332
            ],
            [
                1.5238876379236088,
                1.988093183864729,
                0.5492086204511393
            ],
            [
                1.9246828778098237,
                0.8665503750589286,
                1.8594882601969327
            ]
        ],
        "best_conformer_elements": [
            6,
            6,
            6,
            6,
            8,
            8,
            6,
            6,
            6,
            1,
            1,
            1,
            1,
            1,
            1,
            1,
            1,
            1,
            1,
            1,
            1
        ],
        "best_conformer_energy": -29.231646471921763
    }
}