{
    "file": "paper_193.json",
    "monomer1_s": "C=C(C)C(=O)OC",
    "monomer2_s": "C=C(C)C(=O)Oc1ccccc1",
    "monomer1": "Methyl Methacrylate",
    "monomer2": "Phenyl Methacrylate",
    "r_values": {
        "constant_1": 0.66,
        "constant_2": 1.55
    },
    "conf_intervals": {
        "constant_conf_1": 0.03,
        "constant_conf_2": 0.14
    },
    "temperature": 60.0,
    "temperature_unit": "\u00b0C",
    "solvent": "C1CCOC1",
    "method": "solvent",
    "r-product": null,
    "source": "https://doi.org/10.1002/pol.1979.170171215",
    "calculation_method": "Fineman-Ross",
    "polymerization_type": "Radical",
    "logP": 0.7968,
    "monomer1_data": {
        "smiles": "C=C(C)C(=O)OC",
        "ip": 14.236483972656346,
        "ip_corrected": 9.390483972656346,
        "ea": 3.965500029838621,
        "homo": -0.41127032387995544,
        "lumo": -0.26950129410851986,
        "charges": {
            "1": -0.08192644204948094,
            "2": -0.007758938742676788,
            "3": -0.11040535221003818,
            "4": 0.34920872447012063,
            "5": -0.4109728775483542,
            "6": -0.2641504660609933,
            "7": 0.035165391019299455,
            "8": 0.05595603293225091,
            "9": 0.06272990863841402,
            "10": 0.0654729267794723,
            "11": 0.06547300436630195,
            "12": 0.05055145378886996,
            "13": 0.06218368236208788,
            "14": 0.06218369754524128,
            "15": 0.06628925470948674
        },
        "dipole": [
            0.042189455222522244,
            -0.7608520055498939,
            0.06845067776298096
        ],
        "global_electrophilicity": 0.8813642895109609,
        "global_nucleophilicity": -9.390483972656346,
        "fukui_electrophilicity": {
            "1": 0.0916099776458229,
            "2": 0.08194480124254042,
            "3": -0.03870700638664119,
            "4": 0.08164153093062626,
            "5": 0.19459726093903607,
            "6": 0.07836988169535863,
            "7": -0.03498260375536273,
            "8": 0.11948701878867324,
            "9": 0.10428214255764144,
            "10": 0.06198656850236382,
            "11": 0.06198649192249827,
            "12": 0.06017707177149582,
            "13": 0.04047835404033179,
            "14": 0.04047833993174442,
            "15": 0.05665017017387712
        },
        "fukui_nucleophilicity": {
            "1": 0.05119712917593304,
            "2": 0.06180413311607634,
            "3": -0.01940489925170101,
            "4": 0.013324588985722141,
            "5": 0.15569776430206916,
            "6": 0.09388640424022587,
            "7": -0.026619602504503993,
            "8": 0.1033747366245307,
            "9": 0.08566644804667564,
            "10": 0.09644914037738059,
            "11": 0.09644892416456753,
            "12": 0.07537139198169276,
            "13": 0.07058385012774213,
            "14": 0.07058380855498125,
            "15": 0.07163618205861905
        },
        "fukui_radical": {
            "1": 0.07140355341087798,
            "2": 0.07187446717930837,
            "3": -0.029055952819171102,
            "4": 0.0474830599581742,
            "5": 0.17514751262055261,
            "6": 0.08612814296779225,
            "7": -0.030801103129933362,
            "8": 0.11143087770660196,
            "9": 0.09497429530215853,
            "10": 0.0792178544398722,
            "11": 0.0792177080435329,
            "12": 0.06777423187659429,
            "13": 0.05553110208403696,
            "14": 0.05553107424336284,
            "15": 0.06414317611624809
        },
        "best_conformer_coordinates": [
            [
                -1.0679874721335532,
                -1.591695393005097,
                0.1190505870012582
            ],
            [
                -0.9789696677262058,
                -0.2700634531963184,
                0.015569141935180716
            ],
            [
                -2.152414502903391,
                0.6374624311751305,
                -0.17280008390949914
            ],
            [
                0.33254570919277476,
                0.4296358416853463,
                0.08092895025997722
            ],
            [
                0.4667403029430531,
                1.6257720313950312,
                -0.007628838348907176
            ],
            [
                1.368254296471444,
                -0.40841920824982436,
                0.25032440426561303
            ],
            [
                2.6475724912740755,
                0.20137513824591807,
                0.3202395569867531
            ],
            [
                -2.019589027601903,
                -2.0945475365498094,
                0.07121808444667849
            ],
            [
                -0.1962306925063066,
                -2.2069421172817725,
                0.25399723219802745
            ],
            [
                -2.0338701146835967,
                1.2076321838811321,
                -1.092623302807032
            ],
            [
                -2.1989630647919824,
                1.3547927910841435,
                0.6448131655597281
            ],
            [
                -3.078828528124943,
                0.07221525271252598,
                -0.21295259783201617
            ],
            [
                2.690936133782629,
                0.8988648503855212,
                1.159567291618923
            ],
            [
                2.858178339796767,
                0.7497948862504704,
                -0.6004798925286432
            ],
            [
                3.3626258023029116,
                -0.6058776985323392,
                0.4565564987903857
            ]
        ],
        "best_conformer_elements": [
            6,
            6,
            6,
            6,
            8,
            8,
            6,
            1,
            1,
            1,
            1,
            1,
            1,
            1,
            1
        ],
        "best_conformer_energy": -22.894683429971266
    },
    "monomer2_data": {
        "smiles": "C=C(C)C(=O)OC1CCCCC1",
        "ip": 13.326024926602434,
        "ip_corrected": 8.480024926602434,
        "ea": 3.908488933491943,
        "homo": -0.40384542985974275,
        "lumo": -0.2642897063585697,
        "charges": {
            "1": -0.08264731442692519,
            "2": -0.008266358842052415,
            "3": -0.10944195389155448,
            "4": 0.3516934840009514,
            "5": -0.4204451493555347,
            "6": -0.27530760317971437,
            "7": 0.11646748910903404,
            "8": -0.06277688357480449,
            "9": -0.059450224940187354,
            "10": -0.060589716571520305,
            "11": -0.05932725393537801,
            "12": -0.06498093030261888,
            "13": 0.06128889810998125,
            "14": 0.053602429550000705,
            "15": 0.0490459313571186,
            "16": 0.06463906228941198,
            "17": 0.06431409898064844,
            "18": 0.04736521773577731,
            "19": 0.04136183375329794,
            "20": 0.04501350566428077,
            "21": 0.03688139515015195,
            "22": 0.037974853103920174,
            "23": 0.03447339631998711,
            "24": 0.03704495786489334,
            "25": 0.036857304622443104,
            "26": 0.03635960714813458,
            "27": 0.0482554493157256,
            "28": 0.04059447494452318
        },
        "dipole": [
            -0.3229210458186702,
            0.5598813215749395,
            -0.5593380049696093
        ],
        "global_electrophilicity": 0.7551008481854221,
        "global_nucleophilicity": -8.480024926602434,
        "fukui_electrophilicity": {
            "1": 0.09070968682425193,
            "2": 0.08080691309207548,
            "3": -0.03756598944094258,
            "4": 0.0830310150801104,
            "5": 0.18913191254474093,
            "6": 0.07085997195337829,
            "7": -0.010972417524764966,
            "8": -0.0028029466646394344,
            "9": -0.004565465295647643,
            "10": -0.008209620422703734,
            "11": -0.0055636403285276165,
            "12": -0.0028352719023946177,
            "13": 0.10275093353111628,
            "14": 0.11676823296318917,
            "15": 0.05845555276615956,
            "16": 0.06061829595474224,
            "17": 0.060707098830826506,
            "18": 0.017977756441991292,
            "19": 0.014531758184252692,
            "20": -0.0031417668512507546,
            "21": 0.022943261954931862,
            "22": 0.011791299209916877,
            "23": 0.02366471085901806,
            "24": 0.011947738321293307,
            "25": 0.023539061791045555,
            "26": 0.012161355120548868,
            "27": 0.013559545414384942,
            "28": 0.00970101759290316
        },
        "fukui_nucleophilicity": {
            "1": 0.030612191770785474,
            "2": 0.03688764392848412,
            "3": -0.015938142933243804,
            "4": 0.00861068506560514,
            "5": 0.09421635175921489,
            "6": 0.04863835160227781,
            "7": 0.007150274672562351,
            "8": -0.0011696113044262074,
            "9": -0.0014450605375319545,
            "10": 0.00042685406899986567,
            "11": -0.002004765971953905,
            "12": -0.0015945787087966734,
            "13": 0.04590393896487482,
            "14": 0.06614006806517647,
            "15": 0.04769138354587116,
            "16": 0.055240768341650426,
            "17": 0.054135212356980225,
            "18": 0.03377102562622348,
            "19": 0.03557886369481238,
            "20": 0.05337454496735592,
            "21": 0.07458720754922651,
            "22": 0.037931049838397644,
            "23": 0.04955297642414645,
            "24": 0.03631274468309184,
            "25": 0.0758465414864092,
            "26": 0.035596771250820995,
            "27": 0.03715363991733433,
            "28": 0.05679306989045186
        },
        "boltzmann_weights": [
            0.21976846525252453,
            0.08927046806257365,
            0.48122666074743276,
            0.06363721933547253,
            0.14509394425307964,
            3.998817856605584e-05,
            3.998900967220802e-05,
            4.0365218590667435e-05,
            8.13273719401328e-05,
            7.273864996460986e-05,
            3.9425006048320213e-05,
            9.333579268410838e-05,
            5.475897059897195e-05,
            5.475897041312089e-05,
            5.4759042515952315e-05,
            0.00014270805101095413,
            0.0001427080309217589,
            0.0001236809413456575,
            6.796295460610792e-06,
            1.5902819183470628e-05
        ],
        "best_conformer_elements": [
            6,
            6,
            6,
            6,
            8,
            8,
            6,
            6,
            6,
            6,
            6,
            6,
            1,
            1,
            1,
            1,
            1,
            1,
            1,
            1,
            1,
            1,
            1,
            1,
            1,
            1,
            1,
            1
        ],
        "best_conformer_coordinates": [
            [
                -3.285004823480157,
                -1.3048695187537025,
                0.7259238342575303
            ],
            [
                -3.1523887014342935,
                -0.1320484311499314,
                0.11656943243741308
            ],
            [
                -4.298102849814015,
                0.6787883483087921,
                -0.3987835071497722
            ],
            [
                -1.8136472898693163,
                0.4838595171752613,
                -0.10745620553118351
            ],
            [
                -1.6530488235833727,
                1.5500331305330317,
                -0.6529243315160969
            ],
            [
                -0.8138286696631015,
                -0.2653445393457147,
                0.366565271480009
            ],
            [
                0.5183644802092023,
                0.23940382938047716,
                0.20415180845359673
            ],
            [
                1.3816112433631027,
                -0.36822121692651333,
                1.3041738794897626
            ],
            [
                2.825521662060866,
                0.10296165002939008,
                1.1599582753955762
            ],
            [
                3.3741710396748776,
                -0.265129057957592,
                -0.2153797957259655
            ],
            [
                2.5062435036180264,
                0.34205755170000246,
                -1.3135080000920163
            ],
            [
                1.0612192423268454,
                -0.12660893330798287,
                -1.1766356462022107
            ],
            [
                -2.431369120243922,
                -1.8540074940192155,
                1.0816540943547672
            ],
            [
                -4.254182783725962,
                -1.747481741151294,
                0.8860732049436846
            ],
            [
                -5.244540698213235,
                0.18195036287971897,
                -0.20639504252941332
            ],
            [
                -4.29844902129528,
                1.65889555872084,
                0.07513356874066757
            ],
            [
                -4.1831054569092485,
                0.8410073054745898,
                -1.469169735138755
            ],
            [
                0.48360234177699596,
                1.3326385987305076,
                0.30159738651788914
            ],
            [
                0.9813100680350575,
                -0.08514624506998335,
                2.2792441588391625
            ],
            [
                1.3330813602280758,
                -1.4558122084533387,
                1.2224808328715324
            ],
            [
                2.8666355358322253,
                1.1869014618852172,
                1.288097566899843
            ],
            [
                3.437569355920464,
                -0.3508906801161452,
                1.941465482691552
            ],
            [
                4.400779116130201,
                0.0928143618913024,
                -0.3131326735170656
            ],
            [
                3.386344445157246,
                -1.3521410946379053,
                -0.3216274654259985
            ],
            [
                2.890456339873793,
                0.05820853741963319,
                -2.2948331299308067
            ],
            [
                2.539249177165197,
                1.4313461038899349,
                -1.2423836939026869
            ],
            [
                1.00449089512221,
                -1.210908144982259,
                -1.2986971123148232
            ],
            [
                0.4370184423208688,
                0.3377430037282417,
                -1.9421624583960324
            ]
        ],
        "best_conformer_energy": -37.71846228822703,
        "fukui_radical": {
            "1": 0.06063478755025816,
            "2": 0.058839700018399645,
            "3": -0.026749649992758764,
            "4": 0.0458366469872675,
            "5": 0.14174472761331708,
            "6": 0.05975623357876661,
            "7": -0.0019368151981186965,
            "8": -0.0022062293997225854,
            "9": -0.003794835799519499,
            "10": -0.0038848716751901866,
            "11": -0.002993633869618789,
            "12": -0.0020019827640721174,
            "13": 0.07434233478384558,
            "14": 0.09147454995161183,
            "15": 0.05307640438296574,
            "16": 0.057923058765478715,
            "17": 0.05736725199062271,
            "18": 0.02591799736449447,
            "19": 0.03321403728474426,
            "20": 0.025338702029454898,
            "21": 0.023896640296281527,
            "22": 0.04970802100000662,
            "23": 0.03661475823777056,
            "24": 0.024128202769143056,
            "25": 0.048706729200891696,
            "26": 0.02485770888068387,
            "27": 0.025064143113199294,
            "28": 0.025125382906921446
        }
    }
}