{
    "file": "paper_494.json",
    "monomer1_s": "C=COC(=O)c1ccccc1",
    "monomer2_s": "C=Cc1ccccc1",
    "monomer1": "Vinyl benzoate",
    "monomer2": "Styrene",
    "r_values": {
        "constant_1": 0.02,
        "constant_2": 0.94
    },
    "conf_intervals": {
        "constant_conf_1": null,
        "constant_conf_2": null
    },
    "temperature": 79.6,
    "temperature_unit": "\u00b0C",
    "solvent": "c1ccccc1",
    "method": "solvent",
    "r-product": null,
    "source": "Journal of Polymer Science Vol. XXXV, Issue No. 128 (1959)",
    "calculation_method": "graphical",
    "polymerization_type": "free radical",
    "logP": 1.6866,
    "monomer1_data": {
        "smiles": "C=COC(=O)c1ccccc1",
        "ip": 13.730295505194135,
        "ip_corrected": 8.884295505194135,
        "ea": 4.989289078453196,
        "homo": -0.41041254450923526,
        "lumo": -0.2810092596369369,
        "charges": {
            "1": -0.11195259333092822,
            "2": 0.10499303956092551,
            "3": -0.23781109457997512,
            "4": 0.3492614030791834,
            "5": -0.40609687152334584,
            "6": -0.019204517317467223,
            "7": -0.01853540144477349,
            "8": -0.024950065691742095,
            "9": -0.020505638730641783,
            "10": -0.025824047805996272,
            "11": -0.021481768690893473,
            "12": 0.060234837874699736,
            "13": 0.06469198121125037,
            "14": 0.06301936172100464,
            "15": 0.0623653398112932,
            "16": 0.04366159031883255,
            "17": 0.042142845339705214,
            "18": 0.0416148645579662,
            "19": 0.05437673564088055
        },
        "dipole": [
            -0.48722747064871347,
            0.8142708069619566,
            0.3639742790863358
        ],
        "global_electrophilicity": 1.165444793141701,
        "global_nucleophilicity": -8.884295505194135,
        "fukui_electrophilicity": {
            "1": 0.04475652451180884,
            "2": 0.01030889417267622,
            "3": 0.0507280501258065,
            "4": 0.058865225429297674,
            "5": 0.14267126243950023,
            "6": 0.045146804411626704,
            "7": 0.030654009183503195,
            "8": 0.024619614873291208,
            "9": 0.057044155990066465,
            "10": 0.023358148954122276,
            "11": 0.032767834282275525,
            "12": 0.06403651646027518,
            "13": 0.05244759595440111,
            "14": 0.038668498063908666,
            "15": 0.0561287216694492,
            "16": 0.06795170523453936,
            "17": 0.0760010230577908,
            "18": 0.06720050313670814,
            "19": 0.056644912058419844
        },
        "fukui_nucleophilicity": {
            "1": 0.06011731222544886,
            "2": 0.034720434998862876,
            "3": 0.07517828659878217,
            "4": 0.009159569139682189,
            "5": 0.10731013663519617,
            "6": 0.03666659142212644,
            "7": 0.029541764192623693,
            "8": 0.03521041356626783,
            "9": 0.03421503413883526,
            "10": 0.03391478178108025,
            "11": 0.02899740574663629,
            "12": 0.07995268018782622,
            "13": 0.06865765810602299,
            "14": 0.05762965091499146,
            "15": 0.05169093436479374,
            "16": 0.06982441410837464,
            "17": 0.07283946500971047,
            "18": 0.06365809891565369,
            "19": 0.05071536808069005
        },
        "boltzmann_weights": [
            0.45983840962997485,
            0.45980469411029373,
            0.040178997546732535,
            0.04017789871299884
        ],
        "best_conformer_energy": -31.446553005549095,
        "best_conformer_coordinates": [
            [
                3.961081159092573,
                0.9584125602784959,
                0.08873524332457958
            ],
            [
                3.0779500400320208,
                0.027130612352516927,
                -0.21964968642159197
            ],
            [
                1.7342946218592918,
                0.23485978135836455,
                -0.03545754854325293
            ],
            [
                0.8793534292384785,
                -0.7580249780855443,
                -0.3707272616890158
            ],
            [
                1.2365747447785234,
                -1.8173152548418656,
                -0.8235030001446688
            ],
            [
                -0.5300516427402115,
                -0.38682748659020705,
                -0.11586719859629956
            ],
            [
                -1.5189059940359946,
                -1.3216566177312863,
                -0.41775180153391595
            ],
            [
                -2.848545296469718,
                -1.0196958745455835,
                -0.19671159258682702
            ],
            [
                -3.1993695802778377,
                0.21522793386514932,
                0.3262146387325984
            ],
            [
                -2.2191711773136205,
                1.1479217507658892,
                0.6278887742963742
            ],
            [
                -0.8864789586699825,
                0.8531238212993968,
                0.4095005928946561
            ],
            [
                5.010013042026046,
                0.7867202116924883,
                -0.058887164437839784
            ],
            [
                3.6588376153842432,
                1.907992455644011,
                0.49327162892871323
            ],
            [
                3.3336209573223727,
                -0.942554417341716,
                -0.6287832047188731
            ],
            [
                -1.2205125964419867,
                -2.2762394851156182,
                -0.8240065089175469
            ],
            [
                -3.6132758025176672,
                -1.7449925590221527,
                -0.4311177183773845
            ],
            [
                -4.238908566206267,
                0.45193124795134215,
                0.49927921534761993
            ],
            [
                -2.4968454464578254,
                2.1088314806725137,
                1.0351357040910818
            ],
            [
                -0.11966055389418566,
                1.5751548173938426,
                0.6424368777680353
            ]
        ],
        "best_conformer_elements": [
            6,
            6,
            8,
            6,
            8,
            6,
            6,
            6,
            6,
            6,
            6,
            1,
            1,
            1,
            1,
            1,
            1,
            1,
            1
        ],
        "fukui_radical": {
            "1": 0.05243691836862567,
            "2": 0.022514664585765773,
            "3": 0.0629531683622942,
            "4": 0.03401239728449082,
            "5": 0.12499069953735256,
            "6": 0.040906697916876185,
            "7": 0.030097886688062993,
            "8": 0.029915014219779885,
            "9": 0.045629595064450384,
            "10": 0.028636465367601407,
            "11": 0.030882620014455332,
            "12": 0.07199459832405221,
            "13": 0.06055262703021368,
            "14": 0.04814907448945131,
            "15": 0.053909828017121665,
            "16": 0.06888805967145918,
            "17": 0.07442024403375325,
            "18": 0.0654293010261818,
            "19": 0.05368014006955643
        }
    },
    "monomer2_data": {
        "smiles": "C=Cc1ccccc1",
        "ip": 13.323305315341791,
        "ip_corrected": 8.477305315341791,
        "ea": 3.959877946938991,
        "homo": -0.3831985290395731,
        "lumo": -0.2501966690470822,
        "charges": {
            "1": -0.08578934436600626,
            "2": -0.030259830597504936,
            "3": 0.01460321229207634,
            "4": -0.032430750206366904,
            "5": -0.029945437580900583,
            "6": -0.030379977266510892,
            "7": -0.029893803249294533,
            "8": -0.033985609164289644,
            "9": 0.038721208943534896,
            "10": 0.036165150785770366,
            "11": 0.033044651543264955,
            "12": 0.03404524115950842,
            "13": 0.028965873902585763,
            "14": 0.02897855112451052,
            "15": 0.028735857233840652,
            "16": 0.029425005445779806
        },
        "dipole": [
            -0.00599695759505601,
            0.00019607223034193996,
            -0.0018463290012354543
        ],
        "global_electrophilicity": 0.7692971421446727,
        "global_nucleophilicity": -8.477305315341791,
        "fukui_electrophilicity": {
            "1": 0.07209309972414436,
            "2": 0.04352510810351072,
            "3": 0.06230438364782903,
            "4": 0.03213425829454332,
            "5": 0.026312904098299825,
            "6": 0.06792045239213465,
            "7": 0.02876303434297292,
            "8": 0.03213381752054322,
            "9": 0.08376002497375698,
            "10": 0.09874578293688194,
            "11": 0.08145474392689236,
            "12": 0.06271242240018035,
            "13": 0.07540055911977092,
            "14": 0.08585900759002232,
            "15": 0.07693189708388407,
            "16": 0.06994850384463236
        },
        "fukui_nucleophilicity": {
            "1": 0.07260243947817689,
            "2": 0.04230113696056051,
            "3": 0.06268064465096645,
            "4": 0.03400845310298767,
            "5": 0.03110749772289005,
            "6": 0.07019025477516763,
            "7": 0.03211552237109847,
            "8": 0.03545308497970195,
            "9": 0.07943182497266889,
            "10": 0.09534951030583766,
            "11": 0.07725609403564751,
            "12": 0.06257820938745395,
            "13": 0.07457311950887512,
            "14": 0.0843599501650384,
            "15": 0.07603725882191792,
            "16": 0.06995499876126071
        },
        "boltzmann_weights": [
            0.500000013411314,
            0.499999986588686
        ],
        "best_conformer_elements": [
            6,
            6,
            6,
            6,
            6,
            6,
            6,
            6,
            1,
            1,
            1,
            1,
            1,
            1,
            1,
            1
        ],
        "best_conformer_coordinates": [
            [
                -2.7996504883392213,
                0.5067268078443541,
                -0.3307757375296494
            ],
            [
                -1.8569195165461714,
                -0.42690007797501867,
                -0.28622356006066363
            ],
            [
                -0.41676751008175084,
                -0.2137695987077826,
                -0.201669273122216
            ],
            [
                0.42662331397264364,
                -1.3257786864929022,
                -0.16462382115517377
            ],
            [
                1.7979836205106778,
                -1.1786700332337077,
                -0.08467855669649194
            ],
            [
                2.3586778805752897,
                0.08669579947474147,
                -0.03984625155398522
            ],
            [
                1.535500161801921,
                1.2006125291369882,
                -0.07571377159817176
            ],
            [
                0.16438284527030772,
                1.054224105562994,
                -0.15563770481452763
            ],
            [
                -2.5807350472122574,
                1.5604467593574072,
                -0.30764549962305027
            ],
            [
                -3.84233837136736,
                0.2458441308630186,
                -0.39306838601271116
            ],
            [
                -2.1533557273489103,
                -1.4689784286781729,
                -0.3136745326715254
            ],
            [
                -0.004100778556855408,
                -2.317010607449955,
                -0.1992554256323922
            ],
            [
                2.432537807928637,
                -2.052797839845991,
                -0.05718467471006832
            ],
            [
                3.4304258000072263,
                0.20491108070838962,
                0.022664187100062603
            ],
            [
                1.9676045890247913,
                2.190467602677497,
                -0.04101419015886248
            ],
            [
                -0.4598685796390594,
                1.9339764620498727,
                -0.18248094282351895
            ]
        ],
        "best_conformer_energy": -21.158608850502983,
        "fukui_radical": {
            "1": 0.07234813599322018,
            "2": 0.04291309873393513,
            "3": 0.06249235896699714,
            "4": 0.03379355109266154,
            "5": 0.03043928194186729,
            "6": 0.06905534188080434,
            "7": 0.028710059427083993,
            "8": 0.03307125813746206,
            "9": 0.08159578301382218,
            "10": 0.09704772989059883,
            "11": 0.07935561247948747,
            "12": 0.06995185022654472,
            "13": 0.0764846271348809,
            "14": 0.0851094403734144,
            "15": 0.07498679088705272,
            "16": 0.06264507982020588
        }
    }
}