{
    "file": "paper_189.json",
    "monomer1_s": "C=CC#N",
    "monomer2_s": "C=CC(=O)NC(C)(C)C",
    "monomer1": "Acrylonitrile",
    "monomer2": "N-tert-butyl Acrylamide",
    "r_values": {
        "constant_1": 1.14,
        "constant_2": 0.2
    },
    "conf_intervals": {
        "constant_conf_1": 0.02,
        "constant_conf_2": 0.02
    },
    "temperature": 60.0,
    "temperature_unit": "\u00b0C",
    "solvent": "CS(C)=O",
    "method": "solvent",
    "r-product": null,
    "source": "https://doi.org/10.1007/BF00255250",
    "calculation_method": "Fineman-Ross plot",
    "polymerization_type": "free radical",
    "logP": -0.005299999999999971,
    "monomer1_data": {
        "smiles": "C=CC#N",
        "ip": 15.437176806318503,
        "ip_corrected": 10.591176806318503,
        "ea": 3.8289813808508004,
        "homo": -0.4277683293695803,
        "lumo": -0.28211163098961317,
        "charges": {
            "1": -0.05961169012740816,
            "2": -0.01732687045759991,
            "3": 0.1182224067521214,
            "4": -0.22501464611972768,
            "5": 0.060876740653373736,
            "6": 0.056910808147125444,
            "7": 0.06594325115211837
        },
        "dipole": [
            -1.3682395954382502,
            0.4193750676404717,
            0.3073979410978311
        ],
        "global_electrophilicity": 0.9870666976349574,
        "global_nucleophilicity": -10.591176806318503,
        "fukui_electrophilicity": {
            "1": 0.11689097730490014,
            "2": 0.09589168721827514,
            "3": 0.0833043050370818,
            "4": 0.27942089987505603,
            "5": 0.1382479191580376,
            "6": 0.1483932400282401,
            "7": 0.1378509713784164
        },
        "fukui_nucleophilicity": {
            "1": 0.046376077246505845,
            "2": 0.06110797532385699,
            "3": 0.06382105585034101,
            "4": 0.3348673323308884,
            "5": 0.1560141376419441,
            "6": 0.1714270905761467,
            "7": 0.16638633108003964
        },
        "boltzmann_weights": [
            1.0
        ],
        "best_conformer_elements": [
            6,
            6,
            6,
            7,
            1,
            1,
            1
        ],
        "best_conformer_coordinates": [
            [
                -0.9016384047148559,
                -0.45919578416436035,
                -0.030680752421494126
            ],
            [
                -0.03133887486045679,
                0.4750179204570864,
                0.33412550579689987
            ],
            [
                1.3413190298728732,
                0.20293977262825588,
                0.5154865184659979
            ],
            [
                2.457902722380965,
                -0.00894504881153441,
                0.6651431422029201
            ],
            [
                -1.946002725249464,
                -0.2338337288304437,
                -0.16452309959900452
            ],
            [
                -0.5958059974068218,
                -1.4775501660291765,
                -0.20646164096824965
            ],
            [
                -0.32443575002222486,
                1.5015670294584123,
                0.5140087192113937
            ]
        ],
        "best_conformer_energy": -10.79113366694523,
        "fukui_radical": {
            "1": 0.08164051438776673,
            "2": 0.07850509074248685,
            "3": 0.07355981073640835,
            "4": 0.30714514424221057,
            "5": 0.15989706723025732,
            "6": 0.14713580820257063,
            "7": 0.152116564483423
        }
    },
    "monomer2_data": {
        "smiles": "C=CC(=O)NC(C)(C)C",
        "ip": 13.363854865187465,
        "ip_corrected": 8.517854865187465,
        "ea": 3.4987974026038398,
        "homo": -0.38074188372516266,
        "lumo": -0.252753412228968,
        "charges": {
            "1": -0.0629668589182612,
            "2": -0.06258343541569511,
            "3": 0.2756519374783059,
            "4": -0.44268217043158276,
            "5": -0.18977232380667602,
            "6": 0.09538153619881932,
            "7": -0.11820090029876426,
            "8": -0.11851500406399092,
            "9": -0.11851501086074434,
            "10": 0.04800499879294904,
            "11": 0.07456638276768812,
            "12": 0.031466589867447124,
            "13": 0.1632332148164056,
            "14": 0.05001243859473506,
            "15": 0.03909371878201123,
            "16": 0.0390937318182127,
            "17": 0.04201248100341422,
            "18": 0.07034618037811252,
            "19": 0.03600695049685263,
            "20": 0.04201247006489499,
            "21": 0.036006927584148855,
            "22": 0.0703461451517203
        },
        "dipole": [
            -0.345661024712611,
            -0.5893326760457931,
            1.3928183033683341
        ],
        "global_electrophilicity": 0.6515199498406458,
        "global_nucleophilicity": -8.517854865187465,
        "fukui_electrophilicity": {
            "1": 0.09864832983873295,
            "2": 0.06792602377570042,
            "3": 0.07226155854634689,
            "4": 0.16216656961281728,
            "5": 0.06668378622897381,
            "6": -0.005555922055249199,
            "7": -0.01708905978558893,
            "8": -0.01479748896845938,
            "9": -0.014797508113917265,
            "10": 0.12714841050889714,
            "11": 0.11102187081548504,
            "12": 0.11150120142251557,
            "13": 0.05320593754871561,
            "14": 0.03417022639084516,
            "15": 0.017721421518677102,
            "16": 0.017721415926792133,
            "17": 0.039273537180044144,
            "18": -0.0010162628527414647,
            "19": 0.017774354665190825,
            "20": 0.039273522206528334,
            "21": 0.017774346975118527,
            "22": -0.0010162713854101751
        },
        "fukui_nucleophilicity": {
            "1": 0.025039820544779934,
            "2": 0.02375688814479114,
            "3": 0.022430428332161134,
            "4": 0.178329326840572,
            "5": 0.06092692444163844,
            "6": 0.01040906263259174,
            "7": -0.009679632250403775,
            "8": -0.011066875786224131,
            "9": -0.011066852803699179,
            "10": 0.088904887321623,
            "11": 0.054240300719786916,
            "12": 0.07254483943319517,
            "13": 0.05406110039324438,
            "14": 0.05018487373345691,
            "15": 0.04446728563916297,
            "16": 0.04446728797678698,
            "17": 0.05775593527177689,
            "18": 0.04567849091607454,
            "19": 0.047590777423604756,
            "20": 0.057755916552537534,
            "21": 0.04759075498724708,
            "22": 0.045678459538180005
        },
        "boltzmann_weights": [
            0.18999460380618613,
            0.18999622614319972,
            0.1899945813183375,
            0.189994613762579,
            0.0480041623434489,
            0.04800416234381015,
            0.04800332412397467,
            0.04800416225963808,
            0.048004163898825856
        ],
        "best_conformer_energy": -28.594389027610923,
        "best_conformer_coordinates": [
            [
                3.7118526241541567,
                -0.6941062074713823,
                -0.5248010682255443
            ],
            [
                2.5915994967950966,
                -0.7430623661804292,
                0.17859849688975024
            ],
            [
                1.331739570287848,
                -0.15277673639468017,
                -0.35174054907182006
            ],
            [
                1.2689582859666022,
                0.3938696674539736,
                -1.437244823266554
            ],
            [
                0.27944472963535966,
                -0.28702563048912055,
                0.48971265930730895
            ],
            [
                -1.0778275109238424,
                0.19494476185070858,
                0.23360680358726885
            ],
            [
                -1.9304752550492905,
                -0.1735744043365615,
                1.4472562983027826
            ],
            [
                -1.6266330173221542,
                -0.4821563927589453,
                -1.0253538168465117
            ],
            [
                -1.0490150245325813,
                1.7145357993874035,
                0.047466496663606035
            ],
            [
                4.6409430206040865,
                -1.109834281780959,
                -0.17379387867686197
            ],
            [
                3.711433486175551,
                -0.22097289755792518,
                -1.4933579478924146
            ],
            [
                2.550831421408634,
                -1.208817406340126,
                1.1542233549452068
            ],
            [
                0.4286738493005459,
                -0.7555051880360332,
                1.3686200880190718
            ],
            [
                -2.9516471573690053,
                0.16691354691961027,
                1.2998876398798995
            ],
            [
                -1.5402772184190248,
                0.2965836698800348,
                2.3481651745948344
            ],
            [
                -1.9475712763475388,
                -1.2523637390569748,
                1.5916904291233114
            ],
            [
                -2.6354383469729896,
                -0.13422052711067514,
                -1.2293018395234865
            ],
            [
                -0.9916932198970971,
                -0.24221916406321298,
                -1.8731264144130808
            ],
            [
                -1.6458171296852508,
                -1.562485591342808,
                -0.8971990433470954
            ],
            [
                -2.0510105939820753,
                2.088369322289615,
                -0.1438336215331777
            ],
            [
                -0.6568674069271139,
                2.1985088000113815,
                0.9395949867055952
            ],
            [
                -0.4112033321916526,
                1.9653949598353684,
                -0.7949720660442577
            ]
        ],
        "best_conformer_elements": [
            6,
            6,
            6,
            8,
            7,
            6,
            6,
            6,
            6,
            1,
            1,
            1,
            1,
            1,
            1,
            1,
            1,
            1,
            1,
            1,
            1,
            1
        ],
        "fukui_radical": {
            "1": 0.06184407519175791,
            "2": 0.04584145596024469,
            "3": 0.04734599343925515,
            "4": 0.17024794822669378,
            "5": 0.06380535533530618,
            "6": 0.0024265702886714507,
            "7": -0.013384346017997845,
            "8": -0.012932182377341186,
            "9": -0.012932180458806564,
            "10": 0.10802664891526012,
            "11": 0.0826310857676349,
            "12": 0.09202302042785468,
            "13": 0.05363351897098171,
            "14": 0.04217755006215131,
            "15": 0.031094353578921402,
            "16": 0.03109435195179034,
            "17": 0.048514736225911445,
            "18": 0.022331114031667335,
            "19": 0.03268256604439941,
            "20": 0.048514719379533625,
            "21": 0.03268255098118414,
            "22": 0.02233109407638576
        }
    }
}