{
    "file": "paper_18.json",
    "monomer1_s": "C=CC(=C)Cl",
    "monomer2_s": "C=C(C)C(=O)O",
    "monomer1": "2-Chloro-1,3-butadiene",
    "monomer2": "Methacrylic acid",
    "r_values": {
        "constant_1": 2.7,
        "constant_2": 0.15
    },
    "conf_intervals": {
        "constant_conf_1": 0.2,
        "constant_conf_2": 0.05
    },
    "temperature": 40.0,
    "temperature_unit": "\u00b0C",
    "solvent": "O",
    "method": "emulsion",
    "r-product": null,
    "source": "https://doi.org/10.1002/pol.1963.100010123",
    "calculation_method": "Fineman-Ross",
    "polymerization_type": "free radical",
    "logP": -0.8247,
    "monomer1_data": {
        "smiles": "C=CC(=C)Cl",
        "ip": 13.912408282160012,
        "ip_corrected": 9.066408282160012,
        "ea": 3.9710429315707456,
        "homo": -0.39626514958538434,
        "lumo": -0.26557902717082016,
        "charges": {
            "1": -0.07438776013220635,
            "2": -0.03212034905069766,
            "3": 0.10215844001805363,
            "4": -0.1034291539258672,
            "5": -0.17969910731492378,
            "6": 0.06273731596767398,
            "7": 0.048729911182136924,
            "8": 0.052113097042218434,
            "9": 0.0600067769109944,
            "10": 0.06389082930263892
        },
        "dipole": [
            -0.10050235814984622,
            -0.5712409778217898,
            -0.259726663472682
        ],
        "global_electrophilicity": 0.8436953906808413,
        "global_nucleophilicity": -9.066408282160012,
        "fukui_electrophilicity": {
            "1": 0.0897861744249222,
            "2": 0.05514529126184635,
            "3": 0.059553495320784175,
            "4": 0.0902560487555004,
            "5": 0.15358040278833457,
            "6": 0.10452630693115612,
            "7": 0.12091090257398726,
            "8": 0.10018011524489501,
            "9": 0.11178259625539205,
            "10": 0.11427866644321953
        },
        "fukui_nucleophilicity": {
            "1": 0.059894137755342164,
            "2": 0.035220632675045715,
            "3": 0.035326875366149146,
            "4": 0.08569968055558638,
            "5": 0.3184666762327075,
            "6": 0.06985035434772,
            "7": 0.09860263805843308,
            "8": 0.08454360962064277,
            "9": 0.10945932212424184,
            "10": 0.10293607326412366
        },
        "boltzmann_weights": [
            0.9060648005971693,
            0.09393519940283064
        ],
        "best_conformer_elements": [
            6,
            6,
            6,
            6,
            17,
            1,
            1,
            1,
            1,
            1
        ],
        "best_conformer_coordinates": [
            [
                -1.7950171374422064,
                0.03683563335171463,
                -0.3888264041885469
            ],
            [
                -0.6619958722833904,
                -0.25540904940864295,
                0.23717868268904016
            ],
            [
                0.6607871683895635,
                0.1960224775239215,
                -0.15338124585847102
            ],
            [
                1.776992596996664,
                -0.11679492595903206,
                0.4985693807752488
            ],
            [
                0.7580314015600091,
                1.2047126618524624,
                -1.5622363973363924
            ],
            [
                -2.742001825408183,
                -0.33557857957372383,
                -0.03956844738970062
            ],
            [
                -1.8139868474225032,
                0.6565633715987995,
                -1.2691816032119692
            ],
            [
                -0.667817786070335,
                -0.8803655603205459,
                1.1202810408057353
            ],
            [
                2.742555364778964,
                0.2344394249573855,
                0.1827612653067527
            ],
            [
                1.742452936901428,
                -0.7404254593141183,
                1.3744037284082895
            ]
        ],
        "best_conformer_energy": -15.604281365773947,
        "fukui_radical": {
            "1": 0.07484770408679513,
            "2": 0.04517888798117411,
            "3": 0.047438591587378995,
            "4": 0.08798085915659493,
            "5": 0.23603759131172933,
            "6": 0.10975557250551754,
            "7": 0.0871861204162702,
            "8": 0.09235106151221593,
            "9": 0.10860359610306261,
            "10": 0.11062001533927619
        }
    },
    "monomer2_data": {
        "smiles": "C=C(C)C(=O)O",
        "ip": 14.557682246810447,
        "ip_corrected": 9.711682246810447,
        "ea": 4.004062496588917,
        "homo": -0.41778278313142936,
        "lumo": -0.2749266616788741,
        "charges": {
            "1": -0.07871362959229097,
            "2": -0.004761890054797921,
            "3": -0.11191541812555254,
            "4": 0.35349913135182187,
            "5": -0.41270490691080813,
            "6": -0.38156612931272826,
            "7": 0.05657688235850899,
            "8": 0.06791481882027398,
            "9": 0.06583713719745438,
            "10": 0.05133482025125581,
            "11": 0.06583720548265033,
            "12": 0.32866197853421286
        },
        "dipole": [
            -0.20547456624602475,
            0.6811286414239859,
            -0.09727921748272907
        ],
        "global_electrophilicity": 0.9318173962470228,
        "global_nucleophilicity": -9.711682246810447,
        "fukui_electrophilicity": {
            "1": 0.0935156691111948,
            "2": 0.08440794825953787,
            "3": -0.04034123534305835,
            "4": 0.08390374590686717,
            "5": 0.20509395998602703,
            "6": 0.0844326409434733,
            "7": 0.12400854214058155,
            "8": 0.1076735407752478,
            "9": 0.06409191280271537,
            "10": 0.06276256417506247,
            "11": 0.06409188256979909,
            "12": 0.06635882867255477
        },
        "fukui_nucleophilicity": {
            "1": 0.056099703279498175,
            "2": 0.07022646362219762,
            "3": -0.018960867380870758,
            "4": 0.021625946252767925,
            "5": 0.19382921214549897,
            "6": 0.08668195935983714,
            "7": 0.11918183343275016,
            "8": 0.10282221742275324,
            "9": 0.11338992032861575,
            "10": 0.08623960657151068,
            "11": 0.11338984791251401,
            "12": 0.05547415709134046
        },
        "boltzmann_weights": [
            0.3861739900089664,
            0.6138260099910335
        ],
        "best_conformer_elements": [
            6,
            6,
            6,
            6,
            8,
            8,
            1,
            1,
            1,
            1,
            1,
            1
        ],
        "best_conformer_coordinates": [
            [
                -0.44948051312854803,
                1.441076312595962,
                -0.23080068712237523
            ],
            [
                -0.22023751223587776,
                0.1472916796702346,
                -0.029730817104113266
            ],
            [
                -1.2908774762908357,
                -0.8895255072480963,
                0.08721070180383599
            ],
            [
                1.1630328136691623,
                -0.3765333155232355,
                0.09714239909778716
            ],
            [
                1.438704547095284,
                -1.536350350837824,
                0.27986310483121773
            ],
            [
                2.1137833001097386,
                0.5664858942594289,
                -0.010029972542151851
            ],
            [
                -1.4518557302282644,
                1.8243475270756504,
                -0.32328818073041204
            ],
            [
                0.35524297037268177,
                2.1506937995418602,
                -0.3083025232461203
            ],
            [
                -2.2757436713806096,
                -0.4435738618299096,
                -0.014011661041301504
            ],
            [
                -1.1545746135692607,
                -1.649010082394822,
                -0.6807776363692132
            ],
            [
                -1.215579515089806,
                -1.3907222667606738,
                1.0507113181437298
            ],
            [
                2.987585395384527,
                0.15582016615967428,
                0.08201394898737989
            ]
        ],
        "best_conformer_energy": -19.73470761176464,
        "fukui_radical": {
            "1": 0.07481391946720131,
            "2": 0.07732509375509179,
            "3": -0.02965483012831581,
            "4": 0.0527609263752182,
            "5": 0.19946029736360732,
            "6": 0.085553179167593,
            "7": 0.12158827713671636,
            "8": 0.10525017087894031,
            "9": 0.07450116878946533,
            "10": 0.08874295774719514,
            "11": 0.08874309061957461,
            "12": 0.06091574884668516
        }
    }
}