{
    "file": "paper_517.json",
    "monomer1_s": "C=C(C)C(=O)OC(=O)C(=C)C",
    "monomer2_s": "C=CSCc1ccccc1",
    "monomer1": "Methacrylic Anhydride",
    "monomer2": "Benzyl Vinyl Sulfide",
    "r_values": {
        "constant_1": 0.8,
        "constant_2": 0.1
    },
    "conf_intervals": {
        "constant_conf_1": 0.1,
        "constant_conf_2": null
    },
    "temperature": 60.0,
    "temperature_unit": "\u00b0C",
    "solvent": "c1ccccc1",
    "method": "solvent",
    "r-product": null,
    "source": "https://doi.org/10.1002/pol.1961.1205519713",
    "calculation_method": null,
    "polymerization_type": "free radical",
    "logP": 1.6866,
    "monomer1_data": {
        "smiles": "C=C(C)C(=O)OC(=O)C(=C)C",
        "ip": 13.801476663067703,
        "ip_corrected": 8.955476663067703,
        "ea": 5.453862368603177,
        "homo": -0.4143494411542489,
        "lumo": -0.2986935620967143,
        "charges": {
            "1": -0.07694391764647916,
            "2": -0.004380344787597842,
            "3": -0.11385887947428881,
            "4": 0.36041411982641736,
            "5": -0.34692789278232933,
            "6": -0.276358914938958,
            "7": 0.3604091886252548,
            "8": -0.3468172681885667,
            "9": -0.004371264567057498,
            "10": -0.07693197893581646,
            "11": -0.11386520341189463,
            "12": 0.06166494162135842,
            "13": 0.06350357466725139,
            "14": 0.0727180986505262,
            "15": 0.06636280700694963,
            "16": 0.0555507455229758,
            "17": 0.0616774028043341,
            "18": 0.06350881804948083,
            "19": 0.05555875672792117,
            "20": 0.0727245302777378,
            "21": 0.0663626809527746
        },
        "dipole": [
            0.3634757995395743,
            -1.1203319809696957,
            1.4254063177192156
        ],
        "global_electrophilicity": 1.3695148429313369,
        "global_nucleophilicity": -8.955476663067703,
        "fukui_electrophilicity": {
            "1": 0.04689344912326608,
            "2": 0.039873973288791435,
            "3": -0.02491846815951436,
            "4": 0.04291822315043048,
            "5": 0.13059762016360588,
            "6": 0.04661421074900984,
            "7": 0.042941073483649506,
            "8": 0.13065039530480033,
            "9": 0.03988612947976609,
            "10": 0.04691075545159301,
            "11": -0.024922201319386744,
            "12": 0.07474101487554481,
            "13": 0.048625110964757495,
            "14": 0.03682896963038642,
            "15": 0.03875424949122456,
            "16": 0.04229954810200347,
            "17": 0.07475767396396393,
            "18": 0.04864150883679502,
            "19": 0.04230589659130232,
            "20": 0.03683833161960125,
            "21": 0.038762535208403795
        },
        "fukui_nucleophilicity": {
            "1": 0.028286056555074712,
            "2": 0.03983566677098695,
            "3": -0.014893836268122698,
            "4": 0.012670796273505203,
            "5": 0.11214507838281151,
            "6": 0.04974793643936459,
            "7": 0.012655638400860203,
            "8": 0.11209616352735324,
            "9": 0.039823504233820445,
            "10": 0.028286278609469723,
            "11": -0.014888453881056168,
            "12": 0.07162268292585575,
            "13": 0.04705628101683426,
            "14": 0.05742426903218659,
            "15": 0.06263549242694255,
            "16": 0.05841108370938705,
            "17": 0.07160217020769405,
            "18": 0.04703546575885484,
            "19": 0.05839703571310578,
            "20": 0.057420305195348395,
            "21": 0.06263038497097635
        },
        "fukui_radical": {
            "1": 0.0375897528391704,
            "2": 0.03985482002988919,
            "3": -0.01990615221381853,
            "4": 0.02779450971196784,
            "5": 0.1213713492732087,
            "6": 0.04818107359418722,
            "7": 0.027798355942254854,
            "8": 0.12137327941607678,
            "9": 0.03985481685679326,
            "10": 0.03759851703053137,
            "11": -0.019905327600221456,
            "12": 0.07318184890070027,
            "13": 0.04784069599079588,
            "14": 0.04712661933128651,
            "15": 0.05069487095908355,
            "16": 0.05035531590569526,
            "17": 0.07317992208582899,
            "18": 0.04783848729782493,
            "19": 0.05035146615220405,
            "20": 0.04712931840747482,
            "21": 0.050696460089690074
        },
        "best_conformer_coordinates": [
            [
                2.348501631410684,
                -1.2564259423080482,
                0.28807942925264346
            ],
            [
                2.310868992413032,
                -0.06606499701124746,
                -0.3036606058956204
            ],
            [
                3.5165868997956307,
                0.6580497189925764,
                -0.8104190487638365
            ],
            [
                1.0307083328371565,
                0.647097988090471,
                -0.5421222928086342
            ],
            [
                0.9150900530700932,
                1.650380985339838,
                -1.1823154555761932
            ],
            [
                -0.015877849663423607,
                0.04833903133962653,
                0.12073253070775063
            ],
            [
                -1.3254168708925054,
                0.2594963229576461,
                -0.24555185331226598
            ],
            [
                -1.6522594881784962,
                0.6187227767538978,
                -1.3381867566202927
            ],
            [
                -2.26383180565405,
                -0.07877272255854595,
                0.8540368493179432
            ],
            [
                -1.8350306562137875,
                -0.32399183548651833,
                2.0887603519518194
            ],
            [
                -3.702656744502764,
                -0.08522105353784608,
                0.44823521634124586
            ],
            [
                3.28072691633626,
                -1.7734216699779473,
                0.4429906277211062
            ],
            [
                1.455900344620303,
                -1.750690514335175,
                0.6298116026773353
            ],
            [
                3.391177768214352,
                0.8834027899666772,
                -1.8678432975674804
            ],
            [
                3.6242944396644816,
                1.6085019759097199,
                -0.29014098579196035
            ],
            [
                4.41492879015964,
                0.06503991197102027,
                -0.6677143395958904
            ],
            [
                -2.5246431019894575,
                -0.5533904750507612,
                2.883828913075316
            ],
            [
                -0.7899756414465121,
                -0.29907953752087707,
                2.343815020000929
            ],
            [
                -4.34659075067486,
                -0.2751034900375086,
                1.301658336750732
            ],
            [
                -3.9614581090541714,
                0.8725645124912043,
                0.0006562790928249651
            ],
            [
                -3.871043144959979,
                -0.8494337706966517,
                -0.30891235535995004
            ]
        ],
        "best_conformer_elements": [
            6,
            6,
            6,
            6,
            8,
            8,
            6,
            8,
            6,
            6,
            6,
            1,
            1,
            1,
            1,
            1,
            1,
            1,
            1,
            1,
            1
        ],
        "best_conformer_energy": -34.38210560494505
    },
    "monomer2_data": {
        "smiles": "C=CSCc1ccccc1",
        "ip": 12.56862024305266,
        "ip_corrected": 7.72262024305266,
        "ea": 3.9203700445048875,
        "homo": -0.3570920593922515,
        "lumo": -0.2350116208946339,
        "charges": {
            "1": -0.10237796957454315,
            "2": 0.010167884893900567,
            "3": -0.1568143552960713,
            "4": -0.008036237368814363,
            "5": 0.01206652783183132,
            "6": -0.033039005041738935,
            "7": -0.027941971041683618,
            "8": -0.029592008142629404,
            "9": -0.027944016785681404,
            "10": -0.03304354204202105,
            "11": 0.04340110250829212,
            "12": 0.04903376386351824,
            "13": 0.03828684062570309,
            "14": 0.04737208836962381,
            "15": 0.04736794258640621,
            "16": 0.03475476512601958,
            "17": 0.034091730311127375,
            "18": 0.0334037759399389,
            "19": 0.034093118676416304,
            "20": 0.03474956456040282
        },
        "dipole": [
            -0.11456275510705785,
            -0.17865667248195874,
            0.7693490594491754
        ],
        "global_electrophilicity": 0.667751798174581,
        "global_nucleophilicity": -7.72262024305266,
        "fukui_electrophilicity": {
            "1": 0.03628136395985376,
            "2": 0.002867245465220658,
            "3": 0.19326399840519226,
            "4": -0.023097218794886153,
            "5": 0.056766720918276815,
            "6": 0.023289007607044686,
            "7": 0.02606032243856555,
            "8": 0.05657797494918993,
            "9": 0.026073746334683415,
            "10": 0.023271575029205058,
            "11": 0.06086468387599358,
            "12": 0.046500429799037325,
            "13": 0.05132428553183518,
            "14": 0.05161786206416385,
            "15": 0.05161974605516185,
            "16": 0.05681413772596376,
            "17": 0.06498154490629732,
            "18": 0.07313173275609157,
            "19": 0.0649846617393286,
            "20": 0.0568061792338368
        },
        "fukui_nucleophilicity": {
            "1": 0.05312671570220378,
            "2": -0.023040753501068226,
            "3": 0.3854614252873225,
            "4": -0.04882498692551631,
            "5": 0.010661902274039431,
            "6": 0.01258943269616273,
            "7": 0.022222112584015206,
            "8": 0.02883047999297115,
            "9": 0.022216539562388928,
            "10": 0.012592101444322004,
            "11": 0.07806847801261027,
            "12": 0.060680926167972146,
            "13": 0.06232761354019373,
            "14": 0.05868434434258185,
            "15": 0.05868750284370515,
            "16": 0.030949629435244652,
            "17": 0.046991958652844,
            "18": 0.04983945334308869,
            "19": 0.04699093843265005,
            "20": 0.03094418611223193
        },
        "boltzmann_weights": [
            0.008792046405424796,
            0.008792045618335378,
            0.24560014847745532,
            0.245607806556951,
            0.24560030917215483,
            0.2456076437696787
        ],
        "best_conformer_elements": [
            6,
            6,
            16,
            6,
            6,
            6,
            6,
            6,
            6,
            6,
            1,
            1,
            1,
            1,
            1,
            1,
            1,
            1,
            1,
            1
        ],
        "best_conformer_coordinates": [
            [
                4.340429862533607,
                0.913821590617988,
                -0.9714157956584666
            ],
            [
                3.289645116238147,
                0.4819732401999761,
                -0.2937352073283437
            ],
            [
                1.6418201487069168,
                0.5543968108705799,
                -0.898331190488391
            ],
            [
                0.7630823204049294,
                -0.1994574100357123,
                0.5418507719316473
            ],
            [
                -0.7020995302148315,
                -0.2499644105624658,
                0.2598575197238914
            ],
            [
                -1.5220743621063857,
                0.8188076660133883,
                0.6006928686563038
            ],
            [
                -2.876131449337585,
                0.7798378344311616,
                0.32198760089378103
            ],
            [
                -3.42480026894236,
                -0.32604611546079126,
                -0.3047885674985154
            ],
            [
                -2.6130787880817796,
                -1.3918487817353509,
                -0.6541163889153878
            ],
            [
                -1.2589964651169585,
                -1.3531143416725888,
                -0.3755196191801624
            ],
            [
                4.242133308257156,
                1.3431231209943237,
                -1.9527107940274047
            ],
            [
                5.332269275191997,
                0.8487493589943217,
                -0.5597263445942442
            ],
            [
                3.3733536036544676,
                0.04910120092778399,
                0.6915741692770069
            ],
            [
                1.1771767597833143,
                -1.1987612857514862,
                0.6785695114696922
            ],
            [
                0.9806689292906213,
                0.42509001178884936,
                1.4086631882537088
            ],
            [
                -1.0950074346293635,
                1.6848473520499694,
                1.0857395830747003
            ],
            [
                -3.504412611964858,
                1.6153115478203826,
                0.5936495093608295
            ],
            [
                -4.48214287566536,
                -0.356324249901825,
                -0.5223824229841589
            ],
            [
                -3.035492821761585,
                -2.2555635894252157,
                -1.1461750669498063
            ],
            [
                -0.6263427215318371,
                -2.1839795501632646,
                -0.653166521056147
            ]
        ],
        "best_conformer_energy": -27.55941685044775,
        "fukui_radical": {
            "1": 0.04470292524791251,
            "2": -0.010084148570602997,
            "3": 0.28936036250647207,
            "4": -0.03596083525499011,
            "5": 0.03371435710960552,
            "6": 0.01793815750373206,
            "7": 0.02414085857462174,
            "8": 0.042704282809659634,
            "9": 0.024144605865755626,
            "10": 0.017931863348414068,
            "11": 0.05359440828914702,
            "12": 0.06946864741484157,
            "13": 0.056827102112020626,
            "14": 0.05515022622201103,
            "15": 0.055152907514996505,
            "16": 0.04388060238133554,
            "17": 0.055986049300560475,
            "18": 0.06148510927754108,
            "19": 0.05598720401731387,
            "20": 0.04387531432966595
        }
    }
}