{
    "file": "paper_350.json",
    "monomer1_s": "CC1(C)COC2(C=C2)OC1",
    "monomer2_s": "C=CC#N",
    "monomer1": "6,6-Dimethyl-4,8-dioxaspiro(2,5)oct-1-ene",
    "monomer2": "Acrylonitrile",
    "r_values": {
        "constant_1": 1.2,
        "constant_2": 0.4
    },
    "conf_intervals": {
        "constant_conf_1": 0.4,
        "constant_conf_2": 0.3
    },
    "temperature": 60.0,
    "temperature_unit": "\u00b0C",
    "solvent": null,
    "method": "bulk",
    "r-product": null,
    "source": "http://dx.doi.org/10.1080/00222338508063314",
    "calculation_method": "Kelen-Tudor",
    "polymerization_type": "free radical",
    "monomer1_data": {
        "smiles": "CC1(C)COC2(C=C2)OC1",
        "ip": 13.406755837702214,
        "ip_corrected": 8.560755837702214,
        "ea": 2.0315349268159486,
        "homo": -0.3887606494255538,
        "lumo": -0.22883288366109955,
        "charges": {
            "1": -0.11763069519186124,
            "2": 0.00596542574497147,
            "3": -0.10847364326365883,
            "4": 0.08294436321842566,
            "5": -0.3335202464373979,
            "6": 0.28008251417234015,
            "7": -0.03964878971626535,
            "8": -0.06252408404394531,
            "9": -0.33349666327030075,
            "10": 0.08293899266977775,
            "11": 0.045911747862555724,
            "12": 0.045925892892664515,
            "13": 0.03556849152768039,
            "14": 0.03924271001100818,
            "15": 0.05983144102470402,
            "16": 0.039251146309299004,
            "17": 0.04992437321498384,
            "18": 0.017790508115659465,
            "19": 0.0751586074458818,
            "20": 0.06703496277922003,
            "21": 0.049932512369677426,
            "22": 0.01779043256458444
        },
        "dipole": [
            -0.14343523458901683,
            0.6525561556839258,
            -0.5563723517529647
        ],
        "global_electrophilicity": 0.3628485306907997,
        "global_nucleophilicity": -8.560755837702214,
        "fukui_electrophilicity": {
            "1": -0.014651562837571297,
            "2": 0.0024791056581550536,
            "3": -0.016770186440007967,
            "4": -0.01876291970391189,
            "5": 0.04288253907936007,
            "6": 0.04520610980814563,
            "7": 0.1766606099960244,
            "8": 0.18051377015721692,
            "9": 0.04288491308417747,
            "10": -0.018762400079131117,
            "11": 0.024950189493049967,
            "12": 0.02496296600577846,
            "13": 0.012060110901012833,
            "14": 0.025734851199485008,
            "15": -0.00035306346889825424,
            "16": 0.025726386269750087,
            "17": 0.05136200234842557,
            "18": 0.018662127239969604,
            "19": 0.16302640847823335,
            "20": 0.16217161667358204,
            "21": 0.051363061358546645,
            "22": 0.018653364778598542
        },
        "fukui_nucleophilicity": {
            "1": -0.022794309397571447,
            "2": 0.020312451481026686,
            "3": -0.011779898184716392,
            "4": -0.019665977604465243,
            "5": 0.1078126168740543,
            "6": 0.028486355332227598,
            "7": 0.04085030629219041,
            "8": 0.04758329394223529,
            "9": 0.10777489457212686,
            "10": -0.019665653644642067,
            "11": 0.04729062758424442,
            "12": 0.04729223991926463,
            "13": 0.035644040760958534,
            "14": 0.0532368565658603,
            "15": 0.025663253054254064,
            "16": 0.05323309613873277,
            "17": 0.06697529041995462,
            "18": 0.07474673520231476,
            "19": 0.08906434019762156,
            "20": 0.08625894650151783,
            "21": 0.06697802054259916,
            "22": 0.0747024734501968
        },
        "boltzmann_weights": [
            0.32702692426523333,
            0.3270123021538761,
            0.0031967764374026685,
            0.003196777200353423,
            0.003197069184275253,
            0.0031970665630142526,
            0.0031970695349293294,
            0.0031970702629555924,
            0.32677894439796007
        ],
        "best_conformer_elements": [
            6,
            6,
            6,
            6,
            8,
            6,
            6,
            6,
            8,
            6,
            1,
            1,
            1,
            1,
            1,
            1,
            1,
            1,
            1,
            1,
            1,
            1
        ],
        "best_conformer_coordinates": [
            [
                -1.5034646752490048,
                -1.1598993746841453,
                -0.8285366238684196
            ],
            [
                -0.9565346990442466,
                -0.0554808456966662,
                0.07555394840209897
            ],
            [
                -2.089867645366671,
                0.6328273405282387,
                0.8310621226620799
            ],
            [
                -0.17956059581245049,
                0.9680422101293926,
                -0.7715098272358185
            ],
            [
                0.9816590078772706,
                0.3898259384997945,
                -1.343625145788527
            ],
            [
                1.819683659957028,
                -0.1463004086781634,
                -0.36645151121341424
            ],
            [
                3.2732509751905465,
                -0.20449208318480602,
                -0.6068747375289761
            ],
            [
                2.8868981558115294,
                0.7083345241616775,
                0.24967716006911084
            ],
            [
                1.207833178095784,
                -1.1435749754646143,
                0.39257477630497684
            ],
            [
                0.05967623140907895,
                -0.6535783794238199,
                1.0646878118846104
            ],
            [
                -2.1957932491154337,
                -0.7449669334264609,
                -1.5575832476524873
            ],
            [
                -0.6840745728724665,
                -1.6390324197584427,
                -1.3584694946801514
            ],
            [
                -2.023788052424812,
                -1.9104726708244961,
                -0.2378609231427069
            ],
            [
                -1.7070693928304674,
                1.420505237506432,
                1.4768004941277495
            ],
            [
                -2.6219033882182132,
                -0.08835770640328644,
                1.446911625531966
            ],
            [
                -2.793512859459122,
                1.0748866089660498,
                0.12970093478347935
            ],
            [
                0.10537484313901277,
                1.8286186609163224,
                -0.14641583798858523
            ],
            [
                -0.7787552581461388,
                1.322330801231697,
                -1.6124551051081948
            ],
            [
                4.0477869852533965,
                -0.6964968166949815,
                -1.1421255097531267
            ],
            [
                3.154152650722298,
                1.4965348069272324,
                0.9114598747125885
            ],
            [
                -0.3608678347379748,
                -1.5101569100900134,
                1.594925775304514
            ],
            [
                0.3588765358210494,
                0.1109033848794501,
                1.798553440177054
            ]
        ],
        "best_conformer_energy": -31.303282109508118,
        "fukui_radical": {
            "1": -0.014270020745709835,
            "2": 0.011394605040516821,
            "3": -0.018716918016812578,
            "4": -0.019202927407429987,
            "5": 0.07532997786750231,
            "6": 0.03684904353439382,
            "7": 0.10874781499600902,
            "8": 0.11406627117352466,
            "9": 0.07533695763622592,
            "10": -0.01920280840222715,
            "11": 0.03948739289846989,
            "12": 0.012644408077561741,
            "13": 0.039485316969894164,
            "14": 0.023909302262554395,
            "15": 0.03612947321335959,
            "16": 0.03613119836926236,
            "17": 0.04664122443879471,
            "18": 0.059159150114363186,
            "19": 0.1260551446720709,
            "20": 0.12421955859741876,
            "21": 0.05916334279684247,
            "22": 0.04664249191341332
        }
    },
    "monomer2_data": {
        "smiles": "C=CC#N",
        "ip": 15.437176806318503,
        "ip_corrected": 10.591176806318503,
        "ea": 3.8289813808508004,
        "homo": -0.4277683293695803,
        "lumo": -0.28211163098961317,
        "charges": {
            "1": -0.05961169012740816,
            "2": -0.01732687045759991,
            "3": 0.1182224067521214,
            "4": -0.22501464611972768,
            "5": 0.060876740653373736,
            "6": 0.056910808147125444,
            "7": 0.06594325115211837
        },
        "dipole": [
            -1.3682395954382502,
            0.4193750676404717,
            0.3073979410978311
        ],
        "global_electrophilicity": 0.9870666976349574,
        "global_nucleophilicity": -10.591176806318503,
        "fukui_electrophilicity": {
            "1": 0.11689097730490014,
            "2": 0.09589168721827514,
            "3": 0.0833043050370818,
            "4": 0.27942089987505603,
            "5": 0.1382479191580376,
            "6": 0.1483932400282401,
            "7": 0.1378509713784164
        },
        "fukui_nucleophilicity": {
            "1": 0.046376077246505845,
            "2": 0.06110797532385699,
            "3": 0.06382105585034101,
            "4": 0.3348673323308884,
            "5": 0.1560141376419441,
            "6": 0.1714270905761467,
            "7": 0.16638633108003964
        },
        "boltzmann_weights": [
            1.0
        ],
        "best_conformer_elements": [
            6,
            6,
            6,
            7,
            1,
            1,
            1
        ],
        "best_conformer_coordinates": [
            [
                -0.9016384047148559,
                -0.45919578416436035,
                -0.030680752421494126
            ],
            [
                -0.03133887486045679,
                0.4750179204570864,
                0.33412550579689987
            ],
            [
                1.3413190298728732,
                0.20293977262825588,
                0.5154865184659979
            ],
            [
                2.457902722380965,
                -0.00894504881153441,
                0.6651431422029201
            ],
            [
                -1.946002725249464,
                -0.2338337288304437,
                -0.16452309959900452
            ],
            [
                -0.5958059974068218,
                -1.4775501660291765,
                -0.20646164096824965
            ],
            [
                -0.32443575002222486,
                1.5015670294584123,
                0.5140087192113937
            ]
        ],
        "best_conformer_energy": -10.79113366694523,
        "fukui_radical": {
            "1": 0.08164051438776673,
            "2": 0.07850509074248685,
            "3": 0.07355981073640835,
            "4": 0.30714514424221057,
            "5": 0.15989706723025732,
            "6": 0.14713580820257063,
            "7": 0.152116564483423
        }
    }
}