{
    "file": "paper_606.json",
    "monomer1_s": "C=C1CC(=O)N(C2(OC(C)=O)C=CC=CC2)C1=O",
    "monomer2_s": "C=Cc1ccccc1",
    "monomer1": "N-(1-acetoxyphenyl)itaconimide",
    "monomer2": "styrene",
    "r_values": {
        "constant_1": 0.25,
        "constant_2": 0.15
    },
    "conf_intervals": {
        "constant_conf_1": 0.08,
        "constant_conf_2": 0.07
    },
    "temperature": 60.0,
    "temperature_unit": "\u00b0C",
    "solvent": "C1CCOC1",
    "method": "solvent",
    "r-product": null,
    "source": "https://doi.org/10.1002/macp.1984.021250111",
    "calculation_method": "Kelen-Tudor",
    "polymerization_type": "free radical",
    "logP": 0.7968,
    "monomer1_data": {
        "smiles": "C=C1CC(=O)N(C2(OC(C)=O)C=CC=CC2)C1=O",
        "ip": 13.004605301522725,
        "ip_corrected": 8.158605301522725,
        "ea": 5.285480747110061,
        "homo": -0.38593005384049206,
        "lumo": -0.290662380748121,
        "charges": {
            "1": -0.07113148160882343,
            "2": -0.010603782254360039,
            "3": -0.09667395166119519,
            "4": 0.29302942128657045,
            "5": -0.3874020318093063,
            "6": -0.12165469743599597,
            "7": 0.22288014590773816,
            "8": -0.2656380934094661,
            "9": 0.37288174337450736,
            "10": -0.14700033058719097,
            "11": -0.4220352730996371,
            "12": -0.058586970762777094,
            "13": -0.02369914250262093,
            "14": -0.04096620386254844,
            "15": -0.014519285430406703,
            "16": -0.06099329006361291,
            "17": 0.2822061780828796,
            "18": -0.3743142191862383,
            "19": 0.08096990316829634,
            "20": 0.06550670164344637,
            "21": 0.08527846016598052,
            "22": 0.09378448549790475,
            "23": 0.0763596885136875,
            "24": 0.07776610024676921,
            "25": 0.09393044032235362,
            "26": 0.06198324497599844,
            "27": 0.04771631229195446,
            "28": 0.04487363739379865,
            "29": 0.05756409464146946,
            "30": 0.06213161446836298,
            "31": 0.07635658169245174
        },
        "dipole": [
            0.2427609324567401,
            -0.013278495583180436,
            0.30860185721104816
        ],
        "global_electrophilicity": 1.1971416444082552,
        "global_nucleophilicity": -8.158605301522725,
        "fukui_electrophilicity": {
            "1": 0.05190607463625935,
            "2": 0.04024956957435333,
            "3": -0.014207353142121903,
            "4": 0.02325850035217253,
            "5": 0.08538554228208484,
            "6": 0.024830448598841898,
            "7": -0.0037230104150064447,
            "8": 0.013994313846289852,
            "9": 0.007224536695225381,
            "10": -0.010310503659337555,
            "11": 0.0149637877232901,
            "12": 0.025712408815502102,
            "13": 0.02620728969487259,
            "14": 0.015922331392318523,
            "15": 0.023330455603981698,
            "16": -0.014460749804743836,
            "17": 0.04484011675475197,
            "18": 0.1037635148235867,
            "19": 0.06219653472652562,
            "20": 0.07483174812961475,
            "21": 0.04858477673232044,
            "22": 0.048859613090798455,
            "23": 0.023854893914032144,
            "24": 0.022408390028316127,
            "25": 0.017040628216705378,
            "26": 0.0399525248876688,
            "27": 0.05001430469874185,
            "28": 0.04548821321818936,
            "29": 0.0431873198505458,
            "30": 0.044220837910258354,
            "31": 0.020472940823962227
        },
        "fukui_nucleophilicity": {
            "1": 0.017662279423272663,
            "2": 0.007504232053090615,
            "3": 5.676098181262024e-05,
            "4": 0.006482029646019183,
            "5": 0.0763506632851782,
            "6": 0.01857062759168457,
            "7": 0.0008957651592695071,
            "8": 0.020092651491321223,
            "9": 0.005072264686169725,
            "10": -0.005691762150522556,
            "11": 0.06030661181716773,
            "12": 0.043952701696845745,
            "13": 0.024761367949370137,
            "14": 0.04410734604834486,
            "15": 0.043703468706532286,
            "16": -0.009275944454784052,
            "17": 0.005281907953667675,
            "18": 0.056766202429448076,
            "19": 0.030305415625514476,
            "20": 0.042152170508700834,
            "21": 0.04135476499531297,
            "22": 0.039288316735955564,
            "23": 0.03201253806088701,
            "24": 0.030866861994814226,
            "25": 0.029688077112381583,
            "26": 0.05397306832958734,
            "27": 0.061787633549109724,
            "28": 0.06433198357828507,
            "29": 0.06100712548300227,
            "30": 0.05812134085156711,
            "31": 0.03851152970344443
        },
        "boltzmann_weights": [
            0.08148158954731902,
            0.0814823443957926,
            0.08197404552398584,
            0.08196937768204712,
            0.18616756714722493,
            0.18616758648098392,
            0.14685729237369455,
            0.1468572328736193,
            0.0012961566089971508,
            0.0012961603540018953,
            0.001147435284364786,
            0.001147435425728063,
            0.0003242157072006259,
            0.00029541492709802885,
            0.00029541588510574373,
            0.0002958044715124118,
            0.0002958044252436477,
            0.0003245603881053506,
            0.00032456049797485633
        ],
        "best_conformer_elements": [
            6,
            6,
            6,
            6,
            8,
            7,
            6,
            8,
            6,
            6,
            8,
            6,
            6,
            6,
            6,
            6,
            6,
            8,
            1,
            1,
            1,
            1,
            1,
            1,
            1,
            1,
            1,
            1,
            1,
            1,
            1
        ],
        "best_conformer_coordinates": [
            [
                3.918113492089992,
                -0.1653663468873151,
                0.813283885461602
            ],
            [
                2.756916523024046,
                -0.2791547067652923,
                0.18400823438933095
            ],
            [
                2.433038261828243,
                -1.0160378197181406,
                -1.0707479385842706
            ],
            [
                0.9685539926285963,
                -0.7134047624554782,
                -1.3021259795190496
            ],
            [
                0.31557371443011784,
                -1.0367725018698883,
                -2.2581463209744417
            ],
            [
                0.5032918402409983,
                0.014401096058750291,
                -0.21725319784773992
            ],
            [
                -0.9244118413852607,
                0.36750109823703747,
                -0.08828911655560061
            ],
            [
                -1.7172410064412194,
                -0.7154856114609401,
                -0.5796205156796295
            ],
            [
                -1.4623597493918474,
                -1.97000805138871,
                -0.18649110514317999
            ],
            [
                -2.340203106796929,
                -2.931948185811669,
                -0.9349082174702511
            ],
            [
                -0.6340531361345053,
                -2.273711213949095,
                0.6313862905748099
            ],
            [
                -1.1913959147540802,
                1.542134754391143,
                -0.9932878717852823
            ],
            [
                -1.1936546444270795,
                2.7866683174638553,
                -0.5182482077565078
            ],
            [
                -1.0246920790755276,
                3.059895105234861,
                0.8926659294015522
            ],
            [
                -1.0614314836449703,
                2.0672126669030724,
                1.7805170338521301
            ],
            [
                -1.3215111773591992,
                0.6558015058313741,
                1.3630607168773223
            ],
            [
                1.5104290033588657,
                0.3570664229875352,
                0.677924522279356
            ],
            [
                1.3994189160466124,
                1.0610162126617013,
                1.6475443841022397
            ],
            [
                3.984121814323875,
                0.4114081198103429,
                1.7201891978099322
            ],
            [
                4.816882738621279,
                -0.6346083681609761,
                0.4511736546562437
            ],
            [
                3.0271790165984624,
                -0.6974335481928369,
                -1.9288039064213216
            ],
            [
                2.5585912834971314,
                -2.0959687973493577,
                -0.9628292244487113
            ],
            [
                -1.9521657360750628,
                -3.0136377478014813,
                -1.9486818721166554
            ],
            [
                -2.315724000638548,
                -3.905120866106389,
                -0.45471929357450086
            ],
            [
                -3.354924705870968,
                -2.548957953230654,
                -0.9875918158108118
            ],
            [
                -1.2991199851123025,
                1.3013987644501386,
                -2.0381335841351267
            ],
            [
                -1.329427537986757,
                3.623896942392972,
                -1.1868302122990007
            ],
            [
                -0.8767645772681264,
                4.083472968670862,
                1.1984162026196021
            ],
            [
                -0.9640911700001787,
                2.245485588328178,
                2.838958646726113
            ],
            [
                -0.8271024122289012,
                -0.05206907387239553,
                2.0285604467028406
            ],
            [
                -2.4018363268043776,
                0.4723259915983939,
                1.429019250544175
            ]
        ],
        "best_conformer_energy": -53.65367538693914,
        "fukui_radical": {
            "1": 0.03478424085481005,
            "2": 0.023876775486400197,
            "3": -0.007075270993109506,
            "4": 0.014870384976129247,
            "5": 0.08086822170294372,
            "6": 0.021700648712340204,
            "7": -0.0014135380921026508,
            "8": 0.017043268407838374,
            "9": 0.006148321309086019,
            "10": -0.008001324303762464,
            "11": 0.037634812483221286,
            "12": 0.0348329154117651,
            "13": 0.02548437783536104,
            "14": 0.030014746749524798,
            "15": 0.03351697505541278,
            "16": -0.011868300935787241,
            "17": 0.025060944615107203,
            "18": 0.08026460706715094,
            "19": 0.04625092404232761,
            "20": 0.05849187271081984,
            "21": 0.04496977512910119,
            "22": 0.044073955641291844,
            "23": 0.023364373317181678,
            "24": 0.027933742891561537,
            "25": 0.02663763421406398,
            "26": 0.04696288418861019,
            "27": 0.055900992595148684,
            "28": 0.05491028787912447,
            "29": 0.05209732582232636,
            "30": 0.02949229430052219,
            "31": 0.05117113134750488
        }
    },
    "monomer2_data": {
        "smiles": "C=Cc1ccccc1",
        "ip": 13.323305315341791,
        "ip_corrected": 8.477305315341791,
        "ea": 3.959877946938991,
        "homo": -0.3831985290395731,
        "lumo": -0.2501966690470822,
        "charges": {
            "1": -0.08578934436600626,
            "2": -0.030259830597504936,
            "3": 0.01460321229207634,
            "4": -0.032430750206366904,
            "5": -0.029945437580900583,
            "6": -0.030379977266510892,
            "7": -0.029893803249294533,
            "8": -0.033985609164289644,
            "9": 0.038721208943534896,
            "10": 0.036165150785770366,
            "11": 0.033044651543264955,
            "12": 0.03404524115950842,
            "13": 0.028965873902585763,
            "14": 0.02897855112451052,
            "15": 0.028735857233840652,
            "16": 0.029425005445779806
        },
        "dipole": [
            -0.00599695759505601,
            0.00019607223034193996,
            -0.0018463290012354543
        ],
        "global_electrophilicity": 0.7692971421446727,
        "global_nucleophilicity": -8.477305315341791,
        "fukui_electrophilicity": {
            "1": 0.07209309972414436,
            "2": 0.04352510810351072,
            "3": 0.06230438364782903,
            "4": 0.03213425829454332,
            "5": 0.026312904098299825,
            "6": 0.06792045239213465,
            "7": 0.02876303434297292,
            "8": 0.03213381752054322,
            "9": 0.08376002497375698,
            "10": 0.09874578293688194,
            "11": 0.08145474392689236,
            "12": 0.06271242240018035,
            "13": 0.07540055911977092,
            "14": 0.08585900759002232,
            "15": 0.07693189708388407,
            "16": 0.06994850384463236
        },
        "fukui_nucleophilicity": {
            "1": 0.07260243947817689,
            "2": 0.04230113696056051,
            "3": 0.06268064465096645,
            "4": 0.03400845310298767,
            "5": 0.03110749772289005,
            "6": 0.07019025477516763,
            "7": 0.03211552237109847,
            "8": 0.03545308497970195,
            "9": 0.07943182497266889,
            "10": 0.09534951030583766,
            "11": 0.07725609403564751,
            "12": 0.06257820938745395,
            "13": 0.07457311950887512,
            "14": 0.0843599501650384,
            "15": 0.07603725882191792,
            "16": 0.06995499876126071
        },
        "boltzmann_weights": [
            0.500000013411314,
            0.499999986588686
        ],
        "best_conformer_elements": [
            6,
            6,
            6,
            6,
            6,
            6,
            6,
            6,
            1,
            1,
            1,
            1,
            1,
            1,
            1,
            1
        ],
        "best_conformer_coordinates": [
            [
                -2.7996504883392213,
                0.5067268078443541,
                -0.3307757375296494
            ],
            [
                -1.8569195165461714,
                -0.42690007797501867,
                -0.28622356006066363
            ],
            [
                -0.41676751008175084,
                -0.2137695987077826,
                -0.201669273122216
            ],
            [
                0.42662331397264364,
                -1.3257786864929022,
                -0.16462382115517377
            ],
            [
                1.7979836205106778,
                -1.1786700332337077,
                -0.08467855669649194
            ],
            [
                2.3586778805752897,
                0.08669579947474147,
                -0.03984625155398522
            ],
            [
                1.535500161801921,
                1.2006125291369882,
                -0.07571377159817176
            ],
            [
                0.16438284527030772,
                1.054224105562994,
                -0.15563770481452763
            ],
            [
                -2.5807350472122574,
                1.5604467593574072,
                -0.30764549962305027
            ],
            [
                -3.84233837136736,
                0.2458441308630186,
                -0.39306838601271116
            ],
            [
                -2.1533557273489103,
                -1.4689784286781729,
                -0.3136745326715254
            ],
            [
                -0.004100778556855408,
                -2.317010607449955,
                -0.1992554256323922
            ],
            [
                2.432537807928637,
                -2.052797839845991,
                -0.05718467471006832
            ],
            [
                3.4304258000072263,
                0.20491108070838962,
                0.022664187100062603
            ],
            [
                1.9676045890247913,
                2.190467602677497,
                -0.04101419015886248
            ],
            [
                -0.4598685796390594,
                1.9339764620498727,
                -0.18248094282351895
            ]
        ],
        "best_conformer_energy": -21.158608850502983,
        "fukui_radical": {
            "1": 0.07234813599322018,
            "2": 0.04291309873393513,
            "3": 0.06249235896699714,
            "4": 0.03379355109266154,
            "5": 0.03043928194186729,
            "6": 0.06905534188080434,
            "7": 0.028710059427083993,
            "8": 0.03307125813746206,
            "9": 0.08159578301382218,
            "10": 0.09704772989059883,
            "11": 0.07935561247948747,
            "12": 0.06995185022654472,
            "13": 0.0764846271348809,
            "14": 0.0851094403734144,
            "15": 0.07498679088705272,
            "16": 0.06264507982020588
        }
    }
}