{
    "file": "paper_275.json",
    "monomer1_s": "C=Cc1ccccc1",
    "monomer2_s": "C=C(C#N)C(F)(F)F",
    "monomer1": "Styrene",
    "monomer2": "alpha-(Trifluoromethyl)acrylonitrile",
    "r_values": {
        "constant_1": 0.03,
        "constant_2": 0.24
    },
    "conf_intervals": {
        "constant_conf_1": 0.01,
        "constant_conf_2": 0.07
    },
    "temperature": 60.0,
    "temperature_unit": "\u00b0C",
    "solvent": "c1ccccc1",
    "method": "solvent",
    "r-product": null,
    "source": "https://doi.org/10.1021/ma00187a030",
    "calculation_method": "Kelen-Tudor",
    "polymerization_type": "free radical",
    "logP": 1.6866,
    "monomer1_data": {
        "smiles": "C=Cc1ccccc1",
        "ip": 13.323305315341791,
        "ip_corrected": 8.477305315341791,
        "ea": 3.959877946938991,
        "homo": -0.3831985290395731,
        "lumo": -0.2501966690470822,
        "charges": {
            "1": -0.08578934436600626,
            "2": -0.030259830597504936,
            "3": 0.01460321229207634,
            "4": -0.032430750206366904,
            "5": -0.029945437580900583,
            "6": -0.030379977266510892,
            "7": -0.029893803249294533,
            "8": -0.033985609164289644,
            "9": 0.038721208943534896,
            "10": 0.036165150785770366,
            "11": 0.033044651543264955,
            "12": 0.03404524115950842,
            "13": 0.028965873902585763,
            "14": 0.02897855112451052,
            "15": 0.028735857233840652,
            "16": 0.029425005445779806
        },
        "dipole": [
            -0.00599695759505601,
            0.00019607223034193996,
            -0.0018463290012354543
        ],
        "global_electrophilicity": 0.7692971421446727,
        "global_nucleophilicity": -8.477305315341791,
        "fukui_electrophilicity": {
            "1": 0.07209309972414436,
            "2": 0.04352510810351072,
            "3": 0.06230438364782903,
            "4": 0.03213425829454332,
            "5": 0.026312904098299825,
            "6": 0.06792045239213465,
            "7": 0.02876303434297292,
            "8": 0.03213381752054322,
            "9": 0.08376002497375698,
            "10": 0.09874578293688194,
            "11": 0.08145474392689236,
            "12": 0.06271242240018035,
            "13": 0.07540055911977092,
            "14": 0.08585900759002232,
            "15": 0.07693189708388407,
            "16": 0.06994850384463236
        },
        "fukui_nucleophilicity": {
            "1": 0.07260243947817689,
            "2": 0.04230113696056051,
            "3": 0.06268064465096645,
            "4": 0.03400845310298767,
            "5": 0.03110749772289005,
            "6": 0.07019025477516763,
            "7": 0.03211552237109847,
            "8": 0.03545308497970195,
            "9": 0.07943182497266889,
            "10": 0.09534951030583766,
            "11": 0.07725609403564751,
            "12": 0.06257820938745395,
            "13": 0.07457311950887512,
            "14": 0.0843599501650384,
            "15": 0.07603725882191792,
            "16": 0.06995499876126071
        },
        "boltzmann_weights": [
            0.500000013411314,
            0.499999986588686
        ],
        "best_conformer_elements": [
            6,
            6,
            6,
            6,
            6,
            6,
            6,
            6,
            1,
            1,
            1,
            1,
            1,
            1,
            1,
            1
        ],
        "best_conformer_coordinates": [
            [
                -2.7996504883392213,
                0.5067268078443541,
                -0.3307757375296494
            ],
            [
                -1.8569195165461714,
                -0.42690007797501867,
                -0.28622356006066363
            ],
            [
                -0.41676751008175084,
                -0.2137695987077826,
                -0.201669273122216
            ],
            [
                0.42662331397264364,
                -1.3257786864929022,
                -0.16462382115517377
            ],
            [
                1.7979836205106778,
                -1.1786700332337077,
                -0.08467855669649194
            ],
            [
                2.3586778805752897,
                0.08669579947474147,
                -0.03984625155398522
            ],
            [
                1.535500161801921,
                1.2006125291369882,
                -0.07571377159817176
            ],
            [
                0.16438284527030772,
                1.054224105562994,
                -0.15563770481452763
            ],
            [
                -2.5807350472122574,
                1.5604467593574072,
                -0.30764549962305027
            ],
            [
                -3.84233837136736,
                0.2458441308630186,
                -0.39306838601271116
            ],
            [
                -2.1533557273489103,
                -1.4689784286781729,
                -0.3136745326715254
            ],
            [
                -0.004100778556855408,
                -2.317010607449955,
                -0.1992554256323922
            ],
            [
                2.432537807928637,
                -2.052797839845991,
                -0.05718467471006832
            ],
            [
                3.4304258000072263,
                0.20491108070838962,
                0.022664187100062603
            ],
            [
                1.9676045890247913,
                2.190467602677497,
                -0.04101419015886248
            ],
            [
                -0.4598685796390594,
                1.9339764620498727,
                -0.18248094282351895
            ]
        ],
        "best_conformer_energy": -21.158608850502983,
        "fukui_radical": {
            "1": 0.07234813599322018,
            "2": 0.04291309873393513,
            "3": 0.06249235896699714,
            "4": 0.03379355109266154,
            "5": 0.03043928194186729,
            "6": 0.06905534188080434,
            "7": 0.028710059427083993,
            "8": 0.03307125813746206,
            "9": 0.08159578301382218,
            "10": 0.09704772989059883,
            "11": 0.07935561247948747,
            "12": 0.06995185022654472,
            "13": 0.0764846271348809,
            "14": 0.0851094403734144,
            "15": 0.07498679088705272,
            "16": 0.06264507982020588
        }
    },
    "monomer2_data": {
        "smiles": "C=C(C#N)C(F)(F)F",
        "ip": 16.19924428852051,
        "ip_corrected": 11.35324428852051,
        "ea": 5.1584541858264705,
        "homo": -0.4636014125584203,
        "lumo": -0.3268107567621817,
        "charges": {
            "1": -0.05035490810194819,
            "2": -0.000866442724706068,
            "3": 0.12369238092392335,
            "4": -0.16853839771993512,
            "5": 0.49651510803827126,
            "6": -0.1959643510202913,
            "7": -0.19815578384462487,
            "8": -0.19596430833271994,
            "9": 0.09393221361388085,
            "10": 0.09570448916814377
        },
        "dipole": [
            0.7342389716789728,
            -1.3598287780627412,
            0.01235225667608327
        ],
        "global_electrophilicity": 1.5407470800162077,
        "global_nucleophilicity": -11.35324428852051,
        "fukui_electrophilicity": {
            "1": 0.12073655428484877,
            "2": 0.11742974961501189,
            "3": 0.0665927471481303,
            "4": 0.2593502932091432,
            "5": 0.00902139450869971,
            "6": 0.053936530838138375,
            "7": 0.04575929770201356,
            "8": 0.0539365168994404,
            "9": 0.1326738384014421,
            "10": 0.140563077393133
        },
        "fukui_nucleophilicity": {
            "1": 0.03476638143079987,
            "2": 0.06206754640192715,
            "3": 0.04918936465449886,
            "4": 0.2950966594446266,
            "5": 0.011580875769630516,
            "6": 0.09773734400377937,
            "7": 0.09003230294489264,
            "8": 0.0977372664852457,
            "9": 0.1309889669427576,
            "10": 0.13080329192216456
        },
        "boltzmann_weights": [
            0.16667745833631817,
            0.1666774565997054,
            0.16667725297523925,
            0.1666129237962453,
            0.16667745264544628,
            0.16667745564704564
        ],
        "best_conformer_elements": [
            6,
            6,
            6,
            7,
            6,
            9,
            9,
            9,
            1,
            1
        ],
        "best_conformer_coordinates": [
            [
                -1.0314882802940843,
                -0.9984055276257959,
                0.33318478668499873
            ],
            [
                0.07034563581283483,
                -0.3123258808572291,
                0.04381482349169975
            ],
            [
                1.3531963013636843,
                -0.9115520443971177,
                -0.04856921272100516
            ],
            [
                2.3847110235768376,
                -1.4001747504372928,
                -0.12166183665987026
            ],
            [
                0.05407703481373941,
                1.1788293453246148,
                -0.21449987789558356
            ],
            [
                0.5026171958593135,
                1.4781791879142152,
                -1.441192794208109
            ],
            [
                0.8249688771207078,
                1.8449738864480119,
                0.6558743237395237
            ],
            [
                -1.1763918133888775,
                1.6956728738098175,
                -0.11575790097314317
            ],
            [
                -1.99254916147644,
                -0.515979643744557,
                0.3965344993307477
            ],
            [
                -0.9894868186794764,
                -2.0592174517264397,
                0.5122732050860573
            ]
        ],
        "best_conformer_energy": -26.632375997666177,
        "fukui_radical": {
            "1": 0.07774039883259112,
            "2": 0.08975398306147715,
            "3": 0.05788708340100526,
            "4": 0.2772045112589126,
            "5": 0.010314539772359632,
            "6": 0.07587911857395871,
            "7": 0.07587906806129828,
            "8": 0.06787228479381333,
            "9": 0.13565224921641633,
            "10": 0.13181676302831083
        }
    }
}