{
    "file": "paper_434.json",
    "monomer1_s": "C=Cn1c2ccccc2c2ccccc21",
    "monomer2_s": "C=Cc1ccc(Cl)cc1",
    "monomer1": "N-Vinyl Carbazole",
    "monomer2": "p-Chlorostyrene",
    "r_values": {
        "constant_1": 0.023,
        "constant_2": 7.0
    },
    "conf_intervals": {
        "constant_conf_1": 0.003,
        "constant_conf_2": 0.2
    },
    "temperature": 30.0,
    "temperature_unit": "\u00b0C",
    "solvent": "C1CCOC1",
    "method": "solvent",
    "r-product": 0.16,
    "source": "https://doi.org/10.1002/pol.1968.150060409",
    "calculation_method": null,
    "polymerization_type": "free radical",
    "logP": 0.7968,
    "monomer1_data": {
        "smiles": "C=Cn1c2ccccc2c2ccccc21",
        "ip": 12.152862292499544,
        "ip_corrected": 7.306862292499543,
        "ea": 4.400686784555404,
        "homo": -0.3610609042546463,
        "lumo": -0.2455594400793154,
        "charges": {
            "1": -0.1120127847893681,
            "2": 0.021719941312140015,
            "3": -0.02684521850627941,
            "4": 0.043947835967981366,
            "5": -0.049712954891556,
            "6": -0.03337780492779355,
            "7": -0.040108165441353365,
            "8": -0.03258783273419225,
            "9": -0.015634587774744767,
            "10": -0.016044562456519765,
            "11": -0.032772252863292044,
            "12": -0.04003508195391307,
            "13": -0.033746671381919745,
            "14": -0.04987259311904255,
            "15": 0.046337915053070805,
            "16": 0.04269075693185816,
            "17": 0.04777705191251751,
            "18": 0.04133531602993661,
            "19": 0.027062068737286768,
            "20": 0.029649847571299282,
            "21": 0.028648892232512397,
            "22": 0.03146408529001631,
            "23": 0.031243443507664347,
            "24": 0.02840140513493172,
            "25": 0.029534736214496347,
            "26": 0.032937214944262085
        },
        "dipole": [
            0.002647547791467726,
            0.37933146300077836,
            -0.08915068727480299
        ],
        "global_electrophilicity": 0.7591555378323623,
        "global_nucleophilicity": -7.306862292499543,
        "fukui_electrophilicity": {
            "1": 0.031707972861884176,
            "2": 0.015073741518331359,
            "3": 0.025110664778067282,
            "4": 0.019068017337095733,
            "5": 0.023283418926320215,
            "6": 0.04682257648159363,
            "7": 0.017277421612189738,
            "8": 0.031992284330039596,
            "9": 0.036941800588403455,
            "10": 0.03679939468493545,
            "11": 0.03089329985175108,
            "12": 0.01746033213625827,
            "13": 0.046091654348420795,
            "14": 0.021475097741573225,
            "15": 0.019342975188853237,
            "16": 0.055248247904230385,
            "17": 0.03742506889961514,
            "18": 0.04081168081043028,
            "19": 0.05123687816755393,
            "20": 0.06409397627328145,
            "21": 0.05783872392773721,
            "22": 0.053370625822635354,
            "23": 0.05286702530271854,
            "24": 0.057618041453989036,
            "25": 0.0632138254854176,
            "26": 0.0469352535667204
        },
        "fukui_nucleophilicity": {
            "1": 0.044219026736512596,
            "2": 0.005337642125176872,
            "3": 0.08329757012798608,
            "4": 0.009701325877810307,
            "5": 0.032212984336940226,
            "6": 0.01790650914018309,
            "7": 0.040323479587904894,
            "8": 0.023530840657571585,
            "9": 0.023537628590767794,
            "10": 0.024000564097451355,
            "11": 0.023769203472828217,
            "12": 0.040471258162523886,
            "13": 0.017449051883969856,
            "14": 0.032056564640407646,
            "15": 0.009410255533763012,
            "16": 0.06385209928451985,
            "17": 0.0466840062985438,
            "18": 0.05228571971145105,
            "19": 0.046157847273960356,
            "20": 0.053606296493425507,
            "21": 0.05862894148800443,
            "22": 0.048343465549768254,
            "23": 0.048766630436289385,
            "24": 0.058827688803506945,
            "25": 0.05324083176240828,
            "26": 0.04238256792633032
        },
        "boltzmann_weights": [
            0.4999919417729012,
            0.5000080582270988
        ],
        "best_conformer_elements": [
            6,
            6,
            7,
            6,
            6,
            6,
            6,
            6,
            6,
            6,
            6,
            6,
            6,
            6,
            6,
            1,
            1,
            1,
            1,
            1,
            1,
            1,
            1,
            1,
            1,
            1
        ],
        "best_conformer_coordinates": [
            [
                -1.2966228239040163,
                3.147334781313656,
                0.3469522209012655
            ],
            [
                -0.3064982877779927,
                2.459373189549611,
                -0.20468962868979357
            ],
            [
                -0.11821042151850905,
                1.087802336630937,
                -0.1284556163283467
            ],
            [
                1.1292436437363544,
                0.48696781621547813,
                -0.1205577272048345
            ],
            [
                2.3888666043198503,
                1.0647120434244706,
                -0.1860551611734446
            ],
            [
                3.4877706225461695,
                0.2269580051346108,
                -0.14640603416764178
            ],
            [
                3.346776762365483,
                -1.1534380028112416,
                -0.031050725803036403
            ],
            [
                2.0963979285832757,
                -1.7336822474336295,
                0.049150125356812416
            ],
            [
                0.9786635334489519,
                -0.9119234456967535,
                0.0038867845470203295
            ],
            [
                -0.43413817893348533,
                -1.1651750306204849,
                0.05614588993519443
            ],
            [
                -1.1806184348343192,
                -2.3320677801862937,
                0.14469209686983334
            ],
            [
                -2.5576921476614394,
                -2.2403092505011415,
                0.12431061906445817
            ],
            [
                -3.1848346136910393,
                -1.0044253980575715,
                -0.007023437673522658
            ],
            [
                -2.4612124479227466,
                0.17035406087709742,
                -0.09196503599582069
            ],
            [
                -1.0766679349904797,
                0.09203144010797794,
                -0.03445641288103654
            ],
            [
                -2.058081701512318,
                2.6893449957217794,
                0.9512022481732624
            ],
            [
                -1.358978069055379,
                4.211729720333272,
                0.21301770343245235
            ],
            [
                0.4712694666194586,
                2.967584447746465,
                -0.761849230852121
            ],
            [
                2.5199079864284863,
                2.133505737727896,
                -0.26166969547288044
            ],
            [
                4.4782899463086405,
                0.6540722274804622,
                -0.20119411471326643
            ],
            [
                4.230141839301257,
                -1.7737312267004897,
                -2.79861948139464e-05
            ],
            [
                1.9852514684623501,
                -2.803143570381114,
                0.1456820182213287
            ],
            [
                -0.688082355560756,
                -3.2898458925790446,
                0.21930018424695782
            ],
            [
                -3.158665635999124,
                -3.134688167396403,
                0.19467007439601056
            ],
            [
                -4.263341692552538,
                -0.9612656522527927,
                -0.04818827899132328
            ],
            [
                -2.9689350456227306,
                1.1119248623530804,
                -0.22542087371096617
            ]
        ],
        "best_conformer_energy": -38.505550880752004,
        "fukui_radical": {
            "1": 0.037955835977534644,
            "2": 0.010203492163483575,
            "3": 0.054204963061429245,
            "4": 0.014382708337729394,
            "5": 0.02775011766429169,
            "6": 0.03236311590565724,
            "7": 0.02880078614594411,
            "8": 0.02776291212424098,
            "9": 0.03023845939573079,
            "10": 0.030399950363977055,
            "11": 0.027332503106019458,
            "12": 0.028966436564689918,
            "13": 0.03176849720765027,
            "14": 0.026767812617524783,
            "15": 0.014376357050836022,
            "16": 0.04205793720651868,
            "17": 0.059548070187100614,
            "18": 0.046553345724391335,
            "19": 0.048697014361345624,
            "20": 0.05884957778967771,
            "21": 0.058234147006232584,
            "22": 0.05085722113339963,
            "23": 0.050817637240514885,
            "24": 0.05822312102191429,
            "25": 0.05822645513699652,
            "26": 0.04466152550519763
        }
    },
    "monomer2_data": {
        "smiles": "C=Cc1ccc(Cl)cc1",
        "ip": 13.089509972897872,
        "ip_corrected": 8.243509972897872,
        "ea": 4.46753840397591,
        "homo": -0.3876762049256654,
        "lumo": -0.26290554817683254,
        "charges": {
            "1": -0.08437897148590527,
            "2": -0.02951280512467471,
            "3": 0.014277770492118258,
            "4": -0.032512479342432295,
            "5": -0.03970482571900783,
            "6": 0.09810992634723179,
            "7": -0.1818836742708575,
            "8": -0.03975778276762927,
            "9": -0.0307752160082959,
            "10": 0.04252694033135297,
            "11": 0.0420900244719016,
            "12": 0.038456454701334554,
            "13": 0.045043676095888274,
            "14": 0.05422181722727508,
            "15": 0.054428284764132244,
            "16": 0.04937086028757451
        },
        "dipole": [
            0.7399244273297263,
            -0.11126050169088585,
            -0.034201299415986014
        ],
        "global_electrophilicity": 0.8968219373619927,
        "global_nucleophilicity": -8.243509972897872,
        "fukui_electrophilicity": {
            "1": 0.06720464802644595,
            "2": 0.03844467104691166,
            "3": 0.06235378600201666,
            "4": 0.030598269883656527,
            "5": 0.02720900648049799,
            "6": 0.06403296542242098,
            "7": 0.13766020849671656,
            "8": 0.02450564285977161,
            "9": 0.03083126828826757,
            "10": 0.07791247596454857,
            "11": 0.0925510879229567,
            "12": 0.07599996740785017,
            "13": 0.06734715301290978,
            "14": 0.07207013601426812,
            "15": 0.0706392313216928,
            "16": 0.06063948184910452
        },
        "fukui_nucleophilicity": {
            "1": 0.05864457817551008,
            "2": 0.03214980811660229,
            "3": 0.05302898888782205,
            "4": 0.02813502463594133,
            "5": 0.026503193614219496,
            "6": 0.03528088937568882,
            "7": 0.26868587187256143,
            "8": 0.025485622934394367,
            "9": 0.02709124314248669,
            "10": 0.06473283743229755,
            "11": 0.07953194690000787,
            "12": 0.06385971108085756,
            "13": 0.061094111716672284,
            "14": 0.06094068401531051,
            "15": 0.059760300391368225,
            "16": 0.05507518770825419
        },
        "boltzmann_weights": [
            0.4999999633312457,
            0.5000000366687544
        ],
        "best_conformer_elements": [
            6,
            6,
            6,
            6,
            6,
            6,
            17,
            6,
            6,
            1,
            1,
            1,
            1,
            1,
            1,
            1
        ],
        "best_conformer_coordinates": [
            [
                -2.7563325874149833,
                -0.5983048707189998,
                0.6201354399339876
            ],
            [
                -1.8864869683326972,
                0.3624939774009337,
                0.33136482973605436
            ],
            [
                -0.46203569375815157,
                0.20137314541715712,
                0.0675090370239481
            ],
            [
                0.3029336021373632,
                1.333702954502559,
                -0.22069639377240272
            ],
            [
                1.6563211274493033,
                1.2423605509751516,
                -0.4786961200820152
            ],
            [
                2.2688451667879,
                -0.00025901733484309797,
                -0.45098536169527664
            ],
            [
                3.962892325765557,
                -0.12890288275843217,
                -0.7721444354030434
            ],
            [
                1.534873783738418,
                -1.142009705044339,
                -0.1678537582561129
            ],
            [
                0.18259094987809796,
                -1.0368083203979022,
                0.08826106701262806
            ],
            [
                -3.793992343933507,
                -0.37559325685843614,
                0.7996842385079365
            ],
            [
                -2.4801893144096625,
                -1.636216616296085,
                0.6902680417803876
            ],
            [
                -2.2376328089615005,
                1.3858985617095425,
                0.2779203370449375
            ],
            [
                -0.17326473407524853,
                2.303429637634756,
                -0.24268879906795168
            ],
            [
                2.2352133307959074,
                2.12545322118892,
                -0.6999549836854841
            ],
            [
                2.022951499479541,
                -2.104078302586486,
                -0.14917417178284242
            ],
            [
                -0.37668733514617025,
                -1.9325390715416917,
                0.3070510379970139
            ]
        ],
        "best_conformer_energy": -25.21162366076902,
        "fukui_radical": {
            "1": 0.06292408163621727,
            "2": 0.03529760563037617,
            "3": 0.05769161310551088,
            "4": 0.02936536119754886,
            "5": 0.026856325327944797,
            "6": 0.04965696854521313,
            "7": 0.2031738690183079,
            "8": 0.02499558637393707,
            "9": 0.028962523603110153,
            "10": 0.08604120372492984,
            "11": 0.07132322649064385,
            "12": 0.06992942960627409,
            "13": 0.0642195336924971,
            "14": 0.0665052451082759,
            "15": 0.06519980283796807,
            "16": 0.0578576241012515
        }
    }
}