{
    "file": "paper_390.json",
    "monomer1_s": "C=C(C)C(=O)CC(C)=O",
    "monomer2_s": "C=CN1CCCC1=O",
    "monomer1": "Methacryloyl Acetone",
    "monomer2": "N-Vinylpyrrolidone",
    "r_values": {
        "constant_1": 5.38,
        "constant_2": 0.02
    },
    "conf_intervals": {
        "constant_conf_1": 0.05,
        "constant_conf_2": 0.005
    },
    "temperature": null,
    "temperature_unit": "\u00b0C",
    "solvent": null,
    "method": "bulk",
    "r-product": null,
    "source": "https://doi.org/10.1002/pol.1977.130150410",
    "calculation_method": "Finemann-Ross",
    "polymerization_type": "free radical",
    "monomer1_data": {
        "smiles": "C=C(C)C(=O)CC(C)=O",
        "ip": 13.696673210332573,
        "ip_corrected": 8.850673210332573,
        "ea": 4.933497850140609,
        "homo": -0.4024346969390613,
        "lumo": -0.290571775510271,
        "charges": {
            "1": -0.08562216719141365,
            "2": -0.0013830908412973686,
            "3": -0.108617572226869,
            "4": 0.23809000142218809,
            "5": -0.36194341308828815,
            "6": -0.1156738218685461,
            "7": 0.2512422903674696,
            "8": -0.14323693913501584,
            "9": -0.3559645324247374,
            "10": 0.05596084969230966,
            "11": 0.07185887289015025,
            "12": 0.0702097337574884,
            "13": 0.05475734573237258,
            "14": 0.04922937706830591,
            "15": 0.07860333839432712,
            "16": 0.0709744661586323,
            "17": 0.06981962529266655,
            "18": 0.07471490526815416,
            "19": 0.0869807307321126
        },
        "dipole": [
            -0.19436510571367305,
            -0.005900038367825618,
            0.6405891242956919
        ],
        "global_electrophilicity": 1.1395826658507349,
        "global_nucleophilicity": -8.850673210332573,
        "fukui_electrophilicity": {
            "1": 0.056462577165370995,
            "2": 0.04549339527673118,
            "3": -0.02895503143514591,
            "4": 0.06932288603203443,
            "5": 0.16790911682108578,
            "6": -0.01854276770922203,
            "7": 0.05382593168965072,
            "8": -0.02652409150172201,
            "9": 0.1235368313296702,
            "10": 0.08909648247582282,
            "11": 0.057749074375587295,
            "12": 0.04059383075585418,
            "13": 0.04832600889536975,
            "14": 0.048734631859248846,
            "15": 0.07227692840324214,
            "16": 0.05633289938695245,
            "17": 0.051141851370358815,
            "18": 0.0608919832656529,
            "19": 0.032327461543474025
        },
        "fukui_nucleophilicity": {
            "1": 0.032309025236733416,
            "2": 0.04319875298889478,
            "3": -0.017393882830162785,
            "4": 0.01715758498625866,
            "5": 0.13525343155038677,
            "6": 0.024298548053716756,
            "7": 0.020944098505137898,
            "8": -0.005897139909554122,
            "9": 0.14361673238617828,
            "10": 0.07855695135515703,
            "11": 0.04623640804759355,
            "12": 0.05627419303061332,
            "13": 0.07471656918464097,
            "14": 0.06902084142244944,
            "15": 0.06285937907647154,
            "16": 0.054542589691741236,
            "17": 0.06119236899928798,
            "18": 0.06229062990784315,
            "19": 0.04082291836888538
        },
        "boltzmann_weights": [
            0.06755122938194127,
            0.06755123065714783,
            0.06755094878167511,
            0.0675512364089219,
            0.10425727399472899,
            0.10425727736726403,
            0.10425473921066883,
            0.10425685079795577,
            0.10425715776610471,
            0.10425715709920892,
            0.10425489853438276
        ],
        "best_conformer_elements": [
            6,
            6,
            6,
            6,
            8,
            6,
            6,
            6,
            8,
            1,
            1,
            1,
            1,
            1,
            1,
            1,
            1,
            1,
            1
        ],
        "best_conformer_coordinates": [
            [
                -1.7004812521239883,
                0.35027995524627,
                1.2332901611304923
            ],
            [
                -1.4777045763735297,
                -0.2775774476096339,
                0.08157218462687327
            ],
            [
                -2.4757432598283553,
                -1.1867243371956024,
                -0.5673620001077683
            ],
            [
                -0.17196740586826784,
                -0.19657250224585526,
                -0.6153043789322428
            ],
            [
                0.24931529840926955,
                -1.0961524184523563,
                -1.3066014411653688
            ],
            [
                0.6551342833014905,
                1.0663462506439438,
                -0.4026115553547052
            ],
            [
                1.6680111647742544,
                0.753142379476473,
                0.6906380464947475
            ],
            [
                2.8571398955815317,
                -0.018314916652844588,
                0.2060058219641756
            ],
            [
                1.488064694674157,
                1.07989274708458,
                1.8351937788472223
            ],
            [
                -0.9622539643004134,
                0.9638993745525684,
                1.71921819315478
            ],
            [
                -2.633747713836173,
                0.22585388865118783,
                1.7574738382845037
            ],
            [
                -2.8043327203909665,
                -0.7626875179331296,
                -1.5158992834399707
            ],
            [
                -3.340397699133958,
                -1.3401617537601307,
                0.0714918861723669
            ],
            [
                -2.005488810651005,
                -2.144236913405888,
                -0.7838792922821031
            ],
            [
                1.182449521450776,
                1.2804981046739623,
                -1.3314938272231278
            ],
            [
                0.02615040477644259,
                1.9035201089705773,
                -0.10949547450215881
            ],
            [
                2.5232942475190305,
                -0.827130261592954,
                -0.4421950711248733
            ],
            [
                3.4978340500439313,
                0.6386389203195303,
                -0.3801667649157216
            ],
            [
                3.4247238525593025,
                -0.4125136660623742,
                1.0446428927817937
            ]
        ],
        "best_conformer_energy": -28.17375150911746,
        "fukui_radical": {
            "1": 0.04438513044828943,
            "2": 0.04434483140370035,
            "3": -0.023176724498062545,
            "4": 0.04323932233374175,
            "5": 0.15157903412344453,
            "6": 0.002879208169178131,
            "7": 0.03738432796399355,
            "8": -0.016212461888940613,
            "9": 0.13357974792061908,
            "10": 0.051992427857245394,
            "11": 0.08382645441939725,
            "12": 0.061521472447730825,
            "13": 0.05887524942369753,
            "14": 0.04843980731618108,
            "15": 0.0675688843765003,
            "16": 0.055437534037659754,
            "17": 0.03657475293850208,
            "18": 0.06159339136406843,
            "19": 0.056167609869322004
        }
    },
    "monomer2_data": {
        "smiles": "C=CN1CCCC1=O",
        "ip": 13.37823492640183,
        "ip_corrected": 8.53223492640183,
        "ea": 3.110490528713574,
        "homo": -0.3789173403999514,
        "lumo": -0.23113056633898044,
        "charges": {
            "1": -0.1211077192016036,
            "2": 0.022136294251985086,
            "3": -0.06910573709137108,
            "4": -0.0027676116833827286,
            "5": -0.06509690367358469,
            "6": -0.0910107644195765,
            "7": 0.27161945079505045,
            "8": -0.4175889401795349,
            "9": 0.043933493954723554,
            "10": 0.03613009463987398,
            "11": 0.06721815522561857,
            "12": 0.04720038729052176,
            "13": 0.054155234434116635,
            "14": 0.04832987133732095,
            "15": 0.048575903425175586,
            "16": 0.06457369537303193,
            "17": 0.06280509552163123
        },
        "dipole": [
            -0.6005621140091192,
            1.1773082192286208,
            -1.014835901013765
        ],
        "global_electrophilicity": 0.5623858941528388,
        "global_nucleophilicity": -8.53223492640183,
        "fukui_electrophilicity": {
            "1": 0.07967459628825524,
            "2": 0.05568424198036035,
            "3": 0.057412751954590835,
            "4": -0.026974417232942,
            "5": -0.013366967924093448,
            "6": -0.017133699634112196,
            "7": 0.10331742730875593,
            "8": 0.17546881644801143,
            "9": 0.1027128203909006,
            "10": 0.09599163109041359,
            "11": 0.07315344622416288,
            "12": 0.044631764775846995,
            "13": 0.042029225447296745,
            "14": 0.03893015663967909,
            "15": 0.05281637168810928,
            "16": 0.06567325131554697,
            "17": 0.06997858323921419
        },
        "fukui_nucleophilicity": {
            "1": 0.07799880851613611,
            "2": 0.025638882515713057,
            "3": 0.11463610510736116,
            "4": -0.02751235725652449,
            "5": -0.010643515034231832,
            "6": -0.006035069381128619,
            "7": 0.012914812089909411,
            "8": 0.1488798292303059,
            "9": 0.09658495171038332,
            "10": 0.08084914564587323,
            "11": 0.06895802933258562,
            "12": 0.09029944860201633,
            "13": 0.07229698616061173,
            "14": 0.06182167595218704,
            "15": 0.059260189934605086,
            "16": 0.0666896227075475,
            "17": 0.06736245417149782
        },
        "boltzmann_weights": [
            0.9806987540794585,
            0.019301245920541447
        ],
        "best_conformer_elements": [
            6,
            6,
            7,
            6,
            6,
            6,
            6,
            8,
            1,
            1,
            1,
            1,
            1,
            1,
            1,
            1,
            1
        ],
        "best_conformer_coordinates": [
            [
                2.687883675849802,
                -0.3091231031751782,
                -0.4581222692059385
            ],
            [
                1.7469003080223642,
                0.5935398312771931,
                -0.22158226185358604
            ],
            [
                0.40627031968457294,
                0.3277863031989164,
                -0.015148111652269534
            ],
            [
                -0.17036383038051575,
                -0.9984681264882777,
                -0.07052705140275553
            ],
            [
                -1.6795754782162244,
                -0.7391960973383871,
                -0.12462843314799198
            ],
            [
                -1.834480744874304,
                0.622867799631091,
                0.546371164595653
            ],
            [
                -0.4912791513874744,
                1.298264477009125,
                0.32939861205884857
            ],
            [
                -0.23676855195303803,
                2.472541872049356,
                0.45210183635978757
            ],
            [
                3.7056316728338343,
                -0.00313571129953937,
                -0.6117104207694547
            ],
            [
                2.4901456742032435,
                -1.365281404007504,
                -0.5065624573833275
            ],
            [
                1.9630053859678005,
                1.6516146896530073,
                -0.16458790408329801
            ],
            [
                0.19167278807825605,
                -1.5335021091456422,
                -0.9513127874911355
            ],
            [
                0.11091177851464268,
                -1.567575897883727,
                0.8242125685376372
            ],
            [
                -2.0093070211358524,
                -0.6823138612351546,
                -1.1625782486734006
            ],
            [
                -2.2458107479439713,
                -1.52358964634623,
                0.3732057211857435
            ],
            [
                -2.643082661796475,
                1.225605620291323,
                0.13824847602559506
            ],
            [
                -1.9917534154666525,
                0.5299653585179732,
                1.6232215668998904
            ]
        ],
        "best_conformer_energy": -24.43062637077295,
        "fukui_radical": {
            "1": 0.07883645919113791,
            "2": 0.04066147317653313,
            "3": 0.08602391891892724,
            "4": -0.027242996567131035,
            "5": -0.01200582889757431,
            "6": -0.011584216763966697,
            "7": 0.058116436568951435,
            "8": 0.1621757264448256,
            "9": 0.09964858840245029,
            "10": 0.088420172719999,
            "11": 0.07105520602086494,
            "12": 0.057162869570404305,
            "13": 0.06746515739263172,
            "14": 0.05037589502118549,
            "15": 0.056038656330691404,
            "16": 0.06618155315839346,
            "17": 0.06867092931409083
        }
    }
}