{
    "file": "paper_124.json",
    "monomer1_s": "C=CC=CF",
    "monomer2_s": "C=Cc1ccccc1",
    "monomer1": "Fluorobutadiene",
    "monomer2": "Styrene",
    "r_values": {
        "constant_1": 1.55,
        "constant_2": 0.5
    },
    "conf_intervals": {
        "constant_conf_1": 0.1,
        "constant_conf_2": 0.1
    },
    "temperature": 50.0,
    "temperature_unit": "\u00b0C",
    "solvent": "O",
    "method": "emulsion",
    "r-product": null,
    "source": "https://doi.org/10.1139/v55-163",
    "calculation_method": "Alfrey-Price",
    "polymerization_type": "free radical",
    "logP": -0.8247,
    "monomer1_data": {
        "smiles": "C=CC=CF",
        "ip": 14.255875098160283,
        "ip_corrected": 9.409875098160283,
        "ea": 3.6661435335117685,
        "homo": -0.39787030814812535,
        "lumo": -0.261986409345681,
        "charges": {
            "1": -0.08383771833133824,
            "2": -0.025300314524573646,
            "3": -0.04993038378445429,
            "4": 0.11905418702831089,
            "5": -0.21321910434177024,
            "6": 0.04844532251397963,
            "7": 0.04544500847941542,
            "8": 0.039289700505460615,
            "9": 0.06753341922518957,
            "10": 0.052519883229781524
        },
        "dipole": [
            -0.7371446708393142,
            -0.26023677434179826,
            -0.09574313390903785
        ],
        "global_electrophilicity": 0.7995151513540424,
        "global_nucleophilicity": -9.409875098160283,
        "fukui_electrophilicity": {
            "1": 0.09594216581244913,
            "2": 0.06116465303303905,
            "3": 0.06420097862991207,
            "4": 0.10713501821802568,
            "5": 0.11207052308730023,
            "6": 0.1139996991135179,
            "7": 0.12437948698274677,
            "8": 0.10259193935953163,
            "9": 0.10116037114038592,
            "10": 0.11735516462309806
        },
        "fukui_nucleophilicity": {
            "1": 0.09286169709416525,
            "2": 0.06059448700841217,
            "3": 0.06879715587306989,
            "4": 0.0763420857807367,
            "5": 0.18035927313328318,
            "6": 0.10551388824625221,
            "7": 0.11826815323877433,
            "8": 0.09636069976711868,
            "9": 0.09295487917429437,
            "10": 0.1079476806838959
        },
        "boltzmann_weights": [
            0.9634300818519066,
            0.030115928364109174,
            0.006453989783984064
        ],
        "best_conformer_elements": [
            6,
            6,
            6,
            6,
            9,
            1,
            1,
            1,
            1,
            1
        ],
        "best_conformer_coordinates": [
            [
                -1.6830111833709485,
                0.6264131522499837,
                -0.341664388767076
            ],
            [
                -0.6627403976312172,
                0.23089388751661713,
                0.4120106506786906
            ],
            [
                0.6012737759303707,
                -0.20899525342519268,
                -0.12999857200665355
            ],
            [
                1.6129938440005498,
                -0.601755301943741,
                0.6337263841256473
            ],
            [
                2.7801987474395893,
                -1.007152043833425,
                0.10961883360685833
            ],
            [
                -1.618108752392263,
                0.6394048881057817,
                -1.4170683401029904
            ],
            [
                -2.615201698473755,
                0.9498370462993928,
                0.08713133480268262
            ],
            [
                -0.7473232021374441,
                0.22493193058186678,
                1.4905305564688731
            ],
            [
                0.7133339995945285,
                -0.2131212854899417,
                -1.2048314487271399
            ],
            [
                1.6185848617488063,
                -0.6404570200613364,
                1.7135856113531416
            ]
        ],
        "best_conformer_energy": -15.782804798512494,
        "fukui_radical": {
            "1": 0.09440159349743991,
            "2": 0.06087953894624077,
            "3": 0.0664990935006787,
            "4": 0.09173852456128037,
            "5": 0.1462149375193681,
            "6": 0.10975682561338035,
            "7": 0.1213238934418174,
            "8": 0.09947647071662928,
            "9": 0.09705766794256111,
            "10": 0.11265145426061218
        }
    },
    "monomer2_data": {
        "smiles": "C=Cc1ccccc1",
        "ip": 13.323305315341791,
        "ip_corrected": 8.477305315341791,
        "ea": 3.959877946938991,
        "homo": -0.3831985290395731,
        "lumo": -0.2501966690470822,
        "charges": {
            "1": -0.08578934436600626,
            "2": -0.030259830597504936,
            "3": 0.01460321229207634,
            "4": -0.032430750206366904,
            "5": -0.029945437580900583,
            "6": -0.030379977266510892,
            "7": -0.029893803249294533,
            "8": -0.033985609164289644,
            "9": 0.038721208943534896,
            "10": 0.036165150785770366,
            "11": 0.033044651543264955,
            "12": 0.03404524115950842,
            "13": 0.028965873902585763,
            "14": 0.02897855112451052,
            "15": 0.028735857233840652,
            "16": 0.029425005445779806
        },
        "dipole": [
            -0.00599695759505601,
            0.00019607223034193996,
            -0.0018463290012354543
        ],
        "global_electrophilicity": 0.7692971421446727,
        "global_nucleophilicity": -8.477305315341791,
        "fukui_electrophilicity": {
            "1": 0.07209309972414436,
            "2": 0.04352510810351072,
            "3": 0.06230438364782903,
            "4": 0.03213425829454332,
            "5": 0.026312904098299825,
            "6": 0.06792045239213465,
            "7": 0.02876303434297292,
            "8": 0.03213381752054322,
            "9": 0.08376002497375698,
            "10": 0.09874578293688194,
            "11": 0.08145474392689236,
            "12": 0.06271242240018035,
            "13": 0.07540055911977092,
            "14": 0.08585900759002232,
            "15": 0.07693189708388407,
            "16": 0.06994850384463236
        },
        "fukui_nucleophilicity": {
            "1": 0.07260243947817689,
            "2": 0.04230113696056051,
            "3": 0.06268064465096645,
            "4": 0.03400845310298767,
            "5": 0.03110749772289005,
            "6": 0.07019025477516763,
            "7": 0.03211552237109847,
            "8": 0.03545308497970195,
            "9": 0.07943182497266889,
            "10": 0.09534951030583766,
            "11": 0.07725609403564751,
            "12": 0.06257820938745395,
            "13": 0.07457311950887512,
            "14": 0.0843599501650384,
            "15": 0.07603725882191792,
            "16": 0.06995499876126071
        },
        "boltzmann_weights": [
            0.500000013411314,
            0.499999986588686
        ],
        "best_conformer_elements": [
            6,
            6,
            6,
            6,
            6,
            6,
            6,
            6,
            1,
            1,
            1,
            1,
            1,
            1,
            1,
            1
        ],
        "best_conformer_coordinates": [
            [
                -2.7996504883392213,
                0.5067268078443541,
                -0.3307757375296494
            ],
            [
                -1.8569195165461714,
                -0.42690007797501867,
                -0.28622356006066363
            ],
            [
                -0.41676751008175084,
                -0.2137695987077826,
                -0.201669273122216
            ],
            [
                0.42662331397264364,
                -1.3257786864929022,
                -0.16462382115517377
            ],
            [
                1.7979836205106778,
                -1.1786700332337077,
                -0.08467855669649194
            ],
            [
                2.3586778805752897,
                0.08669579947474147,
                -0.03984625155398522
            ],
            [
                1.535500161801921,
                1.2006125291369882,
                -0.07571377159817176
            ],
            [
                0.16438284527030772,
                1.054224105562994,
                -0.15563770481452763
            ],
            [
                -2.5807350472122574,
                1.5604467593574072,
                -0.30764549962305027
            ],
            [
                -3.84233837136736,
                0.2458441308630186,
                -0.39306838601271116
            ],
            [
                -2.1533557273489103,
                -1.4689784286781729,
                -0.3136745326715254
            ],
            [
                -0.004100778556855408,
                -2.317010607449955,
                -0.1992554256323922
            ],
            [
                2.432537807928637,
                -2.052797839845991,
                -0.05718467471006832
            ],
            [
                3.4304258000072263,
                0.20491108070838962,
                0.022664187100062603
            ],
            [
                1.9676045890247913,
                2.190467602677497,
                -0.04101419015886248
            ],
            [
                -0.4598685796390594,
                1.9339764620498727,
                -0.18248094282351895
            ]
        ],
        "best_conformer_energy": -21.158608850502983,
        "fukui_radical": {
            "1": 0.07234813599322018,
            "2": 0.04291309873393513,
            "3": 0.06249235896699714,
            "4": 0.03379355109266154,
            "5": 0.03043928194186729,
            "6": 0.06905534188080434,
            "7": 0.028710059427083993,
            "8": 0.03307125813746206,
            "9": 0.08159578301382218,
            "10": 0.09704772989059883,
            "11": 0.07935561247948747,
            "12": 0.06995185022654472,
            "13": 0.0764846271348809,
            "14": 0.0851094403734144,
            "15": 0.07498679088705272,
            "16": 0.06264507982020588
        }
    }
}