{
    "file": "paper_753.json",
    "monomer1_s": "C=CC(=O)C(C)(C)C",
    "monomer2_s": "C=Cc1ccccc1",
    "monomer1": "tert-Butyl Vinyl Ketone",
    "monomer2": "Styrene",
    "r_values": {
        "constant_1": 0.4,
        "constant_2": 0.3
    },
    "conf_intervals": {
        "constant_conf_1": null,
        "constant_conf_2": null
    },
    "temperature": 60.0,
    "temperature_unit": "\u00b0C",
    "solvent": "CC(C)=CCC/C(C)=C/C(=O)SCCNC(=O)CCNC(=O)[C@H](O)C(C)(C)COP(=O)(O)OP(=O)(O)OC[C@H]1O[C@@H](n2cnc3c(N)ncnc32)[C@H](O)[C@@H]1OP(=O)(O)O",
    "method": "bulk",
    "r-product": null,
    "source": "https://doi.org/10.1002/pol.1975.130130913",
    "calculation_method": "curve-fitting",
    "polymerization_type": "free radical",
    "logP": 1.3574000000000008,
    "monomer1_data": {
        "smiles": "C=CC(=O)C(C)(C)C",
        "ip": 13.504174338591957,
        "ip_corrected": 8.658174338591957,
        "ea": 4.239986535181476,
        "homo": -0.38560050181296746,
        "lumo": -0.28186453509605053,
        "charges": {
            "1": -0.05774393761549883,
            "2": -0.051864179175074965,
            "3": 0.22999709412689695,
            "4": -0.3587387665108733,
            "5": 0.00678242228632997,
            "6": -0.10615707941210625,
            "7": -0.10615710760139174,
            "8": -0.1053076962098757,
            "9": 0.07521232775969712,
            "10": 0.05259862390490284,
            "11": 0.046032130930856924,
            "12": 0.03727593456723861,
            "13": 0.04630412381786433,
            "14": 0.03891113677653352,
            "15": 0.03727599708076291,
            "16": 0.038910984997582505,
            "17": 0.04630412248227743,
            "18": 0.03510485452228484,
            "19": 0.047629644135147454,
            "20": 0.04762936913644443
        },
        "dipole": [
            -0.2428368157980205,
            -0.0722074998290866,
            -1.1357473236378715
        ],
        "global_electrophilicity": 0.8748378178556947,
        "global_nucleophilicity": -8.658174338591957,
        "fukui_electrophilicity": {
            "1": 0.09117423595249104,
            "2": 0.05412658580192027,
            "3": 0.09684963505929126,
            "4": 0.20605099030036428,
            "5": 0.0074241808457272546,
            "6": -0.018862769934409634,
            "7": -0.018862828796640807,
            "8": -0.025603569856643443,
            "9": 0.10129673710523063,
            "10": 0.1225228104135436,
            "11": 0.10919825326240576,
            "12": 0.018360445819834193,
            "13": 0.05158424713729951,
            "14": 0.022697483427944767,
            "15": 0.018360642969398763,
            "16": 0.022697310789474772,
            "17": 0.05158418780797774,
            "18": 0.047600749451590894,
            "19": 0.02090023542882583,
            "20": 0.02090043701438643
        },
        "fukui_nucleophilicity": {
            "1": 0.028123405010809913,
            "2": 0.027879552538751032,
            "3": 0.04461527000831894,
            "4": 0.19261708573642292,
            "5": 0.04347447467724315,
            "6": -0.02328080761482379,
            "7": -0.02328090099508262,
            "8": -0.019269957650093955,
            "9": 0.058272156807607514,
            "10": 0.09836227168005701,
            "11": 0.06980591795060431,
            "12": 0.04776450668002082,
            "13": 0.08379213682531739,
            "14": 0.046481039749913036,
            "15": 0.04776450852872457,
            "16": 0.04648117039991235,
            "17": 0.08379225600943095,
            "18": 0.07018463598139435,
            "19": 0.03821052633551813,
            "20": 0.038210751344315036
        },
        "boltzmann_weights": [
            0.1996537456894094,
            0.199653740245149,
            0.19965486132194066,
            0.19965374201808322,
            0.19965485128452257,
            0.0005763535988966824,
            0.0005763535342032831,
            0.0005763523077951223
        ],
        "best_conformer_elements": [
            6,
            6,
            6,
            8,
            6,
            6,
            6,
            6,
            1,
            1,
            1,
            1,
            1,
            1,
            1,
            1,
            1,
            1,
            1,
            1
        ],
        "best_conformer_coordinates": [
            [
                3.111508382372711,
                -0.012342368521926049,
                0.1581399047357607
            ],
            [
                1.8205998982522644,
                0.053251685455291194,
                0.45891587832170094
            ],
            [
                0.7884025876359142,
                -0.10752264890009626,
                -0.5923781909704493
            ],
            [
                1.0887126511539196,
                -0.3020808538906585,
                -1.7485898508953615
            ],
            [
                -0.6702186229991473,
                -0.014521860022650546,
                -0.13814840654534877
            ],
            [
                -1.582218577223974,
                -0.2035467122865101,
                -1.351604001277462
            ],
            [
                -0.9522330021054738,
                -1.1185013549855678,
                0.8879652135219881
            ],
            [
                -0.9215175584480201,
                1.3670715840868357,
                0.4776927706310096
            ],
            [
                3.887481403220651,
                0.09990939864234717,
                0.8962858132074749
            ],
            [
                3.418919939001729,
                -0.18437171671350988,
                -0.8610760776377717
            ],
            [
                1.4931389867130516,
                0.22459222438120036,
                1.4724576185263973
            ],
            [
                -1.4032477240575925,
                -1.1726752061698944,
                -1.8104524044691643
            ],
            [
                -2.6264313025930504,
                -0.14164503303021392,
                -1.054758202263405
            ],
            [
                -1.3818096497313619,
                0.5621512321526787,
                -2.0968055765441163
            ],
            [
                -0.727953660462571,
                -2.0950839389764884,
                0.46398699720618664
            ],
            [
                -0.3610095659018496,
                -0.9923621190656786,
                1.791176175348751
            ],
            [
                -2.004175072091226,
                -1.0981396224651154,
                1.1653170492679108
            ],
            [
                -0.3299172742987495,
                1.5236571387323128,
                1.3758778128622515
            ],
            [
                -0.6754965178051766,
                2.1499406372003604,
                -0.23670346868138567
            ],
            [
                -1.9725352994648735,
                1.462219544960872,
                0.7427009456551379
            ]
        ],
        "best_conformer_energy": -25.134047067973256,
        "fukui_radical": {
            "1": 0.05965512325542418,
            "2": 0.04100216531754636,
            "3": 0.07073235906165173,
            "4": 0.199334734891943,
            "5": 0.025450234002706552,
            "6": -0.022437294424730365,
            "7": -0.021071341164295918,
            "8": -0.021071351931497978,
            "9": 0.11043819201445192,
            "10": 0.07977686678388067,
            "11": 0.0895015994077582,
            "12": 0.029555702341399172,
            "13": 0.058893534794590016,
            "14": 0.02955570759247529,
            "15": 0.03459009740312499,
            "16": 0.03306287249500783,
            "17": 0.06768894237713163,
            "18": 0.03306284834681158,
            "19": 0.03459008183256172,
            "20": 0.06768892560426566
        }
    },
    "monomer2_data": {
        "smiles": "C=Cc1ccccc1",
        "ip": 13.323305315341791,
        "ip_corrected": 8.477305315341791,
        "ea": 3.959877946938991,
        "homo": -0.3831985290395731,
        "lumo": -0.2501966690470822,
        "charges": {
            "1": -0.08578934436600626,
            "2": -0.030259830597504936,
            "3": 0.01460321229207634,
            "4": -0.032430750206366904,
            "5": -0.029945437580900583,
            "6": -0.030379977266510892,
            "7": -0.029893803249294533,
            "8": -0.033985609164289644,
            "9": 0.038721208943534896,
            "10": 0.036165150785770366,
            "11": 0.033044651543264955,
            "12": 0.03404524115950842,
            "13": 0.028965873902585763,
            "14": 0.02897855112451052,
            "15": 0.028735857233840652,
            "16": 0.029425005445779806
        },
        "dipole": [
            -0.00599695759505601,
            0.00019607223034193996,
            -0.0018463290012354543
        ],
        "global_electrophilicity": 0.7692971421446727,
        "global_nucleophilicity": -8.477305315341791,
        "fukui_electrophilicity": {
            "1": 0.07209309972414436,
            "2": 0.04352510810351072,
            "3": 0.06230438364782903,
            "4": 0.03213425829454332,
            "5": 0.026312904098299825,
            "6": 0.06792045239213465,
            "7": 0.02876303434297292,
            "8": 0.03213381752054322,
            "9": 0.08376002497375698,
            "10": 0.09874578293688194,
            "11": 0.08145474392689236,
            "12": 0.06271242240018035,
            "13": 0.07540055911977092,
            "14": 0.08585900759002232,
            "15": 0.07693189708388407,
            "16": 0.06994850384463236
        },
        "fukui_nucleophilicity": {
            "1": 0.07260243947817689,
            "2": 0.04230113696056051,
            "3": 0.06268064465096645,
            "4": 0.03400845310298767,
            "5": 0.03110749772289005,
            "6": 0.07019025477516763,
            "7": 0.03211552237109847,
            "8": 0.03545308497970195,
            "9": 0.07943182497266889,
            "10": 0.09534951030583766,
            "11": 0.07725609403564751,
            "12": 0.06257820938745395,
            "13": 0.07457311950887512,
            "14": 0.0843599501650384,
            "15": 0.07603725882191792,
            "16": 0.06995499876126071
        },
        "boltzmann_weights": [
            0.500000013411314,
            0.499999986588686
        ],
        "best_conformer_elements": [
            6,
            6,
            6,
            6,
            6,
            6,
            6,
            6,
            1,
            1,
            1,
            1,
            1,
            1,
            1,
            1
        ],
        "best_conformer_coordinates": [
            [
                -2.7996504883392213,
                0.5067268078443541,
                -0.3307757375296494
            ],
            [
                -1.8569195165461714,
                -0.42690007797501867,
                -0.28622356006066363
            ],
            [
                -0.41676751008175084,
                -0.2137695987077826,
                -0.201669273122216
            ],
            [
                0.42662331397264364,
                -1.3257786864929022,
                -0.16462382115517377
            ],
            [
                1.7979836205106778,
                -1.1786700332337077,
                -0.08467855669649194
            ],
            [
                2.3586778805752897,
                0.08669579947474147,
                -0.03984625155398522
            ],
            [
                1.535500161801921,
                1.2006125291369882,
                -0.07571377159817176
            ],
            [
                0.16438284527030772,
                1.054224105562994,
                -0.15563770481452763
            ],
            [
                -2.5807350472122574,
                1.5604467593574072,
                -0.30764549962305027
            ],
            [
                -3.84233837136736,
                0.2458441308630186,
                -0.39306838601271116
            ],
            [
                -2.1533557273489103,
                -1.4689784286781729,
                -0.3136745326715254
            ],
            [
                -0.004100778556855408,
                -2.317010607449955,
                -0.1992554256323922
            ],
            [
                2.432537807928637,
                -2.052797839845991,
                -0.05718467471006832
            ],
            [
                3.4304258000072263,
                0.20491108070838962,
                0.022664187100062603
            ],
            [
                1.9676045890247913,
                2.190467602677497,
                -0.04101419015886248
            ],
            [
                -0.4598685796390594,
                1.9339764620498727,
                -0.18248094282351895
            ]
        ],
        "best_conformer_energy": -21.158608850502983,
        "fukui_radical": {
            "1": 0.07234813599322018,
            "2": 0.04291309873393513,
            "3": 0.06249235896699714,
            "4": 0.03379355109266154,
            "5": 0.03043928194186729,
            "6": 0.06905534188080434,
            "7": 0.028710059427083993,
            "8": 0.03307125813746206,
            "9": 0.08159578301382218,
            "10": 0.09704772989059883,
            "11": 0.07935561247948747,
            "12": 0.06995185022654472,
            "13": 0.0764846271348809,
            "14": 0.0851094403734144,
            "15": 0.07498679088705272,
            "16": 0.06264507982020588
        }
    }
}