{
    "file": "paper_672.json",
    "monomer1_s": "C=CC(=O)N(C)C",
    "monomer2_s": "C=CC(=O)NC(C)(C)CS(=O)(=O)[O-].[Na+]",
    "monomer1": "N,N-Dimethylacrylamide",
    "monomer2": "Sodium 2-acrylamido-2-methylpropanesulfonate",
    "r_values": {
        "constant_1": 1.26,
        "constant_2": 0.68
    },
    "conf_intervals": {
        "constant_conf_1": 0.05,
        "constant_conf_2": 0.05
    },
    "temperature": 30.0,
    "temperature_unit": "\u00b0C",
    "solvent": "O",
    "method": "solvent",
    "r-product": null,
    "source": "https://doi.org/10.1021/ma00156a021",
    "calculation_method": "Kelen-Tudos",
    "polymerization_type": "free radical",
    "logP": -0.8247,
    "monomer1_data": {
        "smiles": "C=CC(=O)N(C)C",
        "ip": 13.512580340525421,
        "ip_corrected": 8.666580340525421,
        "ea": 3.539741363474088,
        "homo": -0.38353675309134244,
        "lumo": -0.253719344107965,
        "charges": {
            "1": -0.06289715688460595,
            "2": -0.06076734132305557,
            "3": 0.26169571673607095,
            "4": -0.45059573289784993,
            "5": -0.09402837196303793,
            "6": -0.04845629848489792,
            "7": -0.04701376286086236,
            "8": 0.04739321343747846,
            "9": 0.07536912602254377,
            "10": 0.040434586013414354,
            "11": 0.04461781981050096,
            "12": 0.08947982071335565,
            "13": 0.044555794163141524,
            "14": 0.049760254120428705,
            "15": 0.060572987027541096,
            "16": 0.04987934636982454
        },
        "dipole": [
            -0.9295802346284427,
            0.3479155285349271,
            1.3133994543830554
        ],
        "global_electrophilicity": 0.6790234920947247,
        "global_nucleophilicity": -8.666580340525421,
        "fukui_electrophilicity": {
            "1": 0.09760254962915396,
            "2": 0.06726860664019137,
            "3": 0.06955518593004723,
            "4": 0.15583690044492338,
            "5": 0.08279831064960225,
            "6": -0.03626764308936682,
            "7": -0.03794308126634146,
            "8": 0.12603879575584095,
            "9": 0.10945962511570745,
            "10": 0.10891663036340377,
            "11": 0.05416659065431945,
            "12": 0.022286211713139714,
            "13": 0.054056504591747906,
            "14": 0.03569983814148079,
            "15": 0.05479063202001637,
            "16": 0.03573434270612685
        },
        "fukui_nucleophilicity": {
            "1": 0.031227504216849666,
            "2": 0.01564714673210535,
            "3": 0.01697739200142212,
            "4": 0.1789919106650476,
            "5": 0.14159156209870818,
            "6": -0.03908491791075276,
            "7": -0.04533938968612198,
            "8": 0.08783678758236063,
            "9": 0.06142461632950981,
            "10": 0.06835399884787252,
            "11": 0.10017376151680842,
            "12": 0.047621900662884284,
            "13": 0.10088919797113556,
            "14": 0.08485588910794253,
            "15": 0.06459377280046597,
            "16": 0.08423886706374674
        },
        "boltzmann_weights": [
            0.23873982195066598,
            0.23876833338558762,
            0.1741654866584034,
            0.17416354870532563,
            0.1741628093000173
        ],
        "best_conformer_elements": [
            6,
            6,
            6,
            8,
            7,
            6,
            6,
            1,
            1,
            1,
            1,
            1,
            1,
            1,
            1,
            1
        ],
        "best_conformer_coordinates": [
            [
                2.7733035169659495,
                -0.23165037617011822,
                -0.39997917394841476
            ],
            [
                1.4709964940986167,
                -0.4080834448987141,
                -0.5559201656615163
            ],
            [
                0.549613422129078,
                -0.3413091855888934,
                0.6109236734500437
            ],
            [
                0.9147877759827515,
                -0.6439967617895647,
                1.7344462961379896
            ],
            [
                -0.7225013068758908,
                0.057923985624538675,
                0.3522478325451069
            ],
            [
                -1.7018303196595603,
                0.025073998116934518,
                1.4128829054190928
            ],
            [
                -1.1868030556246592,
                0.5199757425284149,
                -0.9334175732741868
            ],
            [
                3.4701100835804226,
                -0.3103382932738438,
                -1.217481803128948
            ],
            [
                3.176742828660348,
                0.00225728403964474,
                0.5714152800522917
            ],
            [
                1.0472579731359188,
                -0.6609736906953624,
                -1.516755280323574
            ],
            [
                -1.2173396683984479,
                -0.37248105572362405,
                2.302643374024695
            ],
            [
                -2.5402537457509835,
                -0.6179079336454066,
                1.1350237345282617
            ],
            [
                -2.075934739439352,
                1.0295875201929243,
                1.6251159697084938
            ],
            [
                -0.41158873083851893,
                1.0877517753810884,
                -1.4461587617795788
            ],
            [
                -2.042930002357393,
                1.176651837175995,
                -0.7800880414149964
            ],
            [
                -1.5036305256082914,
                -0.3124814065657716,
                -1.5712740662962654
            ]
        ],
        "best_conformer_energy": -22.25702957129107,
        "fukui_radical": {
            "1": 0.06249398313287906,
            "2": 0.042848341619389635,
            "3": 0.04435440454855584,
            "4": 0.17161545140042544,
            "5": 0.10820001674085244,
            "6": -0.037514348799186414,
            "7": -0.040383626302813086,
            "8": 0.10794177568128094,
            "9": 0.08782111456112125,
            "10": 0.09188718465778384,
            "11": 0.03443581965850913,
            "12": 0.07603807268998958,
            "13": 0.07446840150720618,
            "14": 0.043010271679426795,
            "15": 0.06360158230817027,
            "16": 0.06918155491641324
        }
    },
    "monomer2_data": {
        "smiles": "C=CC(=O)NC(C)(C)CS(=O)(=O)[O-].[Na+]",
        "ip": 13.091486468428633,
        "ip_corrected": 8.245486468428632,
        "ea": 4.566726813401142,
        "homo": -0.38890351995971867,
        "lumo": -0.2740119862190109,
        "charges": {
            "1": -0.06716741495258673,
            "2": -0.05362387165176919,
            "3": 0.2805765413095898,
            "4": -0.47203379528461603,
            "5": -0.18763173141024816,
            "6": 0.08769041146203739,
            "7": -0.12332612367048669,
            "8": -0.13490737548083329,
            "9": -0.17535510272763205,
            "10": 1.2405166012628324,
            "11": -0.7137797817094846,
            "12": -0.728132077383189,
            "13": -0.6220011988947645,
            "14": 0.8027843168235036,
            "15": 0.06907270639907045,
            "16": 0.07066962660471279,
            "17": 0.056262869324301,
            "18": 0.18363520022977892,
            "19": 0.05984934384608303,
            "20": 0.058333223429548525,
            "21": 0.043345623873390055,
            "22": 0.05603292768037492,
            "23": 0.08218022839697232,
            "24": 0.06516044559687358,
            "25": 0.0680405647716563,
            "26": 0.05380784215489949
        },
        "dipole": [
            1.835017372285588,
            -0.6119099283184875,
            -1.3962089281828884
        ],
        "global_electrophilicity": 0.9305328921234621,
        "global_nucleophilicity": -8.245486468428632,
        "fukui_electrophilicity": {
            "1": 0.06705204296530405,
            "2": 0.04930146079413427,
            "3": 0.04467094717107445,
            "4": 0.08875658707113093,
            "5": 0.05714479160589611,
            "6": -0.006871676061174212,
            "7": -0.018015837280732375,
            "8": -0.024044589787768633,
            "9": -0.020570878473864684,
            "10": 0.02411744812655492,
            "11": 0.005636625619897528,
            "12": -0.02078492672059795,
            "13": 0.045152326218694694,
            "14": 0.17738383914057065,
            "15": 0.07433680332085806,
            "16": 0.09761816255296234,
            "17": 0.090809575507267,
            "18": 0.0477015483463861,
            "19": 0.02096296565459156,
            "20": 0.03286695584008748,
            "21": 0.020301748846441887,
            "22": 0.04150390939839822,
            "23": 0.00807054494155264,
            "24": 0.01770304750018089,
            "25": 0.04594132817396497,
            "26": 0.03325524952821322
        },
        "fukui_nucleophilicity": {
            "1": 0.017394050946741582,
            "2": 0.006889620138682821,
            "3": 0.003992841997436436,
            "4": 0.078142835447641,
            "5": 0.03049543699014992,
            "6": 0.006960998524745687,
            "7": -0.003998601121532705,
            "8": -0.018831026940588663,
            "9": 0.005975904475755106,
            "10": 0.15258620347557939,
            "11": 0.04809590365129646,
            "12": 0.03224472694050706,
            "13": 0.08355163645727903,
            "14": 0.03651141996695628,
            "15": 0.033233523455051345,
            "16": 0.05572079159633636,
            "17": 0.04056476082101864,
            "18": 0.03351356947346526,
            "19": 0.04935363356291656,
            "20": 0.03992430315787725,
            "21": 0.03669922195954767,
            "22": 0.047655253707032136,
            "23": 0.03342781573052374,
            "24": 0.040231536411907395,
            "25": 0.054989340245045704,
            "26": 0.054674298982936353
        },
        "fukui_radical": {
            "1": 0.04222304695602282,
            "2": 0.028095540466408546,
            "3": 0.024331894584255442,
            "4": 0.08344971125938597,
            "5": 0.043820114298023016,
            "6": 4.466123178573783e-05,
            "7": -0.01100721920113254,
            "8": -0.021437808364178648,
            "9": -0.007297486999054789,
            "10": 0.08835182580106715,
            "11": 0.026866264635596993,
            "12": 0.0057299001099545555,
            "13": 0.06435198133798686,
            "14": 0.10694762955376347,
            "15": 0.0537851633879547,
            "16": 0.07666947707464936,
            "17": 0.06568716816414281,
            "18": 0.04060755890992568,
            "19": 0.035158299608754065,
            "20": 0.03639562949898237,
            "21": 0.028500485402994775,
            "22": 0.04457958155271518,
            "23": 0.02074918033603819,
            "24": 0.028967291956044142,
            "25": 0.05046533420950534,
            "26": 0.04396477425557478
        },
        "best_conformer_coordinates": [
            [
                3.4770586165025312,
                1.0763511404405444,
                1.0394640490204832
            ],
            [
                2.630798798713863,
                0.1381288951230318,
                0.6471339363932888
            ],
            [
                1.3672454486826522,
                0.47431060565346184,
                -0.05678200797391392
            ],
            [
                1.1161773522893526,
                1.625046608648635,
                -0.39878957505777995
            ],
            [
                0.6253501333194507,
                -0.6059444287299797,
                -0.3726829820088477
            ],
            [
                -0.7865234239181511,
                -0.6584494879183679,
                -0.7532796160658253
            ],
            [
                -0.9677340747303481,
                -1.988079909093972,
                -1.503854149561324
            ],
            [
                -1.1673510918291035,
                0.4956780033547881,
                -1.6750492616326504
            ],
            [
                -1.6548212597109382,
                -0.6699430476429534,
                0.503904929270004
            ],
            [
                -1.3759383371002765,
                0.6925577598587868,
                1.7026146555615198
            ],
            [
                -1.6682458317664766,
                1.955320085959669,
                1.0098298718410985
            ],
            [
                0.06161696976650298,
                0.6949982179148142,
                2.034371140592544
            ],
            [
                -2.238172803947479,
                0.39606794812488677,
                2.8103505071083585
            ],
            [
                0.20702764651567201,
                2.557605204762443,
                1.1092277014427987
            ],
            [
                3.266543187700878,
                2.1144638247588574,
                0.8338720618178205
            ],
            [
                4.390446870617699,
                0.8455916436662866,
                1.5593376765659168
            ],
            [
                2.826452989741287,
                -0.907423721948677,
                0.8392345418601913
            ],
            [
                0.9225866367583697,
                -1.4583415263432136,
                0.08210732946613157
            ],
            [
                -0.35952539006583584,
                -1.9909453601961529,
                -2.405570437384809
            ],
            [
                -2.0087146175408543,
                -2.1204262226418287,
                -1.784559482027568
            ],
            [
                -0.6733502735227406,
                -2.830988123522021,
                -0.8816087622667365
            ],
            [
                -2.1142618749265973,
                0.2712985066529553,
                -2.160836187348328
            ],
            [
                -1.2750698774333917,
                1.4118560080477254,
                -1.1029678195942034
            ],
            [
                -0.403146547780972,
                0.635896430748614,
                -2.435354942810781
            ],
            [
                -2.7090957051694375,
                -0.59167149977402,
                0.25730963733639756
            ],
            [
                -1.4893535411470906,
                -1.562957545315904,
                1.1025771960329447
            ]
        ],
        "best_conformer_elements": [
            6,
            6,
            6,
            8,
            7,
            6,
            6,
            6,
            6,
            16,
            8,
            8,
            8,
            11,
            1,
            1,
            1,
            1,
            1,
            1,
            1,
            1,
            1,
            1,
            1,
            1
        ],
        "best_conformer_energy": -43.886715166440915
    }
}