{
    "file": "paper_108.json",
    "monomer1_s": "C=C(Cl)Cl",
    "monomer2_s": "C=CN1CCOC1=O",
    "monomer1": "vinylidene chloride",
    "monomer2": "vinyl oxazolidinone",
    "r_values": {
        "constant_1": 1.35,
        "constant_2": 0.08
    },
    "conf_intervals": {
        "constant_conf_1": null,
        "constant_conf_2": null
    },
    "temperature": 75.0,
    "temperature_unit": "\u00b0C",
    "solvent": "O=C1CCCCC1",
    "method": "solvent",
    "r-product": null,
    "source": "https://doi.org/10.1002/pol.1959.120351215",
    "calculation_method": "Kelen-Tudor",
    "polymerization_type": "free radical",
    "logP": 1.5196,
    "monomer1_data": {
        "smiles": "C=C(Cl)Cl",
        "ip": 14.545826670036444,
        "ip_corrected": 9.699826670036444,
        "ea": 3.125435773848216,
        "homo": -0.4169969443366817,
        "lumo": -0.24983940943712082,
        "charges": {
            "1": -0.11675257770186528,
            "2": 0.17076445467177065,
            "3": -0.11765574089474207,
            "4": -0.11784955359398736,
            "5": 0.09075124404740334,
            "6": 0.09074217347140139
        },
        "dipole": [
            -0.5522055551960544,
            -0.056955529199193035,
            0.1105385502544702
        ],
        "global_electrophilicity": 0.6968744516621451,
        "global_nucleophilicity": -9.699826670036444,
        "fukui_electrophilicity": {
            "1": 0.11977765816987376,
            "2": 0.10055574869485487,
            "3": 0.23977157488083534,
            "4": 0.23975018173987045,
            "5": 0.1500758774170347,
            "6": 0.15006895909751944
        },
        "fukui_nucleophilicity": {
            "1": 0.09085708277069589,
            "2": 0.014334766795091713,
            "3": 0.33451930573195604,
            "4": 0.33459517393105725,
            "5": 0.11284510846996021,
            "6": 0.11284856230124969
        },
        "boltzmann_weights": [
            1.0
        ],
        "best_conformer_elements": [
            6,
            6,
            17,
            17,
            1,
            1
        ],
        "best_conformer_coordinates": [
            [
                -0.7827949170738707,
                -0.08180892723677569,
                0.055122835996198855
            ],
            [
                0.527311518924798,
                0.055011227185247376,
                -0.03711912001987348
            ],
            [
                1.6197686670599762,
                -1.2682315122157641,
                0.0791441924504079
            ],
            [
                1.2972979552970054,
                1.5731347807024703,
                -0.284564074072238
            ],
            [
                -1.2277110534340032,
                -1.0474466535922802,
                0.20998758999503517
            ],
            [
                -1.4338721654821402,
                0.7693410851570951,
                -0.022571419057756812
            ]
        ],
        "best_conformer_energy": -14.36970540646129,
        "fukui_radical": {
            "1": 0.1053162211630245,
            "2": 0.05744479891926864,
            "3": 0.2871521829636079,
            "4": 0.2871678237738007,
            "5": 0.13145879623421866,
            "6": 0.13146017694605439
        }
    },
    "monomer2_data": {
        "smiles": "C=CN1CCOC1=O",
        "ip": 13.747389168605219,
        "ip_corrected": 8.901389168605219,
        "ea": 3.02914839354187,
        "homo": -0.38922600552049114,
        "lumo": -0.22960827152003466,
        "charges": {
            "1": -0.12097493205192109,
            "2": 0.023618981680801773,
            "3": -0.09871006894433054,
            "4": -0.0034936387371985456,
            "5": 0.068233449261699,
            "6": -0.27150241999071445,
            "7": 0.40310114278747816,
            "8": -0.41163472104429805,
            "9": 0.03961023989757176,
            "10": 0.05058246007029968,
            "11": 0.07098672179165082,
            "12": 0.060410254831134026,
            "13": 0.0604147258616895,
            "14": 0.0646907435396789,
            "15": 0.06466706104645155
        },
        "dipole": [
            0.28932163334792754,
            -2.0717772405774877,
            -0.3759128674368982
        ],
        "global_electrophilicity": 0.5853417729969821,
        "global_nucleophilicity": -8.901389168605219,
        "fukui_electrophilicity": {
            "1": 0.08434655968639743,
            "2": 0.06763522378689579,
            "3": 0.05416280980391802,
            "4": -0.02801855141370272,
            "5": -0.022284522107267488,
            "6": 0.08743600074613056,
            "7": 0.09217606906923814,
            "8": 0.1661754175337235,
            "9": 0.10238555144008021,
            "10": 0.10924020604664432,
            "11": 0.0827495604024214,
            "12": 0.04603211454782845,
            "13": 0.04602679699979655,
            "14": 0.05597532891445795,
            "15": 0.05596143454343291
        },
        "fukui_nucleophilicity": {
            "1": 0.0851575715088663,
            "2": 0.029908619556490712,
            "3": 0.12763210239546258,
            "4": -0.030091138635202297,
            "5": -0.01771021917877777,
            "6": 0.08679819862707838,
            "7": 0.0009361934979864595,
            "8": 0.11119097234103442,
            "9": 0.08530808050906191,
            "10": 0.1024829664742885,
            "11": 0.07928847508572588,
            "12": 0.09108317511448519,
            "13": 0.09104754266088169,
            "14": 0.07847874041746193,
            "15": 0.07848871962523242
        },
        "boltzmann_weights": [
            0.9841838011787399,
            0.01581619882126011
        ],
        "best_conformer_elements": [
            6,
            6,
            7,
            6,
            6,
            8,
            6,
            8,
            1,
            1,
            1,
            1,
            1,
            1,
            1
        ],
        "best_conformer_coordinates": [
            [
                2.3621624095718055,
                0.430725042842793,
                -0.3612330424118421
            ],
            [
                1.5454312840707214,
                -0.18831532180236624,
                0.4773365794342468
            ],
            [
                0.16677957683067524,
                -0.21637512487482066,
                0.3705174420468654
            ],
            [
                -0.594491734821987,
                0.4254940913715878,
                -0.6728486859134809
            ],
            [
                -2.035176245846036,
                0.05817745008375307,
                -0.27771723349751487
            ],
            [
                -1.9290461045308127,
                -0.7216383293587757,
                0.9008534149236436
            ],
            [
                -0.6381171845498043,
                -0.8734896474777321,
                1.2677668986925055
            ],
            [
                -0.2799619669953484,
                -1.4891551200690505,
                2.228484967015924
            ],
            [
                3.42344363138337,
                0.4017619127297346,
                -0.20332051479567423
            ],
            [
                2.015020888263435,
                0.9787669756702981,
                -1.2191746903724403
            ],
            [
                1.8940691661943883,
                -0.7388736617311089,
                1.3391847789026452
            ],
            [
                -0.4251756647644745,
                1.5071986485891837,
                -0.6680516432714582
            ],
            [
                -0.3188743639766181,
                0.028487232884978352,
                -1.6552918054482384
            ],
            [
                -2.645984395968122,
                0.9374724542317746,
                -0.05414473895539995
            ],
            [
                -2.540079289569353,
                -0.5402366083820794,
                -1.041385147581755
            ]
        ],
        "best_conformer_energy": -25.34294707218713,
        "fukui_radical": {
            "1": 0.08475235651990548,
            "2": 0.048771507431288566,
            "3": 0.09089786453490853,
            "4": -0.029054939582709667,
            "5": -0.01999782962682631,
            "6": 0.08711740071507984,
            "7": 0.046556198147907735,
            "8": 0.1386831001810123,
            "9": 0.10586016888210995,
            "10": 0.09384796705888633,
            "11": 0.08101863111766251,
            "12": 0.06854055534751353,
            "13": 0.06855524926312852,
            "14": 0.06722485670404191,
            "15": 0.06722691330612475
        }
    }
}