{
    "file": "paper_350.json",
    "monomer1_s": "CC1(C)COC2(C=C2)OC1",
    "monomer2_s": "C=Cc1ccccn1",
    "monomer1": "6,6-Dimethyl-4,8-dioxaspiro(2,5)oct-1-ene",
    "monomer2": "2-Vinylpyridine",
    "r_values": {
        "constant_1": 0.071,
        "constant_2": 2.08
    },
    "conf_intervals": {
        "constant_conf_1": 0.011,
        "constant_conf_2": 0.014
    },
    "temperature": 60.0,
    "temperature_unit": "\u00b0C",
    "solvent": null,
    "method": "bulk",
    "r-product": null,
    "source": "http://dx.doi.org/10.1080/00222338508063314",
    "calculation_method": "Kelen-Tudor",
    "polymerization_type": "free radical",
    "monomer1_data": {
        "smiles": "CC1(C)COC2(C=C2)OC1",
        "ip": 13.406755837702214,
        "ip_corrected": 8.560755837702214,
        "ea": 2.0315349268159486,
        "homo": -0.3887606494255538,
        "lumo": -0.22883288366109955,
        "charges": {
            "1": -0.11763069519186124,
            "2": 0.00596542574497147,
            "3": -0.10847364326365883,
            "4": 0.08294436321842566,
            "5": -0.3335202464373979,
            "6": 0.28008251417234015,
            "7": -0.03964878971626535,
            "8": -0.06252408404394531,
            "9": -0.33349666327030075,
            "10": 0.08293899266977775,
            "11": 0.045911747862555724,
            "12": 0.045925892892664515,
            "13": 0.03556849152768039,
            "14": 0.03924271001100818,
            "15": 0.05983144102470402,
            "16": 0.039251146309299004,
            "17": 0.04992437321498384,
            "18": 0.017790508115659465,
            "19": 0.0751586074458818,
            "20": 0.06703496277922003,
            "21": 0.049932512369677426,
            "22": 0.01779043256458444
        },
        "dipole": [
            -0.14343523458901683,
            0.6525561556839258,
            -0.5563723517529647
        ],
        "global_electrophilicity": 0.3628485306907997,
        "global_nucleophilicity": -8.560755837702214,
        "fukui_electrophilicity": {
            "1": -0.014651562837571297,
            "2": 0.0024791056581550536,
            "3": -0.016770186440007967,
            "4": -0.01876291970391189,
            "5": 0.04288253907936007,
            "6": 0.04520610980814563,
            "7": 0.1766606099960244,
            "8": 0.18051377015721692,
            "9": 0.04288491308417747,
            "10": -0.018762400079131117,
            "11": 0.024950189493049967,
            "12": 0.02496296600577846,
            "13": 0.012060110901012833,
            "14": 0.025734851199485008,
            "15": -0.00035306346889825424,
            "16": 0.025726386269750087,
            "17": 0.05136200234842557,
            "18": 0.018662127239969604,
            "19": 0.16302640847823335,
            "20": 0.16217161667358204,
            "21": 0.051363061358546645,
            "22": 0.018653364778598542
        },
        "fukui_nucleophilicity": {
            "1": -0.022794309397571447,
            "2": 0.020312451481026686,
            "3": -0.011779898184716392,
            "4": -0.019665977604465243,
            "5": 0.1078126168740543,
            "6": 0.028486355332227598,
            "7": 0.04085030629219041,
            "8": 0.04758329394223529,
            "9": 0.10777489457212686,
            "10": -0.019665653644642067,
            "11": 0.04729062758424442,
            "12": 0.04729223991926463,
            "13": 0.035644040760958534,
            "14": 0.0532368565658603,
            "15": 0.025663253054254064,
            "16": 0.05323309613873277,
            "17": 0.06697529041995462,
            "18": 0.07474673520231476,
            "19": 0.08906434019762156,
            "20": 0.08625894650151783,
            "21": 0.06697802054259916,
            "22": 0.0747024734501968
        },
        "boltzmann_weights": [
            0.32702692426523333,
            0.3270123021538761,
            0.0031967764374026685,
            0.003196777200353423,
            0.003197069184275253,
            0.0031970665630142526,
            0.0031970695349293294,
            0.0031970702629555924,
            0.32677894439796007
        ],
        "best_conformer_elements": [
            6,
            6,
            6,
            6,
            8,
            6,
            6,
            6,
            8,
            6,
            1,
            1,
            1,
            1,
            1,
            1,
            1,
            1,
            1,
            1,
            1,
            1
        ],
        "best_conformer_coordinates": [
            [
                -1.5034646752490048,
                -1.1598993746841453,
                -0.8285366238684196
            ],
            [
                -0.9565346990442466,
                -0.0554808456966662,
                0.07555394840209897
            ],
            [
                -2.089867645366671,
                0.6328273405282387,
                0.8310621226620799
            ],
            [
                -0.17956059581245049,
                0.9680422101293926,
                -0.7715098272358185
            ],
            [
                0.9816590078772706,
                0.3898259384997945,
                -1.343625145788527
            ],
            [
                1.819683659957028,
                -0.1463004086781634,
                -0.36645151121341424
            ],
            [
                3.2732509751905465,
                -0.20449208318480602,
                -0.6068747375289761
            ],
            [
                2.8868981558115294,
                0.7083345241616775,
                0.24967716006911084
            ],
            [
                1.207833178095784,
                -1.1435749754646143,
                0.39257477630497684
            ],
            [
                0.05967623140907895,
                -0.6535783794238199,
                1.0646878118846104
            ],
            [
                -2.1957932491154337,
                -0.7449669334264609,
                -1.5575832476524873
            ],
            [
                -0.6840745728724665,
                -1.6390324197584427,
                -1.3584694946801514
            ],
            [
                -2.023788052424812,
                -1.9104726708244961,
                -0.2378609231427069
            ],
            [
                -1.7070693928304674,
                1.420505237506432,
                1.4768004941277495
            ],
            [
                -2.6219033882182132,
                -0.08835770640328644,
                1.446911625531966
            ],
            [
                -2.793512859459122,
                1.0748866089660498,
                0.12970093478347935
            ],
            [
                0.10537484313901277,
                1.8286186609163224,
                -0.14641583798858523
            ],
            [
                -0.7787552581461388,
                1.322330801231697,
                -1.6124551051081948
            ],
            [
                4.0477869852533965,
                -0.6964968166949815,
                -1.1421255097531267
            ],
            [
                3.154152650722298,
                1.4965348069272324,
                0.9114598747125885
            ],
            [
                -0.3608678347379748,
                -1.5101569100900134,
                1.594925775304514
            ],
            [
                0.3588765358210494,
                0.1109033848794501,
                1.798553440177054
            ]
        ],
        "best_conformer_energy": -31.303282109508118,
        "fukui_radical": {
            "1": -0.014270020745709835,
            "2": 0.011394605040516821,
            "3": -0.018716918016812578,
            "4": -0.019202927407429987,
            "5": 0.07532997786750231,
            "6": 0.03684904353439382,
            "7": 0.10874781499600902,
            "8": 0.11406627117352466,
            "9": 0.07533695763622592,
            "10": -0.01920280840222715,
            "11": 0.03948739289846989,
            "12": 0.012644408077561741,
            "13": 0.039485316969894164,
            "14": 0.023909302262554395,
            "15": 0.03612947321335959,
            "16": 0.03613119836926236,
            "17": 0.04664122443879471,
            "18": 0.059159150114363186,
            "19": 0.1260551446720709,
            "20": 0.12421955859741876,
            "21": 0.05916334279684247,
            "22": 0.04664249191341332
        }
    },
    "monomer2_data": {
        "smiles": "C=Cc1ccccn1",
        "ip": 13.201223226157223,
        "ip_corrected": 8.355223226157223,
        "ea": 4.237070194336044,
        "homo": -0.3636559341580553,
        "lumo": -0.26257460038069136,
        "charges": {
            "1": -0.07530521132368516,
            "2": -0.035226696565262554,
            "3": 0.09750181082480712,
            "4": -0.04434270604400282,
            "5": -0.012716128018304837,
            "6": -0.04232858448902489,
            "7": 0.06027405908592043,
            "8": -0.2267296432838055,
            "9": 0.044383360247027936,
            "10": 0.06771418221994255,
            "11": 0.03448703169897081,
            "12": 0.03259095780404444,
            "13": 0.03165806036145266,
            "14": 0.032708342304983797,
            "15": 0.03533116517692729
        },
        "dipole": [
            -0.3556132917420013,
            0.5117134101670725,
            0.05585066642298136
        ],
        "global_electrophilicity": 0.8367363534425643,
        "global_nucleophilicity": -8.355223226157223,
        "fukui_electrophilicity": {
            "1": 0.07204126148407276,
            "2": 0.0396323609933082,
            "3": 0.060960388566049545,
            "4": 0.0236127299598868,
            "5": 0.043044963152316706,
            "6": 0.06479787573689029,
            "7": 0.01289655017093927,
            "8": 0.09798437276096619,
            "9": 0.09841480791191187,
            "10": 0.08001680828583885,
            "11": 0.08161253918358077,
            "12": 0.07271509071105593,
            "13": 0.0839784856837093,
            "14": 0.08910382129507806,
            "15": 0.07918794410438643
        },
        "fukui_nucleophilicity": {
            "1": 0.04648942286299322,
            "2": 0.03015202046134361,
            "3": 0.024992905692831788,
            "4": 0.03853861072793261,
            "5": 0.024814871506768157,
            "6": 0.04475859984373037,
            "7": 0.014413525538630359,
            "8": 0.18931798590253116,
            "9": 0.07964582289409332,
            "10": 0.047360850341848074,
            "11": 0.06823938211971978,
            "12": 0.09054248327173081,
            "13": 0.10561405250250827,
            "14": 0.09226905768397375,
            "15": 0.10285040906267191
        },
        "boltzmann_weights": [
            0.6758142455098677,
            0.3241857544901322
        ],
        "best_conformer_elements": [
            6,
            6,
            6,
            6,
            6,
            6,
            6,
            7,
            1,
            1,
            1,
            1,
            1,
            1,
            1
        ],
        "best_conformer_coordinates": [
            [
                2.5635168578946845,
                1.1593508995600794,
                -0.1061867426505919
            ],
            [
                1.7546252014544719,
                0.39254672039031674,
                0.6140087470711316
            ],
            [
                0.39692919382072406,
                0.050937498307734,
                0.20374390270832698
            ],
            [
                -0.4042323302148411,
                -0.7629366160791479,
                1.0102027659963628
            ],
            [
                -1.6866448107350658,
                -1.068068123525575,
                0.5926569308107704
            ],
            [
                -2.136329548946158,
                -0.5556908141929798,
                -0.6144322646900634
            ],
            [
                -1.2670339791875838,
                0.24299185409847784,
                -1.344929721290687
            ],
            [
                -0.04469612089726532,
                0.5390400528424774,
                -0.9558669390860066
            ],
            [
                3.5623796721495515,
                1.3988023305229669,
                0.21597750362922824
            ],
            [
                2.2311041933691693,
                1.5656877833591252,
                -1.0457230399723583
            ],
            [
                2.0748496304574773,
                -0.023204582499509734,
                1.5607325203034619
            ],
            [
                -0.02098169753086187,
                -1.1447456619204617,
                1.944994136918074
            ],
            [
                -2.326509046894622,
                -1.695200720974442,
                1.1975618087190862
            ],
            [
                -3.129469306831709,
                -0.7683273256340974,
                -0.9783215872876734
            ],
            [
                -1.5675079131996983,
                0.6688167057450253,
                -2.294418031762597
            ]
        ],
        "best_conformer_energy": -21.43070258665842,
        "fukui_radical": {
            "1": 0.05926450017840455,
            "2": 0.03489245569326216,
            "3": 0.042976366537975326,
            "4": 0.031075964285771508,
            "5": 0.03392917223475853,
            "6": 0.0547786932205058,
            "7": 0.013654149414284257,
            "8": 0.1436529696787043,
            "9": 0.08903027770347022,
            "10": 0.06368820403532759,
            "11": 0.074925844590204,
            "12": 0.08162899231033223,
            "13": 0.09479663981834746,
            "14": 0.0906862701642882,
            "15": 0.09101950034099633
        }
    }
}