{
    "file": "paper_561.json",
    "monomer1_s": "C=Cc1cc2ccccc2o1",
    "monomer2_s": "C=CC(=O)OCCCC",
    "monomer1": "2-Vinylbenzofuran",
    "monomer2": "n-Butyl Acrylate",
    "r_values": {
        "constant_1": 6.718,
        "constant_2": 0.0229
    },
    "conf_intervals": {
        "constant_conf_1": null,
        "constant_conf_2": null
    },
    "temperature": 65.0,
    "temperature_unit": "\u00b0C",
    "solvent": "C1CCOC1",
    "method": "solvent",
    "r-product": 0.154,
    "source": "https://doi.org/10.1002/pol.1991.010291306",
    "calculation_method": "nonlinear least squares error-in-variables",
    "polymerization_type": "free radical",
    "logP": 0.7968,
    "monomer1_data": {
        "smiles": "C=Cc1cc2ccccc2o1",
        "ip": 12.807922080056205,
        "ip_corrected": 7.961922080056205,
        "ea": 4.604206792377475,
        "homo": -0.3749179985269607,
        "lumo": -0.26325098335585945,
        "charges": {
            "1": -0.07959743029377227,
            "2": -0.03777577221893676,
            "3": 0.12221218647202484,
            "4": -0.07669172198409993,
            "5": -0.012973824703000271,
            "6": -0.03730389401604482,
            "7": -0.038049062798635305,
            "8": -0.03474158775793536,
            "9": -0.05235364091194422,
            "10": 0.1246898338420445,
            "11": -0.21073451990389658,
            "12": 0.05648817065921409,
            "13": 0.044091459765616896,
            "14": 0.04478863932363663,
            "15": 0.037585145149739374,
            "16": 0.03534701743320986,
            "17": 0.03434765439381011,
            "18": 0.0369685751377845,
            "19": 0.043702772411186544
        },
        "dipole": [
            -0.09846109127441327,
            0.14668118679437914,
            0.10301542235805061
        ],
        "global_electrophilicity": 0.9081310680128482,
        "global_nucleophilicity": -7.961922080056205,
        "fukui_electrophilicity": {
            "1": 0.06476687763204274,
            "2": 0.03658571328870845,
            "3": 0.04911700052686177,
            "4": 0.04556333876217851,
            "5": 0.026557181197693194,
            "6": 0.04687355218038808,
            "7": 0.020462925957800027,
            "8": 0.04262759547503432,
            "9": 0.04005632561566194,
            "10": 0.014192613203722046,
            "11": 0.056042064412328785,
            "12": 0.07102219623406947,
            "13": 0.0854866446462794,
            "14": 0.07010932238819127,
            "15": 0.0690560444553051,
            "16": 0.06533130928882407,
            "17": 0.0646255821576272,
            "18": 0.06899807374071946,
            "19": 0.0625256388365609
        },
        "fukui_nucleophilicity": {
            "1": 0.05665687706188893,
            "2": 0.027069912489882886,
            "3": 0.053302709880386434,
            "4": 0.05435824831479848,
            "5": 0.03480094942437529,
            "6": 0.04313414986842393,
            "7": 0.022037159232932618,
            "8": 0.05345806282533801,
            "9": 0.03382217201224943,
            "10": 0.024654032845480137,
            "11": 0.0565483665833339,
            "12": 0.0614189247695541,
            "13": 0.07873489306020764,
            "14": 0.06308967298949947,
            "15": 0.0730023915771812,
            "16": 0.06494045124477502,
            "17": 0.06528392096282129,
            "18": 0.0713560781433798,
            "19": 0.06233102671512246
        },
        "boltzmann_weights": [
            0.5917858422229694,
            0.4082141577770307
        ],
        "best_conformer_elements": [
            6,
            6,
            6,
            6,
            6,
            6,
            6,
            6,
            6,
            6,
            8,
            1,
            1,
            1,
            1,
            1,
            1,
            1,
            1
        ],
        "best_conformer_coordinates": [
            [
                3.764609545667712,
                0.01861617837940304,
                0.1794833174425406
            ],
            [
                2.7741548013844577,
                0.7815899414990088,
                0.632703341900424
            ],
            [
                1.377716043908649,
                0.5165320196521136,
                0.3978815092039906
            ],
            [
                0.2812176536998444,
                1.2229618444129382,
                0.8095365152725139
            ],
            [
                -0.8569435339869609,
                0.5317515634077508,
                0.3084617442161538
            ],
            [
                -2.2370727392768712,
                0.7204189201770862,
                0.3700693151320678
            ],
            [
                -3.047277140299024,
                -0.19572915277710817,
                -0.26302421449720575
            ],
            [
                -2.514031568915561,
                -1.2878988535857414,
                -0.9511143229679163
            ],
            [
                -1.1514845296918683,
                -1.4983367415572022,
                -1.0276919425139417
            ],
            [
                -0.33473261505100393,
                -0.577680971227969,
                -0.3913695533089672
            ],
            [
                1.0144491207832143,
                -0.5787664185961574,
                -0.3321009420313207
            ],
            [
                3.5651668733951345,
                -0.8636335294306339,
                -0.4043672207675608
            ],
            [
                4.795584136001171,
                0.2526623911207403,
                0.37784779168021887
            ],
            [
                2.971144258343671,
                1.6681634354896906,
                1.2192627477298144
            ],
            [
                0.28617812450320146,
                2.120270707402745,
                1.394556081832542
            ],
            [
                -2.6516951131831736,
                1.5636737905731701,
                0.9012085033479129
            ],
            [
                -4.119717573208658,
                -0.07228513390876394,
                -0.23024642931507777
            ],
            [
                -3.1842841411623097,
                -1.982995541412274,
                -1.4339216662503866
            ],
            [
                -0.7329816029116436,
                -2.3393144549105758,
                -1.5571745866893896
            ]
        ],
        "best_conformer_energy": -29.527799752883197,
        "fukui_radical": {
            "1": 0.06071307423291133,
            "2": 0.03182454105828508,
            "3": 0.05121071580733689,
            "4": 0.04995266524604019,
            "5": 0.03068191281231484,
            "6": 0.04500573350808808,
            "7": 0.02124637218751397,
            "8": 0.048044272312038144,
            "9": 0.0369313142072167,
            "10": 0.019428755562946987,
            "11": 0.05629366167648153,
            "12": 0.06621826806160604,
            "13": 0.08211252264737393,
            "14": 0.06660441873055076,
            "15": 0.07102828728445064,
            "16": 0.06514350317772559,
            "17": 0.06495344092447644,
            "18": 0.07017518000642141,
            "19": 0.06243136055700186
        }
    },
    "monomer2_data": {
        "smiles": "C=CC(=O)OCCCC",
        "ip": 13.787313557775578,
        "ip_corrected": 8.941313557775578,
        "ea": 3.9925591146808466,
        "homo": -0.4127272628246189,
        "lumo": -0.2743804319193664,
        "charges": {
            "1": -0.05974349118711409,
            "2": -0.05857873771035605,
            "3": 0.35520528143914426,
            "4": -0.4141800042273293,
            "5": -0.2677821935008226,
            "6": 0.08217908677405981,
            "7": -0.06734727761554657,
            "8": -0.05644562635654057,
            "9": -0.10525102602139863,
            "10": 0.06270521067099835,
            "11": 0.07867825313713442,
            "12": 0.06410267240460353,
            "13": 0.04848740094028653,
            "14": 0.04848743310769251,
            "15": 0.05096610824048667,
            "16": 0.05096612459751028,
            "17": 0.03529697108331478,
            "18": 0.03529696382048248,
            "19": 0.038628309862929734,
            "20": 0.03970023110752155,
            "21": 0.03862830943294505
        },
        "dipole": [
            -0.3977269369628635,
            0.6387143298338241,
            0.4234044801003376
        ],
        "global_electrophilicity": 0.8348050574660377,
        "global_nucleophilicity": -8.941313557775578,
        "fukui_electrophilicity": {
            "1": 0.0998331675014838,
            "2": 0.06639142085720429,
            "3": 0.08304167106843008,
            "4": 0.18608603208860336,
            "5": 0.09026133669714703,
            "6": -0.020887769395365408,
            "7": -0.0038805864344462065,
            "8": -0.003314689050342802,
            "9": -0.007577159599243002,
            "10": 0.1297702490522501,
            "11": 0.11201724163635822,
            "12": 0.11499826693126959,
            "13": 0.03218980289627936,
            "14": 0.03218976986059464,
            "15": 0.016150659069800344,
            "16": 0.016150635033566334,
            "17": 0.009932771807928637,
            "18": 0.009932781393251548,
            "19": 0.0092986782292814,
            "20": 0.01811703918691682,
            "21": 0.009298681169044552
        },
        "fukui_nucleophilicity": {
            "1": 0.019989111836371594,
            "2": 0.023390025134843263,
            "3": 0.020069065648740836,
            "4": 0.13462886920133071,
            "5": 0.05454926336170063,
            "6": -0.01729573736947146,
            "7": -0.007943857228474668,
            "8": -0.006123508937575524,
            "9": -0.01827633808765726,
            "10": 0.08365419418848738,
            "11": 0.05982951178934659,
            "12": 0.0691381578290839,
            "13": 0.04132517030486409,
            "14": 0.041325101710033556,
            "15": 0.06554119744764274,
            "16": 0.06554120834489653,
            "17": 0.08524610827117389,
            "18": 0.08524612271423221,
            "19": 0.07088258746409554,
            "20": 0.05840116034085999,
            "21": 0.07088258603675981
        },
        "boltzmann_weights": [
            0.03693414337813413,
            0.09732528929105856,
            0.0973252901912,
            0.10103584125115438,
            0.10103584585083969,
            0.011237201320747651,
            0.11958486180602856,
            0.021552593262464673,
            0.029078313671439062,
            0.03770295505864699,
            0.061676136571156864,
            0.06167613687308087,
            0.09732050619542909,
            0.05216903835550857,
            0.006534385856919049,
            0.017939430874259123,
            0.017939383762294096,
            0.016395978608603128,
            0.015536667821035723
        ],
        "best_conformer_elements": [
            6,
            6,
            6,
            8,
            8,
            6,
            6,
            6,
            6,
            1,
            1,
            1,
            1,
            1,
            1,
            1,
            1,
            1,
            1,
            1,
            1
        ],
        "best_conformer_coordinates": [
            [
                -4.68802750952303,
                -0.1757135495014157,
                -0.0065636537547053364
            ],
            [
                -3.46737648864886,
                0.30297384411461076,
                -0.1948238600037417
            ],
            [
                -2.270153538815978,
                -0.5086367153067518,
                0.11636850078287467
            ],
            [
                -2.2800534403851627,
                -1.6336395456018178,
                0.5518122460045366
            ],
            [
                -1.149482184005872,
                0.17406486451161904,
                -0.1506078440749024
            ],
            [
                0.07977383252920166,
                -0.5015554988315519,
                0.10787346745153568
            ],
            [
                1.230254761990056,
                0.4253893145002353,
                -0.25368213139809326
            ],
            [
                2.5827301612246107,
                -0.2356460454505742,
                -0.0011391625859454258
            ],
            [
                3.735213960302028,
                0.6929061320698365,
                -0.3633220032950433
            ],
            [
                -4.822963926763464,
                -1.1730917894984993,
                0.3797907458627033
            ],
            [
                -5.572995506966148,
                0.39650782696682974,
                -0.2258679474708702
            ],
            [
                -3.2710936633388368,
                1.2925996622799187,
                -0.578328081113711
            ],
            [
                0.11415105385960153,
                -0.7837634315707142,
                1.1667605377277634
            ],
            [
                0.11012047857778468,
                -1.4231391066997496,
                -0.4852772062990602
            ],
            [
                1.1466061344096163,
                1.3383019227397421,
                0.3387388646498761
            ],
            [
                1.1425988982196345,
                0.7017564434998245,
                -1.3059685869570938
            ],
            [
                2.6530760237692594,
                -1.1513247740449695,
                -0.5919949806873273
            ],
            [
                2.6570816294933093,
                -0.5150897420081879,
                1.0519086683042862
            ],
            [
                3.688480623481881,
                0.9670467813616556,
                -1.4147276197443912
            ],
            [
                3.692492483263593,
                1.603508984475122,
                0.22977847470195623
            ],
            [
                4.689566217326666,
                0.20654442199489476,
                -0.17741688179181334
            ]
        ],
        "best_conformer_energy": -29.220250213124256,
        "fukui_radical": {
            "1": 0.05991240514062936,
            "2": 0.04489339632307359,
            "3": 0.05155488023524302,
            "4": 0.1603578334746327,
            "5": 0.07240663428209021,
            "6": -0.01909197967812877,
            "7": -0.005911760827825026,
            "8": -0.00471912196699123,
            "9": -0.01292662955879259,
            "10": 0.08592196186162118,
            "11": 0.10671245965632287,
            "12": 0.09206875859381078,
            "13": 0.03675745306599808,
            "14": 0.03675814108352727,
            "15": 0.04084604976879057,
            "16": 0.040846298503678775,
            "17": 0.04758780078708909,
            "18": 0.04758772473328786,
            "19": 0.040089659578387185,
            "20": 0.04008972152348979,
            "21": 0.03825831342072217
        }
    }
}