{
    "file": "paper_753.json",
    "monomer1_s": "C=CC(C)=O",
    "monomer2_s": "C=Cc1ccccc1",
    "monomer1": "Methyl Vinyl Ketone",
    "monomer2": "Styrene",
    "r_values": {
        "constant_1": 0.27,
        "constant_2": 0.4
    },
    "conf_intervals": {
        "constant_conf_1": null,
        "constant_conf_2": null
    },
    "temperature": 60.0,
    "temperature_unit": "\u00b0C",
    "solvent": "C1COCCO1",
    "method": "solvent",
    "r-product": null,
    "source": "https://doi.org/10.1002/pol.1975.130130913",
    "calculation_method": "curve-fitting",
    "polymerization_type": "free radical",
    "logP": 0.03320000000000001,
    "monomer1_data": {
        "smiles": "C=CC(C)=O",
        "ip": 14.258642424984073,
        "ip_corrected": 9.412642424984073,
        "ea": 4.316899483038287,
        "homo": -0.39718657094898,
        "lumo": -0.2884375539709896,
        "charges": {
            "1": -0.06846833490588065,
            "2": -0.05113165245492924,
            "3": 0.23956749490163382,
            "4": -0.13840057100975453,
            "5": -0.3571370215289167,
            "6": 0.057797950466668045,
            "7": 0.05643596919150723,
            "8": 0.06430906118189897,
            "9": 0.06769826750541845,
            "10": 0.06466449875211693,
            "11": 0.06466433790024705
        },
        "dipole": [
            0.4690827099448904,
            0.9775328311625529,
            0.9328185157105614
        ],
        "global_electrophilicity": 0.9922469995002697,
        "global_nucleophilicity": -9.412642424984073,
        "fukui_electrophilicity": {
            "1": 0.09567650561270193,
            "2": 0.05973395738435241,
            "3": 0.0975841161311467,
            "4": -0.04118225374005194,
            "5": 0.2270833789444452,
            "6": 0.11394280857216087,
            "7": 0.1266888808652443,
            "8": 0.1034243727340335,
            "9": 0.07119184442675536,
            "10": 0.07292827770381637,
            "11": 0.07292811136540972
        },
        "fukui_nucleophilicity": {
            "1": 0.032789110601388755,
            "2": 0.04245387632548409,
            "3": 0.05090118302855384,
            "4": 0.0087476496718977,
            "5": 0.2564558084996744,
            "6": 0.09903581009125029,
            "7": 0.13354740002566054,
            "8": 0.113051811043302,
            "9": 0.08387524287776645,
            "10": 0.0895711152993753,
            "11": 0.0895709925363758
        },
        "boltzmann_weights": [
            0.2447829404160091,
            0.7552170595839909
        ],
        "best_conformer_elements": [
            6,
            6,
            6,
            6,
            8,
            1,
            1,
            1,
            1,
            1,
            1
        ],
        "best_conformer_coordinates": [
            [
                -1.412418432696741,
                -0.5375601765510666,
                0.6722276631637732
            ],
            [
                -0.8676373079409337,
                0.6373699717238362,
                0.38686792627647976
            ],
            [
                0.45794450760266775,
                0.8512518089529838,
                -0.2361966715027193
            ],
            [
                1.267263741439288,
                -0.3745236283422553,
                -0.5800515466177074
            ],
            [
                0.8625071709633304,
                1.9708902857585464,
                -0.45476664490954816
            ],
            [
                -2.3864305656942206,
                -0.6083435482817184,
                1.1277159220878903
            ],
            [
                -0.919397746156896,
                -1.4730800747614432,
                0.46784869743892565
            ],
            [
                -1.3948671864476692,
                1.556639272788045,
                0.6076154225366275
            ],
            [
                1.4643835074617497,
                -0.9543202338457284,
                0.3187195423349442
            ],
            [
                2.210026232471839,
                -0.07085481120041363,
                -1.0272581954840319
            ],
            [
                0.7186260789975725,
                -0.9974688609490144,
                -1.2827221100328512
            ]
        ],
        "best_conformer_energy": -15.637810920861758,
        "fukui_radical": {
            "1": 0.0642295055195212,
            "2": 0.0510952921891351,
            "3": 0.07423165260993159,
            "4": -0.016218078052820495,
            "5": 0.24177251000006156,
            "6": 0.1301348091826021,
            "7": 0.10648361175265453,
            "8": 0.1082462514149172,
            "9": 0.08124822916214176,
            "10": 0.0775277739176578,
            "11": 0.08124844230456302
        }
    },
    "monomer2_data": {
        "smiles": "C=Cc1ccccc1",
        "ip": 13.323305315341791,
        "ip_corrected": 8.477305315341791,
        "ea": 3.959877946938991,
        "homo": -0.3831985290395731,
        "lumo": -0.2501966690470822,
        "charges": {
            "1": -0.08578934436600626,
            "2": -0.030259830597504936,
            "3": 0.01460321229207634,
            "4": -0.032430750206366904,
            "5": -0.029945437580900583,
            "6": -0.030379977266510892,
            "7": -0.029893803249294533,
            "8": -0.033985609164289644,
            "9": 0.038721208943534896,
            "10": 0.036165150785770366,
            "11": 0.033044651543264955,
            "12": 0.03404524115950842,
            "13": 0.028965873902585763,
            "14": 0.02897855112451052,
            "15": 0.028735857233840652,
            "16": 0.029425005445779806
        },
        "dipole": [
            -0.00599695759505601,
            0.00019607223034193996,
            -0.0018463290012354543
        ],
        "global_electrophilicity": 0.7692971421446727,
        "global_nucleophilicity": -8.477305315341791,
        "fukui_electrophilicity": {
            "1": 0.07209309972414436,
            "2": 0.04352510810351072,
            "3": 0.06230438364782903,
            "4": 0.03213425829454332,
            "5": 0.026312904098299825,
            "6": 0.06792045239213465,
            "7": 0.02876303434297292,
            "8": 0.03213381752054322,
            "9": 0.08376002497375698,
            "10": 0.09874578293688194,
            "11": 0.08145474392689236,
            "12": 0.06271242240018035,
            "13": 0.07540055911977092,
            "14": 0.08585900759002232,
            "15": 0.07693189708388407,
            "16": 0.06994850384463236
        },
        "fukui_nucleophilicity": {
            "1": 0.07260243947817689,
            "2": 0.04230113696056051,
            "3": 0.06268064465096645,
            "4": 0.03400845310298767,
            "5": 0.03110749772289005,
            "6": 0.07019025477516763,
            "7": 0.03211552237109847,
            "8": 0.03545308497970195,
            "9": 0.07943182497266889,
            "10": 0.09534951030583766,
            "11": 0.07725609403564751,
            "12": 0.06257820938745395,
            "13": 0.07457311950887512,
            "14": 0.0843599501650384,
            "15": 0.07603725882191792,
            "16": 0.06995499876126071
        },
        "boltzmann_weights": [
            0.500000013411314,
            0.499999986588686
        ],
        "best_conformer_elements": [
            6,
            6,
            6,
            6,
            6,
            6,
            6,
            6,
            1,
            1,
            1,
            1,
            1,
            1,
            1,
            1
        ],
        "best_conformer_coordinates": [
            [
                -2.7996504883392213,
                0.5067268078443541,
                -0.3307757375296494
            ],
            [
                -1.8569195165461714,
                -0.42690007797501867,
                -0.28622356006066363
            ],
            [
                -0.41676751008175084,
                -0.2137695987077826,
                -0.201669273122216
            ],
            [
                0.42662331397264364,
                -1.3257786864929022,
                -0.16462382115517377
            ],
            [
                1.7979836205106778,
                -1.1786700332337077,
                -0.08467855669649194
            ],
            [
                2.3586778805752897,
                0.08669579947474147,
                -0.03984625155398522
            ],
            [
                1.535500161801921,
                1.2006125291369882,
                -0.07571377159817176
            ],
            [
                0.16438284527030772,
                1.054224105562994,
                -0.15563770481452763
            ],
            [
                -2.5807350472122574,
                1.5604467593574072,
                -0.30764549962305027
            ],
            [
                -3.84233837136736,
                0.2458441308630186,
                -0.39306838601271116
            ],
            [
                -2.1533557273489103,
                -1.4689784286781729,
                -0.3136745326715254
            ],
            [
                -0.004100778556855408,
                -2.317010607449955,
                -0.1992554256323922
            ],
            [
                2.432537807928637,
                -2.052797839845991,
                -0.05718467471006832
            ],
            [
                3.4304258000072263,
                0.20491108070838962,
                0.022664187100062603
            ],
            [
                1.9676045890247913,
                2.190467602677497,
                -0.04101419015886248
            ],
            [
                -0.4598685796390594,
                1.9339764620498727,
                -0.18248094282351895
            ]
        ],
        "best_conformer_energy": -21.158608850502983,
        "fukui_radical": {
            "1": 0.07234813599322018,
            "2": 0.04291309873393513,
            "3": 0.06249235896699714,
            "4": 0.03379355109266154,
            "5": 0.03043928194186729,
            "6": 0.06905534188080434,
            "7": 0.028710059427083993,
            "8": 0.03307125813746206,
            "9": 0.08159578301382218,
            "10": 0.09704772989059883,
            "11": 0.07935561247948747,
            "12": 0.06995185022654472,
            "13": 0.0764846271348809,
            "14": 0.0851094403734144,
            "15": 0.07498679088705272,
            "16": 0.06264507982020588
        }
    }
}