{
    "file": "paper_472.json",
    "monomer1_s": "C=Cc1cn(-c2ccc(Br)cc2)nn1",
    "monomer2_s": "C=C(C)C(=O)OC",
    "monomer1": "1-p-Bromophenyl-4-vinyl-1,2,3-triazole",
    "monomer2": "Methyl methacrylate",
    "r_values": {
        "constant_1": 0.29,
        "constant_2": 0.84
    },
    "conf_intervals": {
        "constant_conf_1": null,
        "constant_conf_2": null
    },
    "temperature": 65.0,
    "temperature_unit": "\u00b0C",
    "solvent": "CN(C)C=O",
    "method": "solvent",
    "r-product": 0.24,
    "source": "https://doi.org/10.1002/macp.1982.021830808",
    "calculation_method": "Fineman-Ross",
    "polymerization_type": "free radical",
    "logP": -0.2956000000000001,
    "monomer1_data": {
        "smiles": "C=Cc1cn(-c2ccc(Br)cc2)nn1",
        "ip": 12.968897734485441,
        "ip_corrected": 8.122897734485441,
        "ea": 5.424443689449892,
        "homo": -0.38902719364609806,
        "lumo": -0.2853555933830634,
        "charges": {
            "1": -0.086327846429872,
            "2": -0.03358137222678388,
            "3": 0.0605885118531648,
            "4": -0.020939154141706134,
            "5": 0.08340183225564624,
            "6": 0.05445169122399116,
            "7": -0.03628648587599733,
            "8": -0.030275899632849462,
            "9": 0.08306548659202033,
            "10": -0.15421825569909206,
            "11": -0.032819497394408766,
            "12": -0.04153659564154643,
            "13": -0.12202478981516848,
            "14": -0.16451081427443406,
            "15": 0.038158644806398564,
            "16": 0.04465138459394258,
            "17": 0.05768590863984996,
            "18": 0.03842943858305829,
            "19": 0.08193663970258803,
            "20": 0.06579794348417166,
            "21": 0.06250049752034273,
            "22": 0.05185273187667151
        },
        "dipole": [
            0.5398890769000756,
            0.932716316589945,
            -0.7384953395542528
        ],
        "global_electrophilicity": 1.2544536377969313,
        "global_nucleophilicity": -8.122897734485441,
        "fukui_electrophilicity": {
            "1": 0.03127389126177953,
            "2": 0.013417782857439851,
            "3": 0.02721063124890158,
            "4": 0.03844208601932636,
            "5": 0.0288535219241004,
            "6": 0.04932693022166394,
            "7": 0.025031038684536634,
            "8": 0.02316212727659167,
            "9": 0.05152044126639091,
            "10": 0.12222229592143788,
            "11": 0.020377191335599447,
            "12": 0.025956349673567185,
            "13": 0.06659377338713748,
            "14": 0.06623662202781702,
            "15": 0.03574689412040397,
            "16": 0.05444417968782825,
            "17": 0.04516784203733426,
            "18": 0.055230532677522884,
            "19": 0.05122185419356508,
            "20": 0.05971640673928253,
            "21": 0.05855380148904727,
            "22": 0.05029380594895565
        },
        "fukui_nucleophilicity": {
            "1": 0.04370314611517656,
            "2": 0.02699966551494025,
            "3": 0.028566974095099312,
            "4": 0.011436201164842355,
            "5": 0.0402205178329921,
            "6": 0.018174351057944037,
            "7": 0.01668342511040282,
            "8": 0.016104736615832324,
            "9": 0.022897883032760524,
            "10": 0.19719127819285126,
            "11": 0.017650173195228568,
            "12": 0.01608855932775486,
            "13": 0.07349787757822032,
            "14": 0.10067766009152879,
            "15": 0.0499392779206381,
            "16": 0.06387089026629475,
            "17": 0.05160139259608072,
            "18": 0.05032552445551558,
            "19": 0.03359442787079815,
            "20": 0.04252775943690218,
            "21": 0.04302314012582324,
            "22": 0.03522513842146374
        },
        "boltzmann_weights": [
            0.24590644692933747,
            0.24583932148131146,
            0.2541492600317896,
            0.25410497155756145
        ],
        "best_conformer_elements": [
            6,
            6,
            6,
            6,
            7,
            6,
            6,
            6,
            6,
            35,
            6,
            6,
            7,
            7,
            1,
            1,
            1,
            1,
            1,
            1,
            1,
            1
        ],
        "best_conformer_coordinates": [
            [
                -4.395388872344233,
                0.9556954281869092,
                0.22489963659538448
            ],
            [
                -3.8729140353788454,
                -0.22129267625846538,
                -0.09451480971376568
            ],
            [
                -2.458157976099222,
                -0.5040734158187975,
                -0.15297222062783253
            ],
            [
                -1.3527073426866938,
                0.29323949076635847,
                0.08410129534263468
            ],
            [
                -0.2871670415594144,
                -0.5210413481693107,
                -0.12689447278053018
            ],
            [
                1.0791241164961847,
                -0.2513029576251343,
                -0.03261790347824025
            ],
            [
                1.5520959944586348,
                1.0081411544376981,
                0.3238131505305451
            ],
            [
                2.912915538192668,
                1.235347502527622,
                0.4062017207891043
            ],
            [
                3.79501025328795,
                0.20362034616188782,
                0.13221947593230413
            ],
            [
                5.66683757415258,
                0.5220957621000684,
                0.24719831740857304
            ],
            [
                3.33586638116782,
                -1.055146837795774,
                -0.2238274464340305
            ],
            [
                1.9775038186347742,
                -1.2815072647410581,
                -0.30594624452175606
            ],
            [
                -0.727571311947482,
                -1.7416797910230646,
                -0.4720843185434283
            ],
            [
                -1.9940573524282956,
                -1.7381272329992017,
                -0.4890589813381844
            ],
            [
                -5.460059819712919,
                1.1075256871962695,
                0.2519600084383425
            ],
            [
                -3.7843545470953805,
                1.8083471254390806,
                0.4703286459234562
            ],
            [
                -4.5001633954673865,
                -1.0667435022010052,
                -0.3381741828985935
            ],
            [
                -1.2680700975107957,
                1.318338907559241,
                0.36994835940533605
            ],
            [
                0.8725406338316343,
                1.817039736161122,
                0.5387925236456204
            ],
            [
                3.2850814761208906,
                2.2097020140864227,
                0.6820392869672864
            ],
            [
                4.0348647133862245,
                -1.8492455880951741,
                -0.4344212138931716
            ],
            [
                1.5887712872097481,
                -2.248932555770882,
                -0.5800943856707679
            ]
        ],
        "best_conformer_energy": -38.2908263385094,
        "fukui_radical": {
            "1": 0.037480149057035346,
            "2": 0.020206987183725076,
            "3": 0.027891741555285357,
            "4": 0.024932395876033,
            "5": 0.03453380929791322,
            "6": 0.03375261303760854,
            "7": 0.021013865864758556,
            "8": 0.01901786318539879,
            "9": 0.03721049185960533,
            "10": 0.15970915734473842,
            "11": 0.019626271783163788,
            "12": 0.02086804335988864,
            "13": 0.07005775455232491,
            "14": 0.08345410796795698,
            "15": 0.059149280664652214,
            "16": 0.0428426143511778,
            "17": 0.04838506410319961,
            "18": 0.052782315829348427,
            "19": 0.04275015602967036,
            "20": 0.05079326358600694,
            "21": 0.05112006227823102,
            "22": 0.042421991241425885
        }
    },
    "monomer2_data": {
        "smiles": "C=C(C)C(=O)OC",
        "ip": 14.236483972656346,
        "ip_corrected": 9.390483972656346,
        "ea": 3.965500029838621,
        "homo": -0.41127032387995544,
        "lumo": -0.26950129410851986,
        "charges": {
            "1": -0.08192644204948094,
            "2": -0.007758938742676788,
            "3": -0.11040535221003818,
            "4": 0.34920872447012063,
            "5": -0.4109728775483542,
            "6": -0.2641504660609933,
            "7": 0.035165391019299455,
            "8": 0.05595603293225091,
            "9": 0.06272990863841402,
            "10": 0.0654729267794723,
            "11": 0.06547300436630195,
            "12": 0.05055145378886996,
            "13": 0.06218368236208788,
            "14": 0.06218369754524128,
            "15": 0.06628925470948674
        },
        "dipole": [
            0.042189455222522244,
            -0.7608520055498939,
            0.06845067776298096
        ],
        "global_electrophilicity": 0.8813642895109609,
        "global_nucleophilicity": -9.390483972656346,
        "fukui_electrophilicity": {
            "1": 0.0916099776458229,
            "2": 0.08194480124254042,
            "3": -0.03870700638664119,
            "4": 0.08164153093062626,
            "5": 0.19459726093903607,
            "6": 0.07836988169535863,
            "7": -0.03498260375536273,
            "8": 0.11948701878867324,
            "9": 0.10428214255764144,
            "10": 0.06198656850236382,
            "11": 0.06198649192249827,
            "12": 0.06017707177149582,
            "13": 0.04047835404033179,
            "14": 0.04047833993174442,
            "15": 0.05665017017387712
        },
        "fukui_nucleophilicity": {
            "1": 0.05119712917593304,
            "2": 0.06180413311607634,
            "3": -0.01940489925170101,
            "4": 0.013324588985722141,
            "5": 0.15569776430206916,
            "6": 0.09388640424022587,
            "7": -0.026619602504503993,
            "8": 0.1033747366245307,
            "9": 0.08566644804667564,
            "10": 0.09644914037738059,
            "11": 0.09644892416456753,
            "12": 0.07537139198169276,
            "13": 0.07058385012774213,
            "14": 0.07058380855498125,
            "15": 0.07163618205861905
        },
        "fukui_radical": {
            "1": 0.07140355341087798,
            "2": 0.07187446717930837,
            "3": -0.029055952819171102,
            "4": 0.0474830599581742,
            "5": 0.17514751262055261,
            "6": 0.08612814296779225,
            "7": -0.030801103129933362,
            "8": 0.11143087770660196,
            "9": 0.09497429530215853,
            "10": 0.0792178544398722,
            "11": 0.0792177080435329,
            "12": 0.06777423187659429,
            "13": 0.05553110208403696,
            "14": 0.05553107424336284,
            "15": 0.06414317611624809
        },
        "best_conformer_coordinates": [
            [
                -1.0679874721335532,
                -1.591695393005097,
                0.1190505870012582
            ],
            [
                -0.9789696677262058,
                -0.2700634531963184,
                0.015569141935180716
            ],
            [
                -2.152414502903391,
                0.6374624311751305,
                -0.17280008390949914
            ],
            [
                0.33254570919277476,
                0.4296358416853463,
                0.08092895025997722
            ],
            [
                0.4667403029430531,
                1.6257720313950312,
                -0.007628838348907176
            ],
            [
                1.368254296471444,
                -0.40841920824982436,
                0.25032440426561303
            ],
            [
                2.6475724912740755,
                0.20137513824591807,
                0.3202395569867531
            ],
            [
                -2.019589027601903,
                -2.0945475365498094,
                0.07121808444667849
            ],
            [
                -0.1962306925063066,
                -2.2069421172817725,
                0.25399723219802745
            ],
            [
                -2.0338701146835967,
                1.2076321838811321,
                -1.092623302807032
            ],
            [
                -2.1989630647919824,
                1.3547927910841435,
                0.6448131655597281
            ],
            [
                -3.078828528124943,
                0.07221525271252598,
                -0.21295259783201617
            ],
            [
                2.690936133782629,
                0.8988648503855212,
                1.159567291618923
            ],
            [
                2.858178339796767,
                0.7497948862504704,
                -0.6004798925286432
            ],
            [
                3.3626258023029116,
                -0.6058776985323392,
                0.4565564987903857
            ]
        ],
        "best_conformer_elements": [
            6,
            6,
            6,
            6,
            8,
            8,
            6,
            1,
            1,
            1,
            1,
            1,
            1,
            1,
            1
        ],
        "best_conformer_energy": -22.894683429971266
    }
}