{
    "file": "paper_10.json",
    "monomer1_s": "C=C(C)C(=O)O",
    "monomer2_s": "C=Cc1ccccc1",
    "monomer1": "methacrylic acid",
    "monomer2": "styrene",
    "r_values": {
        "constant_1": 0.41,
        "constant_2": 0.59
    },
    "conf_intervals": {
        "constant_conf_1": 0.02,
        "constant_conf_2": 0.05
    },
    "temperature": 60.0,
    "temperature_unit": "\u00b0C",
    "solvent": "C1COCCO1",
    "method": "solvent",
    "r-product": 0.24,
    "source": "https://doi.org/10.1002/macp.1985.021860810",
    "calculation_method": "Kelen-Tudor",
    "polymerization_type": "free radical",
    "logP": 0.03320000000000001,
    "monomer1_data": {
        "smiles": "C=C(C)C(=O)O",
        "ip": 14.557682246810447,
        "ip_corrected": 9.711682246810447,
        "ea": 4.004062496588917,
        "homo": -0.41778278313142936,
        "lumo": -0.2749266616788741,
        "charges": {
            "1": -0.07871362959229097,
            "2": -0.004761890054797921,
            "3": -0.11191541812555254,
            "4": 0.35349913135182187,
            "5": -0.41270490691080813,
            "6": -0.38156612931272826,
            "7": 0.05657688235850899,
            "8": 0.06791481882027398,
            "9": 0.06583713719745438,
            "10": 0.05133482025125581,
            "11": 0.06583720548265033,
            "12": 0.32866197853421286
        },
        "dipole": [
            -0.20547456624602475,
            0.6811286414239859,
            -0.09727921748272907
        ],
        "global_electrophilicity": 0.9318173962470228,
        "global_nucleophilicity": -9.711682246810447,
        "fukui_electrophilicity": {
            "1": 0.0935156691111948,
            "2": 0.08440794825953787,
            "3": -0.04034123534305835,
            "4": 0.08390374590686717,
            "5": 0.20509395998602703,
            "6": 0.0844326409434733,
            "7": 0.12400854214058155,
            "8": 0.1076735407752478,
            "9": 0.06409191280271537,
            "10": 0.06276256417506247,
            "11": 0.06409188256979909,
            "12": 0.06635882867255477
        },
        "fukui_nucleophilicity": {
            "1": 0.056099703279498175,
            "2": 0.07022646362219762,
            "3": -0.018960867380870758,
            "4": 0.021625946252767925,
            "5": 0.19382921214549897,
            "6": 0.08668195935983714,
            "7": 0.11918183343275016,
            "8": 0.10282221742275324,
            "9": 0.11338992032861575,
            "10": 0.08623960657151068,
            "11": 0.11338984791251401,
            "12": 0.05547415709134046
        },
        "boltzmann_weights": [
            0.3861739900089664,
            0.6138260099910335
        ],
        "best_conformer_elements": [
            6,
            6,
            6,
            6,
            8,
            8,
            1,
            1,
            1,
            1,
            1,
            1
        ],
        "best_conformer_coordinates": [
            [
                -0.44948051312854803,
                1.441076312595962,
                -0.23080068712237523
            ],
            [
                -0.22023751223587776,
                0.1472916796702346,
                -0.029730817104113266
            ],
            [
                -1.2908774762908357,
                -0.8895255072480963,
                0.08721070180383599
            ],
            [
                1.1630328136691623,
                -0.3765333155232355,
                0.09714239909778716
            ],
            [
                1.438704547095284,
                -1.536350350837824,
                0.27986310483121773
            ],
            [
                2.1137833001097386,
                0.5664858942594289,
                -0.010029972542151851
            ],
            [
                -1.4518557302282644,
                1.8243475270756504,
                -0.32328818073041204
            ],
            [
                0.35524297037268177,
                2.1506937995418602,
                -0.3083025232461203
            ],
            [
                -2.2757436713806096,
                -0.4435738618299096,
                -0.014011661041301504
            ],
            [
                -1.1545746135692607,
                -1.649010082394822,
                -0.6807776363692132
            ],
            [
                -1.215579515089806,
                -1.3907222667606738,
                1.0507113181437298
            ],
            [
                2.987585395384527,
                0.15582016615967428,
                0.08201394898737989
            ]
        ],
        "best_conformer_energy": -19.73470761176464,
        "fukui_radical": {
            "1": 0.07481391946720131,
            "2": 0.07732509375509179,
            "3": -0.02965483012831581,
            "4": 0.0527609263752182,
            "5": 0.19946029736360732,
            "6": 0.085553179167593,
            "7": 0.12158827713671636,
            "8": 0.10525017087894031,
            "9": 0.07450116878946533,
            "10": 0.08874295774719514,
            "11": 0.08874309061957461,
            "12": 0.06091574884668516
        }
    },
    "monomer2_data": {
        "smiles": "C=Cc1ccccc1",
        "ip": 13.323305315341791,
        "ip_corrected": 8.477305315341791,
        "ea": 3.959877946938991,
        "homo": -0.3831985290395731,
        "lumo": -0.2501966690470822,
        "charges": {
            "1": -0.08578934436600626,
            "2": -0.030259830597504936,
            "3": 0.01460321229207634,
            "4": -0.032430750206366904,
            "5": -0.029945437580900583,
            "6": -0.030379977266510892,
            "7": -0.029893803249294533,
            "8": -0.033985609164289644,
            "9": 0.038721208943534896,
            "10": 0.036165150785770366,
            "11": 0.033044651543264955,
            "12": 0.03404524115950842,
            "13": 0.028965873902585763,
            "14": 0.02897855112451052,
            "15": 0.028735857233840652,
            "16": 0.029425005445779806
        },
        "dipole": [
            -0.00599695759505601,
            0.00019607223034193996,
            -0.0018463290012354543
        ],
        "global_electrophilicity": 0.7692971421446727,
        "global_nucleophilicity": -8.477305315341791,
        "fukui_electrophilicity": {
            "1": 0.07209309972414436,
            "2": 0.04352510810351072,
            "3": 0.06230438364782903,
            "4": 0.03213425829454332,
            "5": 0.026312904098299825,
            "6": 0.06792045239213465,
            "7": 0.02876303434297292,
            "8": 0.03213381752054322,
            "9": 0.08376002497375698,
            "10": 0.09874578293688194,
            "11": 0.08145474392689236,
            "12": 0.06271242240018035,
            "13": 0.07540055911977092,
            "14": 0.08585900759002232,
            "15": 0.07693189708388407,
            "16": 0.06994850384463236
        },
        "fukui_nucleophilicity": {
            "1": 0.07260243947817689,
            "2": 0.04230113696056051,
            "3": 0.06268064465096645,
            "4": 0.03400845310298767,
            "5": 0.03110749772289005,
            "6": 0.07019025477516763,
            "7": 0.03211552237109847,
            "8": 0.03545308497970195,
            "9": 0.07943182497266889,
            "10": 0.09534951030583766,
            "11": 0.07725609403564751,
            "12": 0.06257820938745395,
            "13": 0.07457311950887512,
            "14": 0.0843599501650384,
            "15": 0.07603725882191792,
            "16": 0.06995499876126071
        },
        "boltzmann_weights": [
            0.500000013411314,
            0.499999986588686
        ],
        "best_conformer_elements": [
            6,
            6,
            6,
            6,
            6,
            6,
            6,
            6,
            1,
            1,
            1,
            1,
            1,
            1,
            1,
            1
        ],
        "best_conformer_coordinates": [
            [
                -2.7996504883392213,
                0.5067268078443541,
                -0.3307757375296494
            ],
            [
                -1.8569195165461714,
                -0.42690007797501867,
                -0.28622356006066363
            ],
            [
                -0.41676751008175084,
                -0.2137695987077826,
                -0.201669273122216
            ],
            [
                0.42662331397264364,
                -1.3257786864929022,
                -0.16462382115517377
            ],
            [
                1.7979836205106778,
                -1.1786700332337077,
                -0.08467855669649194
            ],
            [
                2.3586778805752897,
                0.08669579947474147,
                -0.03984625155398522
            ],
            [
                1.535500161801921,
                1.2006125291369882,
                -0.07571377159817176
            ],
            [
                0.16438284527030772,
                1.054224105562994,
                -0.15563770481452763
            ],
            [
                -2.5807350472122574,
                1.5604467593574072,
                -0.30764549962305027
            ],
            [
                -3.84233837136736,
                0.2458441308630186,
                -0.39306838601271116
            ],
            [
                -2.1533557273489103,
                -1.4689784286781729,
                -0.3136745326715254
            ],
            [
                -0.004100778556855408,
                -2.317010607449955,
                -0.1992554256323922
            ],
            [
                2.432537807928637,
                -2.052797839845991,
                -0.05718467471006832
            ],
            [
                3.4304258000072263,
                0.20491108070838962,
                0.022664187100062603
            ],
            [
                1.9676045890247913,
                2.190467602677497,
                -0.04101419015886248
            ],
            [
                -0.4598685796390594,
                1.9339764620498727,
                -0.18248094282351895
            ]
        ],
        "best_conformer_energy": -21.158608850502983,
        "fukui_radical": {
            "1": 0.07234813599322018,
            "2": 0.04291309873393513,
            "3": 0.06249235896699714,
            "4": 0.03379355109266154,
            "5": 0.03043928194186729,
            "6": 0.06905534188080434,
            "7": 0.028710059427083993,
            "8": 0.03307125813746206,
            "9": 0.08159578301382218,
            "10": 0.09704772989059883,
            "11": 0.07935561247948747,
            "12": 0.06995185022654472,
            "13": 0.0764846271348809,
            "14": 0.0851094403734144,
            "15": 0.07498679088705272,
            "16": 0.06264507982020588
        }
    }
}