{
    "file": "paper_350.json",
    "monomer1_s": "COC1(OC)C=C1",
    "monomer2_s": "C=Cc1ccccc1",
    "monomer1": "3,3-Dimethoxycyclopropene",
    "monomer2": "Styrene",
    "r_values": {
        "constant_1": 0.241,
        "constant_2": 1.4
    },
    "conf_intervals": {
        "constant_conf_1": 0.053,
        "constant_conf_2": 0.045
    },
    "temperature": 60.0,
    "temperature_unit": "\u00b0C",
    "solvent": null,
    "method": "bulk",
    "r-product": null,
    "source": "http://dx.doi.org/10.1080/00222338508063314",
    "calculation_method": "Kelen-Tudor",
    "polymerization_type": "free radical",
    "monomer1_data": {
        "smiles": "COC1(OC)C=C1",
        "ip": 13.925141948055709,
        "ip_corrected": 9.079141948055709,
        "ea": 2.0253314543345646,
        "homo": -0.4011223808155539,
        "lumo": -0.23079878281176022,
        "charges": {
            "1": 0.042149421273169174,
            "2": -0.33752968954698703,
            "3": 0.2766908089937958,
            "4": -0.3375296301700267,
            "5": 0.0421494264207329,
            "6": -0.04937951148847529,
            "7": -0.049380448996841075,
            "8": 0.044421559576161465,
            "9": 0.031214642195022013,
            "10": 0.05851876342475354,
            "11": 0.031214654677179425,
            "12": 0.04442157190247602,
            "13": 0.05851875735177677,
            "14": 0.07225983442054806,
            "15": 0.07225983996673496
        },
        "dipole": [
            -0.01729282864616588,
            0.22179347936542484,
            -0.022270525907517817
        ],
        "global_electrophilicity": 0.41144026357702784,
        "global_nucleophilicity": -9.079141948055709,
        "fukui_electrophilicity": {
            "1": -0.026196085294646315,
            "2": 0.0451591670308103,
            "3": 0.04301817837930905,
            "4": 0.045159152162340455,
            "5": -0.026196079316943524,
            "6": 0.17952605737761285,
            "7": 0.17952526526620707,
            "8": 0.037092811007876265,
            "9": 0.021773590385987855,
            "10": 0.05628930494002922,
            "11": 0.021773587951412626,
            "12": 0.037092832618456896,
            "13": 0.05628930715304393,
            "14": 0.16484650774424153,
            "15": 0.16484640259428335
        },
        "fukui_nucleophilicity": {
            "1": -0.031044557190666955,
            "2": 0.1265779992859407,
            "3": 0.029133829036541825,
            "4": 0.12657836060361383,
            "5": -0.03104436116184435,
            "6": 0.04728751822233285,
            "7": 0.04729559861935666,
            "8": 0.07482652830278932,
            "9": 0.09774178800344474,
            "10": 0.07355638229566866,
            "11": 0.09774166974867587,
            "12": 0.07482639527061467,
            "13": 0.07355633776672671,
            "14": 0.09648346616443923,
            "15": 0.09648304503232946
        },
        "boltzmann_weights": [
            0.24766351075138357,
            0.2476635509829925,
            0.24766350532498135,
            0.002342043473681349,
            0.002342043464110996,
            0.002342070079836385,
            0.0023420700708034906,
            0.24764120585221022
        ],
        "best_conformer_elements": [
            6,
            8,
            6,
            8,
            6,
            6,
            6,
            1,
            1,
            1,
            1,
            1,
            1,
            1,
            1
        ],
        "best_conformer_coordinates": [
            [
                -1.7215041770735344,
                0.3533442974679331,
                1.1447914267182258
            ],
            [
                -0.736716614948692,
                0.9007357564158951,
                0.2864939156737538
            ],
            [
                -0.07158562885523946,
                -0.05670338044668159,
                -0.47843314638777884
            ],
            [
                0.8184440659322123,
                -0.8360101952494906,
                0.2596256750504173
            ],
            [
                1.989767760654923,
                -0.14085475991348542,
                0.64805548513715
            ],
            [
                0.18160184578933522,
                0.2469497972338928,
                -1.9134872436184818
            ],
            [
                -0.7178066160632526,
                -0.6716683699500587,
                -1.6700287195964294
            ],
            [
                -2.102353308587522,
                1.1813845073957476,
                1.7387081279235606
            ],
            [
                -1.2873917781009598,
                -0.4074111181146687,
                1.7997342631136275
            ],
            [
                -2.5365639490424976,
                -0.09277348668184374,
                0.5650614153564942
            ],
            [
                2.5869002542358306,
                0.13281370652691338,
                -0.2282824137580259
            ],
            [
                2.5540452101979123,
                -0.8236999111215099,
                1.2795195200903888
            ],
            [
                1.7374774353506237,
                0.7638523717320134,
                1.208419362202273
            ],
            [
                0.7306901975822597,
                0.8291845299363366,
                -2.6122398672865366
            ],
            [
                -1.4250046917796153,
                -1.3791437558144628,
                -2.0279378006186537
            ]
        ],
        "best_conformer_energy": -22.810000035389496,
        "fukui_radical": {
            "1": -0.02862214288564663,
            "2": 0.08589259364471055,
            "3": 0.03598938022230368,
            "4": 0.08589336213554902,
            "5": -0.028622113984314097,
            "6": 0.11340212598367821,
            "7": 0.11340219439276644,
            "8": 0.06493042564926937,
            "9": 0.05595305032809283,
            "10": 0.05984624507708143,
            "11": 0.05984288655230985,
            "12": 0.06493046831195452,
            "13": 0.05595734903364984,
            "14": 0.13060215367538563,
            "15": 0.13060202186320163
        }
    },
    "monomer2_data": {
        "smiles": "C=Cc1ccccc1",
        "ip": 13.323305315341791,
        "ip_corrected": 8.477305315341791,
        "ea": 3.959877946938991,
        "homo": -0.3831985290395731,
        "lumo": -0.2501966690470822,
        "charges": {
            "1": -0.08578934436600626,
            "2": -0.030259830597504936,
            "3": 0.01460321229207634,
            "4": -0.032430750206366904,
            "5": -0.029945437580900583,
            "6": -0.030379977266510892,
            "7": -0.029893803249294533,
            "8": -0.033985609164289644,
            "9": 0.038721208943534896,
            "10": 0.036165150785770366,
            "11": 0.033044651543264955,
            "12": 0.03404524115950842,
            "13": 0.028965873902585763,
            "14": 0.02897855112451052,
            "15": 0.028735857233840652,
            "16": 0.029425005445779806
        },
        "dipole": [
            -0.00599695759505601,
            0.00019607223034193996,
            -0.0018463290012354543
        ],
        "global_electrophilicity": 0.7692971421446727,
        "global_nucleophilicity": -8.477305315341791,
        "fukui_electrophilicity": {
            "1": 0.07209309972414436,
            "2": 0.04352510810351072,
            "3": 0.06230438364782903,
            "4": 0.03213425829454332,
            "5": 0.026312904098299825,
            "6": 0.06792045239213465,
            "7": 0.02876303434297292,
            "8": 0.03213381752054322,
            "9": 0.08376002497375698,
            "10": 0.09874578293688194,
            "11": 0.08145474392689236,
            "12": 0.06271242240018035,
            "13": 0.07540055911977092,
            "14": 0.08585900759002232,
            "15": 0.07693189708388407,
            "16": 0.06994850384463236
        },
        "fukui_nucleophilicity": {
            "1": 0.07260243947817689,
            "2": 0.04230113696056051,
            "3": 0.06268064465096645,
            "4": 0.03400845310298767,
            "5": 0.03110749772289005,
            "6": 0.07019025477516763,
            "7": 0.03211552237109847,
            "8": 0.03545308497970195,
            "9": 0.07943182497266889,
            "10": 0.09534951030583766,
            "11": 0.07725609403564751,
            "12": 0.06257820938745395,
            "13": 0.07457311950887512,
            "14": 0.0843599501650384,
            "15": 0.07603725882191792,
            "16": 0.06995499876126071
        },
        "boltzmann_weights": [
            0.500000013411314,
            0.499999986588686
        ],
        "best_conformer_elements": [
            6,
            6,
            6,
            6,
            6,
            6,
            6,
            6,
            1,
            1,
            1,
            1,
            1,
            1,
            1,
            1
        ],
        "best_conformer_coordinates": [
            [
                -2.7996504883392213,
                0.5067268078443541,
                -0.3307757375296494
            ],
            [
                -1.8569195165461714,
                -0.42690007797501867,
                -0.28622356006066363
            ],
            [
                -0.41676751008175084,
                -0.2137695987077826,
                -0.201669273122216
            ],
            [
                0.42662331397264364,
                -1.3257786864929022,
                -0.16462382115517377
            ],
            [
                1.7979836205106778,
                -1.1786700332337077,
                -0.08467855669649194
            ],
            [
                2.3586778805752897,
                0.08669579947474147,
                -0.03984625155398522
            ],
            [
                1.535500161801921,
                1.2006125291369882,
                -0.07571377159817176
            ],
            [
                0.16438284527030772,
                1.054224105562994,
                -0.15563770481452763
            ],
            [
                -2.5807350472122574,
                1.5604467593574072,
                -0.30764549962305027
            ],
            [
                -3.84233837136736,
                0.2458441308630186,
                -0.39306838601271116
            ],
            [
                -2.1533557273489103,
                -1.4689784286781729,
                -0.3136745326715254
            ],
            [
                -0.004100778556855408,
                -2.317010607449955,
                -0.1992554256323922
            ],
            [
                2.432537807928637,
                -2.052797839845991,
                -0.05718467471006832
            ],
            [
                3.4304258000072263,
                0.20491108070838962,
                0.022664187100062603
            ],
            [
                1.9676045890247913,
                2.190467602677497,
                -0.04101419015886248
            ],
            [
                -0.4598685796390594,
                1.9339764620498727,
                -0.18248094282351895
            ]
        ],
        "best_conformer_energy": -21.158608850502983,
        "fukui_radical": {
            "1": 0.07234813599322018,
            "2": 0.04291309873393513,
            "3": 0.06249235896699714,
            "4": 0.03379355109266154,
            "5": 0.03043928194186729,
            "6": 0.06905534188080434,
            "7": 0.028710059427083993,
            "8": 0.03307125813746206,
            "9": 0.08159578301382218,
            "10": 0.09704772989059883,
            "11": 0.07935561247948747,
            "12": 0.06995185022654472,
            "13": 0.0764846271348809,
            "14": 0.0851094403734144,
            "15": 0.07498679088705272,
            "16": 0.06264507982020588
        }
    }
}