{
    "file": "paper_434.json",
    "monomer1_s": "C=Cn1c2ccccc2c2ccccc21",
    "monomer2_s": "C=CC(=O)OC",
    "monomer1": "N-Vinyl Carbazole",
    "monomer2": "Methyl Acrylate",
    "r_values": {
        "constant_1": 0.11,
        "constant_2": 0.43
    },
    "conf_intervals": {
        "constant_conf_1": 0.02,
        "constant_conf_2": 0.02
    },
    "temperature": 30.0,
    "temperature_unit": "\u00b0C",
    "solvent": "C1CCOC1",
    "method": "solvent",
    "r-product": 0.05,
    "source": "https://doi.org/10.1002/pol.1968.150060409",
    "calculation_method": null,
    "polymerization_type": "free radical",
    "logP": 0.7968,
    "monomer1_data": {
        "smiles": "C=Cn1c2ccccc2c2ccccc21",
        "ip": 12.152862292499544,
        "ip_corrected": 7.306862292499543,
        "ea": 4.400686784555404,
        "homo": -0.3610609042546463,
        "lumo": -0.2455594400793154,
        "charges": {
            "1": -0.1120127847893681,
            "2": 0.021719941312140015,
            "3": -0.02684521850627941,
            "4": 0.043947835967981366,
            "5": -0.049712954891556,
            "6": -0.03337780492779355,
            "7": -0.040108165441353365,
            "8": -0.03258783273419225,
            "9": -0.015634587774744767,
            "10": -0.016044562456519765,
            "11": -0.032772252863292044,
            "12": -0.04003508195391307,
            "13": -0.033746671381919745,
            "14": -0.04987259311904255,
            "15": 0.046337915053070805,
            "16": 0.04269075693185816,
            "17": 0.04777705191251751,
            "18": 0.04133531602993661,
            "19": 0.027062068737286768,
            "20": 0.029649847571299282,
            "21": 0.028648892232512397,
            "22": 0.03146408529001631,
            "23": 0.031243443507664347,
            "24": 0.02840140513493172,
            "25": 0.029534736214496347,
            "26": 0.032937214944262085
        },
        "dipole": [
            0.002647547791467726,
            0.37933146300077836,
            -0.08915068727480299
        ],
        "global_electrophilicity": 0.7591555378323623,
        "global_nucleophilicity": -7.306862292499543,
        "fukui_electrophilicity": {
            "1": 0.031707972861884176,
            "2": 0.015073741518331359,
            "3": 0.025110664778067282,
            "4": 0.019068017337095733,
            "5": 0.023283418926320215,
            "6": 0.04682257648159363,
            "7": 0.017277421612189738,
            "8": 0.031992284330039596,
            "9": 0.036941800588403455,
            "10": 0.03679939468493545,
            "11": 0.03089329985175108,
            "12": 0.01746033213625827,
            "13": 0.046091654348420795,
            "14": 0.021475097741573225,
            "15": 0.019342975188853237,
            "16": 0.055248247904230385,
            "17": 0.03742506889961514,
            "18": 0.04081168081043028,
            "19": 0.05123687816755393,
            "20": 0.06409397627328145,
            "21": 0.05783872392773721,
            "22": 0.053370625822635354,
            "23": 0.05286702530271854,
            "24": 0.057618041453989036,
            "25": 0.0632138254854176,
            "26": 0.0469352535667204
        },
        "fukui_nucleophilicity": {
            "1": 0.044219026736512596,
            "2": 0.005337642125176872,
            "3": 0.08329757012798608,
            "4": 0.009701325877810307,
            "5": 0.032212984336940226,
            "6": 0.01790650914018309,
            "7": 0.040323479587904894,
            "8": 0.023530840657571585,
            "9": 0.023537628590767794,
            "10": 0.024000564097451355,
            "11": 0.023769203472828217,
            "12": 0.040471258162523886,
            "13": 0.017449051883969856,
            "14": 0.032056564640407646,
            "15": 0.009410255533763012,
            "16": 0.06385209928451985,
            "17": 0.0466840062985438,
            "18": 0.05228571971145105,
            "19": 0.046157847273960356,
            "20": 0.053606296493425507,
            "21": 0.05862894148800443,
            "22": 0.048343465549768254,
            "23": 0.048766630436289385,
            "24": 0.058827688803506945,
            "25": 0.05324083176240828,
            "26": 0.04238256792633032
        },
        "boltzmann_weights": [
            0.4999919417729012,
            0.5000080582270988
        ],
        "best_conformer_elements": [
            6,
            6,
            7,
            6,
            6,
            6,
            6,
            6,
            6,
            6,
            6,
            6,
            6,
            6,
            6,
            1,
            1,
            1,
            1,
            1,
            1,
            1,
            1,
            1,
            1,
            1
        ],
        "best_conformer_coordinates": [
            [
                -1.2966228239040163,
                3.147334781313656,
                0.3469522209012655
            ],
            [
                -0.3064982877779927,
                2.459373189549611,
                -0.20468962868979357
            ],
            [
                -0.11821042151850905,
                1.087802336630937,
                -0.1284556163283467
            ],
            [
                1.1292436437363544,
                0.48696781621547813,
                -0.1205577272048345
            ],
            [
                2.3888666043198503,
                1.0647120434244706,
                -0.1860551611734446
            ],
            [
                3.4877706225461695,
                0.2269580051346108,
                -0.14640603416764178
            ],
            [
                3.346776762365483,
                -1.1534380028112416,
                -0.031050725803036403
            ],
            [
                2.0963979285832757,
                -1.7336822474336295,
                0.049150125356812416
            ],
            [
                0.9786635334489519,
                -0.9119234456967535,
                0.0038867845470203295
            ],
            [
                -0.43413817893348533,
                -1.1651750306204849,
                0.05614588993519443
            ],
            [
                -1.1806184348343192,
                -2.3320677801862937,
                0.14469209686983334
            ],
            [
                -2.5576921476614394,
                -2.2403092505011415,
                0.12431061906445817
            ],
            [
                -3.1848346136910393,
                -1.0044253980575715,
                -0.007023437673522658
            ],
            [
                -2.4612124479227466,
                0.17035406087709742,
                -0.09196503599582069
            ],
            [
                -1.0766679349904797,
                0.09203144010797794,
                -0.03445641288103654
            ],
            [
                -2.058081701512318,
                2.6893449957217794,
                0.9512022481732624
            ],
            [
                -1.358978069055379,
                4.211729720333272,
                0.21301770343245235
            ],
            [
                0.4712694666194586,
                2.967584447746465,
                -0.761849230852121
            ],
            [
                2.5199079864284863,
                2.133505737727896,
                -0.26166969547288044
            ],
            [
                4.4782899463086405,
                0.6540722274804622,
                -0.20119411471326643
            ],
            [
                4.230141839301257,
                -1.7737312267004897,
                -2.79861948139464e-05
            ],
            [
                1.9852514684623501,
                -2.803143570381114,
                0.1456820182213287
            ],
            [
                -0.688082355560756,
                -3.2898458925790446,
                0.21930018424695782
            ],
            [
                -3.158665635999124,
                -3.134688167396403,
                0.19467007439601056
            ],
            [
                -4.263341692552538,
                -0.9612656522527927,
                -0.04818827899132328
            ],
            [
                -2.9689350456227306,
                1.1119248623530804,
                -0.22542087371096617
            ]
        ],
        "best_conformer_energy": -38.505550880752004,
        "fukui_radical": {
            "1": 0.037955835977534644,
            "2": 0.010203492163483575,
            "3": 0.054204963061429245,
            "4": 0.014382708337729394,
            "5": 0.02775011766429169,
            "6": 0.03236311590565724,
            "7": 0.02880078614594411,
            "8": 0.02776291212424098,
            "9": 0.03023845939573079,
            "10": 0.030399950363977055,
            "11": 0.027332503106019458,
            "12": 0.028966436564689918,
            "13": 0.03176849720765027,
            "14": 0.026767812617524783,
            "15": 0.014376357050836022,
            "16": 0.04205793720651868,
            "17": 0.059548070187100614,
            "18": 0.046553345724391335,
            "19": 0.048697014361345624,
            "20": 0.05884957778967771,
            "21": 0.058234147006232584,
            "22": 0.05085722113339963,
            "23": 0.050817637240514885,
            "24": 0.05822312102191429,
            "25": 0.05822645513699652,
            "26": 0.04466152550519763
        }
    },
    "monomer2_data": {
        "smiles": "C=CC(=O)OC",
        "ip": 14.692732411397026,
        "ip_corrected": 9.846732411397026,
        "ea": 4.030066384655581,
        "homo": -0.4168160434029768,
        "lumo": -0.2773691414537491,
        "charges": {
            "1": -0.05910028257802403,
            "2": -0.05891213215875579,
            "3": 0.35476352912512465,
            "4": -0.40846952249873264,
            "5": -0.2625731186295399,
            "6": 0.033879670341886575,
            "7": 0.06373910620529047,
            "8": 0.07928391219632687,
            "9": 0.06499169701591358,
            "10": 0.06245444367086885,
            "11": 0.0674878155430939,
            "12": 0.06245488176655236
        },
        "dipole": [
            -0.21046297932765884,
            0.4997949964478015,
            0.48599304453707654
        ],
        "global_electrophilicity": 0.9560850763102827,
        "global_nucleophilicity": -9.846732411397026,
        "fukui_electrophilicity": {
            "1": 0.10045528904100862,
            "2": 0.06659787353463309,
            "3": 0.08309718067197513,
            "4": 0.18886974595517186,
            "5": 0.09414612400709466,
            "6": -0.03671390395244005,
            "7": 0.13123909598665776,
            "8": 0.11309867892022751,
            "9": 0.11608063227745903,
            "10": 0.041356623377842835,
            "11": 0.06041668562395025,
            "12": 0.04135597455642097
        },
        "fukui_nucleophilicity": {
            "1": 0.03183016716631685,
            "2": 0.04342538760330884,
            "3": 0.02745713021547752,
            "4": 0.1972799705633549,
            "5": 0.11741773446980242,
            "6": -0.02896784140331135,
            "7": 0.13225214038505362,
            "8": 0.10144028310281646,
            "9": 0.11688162778501492,
            "10": 0.084423043138663,
            "11": 0.09213950423458996,
            "12": 0.08442085273883593
        },
        "boltzmann_weights": [
            0.7809023146078801,
            0.21909768539211993
        ],
        "best_conformer_elements": [
            6,
            6,
            6,
            8,
            8,
            6,
            1,
            1,
            1,
            1,
            1,
            1
        ],
        "best_conformer_coordinates": [
            [
                2.375424253170833,
                -0.042464140977707156,
                -0.4723742197909711
            ],
            [
                1.2118789673370156,
                -0.6032180699507831,
                -0.1778923349614194
            ],
            [
                0.07573264959292948,
                0.20527961374389403,
                0.313405683545105
            ],
            [
                0.0842737382714263,
                1.397737925563697,
                0.48979711281800653
            ],
            [
                -0.9959034802211988,
                -0.570104593056496,
                0.5457210463207341
            ],
            [
                -2.154643966463659,
                0.0955089680808996,
                1.0229047305535233
            ],
            [
                3.21578035662919,
                -0.6112512968509941,
                -0.8313744780665208
            ],
            [
                2.507578563756908,
                1.0211127492421515,
                -0.3555848968312252
            ],
            [
                1.0221292290557205,
                -1.6612436490330131,
                -0.2751001150022963
            ],
            [
                -2.4857492614290058,
                0.8449871259167941,
                0.3008348277662345
            ],
            [
                -1.9420815999057395,
                0.5940269322202341,
                1.9710767843292463
            ],
            [
                -2.91441945508618,
                -0.6703715596068814,
                1.1551369575003487
            ]
        ],
        "best_conformer_energy": -19.72419792074873,
        "fukui_radical": {
            "1": 0.06614234405092229,
            "2": 0.05501143593739626,
            "3": 0.05527674562022347,
            "4": 0.1930754795185456,
            "5": 0.10578229887992882,
            "6": -0.03284110158087987,
            "7": 0.13174568347369603,
            "8": 0.10726967677866533,
            "9": 0.1164811191205049,
            "10": 0.06288924532380025,
            "11": 0.06288922954329282,
            "12": 0.07627784333393672
        }
    }
}