{"smiles": "C=C(C)C=O", "ip": 14.401055262109372, "ip_corrected": 9.555055262109372, "ea": 4.335183461848511, "homo": -0.40182350780569287, "lumo": -0.2925846755987062, "charges": {"1": -0.06902695027627212, "2": -0.001702911795567058, "3": -0.11468091212473064, "4": 0.20644329668683853, "5": -0.32946860856986726, "6": 0.07420071445890955, "7": 0.055327856882489895, "8": 0.05448925522848629, "9": 0.05448924877425769, "10": 0.05346623256526061, "11": 0.016462778170196923}, "dipole": [1.177555011080635, 0.513291642899737, -0.06938325348853519], "global_electrophilicity": 1.0157870043335375, "global_nucleophilicity": -9.555055262109372, "fukui_electrophilicity": {"1": 0.09000388452618194, "2": 0.07807887665370529, "3": -0.04095705046841561, "4": 0.07496002068152335, "5": 0.23524753917046026, "6": 0.10000996705013299, "7": 0.12505238510899966, "8": 0.06571225609887828, "9": 0.06571222070052626, "10": 0.062108164162472064, "11": 0.14407173631552878}, "fukui_nucleophilicity": {"1": 0.04333727845712358, "2": 0.06494147715607278, "3": -0.026929142132883138, "4": 0.019948664504662983, "5": 0.2492598584301643, "6": 0.07663285901589403, "7": 0.1174749565136465, "8": 0.09025636945397839, "9": 0.09025638024623002, "10": 0.09217077441005009, "11": 0.1826505239630253}, "boltzmann_weights": [1.0], "best_conformer_energy": -15.633264100533127, "best_conformer_coordinates": [[-0.8606805635177474, 1.1462808684634709, -0.39378119057348415], [-0.15814234192027204, 0.07342141659134722, -0.03227127651118019], [1.3336680217597714, 0.04461714545037086, 0.0782255758796328], [-0.8668539446537024, -1.1809187943240698, 0.28568874146599343], [-2.0598578213092837, -1.33912875393382, 0.250277966584756], [-1.9352203913777617, 1.0938373120967917, -0.4519885401259655], [-0.3968418221841781, 2.087114774285735, -0.6369067645150157], [1.746186657919926, -0.708243929116211, -0.5925155652425614], [1.6308146313430414, -0.21567007398665403, 1.0935184103336009], [1.7599885230029335, 1.0112030706487962, -0.17498968110745258], [-0.19306095964627232, -2.012513030883967, 0.5747423238116739]], "best_conformer_elements": [6, 6, 6, 6, 8, 1, 1, 1, 1, 1, 1]}