{"smiles": "C=C(C)C(=O)[O-]", "ip": 14.831421471261669, "ip_corrected": 9.985421471261668, "ea": 8.012444419220191, "homo": -0.45161138081017915, "lumo": -0.4238227021712913, "charges": {"1": -0.07904741856808119, "2": 0.04254861867368796, "3": -0.11353758502021381, "4": 0.39944032654145867, "5": -0.34184154748387613, "6": -0.3469391222674615, "7": 0.09655146946334907, "8": 0.09540432960793278, "9": 0.08490717788352836, "10": 0.07760675455701593, "11": 0.08490699661946001}, "dipole": [-0.06732803506230506, -1.91436164661265, 0.8228515899289781], "global_electrophilicity": 3.1707757461479447, "global_nucleophilicity": -9.985421471261668, "fukui_electrophilicity": {"1": 0.021165041194625006, "2": 0.08370379445611474, "3": -0.03438410664823009, "4": 0.037659427089030584, "5": 0.2565270297445467, "6": 0.24840774324885795, "7": 0.12248056325141396, "8": 0.07181358478481724, "9": 0.0542820527999249, "10": 0.08406268070926681, "11": 0.05428218937643055}, "fukui_nucleophilicity": {"1": 0.02349995132393709, "2": 0.06747265525780374, "3": -0.02016466347024827, "4": 0.03652620601059292, "5": 0.2047078193140156, "6": 0.201850159795269, "7": 0.13675726614632683, "8": 0.0888963014146275, "9": 0.07108331827031847, "10": 0.11828726547534782, "11": 0.07108372063440992}, "boltzmann_weights": [0.4999743202855839, 0.5000256797144161], "best_conformer_elements": [6, 6, 6, 6, 8, 8, 1, 1, 1, 1, 1], "best_conformer_coordinates": [[0.2564198211441299, 1.2351131960832702, -0.7897601729444864], [0.1007343852008167, 0.11627352245212999, -0.10145018721941229], [-1.1846947002682748, -0.2605124576006329, 0.566626997897549], [1.2825489952486666, -0.8980438404902353, 0.054449846314189206], [2.3451286958033166, -0.580860814118715, -0.5010439655387227], [1.0265873222612456, -1.914380005862029, 0.7202307845961001], [-0.5326985774728049, 1.969347627478823, -0.9260928806648235], [1.207139020284891, 1.4525761042057908, -1.2492340851234427], [-1.9607436816413693, 0.4941809856601712, 0.4140909090609846], [-1.5278845940453138, -1.2190002315696176, 0.1778595781649789], [-1.0125366918070633, -0.39469408094716585, 1.6343231754570442]], "best_conformer_energy": -19.442082949293784, "fukui_radical": {"1": 0.022307277666798048, "2": 0.07562411045047038, "3": -0.02729218396048526, "4": 0.037098384541821905, "5": 0.2250992406031237, "6": 0.23058280431206396, "7": 0.12965589444204198, "8": 0.08036023938615615, "9": 0.10122589385188109, "10": 0.06266919915754621, "11": 0.0626691396363914}}