{"smiles": "C=CC(=O)Oc1cc(Cl)cc2c3cc(Cl)ccc3n(CCO)c12", "ip": 12.174890030234982, "ip_corrected": 7.328890030234982, "ea": 5.7628203870503825, "homo": -0.37617833633390213, "lumo": -0.29109797920918884, "charges": {"1": -0.05825009381833248, "2": -0.06275674588894918, "3": 0.3552868110418253, "4": -0.39640326685868, "5": -0.24827859465926982, "6": 0.12678448693417757, "7": -0.069766675105228, "8": 0.08928442033856104, "9": -0.16897154519338023, "10": -0.04820876538106601, "11": -0.012975416567455357, "12": -0.011043607916776173, "13": -0.04107910598306526, "14": 0.09010564083804476, "15": -0.1835433562814612, "16": -0.041434670221517346, "17": -0.04860675259451897, "18": 0.04091964797588328, "19": -0.02914665451406101, "20": -0.011949057124309041, "21": 0.08361827594912374, "22": -0.43874465881394603, "23": 0.02579205363280608, "24": 0.06588752362177441, "25": 0.08008644131892806, "26": 0.07502423548422246, "27": 0.10179674675997631, "28": 0.06704574076542526, "29": 0.061874474520896734, "30": 0.05952673010947556, "31": 0.045185460295445026, "32": 0.06855144840346375, "33": 0.08356768965091284, "34": 0.025301667155483744, "35": 0.03059315840449885, "36": 0.2949263137211081}, "dipole": [0.886431496600324, 2.0630413333126523, 0.30859487993205376], "global_electrophilicity": 1.3254640090738279, "global_nucleophilicity": -7.328890030234982, "fukui_electrophilicity": {"1": 0.0444831013469694, "2": 0.025103602062785654, "3": 0.03591907180841741, "4": 0.09125001373884079, "5": 0.038583382707944425, "6": 0.01711202172551174, "7": 0.027399232478750965, "8": 0.011569286991245431, "9": 0.06538143437923566, "10": 0.032346506079705975, "11": 0.021709133983301224, "12": 0.02188850822139643, "13": 0.021018990672034922, "14": 0.012781984818485803, "15": 0.0624423376308145, "16": 0.029189192746381563, "17": 0.020257735700469605, "18": 0.0098492579325591, "19": 0.02013594728889262, "20": -0.009636010617480893, "21": -0.004123354518781777, "22": 0.0021554688708643743, "23": 0.00873920603701174, "24": 0.06347839489880312, "25": 0.05185891326707436, "26": 0.04896713385735222, "27": 0.02987916736586496, "28": 0.04268859312642709, "29": 0.03444680703358011, "30": 0.04296204188557526, "31": 0.03651527564104461, "32": 0.018325996229901456, "33": 0.004529973014616426, "34": 0.012899535030925975, "35": -0.0035727230104703085, "36": 0.011464839628907597}, "fukui_nucleophilicity": {"1": 0.012514782958977642, "2": -0.00035929820448095395, "3": 0.0013380228239307512, "4": 0.02839788051722536, "5": 0.021822597145052913, "6": 0.030680128957222524, "7": 0.008881018558369508, "8": 0.022321852122873437, "9": 0.1512061482815443, "10": 0.02191856178775599, "11": 0.019651343650468715, "12": 0.021023900048930906, "13": 0.017882044955712155, "14": 0.02314769504607085, "15": 0.15448709012358558, "16": 0.012467288410732066, "17": 0.024704989209175056, "18": 0.009632158303305743, "19": 0.06962685385403325, "20": -0.0136498320309126, "21": -0.00015561512675209277, "22": 0.011714159793522805, "23": 0.009247845864942858, "24": 0.02470269151177089, "25": 0.01782717549010701, "26": 0.007083864380553209, "27": 0.0353360103086353, "28": 0.03790059280770326, "29": 0.03678706720035565, "30": 0.04121349823598703, "31": 0.04080339453301318, "32": 0.02669244955952696, "33": 0.029845932051216453, "34": 0.01641392458452315, "35": 0.00933497254417617, "36": 0.017556809741178236}, "boltzmann_weights": [0.014689582765504326, 0.014689738421142748, 0.14940013765826948, 0.007693762176826373, 0.01468978109193098, 0.0076937621362969935, 0.05379738348319921, 0.04905231110236921, 0.003262126962460764, 0.026451449270552645, 0.029291337159790782, 0.06560639468978262, 0.04341998181478223, 0.04342000925832544, 0.40784556236075376, 0.02299890976940003, 0.022998817454934636, 0.02299895242367789], "best_conformer_energy": -67.28050711156295, "best_conformer_coordinates": [[5.464358502063061, -0.01092033104463399, -0.7542543192066924], [4.173326512211489, 0.10111661037978784, -0.47497264683253776], [3.2180191719961813, -0.957276553383222, -0.870280878305727], [3.4989791191008983, -1.9551151065031114, -1.4814074406481075], [1.9877904088952243, -0.6139033664631246, -0.4354137095752226], [0.8173968355074325, -1.3175665504214382, -0.649575363992887], [0.7270825364242172, -2.524346605242735, -1.3213507826046162], [-0.5109227032991392, -3.1396104536465024, -1.5097407999222145], [-0.5506289565234502, -4.646829443479948, -2.35397425109899], [-1.6873994789936482, -2.5843816593742837, -1.0547840904718562], [-1.6060805251641983, -1.373317017817472, -0.37758235881019714], [-2.60070800454843, -0.5261799166683997, 0.21240850817794457], [-3.983711611235596, -0.6148856962070446, 0.3112668626657965], [-4.648287195427635, 0.40878300869654455, 0.9554764530380951], [-6.372318658356252, 0.3436300492796889, 1.1010119818876622], [-3.9725684457975543, 1.504138696858881, 1.494487560728131], [-2.599289367900842, 1.6011260348172105, 1.402554846549504], [-1.9087867174008772, 0.5796065008625567, 0.7610934175071341], [-0.5602117375116759, 0.42767862488319014, 0.5464567696307959], [0.4504217431972003, 1.3628537884722338, 0.9540929180409149], [0.8236241271128544, 2.335669838939777, -0.1728486872594451], [1.9503843676695698, 3.0661289249022134, 0.25438121118219503], [-0.3615248563918577, -0.7359660364650465, -0.15929158557710407], [6.17963412504509, 0.7450048812204388, -0.48015906287106624], [5.833422472173959, -0.8815873049986773, -1.2720727485686447], [3.753904404088744, 0.9527830682499446, 0.040271606781964064], [1.6162136275108259, -2.9936767698358846, -1.7075350763844255], [-2.63507838804555, -3.069861011609301, -1.2180861424937395], [-4.5201505361882806, -1.453360628375618, -0.10184535783233926], [-4.537625051357391, 2.280509858083342, 1.9853872362648703], [-2.0904404233663723, 2.455833382199717, 1.8197246972845906], [0.09005915734291257, 1.9282113698313872, 1.8153027663228778], [1.3509782088742215, 0.8248898749301712, 1.2536773967742347], [-0.023997745799486762, 3.0020697510025944, -0.3860386673143769], [1.0525085389309918, 1.7631502856154302, -1.0826707412083123], [2.181626550455078, 3.715599891727997, -0.4173500070693207]], "best_conformer_elements": [6, 6, 6, 8, 8, 6, 6, 6, 17, 6, 6, 6, 6, 6, 17, 6, 6, 6, 7, 6, 6, 8, 6, 1, 1, 1, 1, 1, 1, 1, 1, 1, 1, 1, 1, 1]}