{"smiles": "C=CCC", "ip": 14.207777803129787, "ip_corrected": 9.361777803129787, "ea": 1.3020730739369184, "homo": -0.3975106842664642, "lumo": -0.19776861857704084, "charges": {"1": -0.09531203050319709, "2": -0.027460005374107657, "3": -0.05316959065248608, "4": -0.09847226332229028, "5": 0.03395228345325523, "6": 0.03227890120481357, "7": 0.030490785626142186, "8": 0.03737213907364455, "9": 0.03603073140455321, "10": 0.03403587407670116, "11": 0.03537585364628098, "12": 0.034877321366677455}, "dipole": [-0.15106539669472352, 0.05232763608377655, -0.008173421237079759], "global_electrophilicity": 0.3278335970218524, "global_nucleophilicity": -9.361777803129787, "fukui_electrophilicity": {"1": 0.1274267461775582, "2": 0.16213476803573007, "3": -0.026537688871736888, "4": -0.02107949173990302, "5": 0.15834124185497864, "6": 0.15614147455765598, "7": 0.14730182239118114, "8": 0.09284200776954096, "9": 0.06366377374778474, "10": 0.06599679260115393, "11": 0.04035548915886908, "12": 0.033413064317152325}, "fukui_nucleophilicity": {"1": 0.07700510589207882, "2": 0.05685410806063858, "3": -0.00531446401908954, "4": -0.0203816907576298, "5": 0.10109480401527227, "6": 0.11184916605189997, "7": 0.10114222855998745, "8": 0.16239297012871062, "9": 0.11226112942285171, "10": 0.08938448543815786, "11": 0.10364108755578794, "12": 0.11007106965302318}, "boltzmann_weights": [0.5000000010963658, 0.4999999989036343], "best_conformer_elements": [6, 6, 6, 6, 1, 1, 1, 1, 1, 1, 1, 1], "best_conformer_coordinates": [[1.8505157931253664, 0.40559202260589744, -0.523410972194846], [0.9044591132625013, 0.1385101776509541, 0.35637737095470445], [-0.31801746042137913, -0.6745643249677795, 0.0718549004721123], [-1.5899649714406552, 0.13417311874872065, 0.3250313287439069], [1.8048105956500458, 0.03356132063650416, -1.5342579625187787], [2.7129065132201684, 1.000830942085696, -0.27500002703565873], [0.9731388004487257, 0.5267956478245952, 1.3649362671703382], [-0.2999632935307734, -1.0205625456931664, -0.9633194959877803], [-0.3209600329317621, -1.5534007757122597, 0.7238230263261424], [-1.6176245451764872, 1.006815351591629, -0.32383772282230916], [-2.471904859976425, -0.47125206839712414, 0.12881829766310668], [-1.627395662812868, 0.47350113362632845, 1.3580399747843581]], "best_conformer_energy": -12.606051657315787, "fukui_radical": {"1": 0.1022220943358048, "2": 0.1094967003115361, "3": -0.01592896696684821, "4": -0.020734825898326315, "5": 0.12971160312281899, "6": 0.13399330896998174, "7": 0.12421295826187684, "8": 0.08796277229879249, "9": 0.1276317929096467, "10": 0.07175544440990382, "11": 0.07768124599121921, "12": 0.07199587225442244}}