{"smiles": "C=CCOC(=O)CCCC", "ip": 13.549641307275058, "ip_corrected": 8.703641307275058, "ea": 3.1694979087098285, "homo": -0.41263031996366445, "lumo": -0.22726839011533045, "charges": {"1": -0.08886163976538619, "2": -0.033120866623292215, "3": 0.07496499063738554, "4": -0.273400825438789, "5": 0.3587283740798122, "6": -0.4079651816502239, "7": -0.09047037274007919, "8": -0.058310738352897115, "9": -0.05440195812535723, "10": -0.10439763027468796, "11": 0.046228844857279315, "12": 0.05104105618696532, "13": 0.05480648378306044, "14": 0.060388083554446095, "15": 0.06672883642796527, "16": 0.06484222462960489, "17": 0.06490301422457942, "18": 0.04811151519797347, "19": 0.04837291577479612, "20": 0.031060604648633444, "21": 0.031073411328753353, "22": 0.03707008016374381, "23": 0.035585710604336296, "24": 0.037023066871377124}, "dipole": [0.13402231030157497, 0.327996588527189, -0.6973580880330583], "global_electrophilicity": 0.5946532199119019, "global_nucleophilicity": -8.703641307275058, "fukui_electrophilicity": {"1": 0.07088058705703945, "2": 0.07138590083394705, "3": -0.02596369219492492, "4": 0.08110991252721084, "5": 0.08946084146275612, "6": 0.15642942412410266, "7": -0.016083228869261224, "8": -0.008588599012147577, "9": -0.0040901735923191615, "10": -0.00830440087486975, "11": 0.09327064867080273, "12": 0.09652390684531334, "13": 0.0706296925805866, "14": 0.06306679439570513, "15": 0.0595891778047078, "16": 0.05548395066219129, "17": 0.060254365883199004, "18": 0.01380213932358159, "19": 0.016256240179302432, "20": 0.011912814345275056, "21": 0.013183407036768787, "22": 0.010226925417067358, "23": 0.02021648781249486, "24": 0.009346877581477904}, "fukui_nucleophilicity": {"1": 0.04582369432612414, "2": 0.03762279967916291, "3": -0.01098373419693599, "4": 0.04580636741343097, "5": 0.009323625295275584, "6": 0.09098806085256517, "7": -4.291191085660506e-05, "8": -0.009181945023103738, "9": -0.004705437480945873, "10": -0.017113185750547585, "11": 0.059734325776004175, "12": 0.06319702290662299, "13": 0.04258307345218394, "14": 0.04545297237428311, "15": 0.04969160917300337, "16": 0.04209488460151242, "17": 0.04684420435385146, "18": 0.05674316673069369, "19": 0.056915376730853576, "20": 0.07969714474040497, "21": 0.08092436075536305, "22": 0.06579393870647246, "23": 0.05680974572791721, "24": 0.06598084079162564}, "boltzmann_weights": [0.031404238560025145, 0.03140426876224783, 0.05110680158862268, 0.05110679659456214, 0.04536230336310195, 0.05050357066374146, 0.04330112817878315, 0.034430929257026475, 0.019103162543321863, 0.017424709503533455, 0.03301037245934097, 0.03300925307488698, 0.031914518612231255, 0.01881112249893097, 0.019822250413960883, 0.018285531707712036, 0.014522345831798554, 0.01760287027397741, 0.01791307075121722, 0.05049084175660782, 0.03143772798949059, 0.04536222963528133, 0.04536223268441378, 0.02947453613929306, 0.034434307874401666, 0.01742431831500638, 0.01802214564748767, 0.03300980151827975, 0.024488626959032037, 0.02448863731216281, 0.01552537465604587, 0.01508431439988716, 0.015084284596744161, 0.020271375876843387], "best_conformer_elements": [6, 6, 6, 8, 6, 8, 6, 6, 6, 6, 1, 1, 1, 1, 1, 1, 1, 1, 1, 1, 1, 1, 1, 1], "best_conformer_coordinates": [[4.991249010827448, 0.03716794959399251, 0.23632453312803456], [3.7504927214861485, -0.2995792434624883, -0.057221069573402776], [2.77564994067464, -0.8593637157456465, 0.932366494881028], [1.5694781874122492, -0.08947586257552945, 0.9665183926247344], [0.601576661841825, -0.42255487747309406, 0.10338472179689673], [0.6736459510887975, -1.3450912018506664, -0.6640395991932069], [-0.5716779433480271, 0.5209531872740841, 0.2345193457926291], [-1.8672241247835129, -0.11158032832129762, -0.2666519627908486], [-3.0270513906090732, 0.8800203827173088, -0.25501947699002697], [-4.3179674569619895, 0.23828166976803622, -0.7479605863971392], [5.665627354564464, 0.42298650167721213, -0.508316992289403], [5.387541694126179, -0.07050714866905226, 1.232670252557812], [3.359452721848028, -0.18787238602036488, -1.0593413178146232], [3.1765762089023637, -0.8306180956631974, 1.9472873112407563], [2.5200729163443834, -1.8902944869547242, 0.6539765940228881], [-0.33687840271237396, 1.4084815404847462, -0.3602739926623075], [-0.6538514638039571, 0.8349539439838471, 1.2758507878392555], [-2.1141114435803665, -0.9699583698916129, 0.3613977192730827], [-1.7074229067184896, -0.483542508503797, -1.2800595599817777], [-2.7806412176417914, 1.7333419972904636, -0.8910926277477129], [-3.1727756230891484, 1.2553016950237899, 0.7607051957061464], [-4.196082225834487, -0.12859575566704962, -1.764482794013224], [-5.13263963007792, 0.9585532536223176, -0.7373437943966515], [-4.593039529382044, -0.6010081459257584, -0.11319756443566065]], "best_conformer_energy": -32.3841682084789, "fukui_radical": {"1": 0.05877019902026163, "2": 0.054656328318321463, "3": -0.01859183724743202, "4": 0.06350798233342, "5": 0.049549525466160926, "6": 0.12509601144401208, "7": -0.007233394745111046, "8": -0.007826625169992291, "9": -0.004195597616168417, "10": -0.01267721927194531, "11": 0.0796290666519082, "12": 0.07623586063432365, "13": 0.056444696471654086, "14": 0.05379589632088241, "15": 0.0541036747276806, "16": 0.05226713312262659, "17": 0.047386527677926255, "18": 0.03937076412298248, "19": 0.033107115485622854, "20": 0.046109910140367416, "21": 0.04624442140126025, "22": 0.03607578726886346, "23": 0.038933032968138145, "24": 0.0392407404934171}}