{"smiles": "C=CS(C)(=O)=O", "ip": 14.357760003859601, "ip_corrected": 9.511760003859601, "ea": 3.4671888585244854, "homo": -0.4178352051400969, "lumo": -0.26338861548942266, "charges": {"1": -0.06838114833995998, "2": -0.11568579554864303, "3": 0.9582086728611723, "4": -0.19389310208652788, "5": -0.5362356410797993, "6": -0.5369011275093712, "7": 0.07834996893839126, "8": 0.08990927086547425, "9": 0.07630368492516533, "10": 0.07793772701262354, "11": 0.09391226280853752, "12": 0.07647522715293086}, "dipole": [-0.31247156835768053, 1.0429399081563349, -1.760788102521815], "global_electrophilicity": 0.7591986718998571, "global_nucleophilicity": -9.511760003859601, "fukui_electrophilicity": {"1": 0.12751226134376417, "2": 0.06746930602220338, "3": 0.22935199928835104, "4": -0.04042181760803132, "5": 0.04960512988427368, "6": 0.0290097914742643, "7": 0.13595905578113504, "8": 0.12701271753819973, "9": 0.11813200936171642, "10": 0.04735992726910836, "11": 0.06877608904706004, "12": 0.04023353059795473}, "fukui_nucleophilicity": {"1": 0.021937446161256993, "2": 0.016504159799856644, "3": 0.2598060982852186, "4": -0.009822749624290306, "5": 0.10389809879994105, "6": 0.08224268601305834, "7": 0.12485960289619281, "8": 0.08177949913398701, "9": 0.09338281686440332, "10": 0.07369742664003041, "11": 0.07949458472922709, "12": 0.07222033030088838}, "boltzmann_weights": [0.24999687811785634, 0.2500025621409285, 0.25000259098538097, 0.24999796875583424], "best_conformer_elements": [6, 6, 16, 6, 8, 8, 1, 1, 1, 1, 1, 1], "best_conformer_coordinates": [[2.02829378005525, -0.28495698242388795, -0.24954219478825135], [0.9644494896619177, -0.4283918869347598, 0.5068581688667911], [-0.6509355666979261, -0.6006412184549963, -0.26289211418449804], [-1.480985368830887, 0.9570823569581411, 0.1706986848756077], [-0.4855019867436763, -0.6487820754861312, -1.6891936866117134], [-1.3484897689093327, -1.6801167814871527, 0.38025769389537584], [1.9087920003399632, -0.2660698395631179, -1.3209347427320899], [3.027745327370477, -0.19057979131767128, 0.14365025132526918], [0.952502902864952, -0.4880678495264398, 1.580494963952566], [-0.9087052207517595, 1.7695780958274796, -0.25721924858195533], [-2.4778930958360026, 0.9300329083641037, -0.251502577867747], [-1.5292724872312538, 1.027612637394492, 1.249324796558848]], "best_conformer_energy": -20.790110901209783, "fukui_radical": {"1": 0.07472532129518356, "2": 0.041987941333507195, "3": 0.2445804051524802, "4": -0.025116500650900556, "5": 0.05562375168001321, "6": 0.07674552902012133, "7": 0.10439927237318578, "8": 0.1304093040292683, "9": 0.10575755028498073, "10": 0.05622695818621685, "11": 0.07413140978655829, "12": 0.060529057509265544}}