{"smiles": "Cl/C=C/Cl", "ip": 14.1913688844101, "ip_corrected": 9.3453688844101, "ea": 3.29100486484422, "homo": -0.4096202456540577, "lumo": -0.25421698001357373, "charges": {"1": -0.12851712511452743, "2": 0.037412705597323015, "3": 0.03741255369776611, "4": -0.1285175191798839, "5": 0.0911046752676119, "6": 0.09110470973170132}, "dipole": [-5.301973191749641e-08, -1.069719954799028e-06, 6.560754767667045e-08], "global_electrophilicity": 0.695962114707063, "global_nucleophilicity": -9.3453688844101, "fukui_electrophilicity": {"1": 0.24163936265529093, "2": 0.1083503091861907, "3": 0.10835027236864248, "4": 0.24163943083128225, "5": 0.1500103400884291, "6": 0.15001028487016047}, "fukui_nucleophilicity": {"1": 0.36603496926312573, "2": 0.035505751703719224, "3": 0.03550581444712847, "4": 0.3660351395996662, "5": 0.09845919244871654, "6": 0.09845913253765567}, "boltzmann_weights": [1.0], "best_conformer_elements": [17, 6, 6, 17, 1, 1], "best_conformer_coordinates": [[2.1004235300291962, -0.37680636571646925, 0.005060353503451845], [0.554728516450032, 0.3598656291615144, 0.02963381638484641], [-0.5547286465978127, -0.3598668414596516, -0.029633889620238232], [-2.1004219132519277, 0.3768088088261914, -0.005060189745488595], [0.5681502153744001, 1.4362881628564386, 0.09612084153884687], [-0.5681517072956556, -1.4362893883762515, -0.09612093735319056]], "best_conformer_energy": -14.368185924616878, "fukui_radical": {"1": 0.303829814835632, "2": 0.07192448675619145, "3": 0.07192446969179642, "4": 0.3038297526788135, "5": 0.12424570212079195, "6": 0.12424577391677566}}