{
    "smiles": "C1=CC12OCCCO2",
    "ip": 13.630758747376802,
    "ip_corrected": 8.784758747376802,
    "ea": 2.0363514888910856,
    "homo": -0.3909945837432781,
    "lumo": -0.23012157173208606,
    "charges": {
        "1": -0.06244248382809968,
        "2": -0.03866872816844976,
        "3": 0.2805136154686029,
        "4": -0.33428395978324554,
        "5": 0.0868649818950086,
        "6": -0.07593424491624051,
        "7": 0.08686314222448546,
        "8": -0.33427339321734917,
        "9": 0.0678482567236816,
        "10": 0.07639875318228312,
        "11": 0.05172091858117466,
        "12": 0.022345187404582845,
        "13": 0.05905147867172605,
        "14": 0.03992419207215963,
        "15": 0.022348496889548146,
        "16": 0.05172378680012155
    },
    "dipole": [
        -0.40726039999884966,
        0.506002777016079,
        -0.6316353000069177
    ],
    "global_electrophilicity": 0.38490478145641893,
    "global_nucleophilicity": -8.784758747376802,
    "fukui_electrophilicity": {
        "1": 0.18074503032255596,
        "2": 0.17729189202818524,
        "3": 0.044457935376534224,
        "4": 0.0445761361824068,
        "5": -0.017954502960667668,
        "6": -0.01578615911138285,
        "7": -0.01795440055227776,
        "8": 0.04457987482933601,
        "9": 0.16330661738010463,
        "10": 0.16430494453563174,
        "11": 0.054131257390370384,
        "12": 0.021956469412668066,
        "13": 0.0336274853898136,
        "14": 0.04662964372011229,
        "15": 0.02195658111123233,
        "16": 0.05413119494534847
    },
    "fukui_nucleophilicity": {
        "1": 0.057312262042478024,
        "2": 0.04742921302885921,
        "3": 0.035326378100537126,
        "4": 0.12139120154733873,
        "5": -0.024704313308496317,
        "6": -0.011507068935781281,
        "7": -0.02470649933596731,
        "8": 0.12137989742302607,
        "9": 0.099595538498275,
        "10": 0.10162089971073357,
        "11": 0.07476552222114372,
        "12": 0.09205438306865146,
        "13": 0.07707498583831357,
        "14": 0.06615550346269497,
        "15": 0.0920477737019317,
        "16": 0.07476432293605484
    },
    "boltzmann_weights": [
        0.24980474404881176,
        0.2498047453036424,
        0.24980474791857793,
        0.24980474451596593,
        0.0007810182130018903
    ],
    "best_conformer_elements": [
        6,
        6,
        6,
        8,
        6,
        6,
        6,
        8,
        1,
        1,
        1,
        1,
        1,
        1,
        1,
        1
    ],
    "best_conformer_coordinates": [
        [
            -2.1324858754227454,
            -0.05330107839088833,
            0.5221743081765101
        ],
        [
            -2.4325243212369188,
            -0.590666874043142,
            -0.6341691493375564
        ],
        [
            -0.9992682789585281,
            -0.3135449185784093,
            -0.42498469072553013
        ],
        [
            -0.40229927900070744,
            0.7540684867596579,
            -1.0972649066927915
        ],
        [
            0.6871456120481099,
            1.2880836612263264,
            -0.3614665597832113
        ],
        [
            1.7157302686124614,
            0.19517365664868605,
            -0.06668109281076713
        ],
        [
            0.9810335356675938,
            -0.9638313275931993,
            0.6087911438102636
        ],
        [
            -0.12464012300863554,
            -1.373444543108187,
            -0.18062684939790974
        ],
        [
            -2.4662514683248835,
            0.30902807358475726,
            1.4644514866227765
        ],
        [
            -3.1536900200136686,
            -0.9766229344070061,
            -1.3118082168271796
        ],
        [
            0.32001322048369735,
            1.7225919581419638,
            0.5813175051610308
        ],
        [
            1.1055638389599147,
            2.0815273530081266,
            -0.9830935474534843
        ],
        [
            2.1443857509190862,
            -0.15402192507368453,
            -1.0069703554082488
        ],
        [
            2.5089416145363814,
            0.5754810274240326,
            0.5757106671192301
        ],
        [
            0.6304316888846676,
            -0.6560676608850428,
            1.606179198702686
        ],
        [
            1.6179138252706753,
            -1.8444529600057298,
            0.7084410535524032
        ]
    ],
    "best_conformer_energy": -24.967330174329835,
    "fukui_radical": {
        "1": 0.11902916443522327,
        "2": 0.11236038579611371,
        "3": 0.03989259512288361,
        "4": 0.08298373541238696,
        "5": -0.021328423921802057,
        "6": -0.013646604226782162,
        "7": -0.021330320085482114,
        "8": 0.0829784403167641,
        "9": 0.13145081260720304,
        "10": 0.1329626542209767,
        "11": 0.05700552304611461,
        "12": 0.06444855712651726,
        "13": 0.055351310074538196,
        "14": 0.05639272191073455,
        "15": 0.057001896881769376,
        "16": 0.06444755128268229
    }
}