{
    "smiles": "C=C(C#N)OC",
    "ip": 14.335831372774074,
    "ip_corrected": 9.489831372774074,
    "ea": 3.8000898557841536,
    "homo": -0.4050034677563266,
    "lumo": -0.2746040035826721,
    "charges": {
        "1": -0.11026938515515836,
        "2": 0.15393453941730711,
        "3": 0.1036065239693629,
        "4": -0.2129163596654166,
        "5": -0.2590309501123703,
        "6": 0.03913901450694866,
        "7": 0.068578717151715,
        "8": 0.06161175401865501,
        "9": 0.044170527496674196,
        "10": 0.06700509073310741,
        "11": 0.04417052763916732
    },
    "dipole": [
        0.28576730748065865,
        -0.3958614141348044,
        0.6760164181822803
    ],
    "global_electrophilicity": 0.8459277118643992,
    "global_nucleophilicity": -9.489831372774074,
    "fukui_electrophilicity": {
        "1": 0.10360538299635369,
        "2": 0.0988808561633733,
        "3": 0.09047431331893169,
        "4": 0.27714806438796535,
        "5": 0.08125439827611175,
        "6": -0.033547518709979754,
        "7": 0.1326514600529775,
        "8": 0.11978479156900174,
        "9": 0.03399714267557004,
        "10": 0.06175399348118368,
        "11": 0.03399711578850945
    },
    "fukui_nucleophilicity": {
        "1": 0.09126265805294805,
        "2": 0.05282163318755695,
        "3": 0.011952185893971151,
        "4": 0.19050825509842223,
        "5": 0.17949391912034857,
        "6": -0.042574491329537806,
        "7": 0.1038277960885033,
        "8": 0.10676510342319803,
        "9": 0.1110006614242866,
        "10": 0.08394168807346801,
        "11": 0.11100059096684717
    },
    "boltzmann_weights": [
        0.24909226833800058,
        0.7509077316619994
    ],
    "best_conformer_elements": [
        6,
        6,
        6,
        7,
        8,
        6,
        1,
        1,
        1,
        1,
        1
    ],
    "best_conformer_coordinates": [
        [
            1.231470435661554,
            1.5335545495530993,
            -0.3516169064566911
        ],
        [
            0.49242914086240797,
            0.4451067869787758,
            -0.11272425661798985
        ],
        [
            1.12512836550592,
            -0.7192335312008045,
            0.4075644946735327
        ],
        [
            1.6455656103393126,
            -1.6508466909792325,
            0.8264998799641113
        ],
        [
            -0.8453116297450018,
            0.4267221847625969,
            -0.3551974662885245
        ],
        [
            -1.5320731885859518,
            -0.7719799665973215,
            -0.06845512046247419
        ],
        [
            0.7795170291125656,
            2.425745468570501,
            -0.7441826440864096
        ],
        [
            2.286989997236935,
            1.535391216562919,
            -0.1559174246216938
        ],
        [
            -1.1512446421473217,
            -1.6062789545705802,
            -0.6661413001924404
        ],
        [
            -2.5727588403855246,
            -0.5853263921990285,
            -0.3265717844303822
        ],
        [
            -1.4597122725630807,
            -1.0328546814644741,
            0.9922155331282696
        ]
    ],
    "best_conformer_energy": -18.020242679424456,
    "fukui_radical": {
        "1": 0.0974338338991701,
        "2": 0.07585123210770059,
        "3": 0.05121330707245157,
        "4": 0.23382866521745405,
        "5": 0.13037405430568352,
        "6": -0.03806098395143697,
        "7": 0.1182396497183198,
        "8": 0.11327493295522555,
        "9": 0.07249874426791048,
        "10": 0.07284779348559878,
        "11": 0.07249877092192497
    }
}