{
    "smiles": "C=C(CO)C(=O)OCC",
    "ip": 13.870371441882318,
    "ip_corrected": 9.024371441882318,
    "ea": 4.161480707026006,
    "homo": -0.4106045249779257,
    "lumo": -0.27546246078132225,
    "charges": {
        "1": -0.07629521398229358,
        "2": -0.03139674810003526,
        "3": 0.0786697242009134,
        "4": -0.4290481011732789,
        "5": 0.34787960929871875,
        "6": -0.4207989298321438,
        "7": -0.2610387378766647,
        "8": 0.08440530367871076,
        "9": -0.11638727239561392,
        "10": 0.06965041278092088,
        "11": 0.06567317264724773,
        "12": 0.04938555037765854,
        "13": 0.07060460143203748,
        "14": 0.29057778015839447,
        "15": 0.05364467225552746,
        "16": 0.052369934237271445,
        "17": 0.05946452410134596,
        "18": 0.05420901960712023,
        "19": 0.05843069858416537
    },
    "dipole": [
        -0.6820956109378319,
        0.9722865656657214,
        -0.5125946291214696
    ],
    "global_electrophilicity": 0.8954824985302525,
    "global_nucleophilicity": -9.024371441882318,
    "fukui_electrophilicity": {
        "1": 0.0926201680645507,
        "2": 0.07920909113214884,
        "3": -0.022336406823197222,
        "4": 0.03228750046100376,
        "5": 0.08045930853554134,
        "6": 0.1905695338142081,
        "7": 0.07670142417317971,
        "8": -0.019278609253382997,
        "9": -0.01368377791377147,
        "10": 0.11713590670108223,
        "11": 0.10416908529417773,
        "12": 0.05397299869267844,
        "13": 0.06307971740881316,
        "14": 0.021854221012147457,
        "15": 0.03304786242777401,
        "16": 0.03345291305309288,
        "17": 0.019772474180767795,
        "18": 0.03729296885438376,
        "19": 0.019673620184798395
    },
    "fukui_nucleophilicity": {
        "1": 0.026147214476697198,
        "2": 0.03729949564970508,
        "3": -0.012068098647640163,
        "4": 0.12104807684737551,
        "5": 0.007866817667387616,
        "6": 0.11138385419414926,
        "7": 0.06192941685682801,
        "8": -0.012756672077154987,
        "9": -0.012833751351916223,
        "10": 0.0655596177520244,
        "11": 0.06823108350428528,
        "12": 0.10259119093107544,
        "13": 0.07062214153606461,
        "14": 0.05037526476885856,
        "15": 0.06785034103655779,
        "16": 0.0692609422161846,
        "17": 0.06426019008845257,
        "18": 0.05545989830745967,
        "19": 0.0577729762527127
    },
    "boltzmann_weights": [
        0.02048342868642634,
        0.04323657303632978,
        0.04323657287299145,
        0.23613720400682908,
        0.02563170126588,
        0.4245553332838713,
        0.0038126271620821327,
        0.0038126272935765644,
        0.09858650596963679,
        0.004837034900755924,
        0.0016699176579844403,
        0.004839952798229914,
        0.0039002466235662646,
        0.042024874170468414,
        0.04323540027137158
    ],
    "best_conformer_elements": [
        6,
        6,
        6,
        8,
        6,
        8,
        8,
        6,
        6,
        1,
        1,
        1,
        1,
        1,
        1,
        1,
        1,
        1,
        1
    ],
    "best_conformer_coordinates": [
        [
            -1.625495342546455,
            -0.5797619033699343,
            -1.3813228435547036
        ],
        [
            -1.3704418691059537,
            0.041376801967157734,
            -0.23510504759163245
        ],
        [
            -2.3858322057200207,
            0.8805176417166747,
            0.5012837618425319
        ],
        [
            -3.542737557609212,
            1.1653016310456634,
            -0.23807405803854903
        ],
        [
            -0.03555404120119636,
            -0.011395651895878248,
            0.4197920454227249
        ],
        [
            0.28389702753646867,
            0.6921660467792993,
            1.3480071013938575
        ],
        [
            0.7650667113719224,
            -0.931640512755872,
            -0.12657146717065978
        ],
        [
            2.079032106783099,
            -1.0512468338758059,
            0.42051058403267016
        ],
        [
            3.026388506375588,
            -0.018744595140425455,
            -0.17380226612599567
        ],
        [
            -2.604007351058938,
            -0.5311038514357924,
            -1.830539666844279
        ],
        [
            -0.8747987731864129,
            -1.1596830561097402,
            -1.8872416203111968
        ],
        [
            -1.8922146141532874,
            1.7993846771939608,
            0.8490196412610149
        ],
        [
            -2.7235536917348315,
            0.3354364598533129,
            1.388516601502899
        ],
        [
            -3.2927678301607983,
            1.6670758630492817,
            -1.0220461939693566
        ],
        [
            2.396105623941772,
            -2.066462147397503,
            0.17328640887830038
        ],
        [
            2.02267990172275,
            -0.9303756866535754,
            1.507330480297309
        ],
        [
            4.028163616820228,
            -0.17828913053989542,
            0.2143565905279079
        ],
        [
            3.0463697740109765,
            -0.1050137155065662,
            -1.2576169428171866
        ],
        [
            2.6997000026226203,
            0.9824579577836792,
            0.09606069285638401
        ]
    ],
    "best_conformer_energy": -30.118619474213183,
    "fukui_radical": {
        "1": 0.057672724219728355,
        "2": 0.05824462622872667,
        "3": -0.016483908134417385,
        "4": 0.07854637165296241,
        "5": 0.04617464726832507,
        "6": 0.15342689908602436,
        "7": 0.06766933188752902,
        "8": -0.018081771619763223,
        "9": -0.014158101078266608,
        "10": 0.09276972594120815,
        "11": 0.0883607320148675,
        "12": 0.07686310479162825,
        "13": 0.06618531005584685,
        "14": 0.03640593473711479,
        "15": 0.06583538831174526,
        "16": 0.04059116377370413,
        "17": 0.04901217630028119,
        "18": 0.03746577940437884,
        "19": 0.0334998651583917
    }
}