{
    "smiles": "C=C(C)C(=O)Cl",
    "ip": 14.713899537558989,
    "ip_corrected": 9.867899537558989,
    "ea": 5.103081415536991,
    "homo": -0.4349873218433393,
    "lumo": -0.3081514666780562,
    "charges": {
        "1": -0.07304253154581203,
        "2": 0.005443063692981809,
        "3": -0.1146755773623463,
        "4": 0.3030387581107449,
        "5": -0.29945441051666466,
        "6": -0.17268361865480575,
        "7": 0.07059785781492582,
        "8": 0.07896426960244433,
        "9": 0.07073152944417826,
        "10": 0.060349052451548896,
        "11": 0.07073160696280605
    },
    "dipole": [
        -1.2872094211246283,
        -0.15746920114228385,
        -0.1420925367995551
    ],
    "global_electrophilicity": 1.333331330368944,
    "global_nucleophilicity": -9.867899537558989,
    "fukui_electrophilicity": {
        "1": 0.08302616386423362,
        "2": 0.06894500237482946,
        "3": -0.040069709688467806,
        "4": 0.07026315055906504,
        "5": 0.2174501342641506,
        "6": 0.20811334161301676,
        "7": 0.11822048282258162,
        "8": 0.09446942248626145,
        "9": 0.05987904972794758,
        "10": 0.05982403737337243,
        "11": 0.05987892460302394
    },
    "fukui_nucleophilicity": {
        "1": 0.042951665479988965,
        "2": 0.05600181236481645,
        "3": -0.019357029792740635,
        "4": 0.001281802921910713,
        "5": 0.1568159370745632,
        "6": 0.30191431183220885,
        "7": 0.09811096595000686,
        "8": 0.07472420537651377,
        "9": 0.10368231776018391,
        "10": 0.08019213216388499,
        "11": 0.10368187887039453
    },
    "boltzmann_weights": [
        0.4398596539964184,
        0.5601403460035815
    ],
    "best_conformer_elements": [
        6,
        6,
        6,
        6,
        8,
        17,
        1,
        1,
        1,
        1,
        1
    ],
    "best_conformer_coordinates": [
        [
            -0.6799579835646159,
            -1.2873075178754825,
            0.213580407534275
        ],
        [
            -0.03183320702623761,
            -0.14775820750479557,
            -0.01581771841170973
        ],
        [
            -0.36828119820589084,
            1.1468637318315098,
            0.6598430037455464
        ],
        [
            1.089404279643382,
            -0.03083995079372462,
            -0.9598909490496141
        ],
        [
            1.7066076938525239,
            0.9549792599242595,
            -1.2076516043936472
        ],
        [
            1.528688600820271,
            -1.5373265162370224,
            -1.787842508788951
        ],
        [
            -0.4206026474086151,
            -2.2051454392249537,
            -0.28361394731236694
        ],
        [
            -1.4964560144829708,
            -1.3273739863985947,
            0.9143677405958404
        ],
        [
            -0.6270628888427501,
            1.8976319429093849,
            -0.0847468761765848
        ],
        [
            0.49835137284427267,
            1.5171433003847359,
            1.2047060712313684
        ],
        [
            -1.1988580129211535,
            1.0191333882764515,
            1.3470663757340908
        ]
    ],
    "best_conformer_energy": -19.699631227658887,
    "fukui_radical": {
        "1": 0.06299000394828269,
        "2": 0.06247351443398683,
        "3": -0.02971285365975472,
        "4": 0.03577243636250782,
        "5": 0.1871330270011452,
        "6": 0.2550140241885044,
        "7": 0.08459627497200328,
        "8": 0.10816482066998714,
        "9": 0.08178052331233823,
        "10": 0.08177943191428816,
        "11": 0.07000879685758765
    }
}