{"smiles": "C=C(C)C(=O)NC", "ip": 13.680123004268802, "ip_corrected": 8.834123004268802, "ea": 3.293529050869837, "homo": -0.3871871399785409, "lumo": -0.24183755137110569, "charges": {"1": -0.09940362252746153, "2": -0.00883172447298651, "3": -0.10677580849289903, "4": 0.26996140545619324, "5": -0.4360380513998407, "6": -0.17406068803920605, "7": -0.04193789753462241, "8": 0.034139773999485944, "9": 0.045442902366768095, "10": 0.051658710772968686, "11": 0.04585622154066352, "12": 0.07418160855810525, "13": 0.16423281604646492, "14": 0.04684171728681141, "15": 0.08805204385714868, "16": 0.04668059258240635}, "dipole": [0.35222606748558544, 1.3865259008595336, 0.4960031261020517], "global_electrophilicity": 0.638111695831161, "global_nucleophilicity": -8.834123004268802, "fukui_electrophilicity": {"1": 0.08434086132103134, "2": 0.0911068419473365, "3": -0.036565370269517894, "4": 0.06943149196715231, "5": 0.16752694007948837, "6": 0.06570701456797795, "7": -0.033804386736207795, "8": 0.10254165487180505, "9": 0.116878183070948, "10": 0.06811689140167727, "11": 0.06109703148989076, "12": 0.06009617919543665, "13": 0.04653395348607835, "14": 0.05453591347587944, "15": 0.02797130335495495, "16": 0.054485496776079737}, "fukui_nucleophilicity": {"1": 0.03836440450569013, "2": 0.04822544185269441, "3": -0.02021760611713086, "4": 0.016710463548628984, "5": 0.18056622849785886, "6": 0.09686385139068121, "7": -0.03057516762267711, "8": 0.07224975308090337, "9": 0.09641304283499727, "10": 0.08304593951071021, "11": 0.07552083644421079, "12": 0.06319178294705056, "13": 0.05613138380188429, "14": 0.09680481343455757, "15": 0.04111676756354615, "16": 0.08558806432637002}, "boltzmann_weights": [0.36417573744176884, 0.36417573639760376, 0.2716485261606275], "best_conformer_elements": [6, 6, 6, 6, 8, 7, 6, 1, 1, 1, 1, 1, 1, 1, 1, 1], "best_conformer_coordinates": [[-1.2212342735577357, 1.5121291270973907, -0.3506792170920335], [-1.0479495525185707, 0.1976847798621169, -0.31714538684401883], [-2.1678900965182, -0.7901069898907621, -0.38476608525490463], [0.31652567332567155, -0.4228486838642308, -0.2915222568776312], [0.5962263879120699, -1.4127646212045022, -0.9388300624889628], [1.2052533866034014, 0.20429711174082912, 0.5147133929232768], [2.5717900347252227, -0.2332629478816352, 0.651314450354047], [-2.2055101470754317, 1.9463339338621046, -0.41514856341334627], [-0.39875098981704143, 2.2082007831325, -0.3488427177045859], [-1.940019041079217, -1.5284951292598044, -1.1514127490873267], [-3.113088789229619, -0.3035913110874322, -0.6091606971841448], [-2.255366194946574, -1.3199299450913506, 0.5638628448095566], [0.9088377497649989, 1.0064094394712368, 1.0461259966081964], [2.79348985471882, -0.4975558126722131, 1.6872556111034858], [2.6935798763913645, -1.112065043867107, 0.019792622887457565], [3.2641061160089593, 0.5455653202362741, 0.32444282255236234]], "best_conformer_energy": -22.26108208589299, "fukui_radical": {"1": 0.06135616903656115, "2": 0.06966459939217165, "3": -0.028395843292723183, "4": 0.04306828452745211, "5": 0.1740404905088406, "6": 0.08129121784793505, "7": -0.0321900458769328, "8": 0.10664340727412183, "9": 0.08739893786662203, "10": 0.061644829369602, "11": 0.06830639406805823, "12": 0.07558027572586466, "13": 0.05133096328584422, "14": 0.07003500014069405, "15": 0.034550800714786056, "16": 0.07567451941110337}}