{
    "smiles": "C=C(C#N)C(=O)OC",
    "ip": 14.834824259172951,
    "ip_corrected": 9.98882425917295,
    "ea": 5.204087119061227,
    "homo": -0.4327271846399497,
    "lumo": -0.312381350087117,
    "charges": {
        "1": -0.047918529942844804,
        "2": -0.0012177401242005198,
        "3": 0.12341894016902275,
        "4": -0.2024603279001904,
        "5": 0.3629246763945238,
        "6": -0.39892394695641226,
        "7": -0.2478899883243011,
        "8": 0.03144173285318362,
        "9": 0.07812964161135948,
        "10": 0.09075706607946403,
        "11": 0.06753632158161572,
        "12": 0.07666585920530743,
        "13": 0.06753629535346772
    },
    "dipole": [
        0.1389079246583176,
        -0.4723609357260913,
        0.46921209353093024
    ],
    "global_electrophilicity": 1.3895428448453888,
    "global_nucleophilicity": -9.98882425917295,
    "fukui_electrophilicity": {
        "1": 0.10087218778189326,
        "2": 0.08090713413192614,
        "3": 0.03498760835839779,
        "4": 0.19349188644913043,
        "5": 0.05066135529982929,
        "6": 0.1418363096474397,
        "7": 0.07210430259331818,
        "8": -0.02954734471981181,
        "9": 0.12041245526228783,
        "10": 0.11261192081266314,
        "11": 0.03662612880794424,
        "12": 0.04840993588988534,
        "13": 0.03662611968509412
    },
    "fukui_nucleophilicity": {
        "1": 0.026989677395798703,
        "2": 0.05225739718967222,
        "3": 0.034951491702999465,
        "4": 0.2282995620879475,
        "5": 0.019347854781668228,
        "6": 0.1707893745686559,
        "7": 0.08735669776073374,
        "8": -0.024110737751566372,
        "9": 0.09718696884317081,
        "10": 0.08390229903464612,
        "11": 0.0740899375760616,
        "12": 0.0748510809275149,
        "13": 0.07408839588272903
    },
    "boltzmann_weights": [
        0.9473166417225972,
        0.05268335827740272
    ],
    "best_conformer_elements": [
        6,
        6,
        6,
        7,
        6,
        8,
        8,
        6,
        1,
        1,
        1,
        1,
        1
    ],
    "best_conformer_coordinates": [
        [
            -2.360231991940545,
            0.5358369501417827,
            -0.5013941330013412
        ],
        [
            -1.261450808563626,
            -0.20028357684253045,
            -0.32127286715215403
        ],
        [
            -1.3001883839868478,
            -1.6095385508538138,
            -0.18981974652710515
        ],
        [
            -1.343442118467328,
            -2.7491674230362397,
            -0.08471944705314462
        ],
        [
            0.0829853541150765,
            0.45782866165105607,
            -0.25055695768414
        ],
        [
            0.25256300121025016,
            1.6448165147815086,
            -0.34764644440051296
        ],
        [
            1.0517523200371979,
            -0.4369716162370882,
            -0.0681410174677146
        ],
        [
            2.37470607287876,
            0.07377671782066668,
            0.014584928736235535
        ],
        [
            -2.272157300286899,
            1.6061022484764607,
            -0.5953884127271569
        ],
        [
            -3.3418080952455584,
            0.0969360110050501,
            -0.5570167486709308
        ],
        [
            3.0213861296342666,
            -0.7868624592711957,
            0.16163981231188376
        ],
        [
            2.6355487760135934,
            0.5993043502478091,
            -0.9062806382792629
        ],
        [
            2.460337049893422,
            0.7682221774083152,
            0.8528119001519643
        ]
    ],
    "best_conformer_energy": -24.24013218394125,
    "fukui_radical": {
        "1": 0.06392775300654893,
        "2": 0.06658004580491038,
        "3": 0.034964755364807046,
        "4": 0.21088931312455161,
        "5": 0.03500581505956879,
        "6": 0.15631491425786231,
        "7": 0.07973679226369376,
        "8": -0.0268309557804142,
        "9": 0.09826083809054995,
        "10": 0.1087936015618354,
        "11": 0.06163386127549956,
        "12": 0.05536152508100208,
        "13": 0.05536174088959069
    }
}