{
    "smiles": "C=CCNC(N)=O",
    "ip": 13.623437118720826,
    "ip_corrected": 8.777437118720826,
    "ea": 2.4539658851789605,
    "homo": -0.39102091632455266,
    "lumo": -0.21388339439721601,
    "charges": {
        "1": -0.09305433188825814,
        "2": -0.03539060180629007,
        "3": 0.004070957996094998,
        "4": -0.2044222902911148,
        "5": 0.3361711183126234,
        "6": -0.31236978491699346,
        "7": -0.4704053872347771,
        "8": 0.04079865677691572,
        "9": 0.042847486170622846,
        "10": 0.04438500921913282,
        "11": 0.0905189383288358,
        "12": 0.0422072079116706,
        "13": 0.15682547588896517,
        "14": 0.16657022170765262,
        "15": 0.19124732382493215
    },
    "dipole": [
        -0.24448450745117953,
        1.245340763989579,
        1.2164965009543225
    ],
    "global_electrophilicity": 0.45630373486000597,
    "global_nucleophilicity": -8.777437118720826,
    "fukui_electrophilicity": {
        "1": 0.08514697800111735,
        "2": 0.09700356622513258,
        "3": -0.023249964157251626,
        "4": 0.040084960454461305,
        "5": 0.060402776418494564,
        "6": 0.040237673422174325,
        "7": 0.11395932312364876,
        "8": 0.10919987740154874,
        "9": 0.11225814121552535,
        "10": 0.09669219091206518,
        "11": 0.06333945615570058,
        "12": 0.05937657779557052,
        "13": 0.04490723657026466,
        "14": 0.047946007780936134,
        "15": 0.052695198680618366
    },
    "fukui_nucleophilicity": {
        "1": 0.04760677443182841,
        "2": 0.036969897003983246,
        "3": -0.01490630940781991,
        "4": 0.09762911629525761,
        "5": 0.005826009336907634,
        "6": 0.07500702571066661,
        "7": 0.15988951687405312,
        "8": 0.07724577901677496,
        "9": 0.0890069783464135,
        "10": 0.0750393898846867,
        "11": 0.06575399776763062,
        "12": 0.10500448497073112,
        "13": 0.06309037563498648,
        "14": 0.05705971578182656,
        "15": 0.05977724835170123
    },
    "boltzmann_weights": [
        0.15429442662803594,
        0.1319830409113241,
        0.23790159104417158,
        0.2379034174562469,
        0.23791752396022164
    ],
    "best_conformer_elements": [
        6,
        6,
        6,
        7,
        6,
        7,
        8,
        1,
        1,
        1,
        1,
        1,
        1,
        1,
        1
    ],
    "best_conformer_coordinates": [
        [
            -2.763344625858221,
            0.6964868753526672,
            -0.46287899401191873
        ],
        [
            -1.4981319424082222,
            0.8376703850660374,
            -0.11590350678966173
        ],
        [
            -0.6830477505409311,
            -0.22479416231233662,
            0.554582531956682
        ],
        [
            0.5828730040866839,
            -0.4194068700206598,
            -0.11797137934811583
        ],
        [
            1.7694470326337004,
            -0.3299774488386177,
            0.5459200563954801
        ],
        [
            2.8648662144421264,
            -0.6606670109833794,
            -0.21733004662181296
        ],
        [
            1.8598633862073948,
            -0.018051517105265598,
            1.7130485597149638
        ],
        [
            -3.3022151599202623,
            -0.21835964700223856,
            -0.276270293693727
        ],
        [
            -3.319552013844962,
            1.4894218325607842,
            -0.932565438096176
        ],
        [
            -0.9696317320350112,
            1.7617876640590444,
            -0.3078314409844212
        ],
        [
            -1.2443758332980481,
            -1.1655230275777966,
            0.6023647128796367
        ],
        [
            -0.42735787226964106,
            0.0859482486624595,
            1.5738422484265773
        ],
        [
            0.5603110337456066,
            -0.7665285376331414,
            -1.0624330316851405
        ],
        [
            3.757116659735809,
            -0.43726197631252756,
            0.19035486389364328
        ],
        [
            2.813179599323595,
            -0.6307448026234123,
            -1.2206589426480725
        ]
    ],
    "best_conformer_energy": -22.535609065309934,
    "fukui_radical": {
        "1": 0.06637664813938501,
        "2": 0.06698663319601174,
        "3": -0.019078154286311082,
        "4": 0.06885675253321363,
        "5": 0.033114419504285425,
        "6": 0.057623184940276975,
        "7": 0.13692404169164163,
        "8": 0.09322275595732508,
        "9": 0.10063248757366032,
        "10": 0.08586574289333863,
        "11": 0.08219046065779968,
        "12": 0.06454653764470684,
        "13": 0.05399872905081506,
        "14": 0.05623660055202477,
        "15": 0.05250315995176042
    }
}