{"smiles": "C=CC(=O)Oc1ccc(C)cc1", "ip": 13.217189771656077, "ip_corrected": 8.371189771656077, "ea": 4.7513473921730665, "homo": -0.39279554077196593, "lumo": -0.27869570210047495, "charges": {"1": -0.05927004233292854, "2": -0.059174686194171995, "3": 0.3580233566385274, "4": -0.4043514046916071, "5": -0.25630503674823285, "6": 0.13915703643285854, "7": -0.044660248870714715, "8": -0.03844765756960947, "9": 0.016889488794844906, "10": -0.11150143288018566, "11": -0.03895936270120449, "12": -0.04776979798893853, "13": 0.06299268488503525, "14": 0.07853034049136016, "15": 0.06433252751589225, "16": 0.0608670001450621, "17": 0.04284839084398129, "18": 0.051384484018072364, "19": 0.0468260548517438, "20": 0.04775949975115099, "21": 0.04119344463318887, "22": 0.049635360975864504}, "dipole": [-0.21678990546566523, -0.09743753752789734, -0.7206451144388608], "global_electrophilicity": 1.0114331267000887, "global_nucleophilicity": -8.371189771656077, "fukui_electrophilicity": {"1": 0.06767272688559467, "2": 0.04196234966740032, "3": 0.05549894109535097, "4": 0.13109450448155174, "5": 0.05622860120551476, "6": 0.019270755119596084, "7": 0.01534669573719661, "8": 0.019512141279957276, "9": 0.051165566875255954, "10": -0.02044475688137909, "11": 0.018648949796432633, "12": 0.022960395110644863, "13": 0.09309584783199953, "14": 0.07705475961872124, "15": 0.0781157743174193, "16": 0.027139405937526395, "17": 0.04906471067867156, "18": 0.03895116963073231, "19": 0.03250120076399115, "20": 0.03168204357711757, "21": 0.05103856623033961, "22": 0.04243965103913042}, "fukui_nucleophilicity": {"1": 0.022530726870660114, "2": 0.015249889036270274, "3": 0.012266824457048686, "4": 0.09356189065872178, "5": 0.06781230483903322, "6": 0.04764033563575171, "7": 0.021522064123319473, "8": 0.029571187265852256, "9": 0.06000753012892038, "10": -0.020689825152762242, "11": 0.02520639555265252, "12": 0.02813921862180864, "13": 0.06375401673993848, "14": 0.04416710485922455, "15": 0.04895119302353325, "16": 0.05003909413611773, "17": 0.05938899553448061, "18": 0.09204105916588204, "19": 0.06023355210242041, "20": 0.0603046338759849, "21": 0.06040154363073426, "22": 0.057900264894423695}, "boltzmann_weights": [0.37959288331454444, 0.3848850859523944, 0.11767156125197596, 0.11767170482527795, 0.00017876465580721464], "best_conformer_elements": [6, 6, 6, 8, 8, 6, 6, 6, 6, 6, 6, 6, 1, 1, 1, 1, 1, 1, 1, 1, 1, 1], "best_conformer_coordinates": [[4.8828992232877395, 0.5638283096262245, 0.07292497492087474], [3.7777617779166124, 0.04495021654055614, 0.5873894415896793], [2.4538217354067693, 0.31970594379627687, -0.01456314268904073], [2.2624418284756227, 0.9999678787482232, -0.9896645207460982], [1.4950760747120972, -0.2921767389916127, 0.7046152114760348], [0.1541863582868518, -0.2216858649314813, 0.34786211249297005], [-0.7605387276923862, -0.1425930674020641, 1.3904772516029735], [-2.1133360159408765, -0.11653156918264071, 1.115185458131422], [-2.576927823818329, -0.1659678772890764, -0.19447194683137697], [-4.046141042368834, -0.15484296811259057, -0.487964427383648], [-1.647171144810217, -0.2512767130767997, -1.2223452990858088], [-0.28835968475935625, -0.2830406699976257, -0.9647444236796233], [5.856759386052762, 0.3792445234782711, 0.4925499107143878], [4.827584570650792, 1.1975388800458087, -0.7975096597342547], [3.7735302696625843, -0.5945516037357866, 1.4570382410999891], [-0.39749271582102635, -0.10160106942739734, 2.4057385551391772], [-2.8197819923243594, -0.052830581929607205, 1.930043229137298], [-4.428876859729411, -1.175823396903205, -0.5088219510128047], [-4.244576137035758, 0.29818382233536744, -1.4562299415974986], [-4.590665161215219, 0.3926092543160863, 0.27761798714585983], [-1.9882718310538898, -0.295206136243873, -2.2463685683120116], [0.4180779015342532, -0.34790056107937944, -1.7762175712460493]], "best_conformer_energy": -34.61473018642689, "fukui_radical": {"1": 0.045105734213654665, "2": 0.02860983000250584, "3": 0.03388645235285634, "4": 0.11232245272437957, "5": 0.062024011912936994, "6": 0.03344913052785142, "7": 0.025554795945961828, "8": 0.02192048604381361, "9": 0.055586860700286705, "10": -0.020565894350553636, "11": 0.024545707027798184, "12": 0.018428561981821925, "13": 0.07842206478391024, "14": 0.060620575577727515, "15": 0.06352580465835946, "16": 0.050172552176033426, "17": 0.05571830760079018, "18": 0.06549565181392085, "19": 0.04601195053785134, "20": 0.04635001563279385, "21": 0.054227304934359635, "22": 0.038587643200947694}}