{
    "smiles": "C=CC(=O)OCC1CCCO1",
    "ip": 13.40494998825865,
    "ip_corrected": 8.55894998825865,
    "ea": 4.027817110397589,
    "homo": -0.396544007292533,
    "lumo": -0.2745337826683023,
    "charges": {
        "1": -0.059271779765685165,
        "2": -0.057160073143458764,
        "3": 0.35634847330645497,
        "4": -0.4169657466105445,
        "5": -0.2557868640656101,
        "6": 0.06926906634046487,
        "7": 0.10660490073973773,
        "8": -0.07086331206814181,
        "9": -0.06430193749864624,
        "10": 0.07944624043093731,
        "11": -0.3163533513584918,
        "12": 0.07872571219332071,
        "13": 0.06381965963316022,
        "14": 0.06718227132173604,
        "15": 0.05466724419986393,
        "16": 0.06250998911577907,
        "17": 0.05311063138920637,
        "18": 0.03823033731788304,
        "19": 0.0490357229564907,
        "20": 0.04136218678661741,
        "21": 0.04809289651300883,
        "22": 0.023260398898972086,
        "23": 0.049037333366935915
    },
    "dipole": [
        -0.5379918169266081,
        -0.16319638782218887,
        0.46297659067841296
    ],
    "global_electrophilicity": 0.7987446170394176,
    "global_nucleophilicity": -8.55894998825865,
    "fukui_electrophilicity": {
        "1": 0.09898609872202481,
        "2": 0.06507136326470357,
        "3": 0.0857670200511984,
        "4": 0.18585620513340545,
        "5": 0.08933221929731738,
        "6": -0.024730803549940755,
        "7": 0.0009159580144347257,
        "8": -0.003778453054178857,
        "9": -0.004895017877717699,
        "10": -0.006521081240683679,
        "11": 0.0019867938858784684,
        "12": 0.1108253637314511,
        "13": 0.12845627342174826,
        "14": 0.11357254181743454,
        "15": 0.025701032692497607,
        "16": 0.05075181990789793,
        "17": -0.008995950577978293,
        "18": 0.012027757475699816,
        "19": 0.014616935280313013,
        "20": 0.0209959089254129,
        "21": 0.014597152669396686,
        "22": 0.010240932870204522,
        "23": 0.01921992913948048
    },
    "fukui_nucleophilicity": {
        "1": 0.0208118007587256,
        "2": 0.016176541195854405,
        "3": 0.012979331247034154,
        "4": 0.10726040906687728,
        "5": 0.05200765023481774,
        "6": -0.00473791894895112,
        "7": -0.0040965253395104095,
        "8": -0.014447114256897473,
        "9": -0.00912739814395902,
        "10": -0.018762433893606212,
        "11": 0.13945301998229132,
        "12": 0.049881348251341676,
        "13": 0.07042627496622417,
        "14": 0.05637736137002662,
        "15": 0.050489681485099296,
        "16": 0.05318644192963226,
        "17": 0.06874383257265675,
        "18": 0.03590299356194396,
        "19": 0.04243864704446037,
        "20": 0.048979751074075296,
        "21": 0.04679874752799668,
        "22": 0.10542728281607253,
        "23": 0.0738302754979145
    },
    "boltzmann_weights": [
        0.025147792319112593,
        0.060716786496849764,
        0.06071603290942377,
        0.016188044307590185,
        0.12978200508794493,
        0.008594022061049908,
        0.12978830132236266,
        0.12978832755893555,
        0.01658381738931016,
        0.03703593474409334,
        0.037035928035204876,
        0.07418317592384377,
        0.019144405211335314,
        0.02965355459647523,
        0.005411786289076759,
        0.07417806227557014,
        0.007061033426070839,
        0.017068635539021163,
        0.07418330632462823,
        0.02227468726066121,
        0.02227489662665031,
        0.0031894642947891813
    ],
    "best_conformer_elements": [
        6,
        6,
        6,
        8,
        8,
        6,
        6,
        6,
        6,
        6,
        8,
        1,
        1,
        1,
        1,
        1,
        1,
        1,
        1,
        1,
        1,
        1,
        1
    ],
    "best_conformer_coordinates": [
        [
            4.588136424688207,
            0.3468462665670883,
            0.39285996532384576
        ],
        [
            3.4329704318127363,
            0.8774482023494682,
            0.019864766417387065
        ],
        [
            2.267068913260157,
            0.026584992116855798,
            -0.3003895642632636
        ],
        [
            2.247779735008856,
            -1.1797207001770105,
            -0.25640015057958715
        ],
        [
            1.220811552137948,
            0.7780987710927005,
            -0.670566765364283
        ],
        [
            0.017991347850402465,
            0.09263288295921247,
            -0.9808578902134724
        ],
        [
            -0.7496493990052582,
            -0.3223030163941036,
            0.2853009856912836
        ],
        [
            -1.9773738184922203,
            -1.1876833167419214,
            -0.06773156500933966
        ],
        [
            -3.1174810259814865,
            -0.5168419247244732,
            0.7001247799574548
        ],
        [
            -2.614922368241424,
            0.9232607039449693,
            0.7878742568122944
        ],
        [
            -1.2234297133267478,
            0.8094771442348719,
            0.9948500815685876
        ],
        [
            4.692865214234583,
            -0.7237362843389291,
            0.46517814380068706
        ],
        [
            5.448457076520396,
            0.9475822677997586,
            0.632870963623642
        ],
        [
            3.268903597446151,
            1.9403158985890883,
            -0.06837853373848467
        ],
        [
            0.2525795941684295,
            -0.804155916001712,
            -1.565423532180302
        ],
        [
            -0.5732313601779997,
            0.7950977349312178,
            -1.5710399375999735
        ],
        [
            -0.052532704952122665,
            -0.8462755066463109,
            0.9489706690663783
        ],
        [
            -1.831746009328431,
            -2.2260704594217122,
            0.21827219590424513
        ],
        [
            -2.1650139964146318,
            -1.1457402344652015,
            -1.1414476899808923
        ],
        [
            -3.203632134874167,
            -0.9387197142772592,
            1.7013760504347548
        ],
        [
            -4.076412983617527,
            -0.5969990847855863,
            0.1942759870617943
        ],
        [
            -3.026768726916583,
            1.4870092011579996,
            1.625364271565659
        ],
        [
            -2.8253696458000936,
            1.463892092232355,
            -0.1471546304450008
        ]
    ],
    "best_conformer_energy": -35.43070146064037,
    "fukui_radical": {
        "1": 0.059899078030463286,
        "2": 0.04062388346874279,
        "3": 0.04937299555925895,
        "4": 0.14655805973869426,
        "5": 0.07066978076043498,
        "6": -0.01473460012719463,
        "7": -0.0015903471262278396,
        "8": -0.00911274061948486,
        "9": -0.0070110201638663786,
        "10": -0.012641520035570952,
        "11": 0.07071976838351379,
        "12": 0.08035317082234629,
        "13": 0.09944111008767341,
        "14": 0.08497460126757359,
        "15": 0.038095488892826046,
        "16": 0.051969576841569005,
        "17": 0.029875045852572092,
        "18": 0.02852766186959496,
        "19": 0.023965347274089773,
        "20": 0.030697413795428903,
        "21": 0.0349875918603699,
        "22": 0.046525388456021236,
        "23": 0.057834265111231846
    }
}