{
    "smiles": "C=CC(=O)OCl.[Na]",
    "ip": 13.433020191196015,
    "ip_corrected": 8.587020191196014,
    "ea": 7.604791529036231,
    "homo": -0.41045088707183486,
    "lumo": -0.38798377979205984,
    "charges": {
        "1": -0.06314171138090913,
        "2": -0.04457964728309824,
        "3": 0.36809146483901045,
        "4": -0.504070957342873,
        "5": -0.4448675924734139,
        "6": -0.2739493731504295,
        "7": 0.7349156320392825,
        "8": 0.08276204063511565,
        "9": 0.07174352840576577,
        "10": 0.07309661571156047
    },
    "dipole": [
        -0.5814466580953014,
        1.4104582442652782,
        -0.4490694908606917
    ],
    "global_electrophilicity": 2.7608612121452114,
    "global_nucleophilicity": -8.587020191196014,
    "fukui_electrophilicity": {
        "1": 0.02226442545751156,
        "2": 0.020481279993108836,
        "3": 0.012501005300812551,
        "4": 0.09299641974143402,
        "5": 0.08860615267464078,
        "6": 0.537215756312351,
        "7": 0.06456479210377464,
        "8": 0.04497432435104572,
        "9": 0.06973698102688612,
        "10": 0.04665886303844302
    },
    "fukui_nucleophilicity": {
        "1": 0.02594991769326077,
        "2": 0.03976951615442642,
        "3": 0.018098021203211356,
        "4": 0.12400024351378092,
        "5": 0.13142066058003643,
        "6": 0.3468680300318041,
        "7": 0.060012050926906424,
        "8": 0.0704534398515727,
        "9": 0.10789556771130011,
        "10": 0.075532552333699
    },
    "boltzmann_weights": [
        0.053128866093209964,
        0.94687113390679
    ],
    "best_conformer_elements": [
        6,
        6,
        6,
        8,
        8,
        17,
        11,
        1,
        1,
        1
    ],
    "best_conformer_coordinates": [
        [
            -1.7876630242614762,
            -0.6293387176096346,
            0.6835095284912331
        ],
        [
            -1.7702532114757301,
            -0.6284520529227795,
            -0.6061162449984221
        ],
        [
            2.3633818209831814,
            1.4066017245289375,
            -0.055575541258944025
        ],
        [
            3.0542766982259386,
            1.8059300597949932,
            0.7644421941595664
        ],
        [
            1.712398589783373,
            1.2937175929300593,
            -1.0128024185001196
        ],
        [
            1.8956224084248336,
            -0.8482486486757457,
            0.8150582012203337
        ],
        [
            0.7076091611598732,
            -0.5635895073368207,
            -1.1563543090749993
        ],
        [
            -0.895302041684448,
            -0.7117536316094063,
            1.2891366115364116
        ],
        [
            -2.715784369479299,
            -0.5554054581049302,
            1.2583350304004097
        ],
        [
            -2.5642860369669656,
            -0.5694613609953932,
            -1.3266430001809466
        ]
    ],
    "best_conformer_energy": -20.827301261380363,
    "fukui_radical": {
        "1": 0.013065299187811498,
        "2": 0.1317482709900028,
        "3": -0.010927680335505924,
        "4": 0.05614117817236999,
        "5": 0.007205040340223567,
        "6": 0.251058665737813,
        "7": 0.13399959776885106,
        "8": 0.11493429907357339,
        "9": 0.16823115102926833,
        "10": 0.13454417809342453
    }
}