{
    "smiles": "C=COC(=O)CCC",
    "ip": 13.909256519647863,
    "ip_corrected": 9.063256519647863,
    "ea": 3.4899714542289324,
    "homo": -0.4126014381158866,
    "lumo": -0.24921216501624074,
    "charges": {
        "1": -0.11199528106323589,
        "2": 0.10359678493309894,
        "3": -0.24348368505654877,
        "4": 0.35492077695066926,
        "5": -0.3940821173071733,
        "6": -0.09140461354198079,
        "7": -0.052902042322484646,
        "8": -0.10644599369621438,
        "9": 0.06654842974955483,
        "10": 0.06124168905062869,
        "11": 0.062375686166086734,
        "12": 0.06945953757183039,
        "13": 0.06945957985367152,
        "14": 0.04813056985104264,
        "15": 0.04813063195321195,
        "16": 0.037428496877794856,
        "17": 0.03742849748392874,
        "18": 0.04159305254612501
    },
    "dipole": [
        -0.06271931334744203,
        0.8549656475793567,
        -0.03705374596906649
    ],
    "global_electrophilicity": 0.7126372235276857,
    "global_nucleophilicity": -9.063256519647863,
    "fukui_electrophilicity": {
        "1": 0.0846160590660783,
        "2": 0.049864760154397864,
        "3": 0.0826014993809554,
        "4": 0.10631738826064932,
        "5": 0.1920683525672338,
        "6": -0.018836101993812193,
        "7": -0.009534119333519567,
        "8": -0.013716072291416526,
        "9": 0.09961639779949044,
        "10": 0.1069201982124611,
        "11": 0.07839747759176115,
        "12": 0.0680757444878278,
        "13": 0.06807582053901608,
        "14": 0.018822293812766434,
        "15": 0.018822270987903504,
        "16": 0.018249826971989198,
        "17": 0.018249826077092503,
        "18": 0.03138837770914681
    },
    "fukui_nucleophilicity": {
        "1": 0.06377243229379397,
        "2": 0.03764900920179322,
        "3": 0.08051504374725965,
        "4": 0.0039358730916100315,
        "5": 0.0913744384676431,
        "6": -0.007611254818733634,
        "7": -0.0049228258189026874,
        "8": -0.018375076669744236,
        "9": 0.0730622547900788,
        "10": 0.0820991985034249,
        "11": 0.0601923897015666,
        "12": 0.06253648484579909,
        "13": 0.06253653940944437,
        "14": 0.09305237349316176,
        "15": 0.09305234385458148,
        "16": 0.08261538008653366,
        "17": 0.08261539463987227,
        "18": 0.06190000216657429
    },
    "boltzmann_weights": [
        0.14498608710369354,
        0.14925503286624883,
        0.14925504733491884,
        0.11790946539078369,
        0.11790946190582186,
        0.14498752269035586,
        0.14498711836869968,
        0.017366214208968774,
        0.013344050130509036
    ],
    "best_conformer_elements": [
        6,
        6,
        8,
        6,
        8,
        6,
        6,
        6,
        1,
        1,
        1,
        1,
        1,
        1,
        1,
        1,
        1,
        1
    ],
    "best_conformer_coordinates": [
        [
            -3.9677600864599,
            0.6639721750469849,
            -0.2636805761437388
        ],
        [
            -2.9116954525824794,
            -0.12411028666666442,
            -0.1978092453065742
        ],
        [
            -1.6387981733143246,
            0.39445029145914173,
            -0.14901459919460572
        ],
        [
            -0.5944309505115143,
            -0.46066246785378495,
            -0.08228988155595938
        ],
        [
            -0.7081050103146224,
            -1.6552263015566442,
            -0.06271546281380412
        ],
        [
            0.7008457977001183,
            0.30957650465595665,
            -0.03769189940716785
        ],
        [
            1.9135371582805012,
            -0.6130528466113835,
            0.03831041714028975
        ],
        [
            3.213839765978372,
            0.1779129747896733,
            0.08270093595075449
        ],
        [
            -3.868432894753344,
            1.7346342346014392,
            -0.28134143450522514
        ],
        [
            -4.9571074793101815,
            0.249952390949665,
            -0.30137741502537585
        ],
        [
            -2.957849941719463,
            -1.2057840151892145,
            -0.17742910308847223
        ],
        [
            0.74856452741016,
            0.9401093843640457,
            -0.9289297349655032
        ],
        [
            0.6663442082278085,
            0.9766961060539312,
            0.8271288085261277
        ],
        [
            1.8285877391524024,
            -1.2395434213115888,
            0.9275563422448603
        ],
        [
            1.910783785291132,
            -1.2761349399893984,
            -0.828165054018296
        ],
        [
            4.065286065404587,
            -0.49545484205601165,
            0.1365945464297129
        ],
        [
            3.319436955463532,
            0.7929738952893582,
            -0.8084260195787303
        ],
        [
            3.2369539807654717,
            0.829691164024485,
            0.9534528393532121
        ]
    ],
    "best_conformer_energy": -26.06147583396118,
    "fukui_radical": {
        "1": 0.07419695799245427,
        "2": 0.043759619159753974,
        "3": 0.0815719093853291,
        "4": 0.0551316586637087,
        "5": 0.14170449622280773,
        "6": -0.013226267882114236,
        "7": -0.007228878584455058,
        "8": -0.01604486813211256,
        "9": 0.08635009016927611,
        "10": 0.09451199278374363,
        "11": 0.06929316823670915,
        "12": 0.06529940401496,
        "13": 0.06529977369878967,
        "14": 0.05593574216574209,
        "15": 0.05593563629270082,
        "16": 0.04664695207926476,
        "17": 0.05043122220401218,
        "18": 0.05043139202519943
    }
}