{
    "smiles": "C=CSC(C)C",
    "ip": 12.802496435150902,
    "ip_corrected": 7.9564964351509015,
    "ea": 2.708006338952734,
    "homo": -0.3547634382168958,
    "lumo": -0.212390306601112,
    "charges": {
        "1": -0.10282242976903337,
        "2": 0.01177575239635853,
        "3": -0.16985769899107467,
        "4": 0.04106727358854041,
        "5": -0.10474097157243195,
        "6": -0.10749517338656489,
        "7": 0.040632896399234855,
        "8": 0.047796764127567344,
        "9": 0.035245463250609316,
        "10": 0.03556870176300689,
        "11": 0.04898296565562459,
        "12": 0.041551336724034334,
        "13": 0.04043946053119426,
        "14": 0.048345925275864926,
        "15": 0.04991455711201397,
        "16": 0.04359517689503891
    },
    "dipole": [
        -0.5107581255694363,
        -0.7235250640796181,
        0.010203486191418386
    ],
    "global_electrophilicity": 0.4192259119779897,
    "global_nucleophilicity": -7.9564964351509015,
    "fukui_electrophilicity": {
        "1": 0.058535798723633,
        "2": 0.010746859127787986,
        "3": 0.39849821584804473,
        "4": 0.0032511404152745227,
        "5": -0.03634406392270939,
        "6": -0.030239097902649947,
        "7": 0.10156105194764958,
        "8": 0.08064595199070704,
        "9": 0.10518566288676277,
        "10": 0.06331366569766202,
        "11": 0.037904685252413625,
        "12": 0.02645327900947683,
        "13": 0.062844132936246,
        "14": 0.028823916968578746,
        "15": 0.03258877951318204,
        "16": 0.05623002150793214
    },
    "fukui_nucleophilicity": {
        "1": 0.0659940168600092,
        "2": -0.031478710254693704,
        "3": 0.5083918354058847,
        "4": -0.040478927814732876,
        "5": -0.02169072457712312,
        "6": -0.02849524435403758,
        "7": 0.09494525852708914,
        "8": 0.07486526132970747,
        "9": 0.0779826674577217,
        "10": 0.06303660210473683,
        "11": 0.032634551563473245,
        "12": 0.02595308121234858,
        "13": 0.06482855884163141,
        "14": 0.02713647782967149,
        "15": 0.032527715423830324,
        "16": 0.05384758044452508
    },
    "boltzmann_weights": [
        0.19751646444465953,
        0.19751644960292963,
        0.1975164681131013,
        0.1975164636271381,
        0.2099341542121714
    ],
    "best_conformer_elements": [
        6,
        6,
        16,
        6,
        6,
        6,
        1,
        1,
        1,
        1,
        1,
        1,
        1,
        1,
        1,
        1
    ],
    "best_conformer_coordinates": [
        [
            3.025979488210384,
            0.4229509510373641,
            -0.9605540338385764
        ],
        [
            1.7285696055599515,
            0.17847551298589887,
            -0.8764588707501445
        ],
        [
            0.6340727038071504,
            1.0683134674756771,
            0.16557272145777455
        ],
        [
            -0.8822166786825275,
            0.02529753409667047,
            0.012995050389829333
        ],
        [
            -2.069906168474075,
            0.8476492297965477,
            0.48419021842070536
        ],
        [
            -0.7170466243542047,
            -1.2519453885562148,
            0.8194622191729894
        ],
        [
            3.6545250783566274,
            -0.1337998187219337,
            -1.6333721328058919
        ],
        [
            3.4958036081597266,
            1.1872609297750578,
            -0.36726720795991846
        ],
        [
            1.2445179299795701,
            -0.5841333186862862,
            -1.4683530338376896
        ],
        [
            -0.9846047181554557,
            -0.20250328242601032,
            -1.0521147277638316
        ],
        [
            -1.949115022502778,
            1.116771837638557,
            1.5311239111182544
        ],
        [
            -2.1574922887019885,
            1.7617891667459853,
            -0.09810698223134821
        ],
        [
            -2.98751144255201,
            0.2729129511316604,
            0.3748870025199941
        ],
        [
            0.15665297162651592,
            -1.8117157262906722,
            0.4912340259482438
        ],
        [
            -1.596483170713717,
            -1.8832017267712176,
            0.7027042771314924
        ],
        [
            -0.5957452715630703,
            -1.0141223139392155,
            1.8740575789035263
        ]
    ],
    "best_conformer_energy": -19.013218371848357,
    "fukui_radical": {
        "1": 0.06226507942697899,
        "2": -0.010366067566229306,
        "3": 0.4534453486521391,
        "4": -0.01861374124601324,
        "5": -0.02936748415065718,
        "6": -0.029017515821105858,
        "7": 0.0982526834718136,
        "8": 0.07775519933478452,
        "9": 0.09158383364206224,
        "10": 0.06317511345213611,
        "11": 0.03255844225141876,
        "12": 0.027980370145210633,
        "13": 0.05503897083074698,
        "14": 0.026203440442358193,
        "15": 0.06383649559451618,
        "16": 0.03526983153984223
    }
}