{
    "smiles": "C=CSCC",
    "ip": 12.863871981658846,
    "ip_corrected": 8.017871981658846,
    "ea": 2.626813516254204,
    "homo": -0.3559044936149247,
    "lumo": -0.21259232242435305,
    "charges": {
        "1": -0.10256987136817347,
        "2": 0.010462750134328874,
        "3": -0.16408979693305273,
        "4": -0.0001379376253503664,
        "5": -0.10432729719710518,
        "6": 0.04882545957961279,
        "7": 0.04235769225459509,
        "8": 0.036332294316548046,
        "9": 0.04329808249981312,
        "10": 0.04329807465766344,
        "11": 0.0445741973259737,
        "12": 0.05098817588328411,
        "13": 0.05098817647186454
    },
    "dipole": [
        -0.2721754064222008,
        0.3456397072488879,
        0.7354541613108418
    ],
    "global_electrophilicity": 0.41057635864515435,
    "global_nucleophilicity": -8.017871981658846,
    "fukui_electrophilicity": {
        "1": 0.05750360999613727,
        "2": 0.011256871752960557,
        "3": 0.41674279389611935,
        "4": -0.02166157138767625,
        "5": -0.030175315365613894,
        "6": 0.08219984198414526,
        "7": 0.10391803459442318,
        "8": 0.10876987120790435,
        "9": 0.07333397516465762,
        "10": 0.07333393188220957,
        "11": 0.058452196910487544,
        "12": 0.03316286558450446,
        "13": 0.03316289377974409
    },
    "fukui_nucleophilicity": {
        "1": 0.06647937026407583,
        "2": -0.0331996669766005,
        "3": 0.5175943455150684,
        "4": -0.06104886682188101,
        "5": -0.02934024124605325,
        "6": 0.07551055489252238,
        "7": 0.09605668171081136,
        "8": 0.07877864574220497,
        "9": 0.08019470385347734,
        "10": 0.08019468817333722,
        "11": 0.05610432043146321,
        "12": 0.03633773218113533,
        "13": 0.036337732390505244
    },
    "boltzmann_weights": [
        0.06884754033467073,
        0.4655762418638508,
        0.46557621780147834
    ],
    "best_conformer_elements": [
        6,
        6,
        16,
        6,
        6,
        1,
        1,
        1,
        1,
        1,
        1,
        1,
        1
    ],
    "best_conformer_coordinates": [
        [
            2.8616044561139256,
            0.3761817585182399,
            0.653280775339328
        ],
        [
            1.6857709571153248,
            -0.08725670659825356,
            0.2625827162468372
        ],
        [
            0.20134852085366323,
            0.8477205617560816,
            0.31176346470278327
        ],
        [
            -0.967706628566513,
            -0.40006126119716207,
            -0.3575142009605051
        ],
        [
            -2.366354633986652,
            0.18148368561005124,
            -0.41801716186923665
        ],
        [
            2.9766345627792967,
            1.3762191461040647,
            1.0321795057383878
        ],
        [
            3.7445951411941514,
            -0.23643752973648005,
            0.6038785508990887
        ],
        [
            1.554126744662757,
            -1.0881147620725402,
            -0.11979268201409093
        ],
        [
            -0.93270879109752,
            -1.2680847688322265,
            0.30207166326490026
        ],
        [
            -0.6157733564141158,
            -0.6779075996077079,
            -1.3518418974217807
        ],
        [
            -2.69794249969021,
            0.47535899615585175,
            0.5750095273423094
        ],
        [
            -2.3846009934056793,
            1.0588444519306244,
            -1.0601389505711347
        ],
        [
            -3.0589934795584433,
            -0.557945972030523,
            -0.8146043719130328
        ]
    ],
    "best_conformer_energy": -15.845027650145283,
    "fukui_radical": {
        "1": 0.061991615325548685,
        "2": -0.01097119509096283,
        "3": 0.4671681753372124,
        "4": -0.041355199069907464,
        "5": -0.029757702280481586,
        "6": 0.07885541296689332,
        "7": 0.09998755169934137,
        "8": 0.09377437913506126,
        "9": 0.07676421163066373,
        "10": 0.0767641187046295,
        "11": 0.034750275441743556,
        "12": 0.0347501442765114,
        "13": 0.05727821197878264
    }
}