{
    "smiles": "C/C=C/Cl",
    "ip": 13.912568980959822,
    "ip_corrected": 9.066568980959822,
    "ea": 2.2646145604012906,
    "homo": -0.3945306008917013,
    "lumo": -0.22064952522219125,
    "charges": {
        "1": -0.10874165084828452,
        "2": -0.037291659357323474,
        "3": 0.03833613391141685,
        "4": -0.17879375358341015,
        "5": 0.04776582422993497,
        "6": 0.059017794858564544,
        "7": 0.059017790298924636,
        "8": 0.05919946176915466,
        "9": 0.06149005872100495
    },
    "dipole": [
        -0.8582426094279891,
        0.12967689602845378,
        -0.0016970387871888537
    ],
    "global_electrophilicity": 0.45134111156579754,
    "global_nucleophilicity": -9.066568980959822,
    "fukui_electrophilicity": {
        "1": -0.05339483804872794,
        "2": 0.15972999421592893,
        "3": 0.10511847033841626,
        "4": 0.23061887655719499,
        "5": 0.07211517357703495,
        "6": 0.09796711371447893,
        "7": 0.09796709689001981,
        "8": 0.13692588862141983,
        "9": 0.15295222413421464
    },
    "fukui_nucleophilicity": {
        "1": -0.02573496613231413,
        "2": 0.07845754474229019,
        "3": 0.03695040041671813,
        "4": 0.39057613463936464,
        "5": 0.0739057041387286,
        "6": 0.12704742999046068,
        "7": 0.12704737664166849,
        "8": 0.087972222414986,
        "9": 0.1037781531492626
    },
    "boltzmann_weights": [
        1.0
    ],
    "best_conformer_elements": [
        6,
        6,
        6,
        17,
        1,
        1,
        1,
        1,
        1
    ],
    "best_conformer_coordinates": [
        [
            -1.1845799341571925,
            0.12882313321464126,
            -0.13725845390666297
        ],
        [
            0.19650827022521514,
            -0.4317902378152455,
            -0.17000553213114325
        ],
        [
            1.251656663796475,
            0.20474332555969654,
            0.3051339847268127
        ],
        [
            2.841976645998354,
            -0.4573553459426317,
            0.2596503514629935
        ],
        [
            -1.5790446528526902,
            0.20515150178348868,
            -1.1496134741740112
        ],
        [
            -1.1975960606387344,
            1.1129812281019507,
            0.3228313821146484
        ],
        [
            -1.8417693587079482,
            -0.534000572966821,
            0.4240417198040465
        ],
        [
            0.30594556290438724,
            -1.4119527594163528,
            -0.612119522963551
        ],
        [
            1.2069028687239136,
            1.1833997274812746,
            0.7573395503586257
        ]
    ],
    "best_conformer_energy": -13.493066154542426,
    "fukui_radical": {
        "1": -0.039564940670015786,
        "2": 0.11909380796354893,
        "3": 0.07103439849362327,
        "4": 0.3105975652819227,
        "5": 0.11250731071257297,
        "6": 0.07301043741823408,
        "7": 0.11250722208593544,
        "8": 0.11244901359059606,
        "9": 0.12836518512414974
    }
}