{
    "smiles": "CC1=CC(=O)N(C)C1=O",
    "ip": 14.240680444762178,
    "ip_corrected": 9.394680444762178,
    "ea": 5.685445121274534,
    "homo": -0.4187526053599671,
    "lumo": -0.32309686161441276,
    "charges": {
        "1": -0.1093073342873368,
        "2": 0.0001813013888921633,
        "3": -0.07852501008997333,
        "4": 0.2785420076062058,
        "5": -0.3607981467058651,
        "6": -0.10684639718658673,
        "7": -0.041331018951783316,
        "8": 0.27243395508297946,
        "9": -0.3637366890022908,
        "10": 0.07878757991525331,
        "11": 0.07856184198815737,
        "12": 0.06006427990723983,
        "13": 0.0750617479871162,
        "14": 0.07557284028317603,
        "15": 0.0630228987069896,
        "16": 0.0783161433578101
    },
    "dipole": [
        0.7319558846295843,
        -0.08101898988097998,
        -0.05249977845776272
    ],
    "global_electrophilicity": 1.5303104201859181,
    "global_nucleophilicity": -9.394680444762178,
    "fukui_electrophilicity": {
        "1": -0.03419124531859692,
        "2": 0.08765796791209338,
        "3": 0.058633768633399516,
        "4": 0.05383928637150329,
        "5": 0.17948901129675165,
        "6": 0.05641856155527644,
        "7": -0.03592549960787727,
        "8": 0.051355774758591405,
        "9": 0.1753907386814531,
        "10": 0.06405871742546919,
        "11": 0.06408931927374695,
        "12": 0.05710285279612162,
        "13": 0.09404251193774008,
        "14": 0.04069099888408396,
        "15": 0.04739399641343029,
        "16": 0.0399532389867978
    },
    "fukui_nucleophilicity": {
        "1": -0.016719854630306008,
        "2": 0.04838368763211087,
        "3": 0.045119604557266435,
        "4": 0.014039019203635428,
        "5": 0.14908332410476832,
        "6": 0.09558571676090408,
        "7": -0.030942781897285596,
        "8": 0.01449764479867055,
        "9": 0.14880569649796271,
        "10": 0.07428721545753392,
        "11": 0.07731602361790545,
        "12": 0.0672068169408929,
        "13": 0.08378666809087087,
        "14": 0.06887201682672146,
        "15": 0.09238195946225533,
        "16": 0.06829724257610768
    },
    "boltzmann_weights": [
        1.0
    ],
    "best_conformer_elements": [
        6,
        6,
        6,
        6,
        8,
        7,
        6,
        6,
        8,
        1,
        1,
        1,
        1,
        1,
        1,
        1
    ],
    "best_conformer_coordinates": [
        [
            2.5618890031068084,
            -0.39002020932085574,
            0.04303648895938312
        ],
        [
            1.1706988069814757,
            0.10619301987414316,
            0.10615358349223714
        ],
        [
            0.679562057444066,
            1.300245502463756,
            0.4463157293832398
        ],
        [
            -0.7997209058435574,
            1.2689163436238247,
            0.3447735736033561
        ],
        [
            -1.601326558069638,
            2.1351581946404923,
            0.5801918285340137
        ],
        [
            -1.1190328641722687,
            -0.014368896570499223,
            -0.08239039928863992
        ],
        [
            -2.464549136526159,
            -0.4782843510786012,
            -0.3148846105379142
        ],
        [
            0.010578804924581024,
            -0.7859495780128837,
            -0.24359485308370005
        ],
        [
            0.031320169057355594,
            -1.9405045325814747,
            -0.5860064768917169
        ],
        [
            2.7808975647723653,
            -0.735987350242647,
            -0.9667302037549872
        ],
        [
            3.26899662687909,
            0.3843670522957978,
            0.3266185992717003
        ],
        [
            2.673185202779954,
            -1.2491314404242544,
            0.7040043617925907
        ],
        [
            1.2112662327179446,
            2.180471070803146,
            0.7555161605104002
        ],
        [
            -3.141019426611827,
            0.09525199330606579,
            0.3168028740285861
        ],
        [
            -2.5184876149330684,
            -1.5376939619212993,
            -0.06866512699979312
        ],
        [
            -2.7442579677988372,
            -0.33866286743819424,
            -1.3611415290188087
        ]
    ],
    "best_conformer_energy": -27.481972370551794,
    "fukui_radical": {
        "1": -0.025455477763995323,
        "2": 0.06802092977218885,
        "3": 0.051876554329864516,
        "4": 0.03393905938344283,
        "5": 0.16428576536200165,
        "6": 0.07600213093591897,
        "7": -0.03343425623096354,
        "8": 0.032926798966313106,
        "9": 0.16209785424460263,
        "10": 0.07070258918320411,
        "11": 0.0621548508960045,
        "12": 0.06917294421294196,
        "13": 0.0889146931431133,
        "14": 0.054125528098418765,
        "15": 0.05478165647581887,
        "16": 0.06988837899113343
    }
}