{
    "smiles": "O=C1C=CC(=O)C1",
    "ip": 14.523926576199926,
    "ip_corrected": 9.677926576199926,
    "ea": 5.946084390940229,
    "homo": -0.41687522224971457,
    "lumo": -0.3382946571731722,
    "charges": {
        "1": -0.32324983781786054,
        "2": 0.2430066872749141,
        "3": -0.03998481710371585,
        "4": -0.03998485877491974,
        "5": 0.2430065930610896,
        "6": -0.32325011852008484,
        "7": -0.12466069718465875,
        "8": 0.08141466663020466,
        "9": 0.08141578965284944,
        "10": 0.10114329732258313,
        "11": 0.10114329545959899
    },
    "dipole": [
        0.5949963713720462,
        0.06166731289673236,
        0.02829064450986498
    ],
    "global_electrophilicity": 1.692813849609727,
    "global_nucleophilicity": -9.677926576199926,
    "fukui_electrophilicity": {
        "1": 0.18796396766501688,
        "2": 0.059838679938965356,
        "3": 0.07495211184351726,
        "4": 0.07495217007918671,
        "5": 0.059838551977488524,
        "6": 0.18796352358702256,
        "7": -0.019133514434777302,
        "8": 0.10451494104825637,
        "9": 0.10451512661323255,
        "10": 0.08229722119923952,
        "11": 0.08229722048285733
    },
    "fukui_nucleophilicity": {
        "1": 0.21630849639716548,
        "2": 0.035729876635221036,
        "3": 0.04061324660971875,
        "4": 0.040613503017983166,
        "5": 0.035729779654480126,
        "6": 0.2163087613291529,
        "7": 0.038543149911789115,
        "8": 0.10524739840525393,
        "9": 0.10524655121097927,
        "10": 0.08282961930583362,
        "11": 0.08282961752241197
    },
    "boltzmann_weights": [
        1.0
    ],
    "best_conformer_elements": [
        8,
        6,
        6,
        6,
        6,
        8,
        6,
        1,
        1,
        1,
        1
    ],
    "best_conformer_coordinates": [
        [
            -0.6645774662613159,
            2.3230131265525826,
            0.17782659444090335
        ],
        [
            -0.2878848437898111,
            1.184807253510194,
            0.09233216824147905
        ],
        [
            1.1200744573657495,
            0.716959230710058,
            0.09731335457978531
        ],
        [
            1.1848258194426664,
            -0.6115980511934846,
            -0.014484006004250219
        ],
        [
            -0.17137380356454954,
            -1.2057999394072878,
            -0.10883620927511926
        ],
        [
            -0.4356910379717037,
            -2.373308602026921,
            -0.21736645711846264
        ],
        [
            -1.1538918698600464,
            -0.05274691400221408,
            -0.041466449798627916
        ],
        [
            1.9427702321587572,
            1.4057519592298635,
            0.18269103356453958
        ],
        [
            2.070854041235658,
            -1.222280208992427,
            -0.038456465979525484
        ],
        [
            -1.8305060398752653,
            -0.1572277828950191,
            0.8082706873019284
        ],
        [
            -1.774599488880131,
            -0.007570066193572383,
            -0.9378242393690986
        ]
    ],
    "best_conformer_energy": -20.82887135466302,
    "fukui_radical": {
        "1": 0.20213455085079599,
        "2": 0.04778237572574924,
        "3": 0.057782325242026665,
        "4": 0.057782198559421676,
        "5": 0.04778228793140023,
        "6": 0.2021345880109145,
        "7": 0.009707763304510737,
        "8": 0.1048840601747848,
        "9": 0.10488393078353295,
        "10": 0.08256296093936417,
        "11": 0.08256295847749112
    }
}